################################################################################
# Neural network connection values (weights and biases).
################################################################################
# Col  Name       Description
################################################################################
# 1    connection Neural network connection value.
# 2    t          Connection type (a = weight, b = bias).
# 3    index      Index enumerating weights.
# 4    l_s        Starting point layer (end point layer for biases).
# 5    n_s        Starting point neuron in starting layer (end point neuron for biases).
# 6    l_e        End point layer.
# 7    n_e        End point neuron in end layer.
################################################################################
#                      1 2         3     4     5     6     7
#             connection t     index   l_s   n_s   l_e   n_e
############################################################
 -1.4828010848462961E-01 a         1     0     1     1     1
  2.5251448552325800E-01 a         2     0     1     1     2
 -6.9431954799256734E-02 a         3     0     1     1     3
  2.7915807986707225E-01 a         4     0     1     1     4
  5.0843262435435521E-01 a         5     0     1     1     5
 -3.9371815494259993E-01 a         6     0     1     1     6
 -1.4046589591073055E-02 a         7     0     1     1     7
 -3.7788019442509163E-01 a         8     0     1     1     8
  2.1125270858301218E-01 a         9     0     1     1     9
  4.4760638894601183E-02 a        10     0     1     1    10
 -2.3971685904870627E-01 a        11     0     1     1    11
 -6.0312812006232419E-01 a        12     0     1     1    12
 -1.2676709940718592E-01 a        13     0     1     1    13
 -2.8057981116996022E-01 a        14     0     1     1    14
 -1.4702259227372114E-01 a        15     0     1     1    15
 -1.5378779732904024E-01 a        16     0     1     1    16
  2.9646804173802827E-01 a        17     0     1     1    17
 -3.6382859487291269E-01 a        18     0     1     1    18
  2.6327897211141915E-01 a        19     0     1     1    19
  3.3081960023188617E-01 a        20     0     1     1    20
  3.2585567239608804E-01 a        21     0     2     1     1
  4.6441173137161817E-01 a        22     0     2     1     2
 -3.9059374358620919E-02 a        23     0     2     1     3
  4.7333200457618818E-01 a        24     0     2     1     4
 -1.3598595633429894E-01 a        25     0     2     1     5
 -2.9863060233518945E-01 a        26     0     2     1     6
  3.9654113750900381E-02 a        27     0     2     1     7
 -1.7439684257367308E-01 a        28     0     2     1     8
 -2.9723940106425062E-01 a        29     0     2     1     9
  1.3574791355652560E-01 a        30     0     2     1    10
 -8.4769819222315329E-02 a        31     0     2     1    11
  7.6113115355794222E-02 a        32     0     2     1    12
 -4.5619569140837701E-01 a        33     0     2     1    13
  3.3107345318041792E-01 a        34     0     2     1    14
  1.2304981930784233E-01 a        35     0     2     1    15
 -2.0459966292983489E-01 a        36     0     2     1    16
 -1.2145616956344407E-01 a        37     0     2     1    17
  2.1093315987975819E-01 a        38     0     2     1    18
 -3.5142167475365116E-01 a        39     0     2     1    19
  2.6374723131809319E-01 a        40     0     2     1    20
 -4.3529149122552552E-01 a        41     0     3     1     1
 -1.5566601671410632E-01 a        42     0     3     1     2
 -1.4822158933443627E-01 a        43     0     3     1     3
 -8.8730978347175263E-02 a        44     0     3     1     4
  4.7352330142459959E-01 a        45     0     3     1     5
 -9.8607736022135503E-02 a        46     0     3     1     6
  3.5089756408693729E-01 a        47     0     3     1     7
 -1.2414688888264812E-01 a        48     0     3     1     8
 -6.1450343622934507E-02 a        49     0     3     1     9
 -8.8114375895277236E-02 a        50     0     3     1    10
  3.1754440792876926E-01 a        51     0     3     1    11
  3.1255543650091283E-01 a        52     0     3     1    12
  3.0398286832456950E-01 a        53     0     3     1    13
 -2.2442768645618189E-01 a        54     0     3     1    14
 -4.6326014714804534E-02 a        55     0     3     1    15
 -2.2520713479718912E-01 a        56     0     3     1    16
 -3.5931262036848594E-01 a        57     0     3     1    17
  3.1579899865311828E-01 a        58     0     3     1    18
 -1.0565353407145005E-01 a        59     0     3     1    19
 -2.4872584102366058E-01 a        60     0     3     1    20
 -4.8032346038979767E-01 a        61     0     4     1     1
 -5.8733398476884946E-01 a        62     0     4     1     2
 -2.3119472293410176E-01 a        63     0     4     1     3
 -6.2452414109091126E-01 a        64     0     4     1     4
 -9.0406195808412040E-02 a        65     0     4     1     5
  2.6610663201010182E-01 a        66     0     4     1     6
  2.9618662522053640E-01 a        67     0     4     1     7
  3.7392493916523495E-01 a        68     0     4     1     8
 -1.9680536472659632E-01 a        69     0     4     1     9
  1.3913250340113686E-01 a        70     0     4     1    10
  2.9609493805917476E-02 a        71     0     4     1    11
  3.3578504698135636E-01 a        72     0     4     1    12
 -4.6195406615395812E-02 a        73     0     4     1    13
  3.9089139191529326E-01 a        74     0     4     1    14
 -6.0753790069810742E-02 a        75     0     4     1    15
 -6.5680521045973203E-02 a        76     0     4     1    16
 -2.7756932579868010E-01 a        77     0     4     1    17
  7.6337319873150677E-01 a        78     0     4     1    18
  1.6125454088392760E-01 a        79     0     4     1    19
 -6.2733463189178928E-01 a        80     0     4     1    20
 -2.1735096597895017E-02 a        81     0     5     1     1
 -1.5358173915254991E-01 a        82     0     5     1     2
  2.4143333314005933E-01 a        83     0     5     1     3
  1.0979737264137462E-01 a        84     0     5     1     4
 -1.5067678895341285E-01 a        85     0     5     1     5
 -6.2366184408833319E-02 a        86     0     5     1     6
 -4.8280267738535915E-01 a        87     0     5     1     7
  4.4265946122200428E-01 a        88     0     5     1     8
  2.9276245389155803E-01 a        89     0     5     1     9
  8.1829848973751118E-02 a        90     0     5     1    10
  8.9648265431404878E-03 a        91     0     5     1    11
  2.1580257150415352E-01 a        92     0     5     1    12
 -2.8784427253832207E-01 a        93     0     5     1    13
  3.5398341036162108E-02 a        94     0     5     1    14
  4.1842087917277831E-01 a        95     0     5     1    15
  3.8551564183753934E-01 a        96     0     5     1    16
  2.8880518949133316E-01 a        97     0     5     1    17
 -5.6741159311102574E-02 a        98     0     5     1    18
  1.2563422745305722E-01 a        99     0     5     1    19
  4.9072614228669831E-01 a       100     0     5     1    20
 -6.1811344458319295E-01 a       101     0     6     1     1
 -6.8205709058198927E-01 a       102     0     6     1     2
 -1.2341133551025039E-01 a       103     0     6     1     3
 -5.6969166059248078E-01 a       104     0     6     1     4
 -4.1834881800878815E-01 a       105     0     6     1     5
  2.0853049456821610E-01 a       106     0     6     1     6
 -3.7232876857330253E-02 a       107     0     6     1     7
  7.1504821159578857E-01 a       108     0     6     1     8
 -5.4252118769461199E-01 a       109     0     6     1     9
 -1.8911949060403024E-01 a       110     0     6     1    10
 -5.0915203096825823E-01 a       111     0     6     1    11
  4.3033078950135979E-02 a       112     0     6     1    12
 -3.5208186310535006E-01 a       113     0     6     1    13
  3.1692287923940743E-02 a       114     0     6     1    14
  1.2062747781293166E-01 a       115     0     6     1    15
  4.5404437854520857E-01 a       116     0     6     1    16
 -6.6628036778869937E-01 a       117     0     6     1    17
  4.8624434671757072E-01 a       118     0     6     1    18
  5.1609866536083859E-01 a       119     0     6     1    19
  6.2339680053672367E-02 a       120     0     6     1    20
  1.2165188051690634E+00 a       121     0     7     1     1
  2.6522172351226514E-01 a       122     0     7     1     2
 -1.3847644610036627E-01 a       123     0     7     1     3
  5.1072805677067223E-01 a       124     0     7     1     4
  1.5598959055384198E-01 a       125     0     7     1     5
 -4.2263563665516279E-01 a       126     0     7     1     6
  2.1535797419592928E-01 a       127     0     7     1     7
  1.4748691275396988E-01 a       128     0     7     1     8
  6.9563203590093248E-01 a       129     0     7     1     9
  7.2151286603465190E-02 a       130     0     7     1    10
  4.7692132252099756E-01 a       131     0     7     1    11
  3.8042956473816925E-01 a       132     0     7     1    12
  4.6872524001197402E-01 a       133     0     7     1    13
 -3.3222267098086050E-01 a       134     0     7     1    14
  1.1751455626914484E+00 a       135     0     7     1    15
 -1.7287321802210681E-01 a       136     0     7     1    16
  5.6698692476259738E-01 a       137     0     7     1    17
 -5.4959428658204224E-01 a       138     0     7     1    18
 -4.3113595861987747E-01 a       139     0     7     1    19
  4.3253016237316722E-01 a       140     0     7     1    20
 -3.8594925012602160E-01 a       141     0     8     1     1
  5.2261240342044413E-01 a       142     0     8     1     2
  3.2912858630206134E-02 a       143     0     8     1     3
 -2.1498118573837013E-01 a       144     0     8     1     4
  7.6986007057624969E-02 a       145     0     8     1     5
  3.0496375843960866E-01 a       146     0     8     1     6
 -1.3792785809975908E-01 a       147     0     8     1     7
  4.3790987812036025E-02 a       148     0     8     1     8
 -6.7028640248665039E-01 a       149     0     8     1     9
 -1.2118407767038110E-01 a       150     0     8     1    10
 -3.1859890511411743E-01 a       151     0     8     1    11
  1.0542819344815820E-02 a       152     0     8     1    12
 -1.2926243615020330E-01 a       153     0     8     1    13
  3.2065168322431148E-01 a       154     0     8     1    14
 -8.2802984572805971E-01 a       155     0     8     1    15
  6.9665473604561393E-02 a       156     0     8     1    16
 -2.5667349598340045E-01 a       157     0     8     1    17
  7.6018783591401240E-01 a       158     0     8     1    18
  2.5399214211978527E-01 a       159     0     8     1    19
 -3.3328396690136869E-01 a       160     0     8     1    20
 -1.1462874799827358E-01 a       161     0     9     1     1
  2.9023183173440853E-01 a       162     0     9     1     2
  3.5842413631856257E-01 a       163     0     9     1     3
  7.3183803239983039E-02 a       164     0     9     1     4
  2.4062027047320148E-02 a       165     0     9     1     5
 -1.6539407549722523E-01 a       166     0     9     1     6
  6.3488441147831065E-01 a       167     0     9     1     7
 -1.8122643857900533E-01 a       168     0     9     1     8
  2.9757279306506290E-01 a       169     0     9     1     9
  2.1532502710583762E-01 a       170     0     9     1    10
 -5.2183773355269236E-01 a       171     0     9     1    11
  1.0805267270886779E-01 a       172     0     9     1    12
  3.7320212274496702E-02 a       173     0     9     1    13
 -1.5737754587602493E-01 a       174     0     9     1    14
  1.8873109576948932E-01 a       175     0     9     1    15
 -3.6977269613875252E-01 a       176     0     9     1    16
 -3.5434116809541505E-01 a       177     0     9     1    17
  8.1509809557601717E-02 a       178     0     9     1    18
  2.8527953679734119E-01 a       179     0     9     1    19
 -2.2302897753212894E-01 a       180     0     9     1    20
  9.8085346313284666E-02 a       181     0    10     1     1
  2.2357470737813528E-01 a       182     0    10     1     2
 -3.0778640278437247E-01 a       183     0    10     1     3
  2.2917740105890674E-02 a       184     0    10     1     4
 -3.5454060965009415E-01 a       185     0    10     1     5
  5.4380071468758347E-02 a       186     0    10     1     6
 -1.1244787425378674E-01 a       187     0    10     1     7
  7.9952913406125425E-02 a       188     0    10     1     8
  5.3521109858661120E-01 a       189     0    10     1     9
  4.4798766393231254E-01 a       190     0    10     1    10
 -8.2220887605910287E-02 a       191     0    10     1    11
 -1.4521576912934070E-01 a       192     0    10     1    12
 -3.6452407103099625E-02 a       193     0    10     1    13
 -2.1877415541494186E-01 a       194     0    10     1    14
 -1.6750766468029354E-01 a       195     0    10     1    15
  2.9359819438909740E-01 a       196     0    10     1    16
  1.2912787807816969E-01 a       197     0    10     1    17
  2.2687753717439407E-01 a       198     0    10     1    18
 -1.0465878581827819E-03 a       199     0    10     1    19
 -5.0638539468566057E-01 a       200     0    10     1    20
  6.9076816861194945E-01 a       201     0    11     1     1
 -1.8948557669307875E-01 a       202     0    11     1     2
 -6.7318988938180141E-02 a       203     0    11     1     3
 -2.0983068558328546E-01 a       204     0    11     1     4
  2.4384440292162726E-01 a       205     0    11     1     5
  9.0962794664268765E-02 a       206     0    11     1     6
 -3.8788591812607759E-01 a       207     0    11     1     7
  1.8079438224066846E-01 a       208     0    11     1     8
 -3.0989212553973955E-01 a       209     0    11     1     9
 -3.9129618228153207E-01 a       210     0    11     1    10
  1.6032309369619088E-01 a       211     0    11     1    11
  1.6342287277504702E-01 a       212     0    11     1    12
 -1.8932162310386302E-01 a       213     0    11     1    13
  3.9086719876360870E-01 a       214     0    11     1    14
 -1.5715099366212348E-01 a       215     0    11     1    15
  4.8697257534863529E-02 a       216     0    11     1    16
  2.8545529136943121E-01 a       217     0    11     1    17
 -2.2469918977397046E-01 a       218     0    11     1    18
  1.3325066096969662E-01 a       219     0    11     1    19
  2.4598417531703490E-01 a       220     0    11     1    20
  2.9814729482169695E-02 a       221     0    12     1     1
 -4.3980563484669599E-01 a       222     0    12     1     2
 -2.1614229737667520E-01 a       223     0    12     1     3
  2.0510532422220046E-01 a       224     0    12     1     4
  1.9139139428139795E-01 a       225     0    12     1     5
 -1.7800112134692256E-01 a       226     0    12     1     6
 -2.3653777032740472E-01 a       227     0    12     1     7
  2.9996898280712869E-01 a       228     0    12     1     8
 -7.4496373764456303E-01 a       229     0    12     1     9
 -3.1679701875728289E-01 a       230     0    12     1    10
  2.4275968737903247E-01 a       231     0    12     1    11
  2.0763147690168304E-01 a       232     0    12     1    12
 -7.8524307172063768E-02 a       233     0    12     1    13
  4.1839071845206070E-02 a       234     0    12     1    14
  4.4648707952072314E-01 a       235     0    12     1    15
  4.1137355797960495E-01 a       236     0    12     1    16
  3.6102642768472015E-01 a       237     0    12     1    17
 -1.7741484579099473E-01 a       238     0    12     1    18
 -2.4266939936255094E-01 a       239     0    12     1    19
  2.1078376927868711E-01 a       240     0    12     1    20
  4.0344639105981078E-01 a       241     0    13     1     1
  7.1583475201131216E-02 a       242     0    13     1     2
 -2.4912295952994608E-02 a       243     0    13     1     3
 -2.2149994718426874E-01 a       244     0    13     1     4
  3.0845410738068069E-01 a       245     0    13     1     5
 -7.6046478237501158E-02 a       246     0    13     1     6
 -2.0793805342927640E-01 a       247     0    13     1     7
  4.3105786197142038E-01 a       248     0    13     1     8
  3.1406321705174278E-01 a       249     0    13     1     9
 -1.5066928403761662E-01 a       250     0    13     1    10
 -2.4476699177051847E-01 a       251     0    13     1    11
 -2.7141718835969475E-01 a       252     0    13     1    12
 -1.6743325462510983E-01 a       253     0    13     1    13
  2.6572893239308953E-01 a       254     0    13     1    14
 -2.8648532392937726E-01 a       255     0    13     1    15
 -2.8798200235523963E-01 a       256     0    13     1    16
 -1.3253508732780289E-01 a       257     0    13     1    17
  5.5545002209142136E-01 a       258     0    13     1    18
 -2.1724744751663730E-01 a       259     0    13     1    19
  5.3124861272855595E-01 a       260     0    13     1    20
 -1.9974503950187766E-01 a       261     0    14     1     1
 -7.0900522177732317E-01 a       262     0    14     1     2
 -3.8399327975471659E-01 a       263     0    14     1     3
 -3.6908259210482047E-01 a       264     0    14     1     4
 -1.0879050904659456E-01 a       265     0    14     1     5
 -2.5804552817158338E-01 a       266     0    14     1     6
  5.5053001510044670E-02 a       267     0    14     1     7
 -1.5319910791452609E-01 a       268     0    14     1     8
 -1.9791953785136832E-02 a       269     0    14     1     9
  4.7820292006463960E-01 a       270     0    14     1    10
 -6.4054234224900408E-01 a       271     0    14     1    11
  9.3353397491437973E-01 a       272     0    14     1    12
  4.5288321686948518E-02 a       273     0    14     1    13
 -3.8820771683429339E-01 a       274     0    14     1    14
  2.6436944146768793E-01 a       275     0    14     1    15
  4.4742713507187837E-01 a       276     0    14     1    16
 -4.1208674659774186E-01 a       277     0    14     1    17
  3.1111370103051034E-01 a       278     0    14     1    18
 -3.2200826578582226E-01 a       279     0    14     1    19
 -1.3222731056463022E-01 a       280     0    14     1    20
 -3.3488757112186412E-01 a       281     0    15     1     1
 -7.9304446760762440E-02 a       282     0    15     1     2
  5.5500980231132660E-02 a       283     0    15     1     3
 -1.9966906124372527E-01 a       284     0    15     1     4
  5.9622882775139101E-02 a       285     0    15     1     5
  3.3071407872876019E-03 a       286     0    15     1     6
 -6.1307886325707710E-02 a       287     0    15     1     7
 -3.1169725697224571E-01 a       288     0    15     1     8
 -5.1378436352021650E-01 a       289     0    15     1     9
 -1.4463434562757438E-01 a       290     0    15     1    10
  1.8689521614126592E-01 a       291     0    15     1    11
  2.0530105049480499E-01 a       292     0    15     1    12
 -1.3839376952795232E-01 a       293     0    15     1    13
 -5.5533223500374607E-01 a       294     0    15     1    14
 -5.0751239186350258E-02 a       295     0    15     1    15
 -9.6962344277326251E-02 a       296     0    15     1    16
  2.7566669459530613E-01 a       297     0    15     1    17
 -1.2242106958988815E-01 a       298     0    15     1    18
  1.5371920421556187E-01 a       299     0    15     1    19
 -3.2418938207102993E-01 a       300     0    15     1    20
 -5.2793989582283629E-01 a       301     0    16     1     1
 -4.9516943364134924E-01 a       302     0    16     1     2
 -6.4502292120221227E-01 a       303     0    16     1     3
  5.2953727374982940E-01 a       304     0    16     1     4
  2.7310328822726304E-01 a       305     0    16     1     5
  1.2755255173736924E+00 a       306     0    16     1     6
 -5.7216066942180765E-01 a       307     0    16     1     7
 -1.1507574284302735E-02 a       308     0    16     1     8
  4.3232213074986425E-01 a       309     0    16     1     9
 -1.2462573964097208E+00 a       310     0    16     1    10
 -1.2841970887361899E-02 a       311     0    16     1    11
 -6.7729407544314502E-02 a       312     0    16     1    12
  1.2867087956318130E-02 a       313     0    16     1    13
  5.7383749116428029E-01 a       314     0    16     1    14
  3.7150480859431417E-01 a       315     0    16     1    15
  2.8508896443765419E-01 a       316     0    16     1    16
  3.0005936913859849E-01 a       317     0    16     1    17
  2.0696967481889275E-01 a       318     0    16     1    18
 -4.9180596184532722E-02 a       319     0    16     1    19
 -8.2100723164771724E-02 a       320     0    16     1    20
  7.9834977322294098E-01 a       321     0    17     1     1
  2.3039483819381532E-01 a       322     0    17     1     2
  1.0641106099224136E+00 a       323     0    17     1     3
 -1.7216963423712878E-01 a       324     0    17     1     4
 -2.8020570334286043E-01 a       325     0    17     1     5
 -1.2439568099242937E+00 a       326     0    17     1     6
  2.3648259243839306E-01 a       327     0    17     1     7
 -5.8148908841191327E-01 a       328     0    17     1     8
  1.8259599326157960E-01 a       329     0    17     1     9
  2.1483516167288426E+00 a       330     0    17     1    10
 -3.6288680134207274E-01 a       331     0    17     1    11
  1.1621759484201898E-02 a       332     0    17     1    12
 -6.2381106135827868E-03 a       333     0    17     1    13
 -8.6524725440730266E-01 a       334     0    17     1    14
 -1.6982682757775336E-01 a       335     0    17     1    15
 -6.9678561714877763E-01 a       336     0    17     1    16
 -1.4195885810098696E-01 a       337     0    17     1    17
  6.6848700645399894E-01 a       338     0    17     1    18
  8.1717280148969562E-02 a       339     0    17     1    19
  5.1337702744660707E-01 a       340     0    17     1    20
 -1.8103693280913230E-01 a       341     0    18     1     1
  2.2686792542576031E-01 a       342     0    18     1     2
  9.5549301842039402E-01 a       343     0    18     1     3
 -1.0090233849902761E+00 a       344     0    18     1     4
 -3.4251714884220258E-01 a       345     0    18     1     5
 -3.8573481629315937E-01 a       346     0    18     1     6
 -3.2892878461902658E-01 a       347     0    18     1     7
  5.9729995901699229E-01 a       348     0    18     1     8
 -4.3227838250827233E-01 a       349     0    18     1     9
  1.8000709180488284E-01 a       350     0    18     1    10
  3.8977397840767430E-01 a       351     0    18     1    11
  1.7818361415618469E-01 a       352     0    18     1    12
  3.9674464980029128E-01 a       353     0    18     1    13
  2.6857367112375014E-01 a       354     0    18     1    14
 -7.0428198959944799E-01 a       355     0    18     1    15
  7.4768091069160625E-01 a       356     0    18     1    16
 -2.0423973704054096E-01 a       357     0    18     1    17
 -4.6726153190374570E-01 a       358     0    18     1    18
 -5.1389010771428649E-02 a       359     0    18     1    19
 -8.7560749543368488E-01 a       360     0    18     1    20
  4.5378602351742647E-01 a       361     0    19     1     1
  7.8295823201831524E-03 a       362     0    19     1     2
 -8.4934759949499283E-01 a       363     0    19     1     3
  1.3608871717094664E+00 a       364     0    19     1     4
  3.9889578776338686E-01 a       365     0    19     1     5
  1.1532586668601925E+00 a       366     0    19     1     6
  1.7667420090910985E-01 a       367     0    19     1     7
 -2.7603626859323460E-01 a       368     0    19     1     8
  3.8500329062869204E-01 a       369     0    19     1     9
 -1.2095878439951731E+00 a       370     0    19     1    10
  7.6556465795955639E-02 a       371     0    19     1    11
  4.2022201842114948E-01 a       372     0    19     1    12
  3.0352795280672706E-01 a       373     0    19     1    13
  6.0028519179416887E-02 a       374     0    19     1    14
  2.2776014045387238E-01 a       375     0    19     1    15
 -9.5905369033464438E-01 a       376     0    19     1    16
  1.0817209444826303E-01 a       377     0    19     1    17
 -2.6181541798277603E-02 a       378     0    19     1    18
 -1.4361764104394820E-01 a       379     0    19     1    19
  4.1644036279310637E-01 a       380     0    19     1    20
  3.0549288948209263E-01 a       381     0    20     1     1
  1.5211776142703412E-01 a       382     0    20     1     2
 -1.5106371644139164E-02 a       383     0    20     1     3
 -5.2706357527854653E-01 a       384     0    20     1     4
 -2.8807534099285975E-01 a       385     0    20     1     5
 -3.6075556768130773E-01 a       386     0    20     1     6
  1.5352287175734475E-01 a       387     0    20     1     7
  3.7658006985824166E-02 a       388     0    20     1     8
 -2.1198941703704216E-01 a       389     0    20     1     9
  2.1562678356463943E-01 a       390     0    20     1    10
 -2.1495137265547484E-01 a       391     0    20     1    11
 -1.5420610070439963E-01 a       392     0    20     1    12
 -4.9893187096924752E-01 a       393     0    20     1    13
 -7.4384288682188937E-01 a       394     0    20     1    14
  1.9097581027371974E-01 a       395     0    20     1    15
  2.4511642783352325E-01 a       396     0    20     1    16
  6.0940305412127073E-04 a       397     0    20     1    17
 -2.4172822089396828E-01 a       398     0    20     1    18
 -2.4305499800605732E-01 a       399     0    20     1    19
 -2.7657352523374316E-02 a       400     0    20     1    20
 -1.7947037269561977E-01 a       401     0    21     1     1
  1.8032503659412949E-01 a       402     0    21     1     2
  2.6177241949962682E-01 a       403     0    21     1     3
 -3.0833302047658689E-01 a       404     0    21     1     4
  3.5105868577375583E-02 a       405     0    21     1     5
  1.4699964169694896E-01 a       406     0    21     1     6
  3.4125865981077162E-02 a       407     0    21     1     7
 -5.2050495351056186E-02 a       408     0    21     1     8
 -1.2848185488463065E-02 a       409     0    21     1     9
  3.4500948507928397E-01 a       410     0    21     1    10
  1.7740638344246379E-03 a       411     0    21     1    11
 -7.6028692002170239E-01 a       412     0    21     1    12
  1.5603987686884738E-01 a       413     0    21     1    13
  7.2002964935788416E-01 a       414     0    21     1    14
  3.3157110356693448E-01 a       415     0    21     1    15
  2.5018548823923842E-01 a       416     0    21     1    16
  3.3012615615666813E-01 a       417     0    21     1    17
 -6.8334224588651249E-01 a       418     0    21     1    18
 -2.5322696253836668E-01 a       419     0    21     1    19
 -7.5554213629860723E-01 a       420     0    21     1    20
  7.0495470834765261E-01 a       421     0    22     1     1
 -1.5473726805643398E-01 a       422     0    22     1     2
 -2.9928876160367468E-01 a       423     0    22     1     3
  9.2115789589540986E-01 a       424     0    22     1     4
  7.7647777999447098E-01 a       425     0    22     1     5
  2.8047499176667179E-01 a       426     0    22     1     6
  1.0652497684674819E-01 a       427     0    22     1     7
  2.6733536329715618E-02 a       428     0    22     1     8
  4.8074515230549375E-01 a       429     0    22     1     9
  3.3766618620810074E-01 a       430     0    22     1    10
 -6.2569245268306717E-01 a       431     0    22     1    11
 -2.2624064701487129E-01 a       432     0    22     1    12
  2.0080572388045995E-01 a       433     0    22     1    13
  5.1351438266044558E-01 a       434     0    22     1    14
 -2.7932318438328863E-01 a       435     0    22     1    15
 -4.2076564701944930E-01 a       436     0    22     1    16
  2.0116865160886543E-01 a       437     0    22     1    17
  7.1852778410397655E-01 a       438     0    22     1    18
  7.3470214477197993E-01 a       439     0    22     1    19
  4.6240503319298298E-01 a       440     0    22     1    20
 -1.0590688281623146E+00 a       441     0    23     1     1
 -4.4701626306420794E-01 a       442     0    23     1     2
  2.3582668049170882E-01 a       443     0    23     1     3
  2.2603128861808669E-01 a       444     0    23     1     4
 -2.6162962599787482E-01 a       445     0    23     1     5
 -5.2512600053546521E-01 a       446     0    23     1     6
 -8.4152650745649704E-02 a       447     0    23     1     7
  5.7309251988847520E-01 a       448     0    23     1     8
 -9.2330443006993590E-01 a       449     0    23     1     9
  5.0075878776345373E-01 a       450     0    23     1    10
  3.0033599059074423E-01 a       451     0    23     1    11
 -2.5407435882542198E-02 a       452     0    23     1    12
 -3.5070921498419444E-01 a       453     0    23     1    13
 -3.9613993989737695E-01 a       454     0    23     1    14
  7.6213438284810739E-02 a       455     0    23     1    15
  8.4510613962835865E-02 a       456     0    23     1    16
 -1.0010063794958772E+00 a       457     0    23     1    17
  2.3270278835902405E-01 a       458     0    23     1    18
 -5.0963481916983122E-01 a       459     0    23     1    19
  5.3673977680216833E-01 a       460     0    23     1    20
 -3.5522641884871425E-01 a       461     0    24     1     1
  4.0160238827744715E-01 a       462     0    24     1     2
  1.5519125176915707E-01 a       463     0    24     1     3
 -2.9068545054950040E-01 a       464     0    24     1     4
  5.3678122599206415E-02 a       465     0    24     1     5
 -3.2802154126791591E-02 a       466     0    24     1     6
  2.2077635005861193E-01 a       467     0    24     1     7
  2.2045286611067849E-01 a       468     0    24     1     8
  4.2755261630787517E-01 a       469     0    24     1     9
 -9.4146357093001121E-02 a       470     0    24     1    10
 -1.5559731319774325E-01 a       471     0    24     1    11
 -1.0409120125975591E-01 a       472     0    24     1    12
  1.9706292135992853E-02 a       473     0    24     1    13
 -1.4877799984783510E-01 a       474     0    24     1    14
 -1.6755346492379150E-01 a       475     0    24     1    15
  3.5051302308331622E-01 a       476     0    24     1    16
  1.5591052069140489E-03 a       477     0    24     1    17
  1.6193353618084849E-01 a       478     0    24     1    18
  2.8568631419707735E-01 a       479     0    24     1    19
 -1.3034741921622189E-01 a       480     0    24     1    20
 -8.2896004578473292E-01 a       481     0    25     1     1
  2.2331010605075644E-01 a       482     0    25     1     2
  6.4567650711401092E-01 a       483     0    25     1     3
 -8.8677732968915757E-01 a       484     0    25     1     4
 -5.0856005492242791E-02 a       485     0    25     1     5
  6.1316764776369670E-01 a       486     0    25     1     6
 -7.9792809160427047E-01 a       487     0    25     1     7
 -4.7561165732667882E-01 a       488     0    25     1     8
  5.6065608995035443E-01 a       489     0    25     1     9
  4.3314650268642380E-01 a       490     0    25     1    10
 -1.1873591525749143E+00 a       491     0    25     1    11
 -2.8947950234690972E-01 a       492     0    25     1    12
  2.8056282393990140E-01 a       493     0    25     1    13
  2.8751218005326784E-01 a       494     0    25     1    14
 -6.2261182956488026E-01 a       495     0    25     1    15
 -2.7984296436272205E-02 a       496     0    25     1    16
  3.2373200669081786E-01 a       497     0    25     1    17
 -4.6806755182506582E-01 a       498     0    25     1    18
 -1.3007205964112745E-01 a       499     0    25     1    19
 -2.7651865443703427E-01 a       500     0    25     1    20
 -9.7112970734701320E-01 a       501     0    26     1     1
 -8.8181847411134565E-02 a       502     0    26     1     2
  5.8742141107083934E-01 a       503     0    26     1     3
 -4.2033103099647657E-03 a       504     0    26     1     4
  1.2658812534464245E-01 a       505     0    26     1     5
  3.1109672715054876E-01 a       506     0    26     1     6
  1.5650422090202923E-01 a       507     0    26     1     7
  4.7220273506399718E-01 a       508     0    26     1     8
  5.8673504952374042E-02 a       509     0    26     1     9
  3.5409518090072511E-01 a       510     0    26     1    10
  1.2183265583922230E-01 a       511     0    26     1    11
 -2.8291448552817794E-01 a       512     0    26     1    12
  3.6007687018067952E-01 a       513     0    26     1    13
 -1.2404177607765739E-01 a       514     0    26     1    14
 -1.2582307807599791E-01 a       515     0    26     1    15
  2.7977215834661151E-01 a       516     0    26     1    16
 -2.0080422068401529E-01 a       517     0    26     1    17
  3.0142139659857992E-01 a       518     0    26     1    18
  8.2212639271536825E-01 a       519     0    26     1    19
  1.9010558634169197E-01 a       520     0    26     1    20
  9.0923153914457433E-02 a       521     0    27     1     1
  2.6884889976816190E-01 a       522     0    27     1     2
 -2.1880490710871103E-01 a       523     0    27     1     3
 -3.5632158783673035E-01 a       524     0    27     1     4
  4.4537000339833605E-01 a       525     0    27     1     5
 -2.0310688595556181E-01 a       526     0    27     1     6
  7.1429140048399264E-01 a       527     0    27     1     7
 -1.1765742597097323E-01 a       528     0    27     1     8
  5.8326271305115518E-01 a       529     0    27     1     9
  1.0654857940703473E-01 a       530     0    27     1    10
  7.7640946421838386E-01 a       531     0    27     1    11
  1.5162188902379253E-01 a       532     0    27     1    12
 -5.3119576269418245E-01 a       533     0    27     1    13
 -4.3971392021829647E-01 a       534     0    27     1    14
 -1.5499417710373242E-01 a       535     0    27     1    15
 -9.1441274098693548E-01 a       536     0    27     1    16
 -5.3846756487000769E-01 a       537     0    27     1    17
  7.6098184535166813E-01 a       538     0    27     1    18
 -2.2917150202827791E-01 a       539     0    27     1    19
  1.1342862314002060E+00 a       540     0    27     1    20
 -8.6231995871544800E-02 a       541     0    28     1     1
 -1.3963957946385513E-01 a       542     0    28     1     2
 -2.7971159204520195E-02 a       543     0    28     1     3
  5.7321566887067099E-01 a       544     0    28     1     4
 -3.9178028866618114E-01 a       545     0    28     1     5
 -1.5011195863941118E-01 a       546     0    28     1     6
  1.1572523279309069E-01 a       547     0    28     1     7
 -1.2486946704344386E-01 a       548     0    28     1     8
  3.1768607353493356E-01 a       549     0    28     1     9
 -2.4085735568499262E-03 a       550     0    28     1    10
  2.7496200040600610E-01 a       551     0    28     1    11
 -6.2485343956310134E-02 a       552     0    28     1    12
  1.8095192166729707E-01 a       553     0    28     1    13
  4.9662049036217282E-01 a       554     0    28     1    14
  4.4985500713173428E-02 a       555     0    28     1    15
  9.9753856505467170E-02 a       556     0    28     1    16
  1.7822367050540489E-01 a       557     0    28     1    17
  4.5138106748533458E-01 a       558     0    28     1    18
 -1.5657003630934588E-01 a       559     0    28     1    19
  3.0013894226804705E-01 a       560     0    28     1    20
 -4.6426191310921384E-02 a       561     0    29     1     1
 -4.2824643326633821E-01 a       562     0    29     1     2
  2.2694559355620786E-02 a       563     0    29     1     3
  4.5220426169570899E-01 a       564     0    29     1     4
 -2.2295929108407297E-01 a       565     0    29     1     5
  7.2108462498527825E-03 a       566     0    29     1     6
 -6.3264037475845636E-01 a       567     0    29     1     7
 -1.4051343615675357E-01 a       568     0    29     1     8
  4.0862385805094333E-02 a       569     0    29     1     9
  4.2008387135881436E-01 a       570     0    29     1    10
  3.0310999738462918E-01 a       571     0    29     1    11
  9.0864536623820313E-01 a       572     0    29     1    12
  1.6474399035738876E-01 a       573     0    29     1    13
 -2.4226566099753065E-02 a       574     0    29     1    14
 -4.6747060464790470E-02 a       575     0    29     1    15
  1.0114200762759235E-01 a       576     0    29     1    16
  2.7515330827980546E-02 a       577     0    29     1    17
 -5.0216807962533550E-01 a       578     0    29     1    18
  3.4346618105422229E-02 a       579     0    29     1    19
 -4.7312315327156346E-01 a       580     0    29     1    20
  3.0894571504728524E-01 a       581     0    30     1     1
 -1.1968477928369896E-01 a       582     0    30     1     2
 -5.1598754097341500E-02 a       583     0    30     1     3
 -1.7313504591815629E-01 a       584     0    30     1     4
  2.6246867425927040E-01 a       585     0    30     1     5
 -1.3606816276151079E-01 a       586     0    30     1     6
  5.6102487591115247E-01 a       587     0    30     1     7
 -2.3653676800700688E-02 a       588     0    30     1     8
  3.1386571627184151E-01 a       589     0    30     1     9
 -5.5478265677977245E-01 a       590     0    30     1    10
  3.6480986986376007E-01 a       591     0    30     1    11
 -9.2002977079327553E-01 a       592     0    30     1    12
 -2.5888812621049140E-01 a       593     0    30     1    13
 -3.3692773127352554E-01 a       594     0    30     1    14
  1.4098886149109413E-01 a       595     0    30     1    15
  1.2368820191113861E-01 a       596     0    30     1    16
  3.1337566541046968E-01 a       597     0    30     1    17
  1.6035500061696709E-01 a       598     0    30     1    18
 -2.6438343647715679E-01 a       599     0    30     1    19
  2.6851829818757789E-01 a       600     0    30     1    20
  5.5274031700510129E-01 a       601     0    31     1     1
  5.0346365018602968E-01 a       602     0    31     1     2
  3.5843041842087453E-01 a       603     0    31     1     3
  2.7774317364502027E-01 a       604     0    31     1     4
  2.4188688786586240E-01 a       605     0    31     1     5
 -3.4524016849892947E-01 a       606     0    31     1     6
 -6.1333095249113412E-01 a       607     0    31     1     7
 -2.2423182387243981E-01 a       608     0    31     1     8
  1.2833897901294652E-01 a       609     0    31     1     9
 -1.0992295155272622E+00 a       610     0    31     1    10
  1.5635874594334273E-01 a       611     0    31     1    11
 -8.0193904948598060E-01 a       612     0    31     1    12
 -1.2113829721033402E-01 a       613     0    31     1    13
 -3.8458741215676440E-01 a       614     0    31     1    14
 -8.5270635860169627E-02 a       615     0    31     1    15
  4.2368670323270141E-01 a       616     0    31     1    16
  6.9737076267395587E-02 a       617     0    31     1    17
 -4.1178727759487765E-01 a       618     0    31     1    18
  1.8329724062220865E-01 a       619     0    31     1    19
  1.5674083573509454E-02 a       620     0    31     1    20
  1.1388114011204856E-01 a       621     0    32     1     1
  1.0590936892643410E-01 a       622     0    32     1     2
  9.3272262363446171E-02 a       623     0    32     1     3
 -1.4405157543172928E-01 a       624     0    32     1     4
 -1.9012024690383048E-01 a       625     0    32     1     5
  7.3568902379528442E-02 a       626     0    32     1     6
  3.2945811324086782E-01 a       627     0    32     1     7
 -3.0876541561646376E-01 a       628     0    32     1     8
  9.2678671832648873E-01 a       629     0    32     1     9
  1.9730536389698988E-01 a       630     0    32     1    10
  2.9724254888990975E-01 a       631     0    32     1    11
 -2.1173520889681069E-01 a       632     0    32     1    12
  4.3438607204434354E-01 a       633     0    32     1    13
 -4.3168825597723326E-01 a       634     0    32     1    14
  2.1775808901713123E-01 a       635     0    32     1    15
 -4.3816090173679552E-02 a       636     0    32     1    16
 -5.5195963146410905E-02 a       637     0    32     1    17
 -1.0308180406844261E+00 a       638     0    32     1    18
  4.5681376536033658E-01 a       639     0    32     1    19
  7.4378042504178966E-03 a       640     0    32     1    20
  3.2507590475375692E-01 a       641     0    33     1     1
  4.2201454346376582E-01 a       642     0    33     1     2
 -2.1600683543258734E-01 a       643     0    33     1     3
  5.6943249512007088E-01 a       644     0    33     1     4
  1.5114489671891657E-01 a       645     0    33     1     5
  3.3759250006350000E-01 a       646     0    33     1     6
  3.9370197768189902E-01 a       647     0    33     1     7
  4.1003285385098465E-01 a       648     0    33     1     8
 -1.3873778618316129E-01 a       649     0    33     1     9
  5.3242096612256207E-01 a       650     0    33     1    10
 -3.0763182217452162E-01 a       651     0    33     1    11
  3.1954594197737218E-01 a       652     0    33     1    12
 -2.7192643256988019E-01 a       653     0    33     1    13
  5.3621751673218077E-01 a       654     0    33     1    14
  5.9118371409019310E-01 a       655     0    33     1    15
 -3.4625359359969618E-02 a       656     0    33     1    16
  6.4573482654756742E-01 a       657     0    33     1    17
  2.9501860477184649E-01 a       658     0    33     1    18
  3.3818641419920725E-01 a       659     0    33     1    19
 -5.6014542472018769E-01 a       660     0    33     1    20
  2.2660763907907466E-01 a       661     0    34     1     1
 -4.5301291917731545E-01 a       662     0    34     1     2
  3.1171681135501900E-01 a       663     0    34     1     3
  3.3878349751376765E-03 a       664     0    34     1     4
 -9.5207661461009063E-02 a       665     0    34     1     5
 -7.4658538408833117E-02 a       666     0    34     1     6
  2.5524828197979554E-01 a       667     0    34     1     7
 -4.9735865538185203E-01 a       668     0    34     1     8
  1.0237583022220975E+00 a       669     0    34     1     9
  5.3583857542736335E-01 a       670     0    34     1    10
 -2.1885835338012025E-01 a       671     0    34     1    11
  2.6607699535683660E-01 a       672     0    34     1    12
  3.8772094178000943E-01 a       673     0    34     1    13
 -2.2252481168606911E-01 a       674     0    34     1    14
 -2.9819850488997018E-02 a       675     0    34     1    15
 -4.1618599421648000E-01 a       676     0    34     1    16
  1.7897588336585085E-01 a       677     0    34     1    17
 -5.5711184088254173E-01 a       678     0    34     1    18
  6.5840565644810806E-02 a       679     0    34     1    19
 -1.8444828323282614E-01 a       680     0    34     1    20
  9.5859940384078801E-02 a       681     0    35     1     1
  8.1842324117147913E-01 a       682     0    35     1     2
  1.7860937274234756E-01 a       683     0    35     1     3
 -1.4463179499693715E-01 a       684     0    35     1     4
 -1.0251269320127594E-01 a       685     0    35     1     5
 -6.8783197485454112E-02 a       686     0    35     1     6
 -1.6697728667788111E-01 a       687     0    35     1     7
  5.7872645507436893E-01 a       688     0    35     1     8
 -6.3767636203880418E-01 a       689     0    35     1     9
 -2.3457615306632676E-01 a       690     0    35     1    10
  1.1581765919172250E-01 a       691     0    35     1    11
 -1.7219874522852022E-01 a       692     0    35     1    12
 -5.1949554714405444E-01 a       693     0    35     1    13
  2.5936525507186525E-01 a       694     0    35     1    14
 -3.2396680901287200E-01 a       695     0    35     1    15
 -6.1331038362358326E-01 a       696     0    35     1    16
 -8.7573912318799607E-01 a       697     0    35     1    17
  8.8012324318910418E-01 a       698     0    35     1    18
  4.3189462475916129E-01 a       699     0    35     1    19
 -8.2713514944196778E-02 a       700     0    35     1    20
  4.7293087037113751E-01 a       701     0    36     1     1
 -8.3984212928460544E-01 a       702     0    36     1     2
 -7.6793356148088598E-01 a       703     0    36     1     3
  1.1484783554494302E-01 a       704     0    36     1     4
 -5.7055095799283272E-02 a       705     0    36     1     5
 -8.2801367171933138E-01 a       706     0    36     1     6
  5.0273880475358002E-01 a       707     0    36     1     7
 -7.1495772461831564E-01 a       708     0    36     1     8
 -4.6006825431096715E-01 a       709     0    36     1     9
 -2.2388697922543854E-01 a       710     0    36     1    10
 -5.7446496973099385E-02 a       711     0    36     1    11
  4.0939542056677070E-01 a       712     0    36     1    12
 -1.5227320008595242E+00 a       713     0    36     1    13
 -2.3479450292040574E-01 a       714     0    36     1    14
  2.3050355737791431E-01 a       715     0    36     1    15
  2.2458870057039657E-01 a       716     0    36     1    16
 -6.4694860955234657E-01 a       717     0    36     1    17
  1.4926074277716967E+00 a       718     0    36     1    18
  2.0674688509896774E-01 a       719     0    36     1    19
  9.4219419847727037E-01 a       720     0    36     1    20
  3.7448825401708968E-01 a       721     0    37     1     1
  1.5656900152144712E-01 a       722     0    37     1     2
 -2.6434555125664094E-01 a       723     0    37     1     3
 -3.9246561834545285E-01 a       724     0    37     1     4
 -1.8994645731846391E-01 a       725     0    37     1     5
 -1.1895108590905217E+00 a       726     0    37     1     6
  4.6300310455224747E-01 a       727     0    37     1     7
  3.3628145462730052E-01 a       728     0    37     1     8
 -7.0071471897005044E-01 a       729     0    37     1     9
  3.9656257062419853E-01 a       730     0    37     1    10
 -1.3966843608990029E-01 a       731     0    37     1    11
  4.9505820681019813E-01 a       732     0    37     1    12
  9.8866738306178092E-02 a       733     0    37     1    13
 -3.8461993236942840E-02 a       734     0    37     1    14
 -2.0577746509061962E-01 a       735     0    37     1    15
 -4.0787591773195170E-01 a       736     0    37     1    16
 -3.6769695692576776E-01 a       737     0    37     1    17
 -1.2561132702206903E-03 a       738     0    37     1    18
 -3.6489970602954319E-01 a       739     0    37     1    19
  4.6869719868373777E-01 a       740     0    37     1    20
 -4.5516334314365990E-02 a       741     0    38     1     1
 -4.4697567362872348E-01 a       742     0    38     1     2
  2.1565403726128304E-01 a       743     0    38     1     3
  2.3297928336682702E-01 a       744     0    38     1     4
 -1.6961584763126641E-01 a       745     0    38     1     5
 -4.8803509280999927E-02 a       746     0    38     1     6
 -8.8841501289191216E-01 a       747     0    38     1     7
 -2.4408529165812751E-02 a       748     0    38     1     8
 -1.2889525737022833E-01 a       749     0    38     1     9
 -4.3310741709123035E-01 a       750     0    38     1    10
 -2.0302330739879115E-01 a       751     0    38     1    11
 -4.4527237443682433E-01 a       752     0    38     1    12
  9.5795574493016011E-02 a       753     0    38     1    13
  8.4625207583133438E-03 a       754     0    38     1    14
 -8.1669164981727285E-03 a       755     0    38     1    15
  4.1913907994300215E-01 a       756     0    38     1    16
 -5.6738472958884597E-03 a       757     0    38     1    17
 -4.2272904222579555E-01 a       758     0    38     1    18
 -3.6903875867766162E-01 a       759     0    38     1    19
  4.7263459343655922E-01 a       760     0    38     1    20
 -4.1809211916226491E-01 a       761     0    39     1     1
  3.1243531207263037E-01 a       762     0    39     1     2
  8.9619231278119704E-01 a       763     0    39     1     3
 -9.1488943713758569E-02 a       764     0    39     1     4
 -7.1884977985687704E-01 a       765     0    39     1     5
 -9.0366806320355664E-01 a       766     0    39     1     6
 -2.1778478105655291E-01 a       767     0    39     1     7
  2.2590671147735117E-01 a       768     0    39     1     8
 -1.0654292371979146E+00 a       769     0    39     1     9
  2.8512586498467257E-01 a       770     0    39     1    10
  6.3428717102307852E-02 a       771     0    39     1    11
 -5.8037378486954533E-02 a       772     0    39     1    12
  3.6586749957649217E-01 a       773     0    39     1    13
 -1.9737176817370808E-01 a       774     0    39     1    14
 -2.1369368974551767E-01 a       775     0    39     1    15
 -2.4561986573727740E-01 a       776     0    39     1    16
 -1.5545669035434082E-01 a       777     0    39     1    17
 -6.7549651194424454E-01 a       778     0    39     1    18
 -2.6539258001394103E-02 a       779     0    39     1    19
  4.4551958543910482E-02 a       780     0    39     1    20
  5.8092450208308677E-01 a       781     0    40     1     1
  1.3009346682353914E-01 a       782     0    40     1     2
 -2.2659729553211186E-01 a       783     0    40     1     3
  6.6967427356579501E-01 a       784     0    40     1     4
 -3.1994694365327966E-02 a       785     0    40     1     5
  7.0575261617016649E-01 a       786     0    40     1     6
  1.9748711043785463E-01 a       787     0    40     1     7
 -2.9855397458671684E-01 a       788     0    40     1     8
 -3.7360604128725283E-01 a       789     0    40     1     9
 -4.8141842318842228E-02 a       790     0    40     1    10
  6.2910406420462417E-01 a       791     0    40     1    11
 -7.8461240475087413E-01 a       792     0    40     1    12
 -2.4237023942167184E-02 a       793     0    40     1    13
  7.2036504710317945E-02 a       794     0    40     1    14
  3.8173608753860755E-01 a       795     0    40     1    15
  2.2761324314770967E-01 a       796     0    40     1    16
  1.8416570182324263E-01 a       797     0    40     1    17
 -1.4031085169547516E-01 a       798     0    40     1    18
 -1.2666349491043820E+00 a       799     0    40     1    19
 -6.1405256951678122E-01 a       800     0    40     1    20
 -2.1856884061903301E-01 a       801     0    41     1     1
 -3.0115582170346517E-01 a       802     0    41     1     2
 -2.7747267813604531E-01 a       803     0    41     1     3
 -1.6647350203918995E-01 a       804     0    41     1     4
  9.3489215885008442E-02 a       805     0    41     1     5
 -3.2638162954832040E-01 a       806     0    41     1     6
  1.1805387910836569E-01 a       807     0    41     1     7
  2.8063810837381337E-01 a       808     0    41     1     8
 -4.0923429130636829E-01 a       809     0    41     1     9
  1.3859336389981072E-01 a       810     0    41     1    10
 -2.4582862929747182E-01 a       811     0    41     1    11
  3.5400663887586287E-01 a       812     0    41     1    12
  1.8642259260595689E-02 a       813     0    41     1    13
 -1.1985981422707892E-01 a       814     0    41     1    14
  9.9656446740565258E-02 a       815     0    41     1    15
  4.2377173257314354E-01 a       816     0    41     1    16
 -5.4852915841689533E-02 a       817     0    41     1    17
  2.6971586678912302E-01 a       818     0    41     1    18
  1.1883417746278299E-01 a       819     0    41     1    19
  1.1248307242274123E-01 a       820     0    41     1    20
  3.9072829486777795E-02 a       821     0    42     1     1
  2.1910115180498848E-03 a       822     0    42     1     2
  9.7852003070120666E-02 a       823     0    42     1     3
  1.2614488155225304E-01 a       824     0    42     1     4
  2.3418621726743338E-01 a       825     0    42     1     5
 -1.0067907149278083E-01 a       826     0    42     1     6
  4.5253937189072874E-01 a       827     0    42     1     7
  5.7995621232890771E-01 a       828     0    42     1     8
 -4.0580927111408560E-01 a       829     0    42     1     9
  3.6451384223233185E-01 a       830     0    42     1    10
 -5.1690220570436507E-01 a       831     0    42     1    11
 -1.5079883741319114E-01 a       832     0    42     1    12
 -9.1538918037979283E-02 a       833     0    42     1    13
 -9.1919071581486933E-02 a       834     0    42     1    14
 -1.3984631748126541E-01 a       835     0    42     1    15
  1.5494241423644631E-01 a       836     0    42     1    16
 -7.2435899175434373E-02 a       837     0    42     1    17
  5.3139319629830657E-02 a       838     0    42     1    18
  2.1295404339759469E-01 a       839     0    42     1    19
  1.2895123905056366E-02 a       840     0    42     1    20
  1.2625852518497033E-01 a       841     0    43     1     1
 -1.6467578493285862E-01 a       842     0    43     1     2
  1.3454784546772247E-01 a       843     0    43     1     3
  2.7160831971392019E-01 a       844     0    43     1     4
 -1.1462660937852544E-01 a       845     0    43     1     5
  5.3528073709916291E-04 a       846     0    43     1     6
 -2.0118905353561138E-02 a       847     0    43     1     7
 -1.2334731355211476E-01 a       848     0    43     1     8
 -9.0686634369818761E-02 a       849     0    43     1     9
  6.3102320192622269E-02 a       850     0    43     1    10
  2.7803802552750262E-01 a       851     0    43     1    11
 -1.9324294230904798E-01 a       852     0    43     1    12
  2.8747891848724699E-01 a       853     0    43     1    13
 -2.2209547808123162E-01 a       854     0    43     1    14
 -7.8596570734891472E-02 a       855     0    43     1    15
 -1.8389220034823212E-01 a       856     0    43     1    16
  1.8547799083880057E-01 a       857     0    43     1    17
  1.0076782831668916E-01 a       858     0    43     1    18
  1.2514332161283589E-01 a       859     0    43     1    19
  3.3753720415587607E-02 a       860     0    43     1    20
 -1.6166023295709386E-01 a       861     0    44     1     1
  1.6355005200390910E-01 a       862     0    44     1     2
 -2.4126330221203746E-01 a       863     0    44     1     3
 -6.0295133076488638E-01 a       864     0    44     1     4
 -1.5878845145835440E-02 a       865     0    44     1     5
  3.0929620121835066E-01 a       866     0    44     1     6
 -4.7629056876041043E-01 a       867     0    44     1     7
 -1.0269066744914479E+00 a       868     0    44     1     8
  4.5784446223039466E-01 a       869     0    44     1     9
 -7.5845872126945502E-01 a       870     0    44     1    10
  1.4476072168706298E+00 a       871     0    44     1    11
  3.7590476825324320E-01 a       872     0    44     1    12
  5.4521269563534661E-02 a       873     0    44     1    13
  2.6044428225748240E-01 a       874     0    44     1    14
  1.2013960701146122E-01 a       875     0    44     1    15
  4.0275256979477300E-02 a       876     0    44     1    16
  1.0686340743278481E-02 a       877     0    44     1    17
  2.1448979554948244E-02 a       878     0    44     1    18
 -6.6808275931551378E-02 a       879     0    44     1    19
 -9.4388841328786721E-02 a       880     0    44     1    20
  7.5578145704642483E-02 a       881     0    45     1     1
  2.3232427451820242E-01 a       882     0    45     1     2
  4.6388267777309833E-01 a       883     0    45     1     3
 -2.5376465831919010E-01 a       884     0    45     1     4
  5.5074606197182685E-01 a       885     0    45     1     5
  1.9572177803484811E-01 a       886     0    45     1     6
 -1.3121849707658350E-02 a       887     0    45     1     7
 -4.0994495811470683E-01 a       888     0    45     1     8
  7.6481886652267195E-01 a       889     0    45     1     9
  4.4718241383695068E-01 a       890     0    45     1    10
 -9.9111358518060555E-01 a       891     0    45     1    11
  2.8755623545528664E-01 a       892     0    45     1    12
  1.1975071486033433E+00 a       893     0    45     1    13
 -1.7108388480999209E-01 a       894     0    45     1    14
 -1.2646270993206737E-01 a       895     0    45     1    15
 -7.9487452761009203E-01 a       896     0    45     1    16
 -3.9215611931847572E-01 a       897     0    45     1    17
 -1.5302743726944077E+00 a       898     0    45     1    18
 -6.8968271620663224E-01 a       899     0    45     1    19
 -2.3279708080142233E-01 a       900     0    45     1    20
  7.4695645273634992E-01 a       901     0    46     1     1
  2.3848201940591279E-01 a       902     0    46     1     2
 -3.0498218841594393E-01 a       903     0    46     1     3
  4.4511182039797470E-01 a       904     0    46     1     4
  3.6280547704025295E-01 a       905     0    46     1     5
  2.5675806993834360E-01 a       906     0    46     1     6
  3.1093451680309842E-01 a       907     0    46     1     7
 -2.5927666774673952E-01 a       908     0    46     1     8
  8.8485724171465352E-01 a       909     0    46     1     9
 -7.7937897830613967E-01 a       910     0    46     1    10
  4.0663363904773636E-01 a       911     0    46     1    11
 -1.3718356438658541E-01 a       912     0    46     1    12
  1.0422209385474692E+00 a       913     0    46     1    13
  3.8895230674552944E-02 a       914     0    46     1    14
  1.0557022047287229E-01 a       915     0    46     1    15
  1.4732572302819547E+00 a       916     0    46     1    16
  6.1511902405543439E-01 a       917     0    46     1    17
  4.4953695246390396E-01 a       918     0    46     1    18
  1.4605594277089828E+00 a       919     0    46     1    19
 -6.5086513642061139E-01 a       920     0    46     1    20
 -1.2420132652746647E-01 a       921     0    47     1     1
  3.2071787466770157E-01 a       922     0    47     1     2
  6.6214638194039610E-01 a       923     0    47     1     3
  1.1291847114868171E-01 a       924     0    47     1     4
 -2.2707617270173155E-01 a       925     0    47     1     5
  5.6814328439294917E-02 a       926     0    47     1     6
 -1.1615873659994159E-01 a       927     0    47     1     7
 -1.2887021229388082E-01 a       928     0    47     1     8
  7.7129501919492782E-01 a       929     0    47     1     9
 -7.7837561129253233E-02 a       930     0    47     1    10
 -2.0996415035230628E-01 a       931     0    47     1    11
  1.0073834571380702E-01 a       932     0    47     1    12
 -1.0887255536184601E+00 a       933     0    47     1    13
 -2.9711720430200189E-01 a       934     0    47     1    14
 -2.4718575176537236E-01 a       935     0    47     1    15
 -8.9902719212995211E-02 a       936     0    47     1    16
 -1.7281524494557829E-01 a       937     0    47     1    17
 -1.1220671885408370E-01 a       938     0    47     1    18
  9.6076628628654370E-01 a       939     0    47     1    19
  3.5147898612782297E-01 a       940     0    47     1    20
 -1.1593623089914470E-01 a       941     0    48     1     1
  1.4684116068583825E-01 a       942     0    48     1     2
 -2.4855157343594780E-01 a       943     0    48     1     3
 -4.8537990920057547E-02 a       944     0    48     1     4
 -3.7436174154313058E-02 a       945     0    48     1     5
 -1.2233197385644815E-01 a       946     0    48     1     6
 -7.1218035954694850E-02 a       947     0    48     1     7
  1.4433119730057814E-01 a       948     0    48     1     8
 -1.1880821976332656E+00 a       949     0    48     1     9
 -1.7347497062359563E-01 a       950     0    48     1    10
 -3.0756297896717810E-01 a       951     0    48     1    11
 -7.7915795007933775E-02 a       952     0    48     1    12
 -5.9361799109255309E-01 a       953     0    48     1    13
 -8.0462859422089417E-02 a       954     0    48     1    14
 -1.6710683548522770E-01 a       955     0    48     1    15
 -4.4339105045281380E-01 a       956     0    48     1    16
  3.9037648736506603E-01 a       957     0    48     1    17
  1.2321696643378893E-01 a       958     0    48     1    18
  1.4522405144571288E-01 a       959     0    48     1    19
 -1.0984093611336678E-02 a       960     0    48     1    20
 -1.2150982048466834E+00 a       961     0    49     1     1
  2.1977087042047525E-01 a       962     0    49     1     2
  4.6634111549750901E-01 a       963     0    49     1     3
 -1.3316478596264127E+00 a       964     0    49     1     4
 -3.4354055134301215E-01 a       965     0    49     1     5
  5.6575273270826298E-01 a       966     0    49     1     6
  9.9914108287606707E-01 a       967     0    49     1     7
  7.7782906341521896E-01 a       968     0    49     1     8
 -1.2910738144637770E+00 a       969     0    49     1     9
  1.6571787717869466E+00 a       970     0    49     1    10
  1.5478085897336933E+00 a       971     0    49     1    11
  4.2097022503563514E-01 a       972     0    49     1    12
  5.9764159414204709E-01 a       973     0    49     1    13
 -1.9212545991572644E-01 a       974     0    49     1    14
 -6.8559758187278086E-01 a       975     0    49     1    15
 -1.6195344280284341E+00 a       976     0    49     1    16
 -4.9109698966111198E-02 a       977     0    49     1    17
 -7.0735007704295194E-01 a       978     0    49     1    18
 -8.4257684917968434E-01 a       979     0    49     1    19
 -1.9385117339619193E-01 a       980     0    49     1    20
  2.6598049808163998E-01 a       981     0    50     1     1
 -3.1798774273749791E-01 a       982     0    50     1     2
 -1.4946051250303432E+00 a       983     0    50     1     3
  1.2701682053107672E+00 a       984     0    50     1     4
  6.8566734953584196E-01 a       985     0    50     1     5
  2.0267941320128893E+00 a       986     0    50     1     6
 -7.2145550393491586E-01 a       987     0    50     1     7
 -4.1466030990660818E-01 a       988     0    50     1     8
  6.6103247972900780E-01 a       989     0    50     1     9
 -1.8372477270550533E+00 a       990     0    50     1    10
 -7.8065661196579172E-01 a       991     0    50     1    11
 -3.1129005165096696E-01 a       992     0    50     1    12
  1.9923332724106477E-01 a       993     0    50     1    13
  1.7145168256305152E+00 a       994     0    50     1    14
  3.1805417617018789E-01 a       995     0    50     1    15
  1.4789479440668138E+00 a       996     0    50     1    16
  1.2928276654411741E+00 a       997     0    50     1    17
  3.9417274511798445E-01 a       998     0    50     1    18
  2.7367186463970733E-01 a       999     0    50     1    19
 -9.3632902391439765E-01 a      1000     0    50     1    20
 -2.9306568515208692E-01 a      1001     0    51     1     1
 -8.5861984139303613E-02 a      1002     0    51     1     2
 -1.6116750942868555E-01 a      1003     0    51     1     3
  2.6137717088768959E-02 a      1004     0    51     1     4
  1.9132428601711848E-01 a      1005     0    51     1     5
 -1.0825238390616762E-01 a      1006     0    51     1     6
 -1.4604690620271686E-02 a      1007     0    51     1     7
  1.1935238106196495E-01 a      1008     0    51     1     8
 -4.9899322801680007E-01 a      1009     0    51     1     9
  1.2865536453524098E-01 a      1010     0    51     1    10
  2.4003287943258799E-02 a      1011     0    51     1    11
 -5.5274409191157059E-02 a      1012     0    51     1    12
 -2.8680174793767788E-01 a      1013     0    51     1    13
  1.1280535755531258E-01 a      1014     0    51     1    14
  1.9914128894228539E-01 a      1015     0    51     1    15
 -6.1807944194654588E-02 a      1016     0    51     1    16
  1.1782739318612094E-01 a      1017     0    51     1    17
 -2.2060238524945533E-01 a      1018     0    51     1    18
 -4.0202740542862873E-02 a      1019     0    51     1    19
 -2.3408038563906265E-02 a      1020     0    51     1    20
  1.2636399996800689E+00 b      1021     1     1
  3.9985732971944210E-01 b      1022     1     2
  2.3677644817189650E-01 b      1023     1     3
 -7.3834099071425785E-01 b      1024     1     4
 -1.5319059859516518E-02 b      1025     1     5
  2.4403864051244809E-01 b      1026     1     6
  3.1944838906689227E-01 b      1027     1     7
 -3.3066134622042392E-01 b      1028     1     8
  1.5295223579935187E+00 b      1029     1     9
  1.2479269765660057E+00 b      1030     1    10
 -1.2306179267886088E+00 b      1031     1    11
  1.1118356878756344E+00 b      1032     1    12
 -3.1481206951258045E-01 b      1033     1    13
 -3.0507333789313928E-01 b      1034     1    14
  2.2867384623226622E-01 b      1035     1    15
 -6.2209062197473131E-01 b      1036     1    16
 -7.3429305874965201E-01 b      1037     1    17
  1.6277534883203908E+00 b      1038     1    18
 -7.6944398506431944E-01 b      1039     1    19
 -5.3390218858336125E-01 b      1040     1    20
  9.7792902444341426E-02 a      1041     1     1     2     1
  1.3338072466935955E-01 a      1042     1     1     2     2
 -3.9255185475671212E-01 a      1043     1     1     2     3
 -3.2575641687222312E-01 a      1044     1     1     2     4
  1.9458397504654981E-01 a      1045     1     1     2     5
  4.0508881114353062E-01 a      1046     1     1     2     6
  2.8255443798754387E-01 a      1047     1     1     2     7
 -1.4442482232436876E-01 a      1048     1     1     2     8
 -5.4560641586783538E-02 a      1049     1     1     2     9
  4.3209659050663729E-01 a      1050     1     1     2    10
 -3.4028631738442267E-01 a      1051     1     1     2    11
 -5.1926067823823141E-01 a      1052     1     1     2    12
 -2.6556485971088961E-01 a      1053     1     1     2    13
 -2.7286863966753568E-02 a      1054     1     1     2    14
  4.9850423839512142E-01 a      1055     1     1     2    15
  4.0343881252823910E-01 a      1056     1     1     2    16
 -3.5881603556161357E-01 a      1057     1     1     2    17
  7.4501188420546194E-01 a      1058     1     1     2    18
 -5.1914242511624564E-01 a      1059     1     1     2    19
 -6.3727657665282866E-01 a      1060     1     1     2    20
 -6.8175838635030417E-01 a      1061     1     2     2     1
 -4.4925857112341722E-01 a      1062     1     2     2     2
 -5.3827168038582784E-01 a      1063     1     2     2     3
  2.3453717025003437E-01 a      1064     1     2     2     4
 -3.2481104008029593E-01 a      1065     1     2     2     5
  6.1409394077845580E-01 a      1066     1     2     2     6
  5.2542452847970267E-01 a      1067     1     2     2     7
  3.7978776651879029E-03 a      1068     1     2     2     8
 -2.2592654105720986E-01 a      1069     1     2     2     9
  1.2234978816991736E-01 a      1070     1     2     2    10
 -3.0467778245868223E-02 a      1071     1     2     2    11
 -3.8497899428065646E-01 a      1072     1     2     2    12
 -2.2543243320041220E-01 a      1073     1     2     2    13
  4.3447152757802776E-01 a      1074     1     2     2    14
 -8.7286284933541003E-01 a      1075     1     2     2    15
 -1.7522365047124767E-02 a      1076     1     2     2    16
 -7.5586876200582676E-01 a      1077     1     2     2    17
 -5.9846623490358641E-01 a      1078     1     2     2    18
 -4.7051583699814276E-01 a      1079     1     2     2    19
  1.1997872795397677E-01 a      1080     1     2     2    20
  2.8352010055581800E-01 a      1081     1     3     2     1
 -1.0643202144952113E-01 a      1082     1     3     2     2
 -3.9083082923108087E-01 a      1083     1     3     2     3
  8.3593684079406050E-01 a      1084     1     3     2     4
  1.6713791684366797E-01 a      1085     1     3     2     5
 -3.4991477714240660E-01 a      1086     1     3     2     6
 -2.0853108504966366E-03 a      1087     1     3     2     7
 -4.9266883037552150E-01 a      1088     1     3     2     8
 -6.8369158000059604E-02 a      1089     1     3     2     9
  4.7532685279128195E-01 a      1090     1     3     2    10
  2.0113459681442519E-01 a      1091     1     3     2    11
 -1.5491392011056891E-02 a      1092     1     3     2    12
 -4.8211409893354557E-01 a      1093     1     3     2    13
  1.0280329408564237E-01 a      1094     1     3     2    14
 -6.1972002246970159E-01 a      1095     1     3     2    15
 -3.6911766052340000E-01 a      1096     1     3     2    16
  1.7319774080314701E-01 a      1097     1     3     2    17
  1.8353664748980278E-01 a      1098     1     3     2    18
 -3.9281902680111347E-01 a      1099     1     3     2    19
  1.2332298275993212E+00 a      1100     1     3     2    20
  6.4130657497015942E-01 a      1101     1     4     2     1
  7.0234651935359693E-01 a      1102     1     4     2     2
  2.6218945661570708E-01 a      1103     1     4     2     3
  8.0851425792959675E-01 a      1104     1     4     2     4
 -1.7733318863927652E-01 a      1105     1     4     2     5
 -2.8497039601747781E-01 a      1106     1     4     2     6
 -6.0702115991764138E-01 a      1107     1     4     2     7
  2.7425535474989970E-01 a      1108     1     4     2     8
  8.1706985345386773E-01 a      1109     1     4     2     9
 -3.3064821163670294E-01 a      1110     1     4     2    10
 -3.4084629325680998E-01 a      1111     1     4     2    11
 -3.6219237563113454E-01 a      1112     1     4     2    12
  2.0788011492496750E-01 a      1113     1     4     2    13
 -4.1264642079014729E-01 a      1114     1     4     2    14
  1.2431953451142719E+00 a      1115     1     4     2    15
  2.1626753954373351E-01 a      1116     1     4     2    16
  3.3356509433608733E-01 a      1117     1     4     2    17
  4.4245333431580297E-01 a      1118     1     4     2    18
  2.1039891948873785E-01 a      1119     1     4     2    19
 -5.9945206980422283E-01 a      1120     1     4     2    20
  5.1667179645647521E-01 a      1121     1     5     2     1
 -2.8574781725732157E-01 a      1122     1     5     2     2
  2.2670496133361578E-01 a      1123     1     5     2     3
  1.0594110193084993E+00 a      1124     1     5     2     4
 -4.3121858327629115E-01 a      1125     1     5     2     5
 -4.8006574468326341E-01 a      1126     1     5     2     6
  2.7833959918013251E-01 a      1127     1     5     2     7
  2.3861529213789115E-01 a      1128     1     5     2     8
  4.7340744411390950E-01 a      1129     1     5     2     9
  1.4693014010426947E-01 a      1130     1     5     2    10
  1.6261379967710676E-01 a      1131     1     5     2    11
  5.3201919916762652E-01 a      1132     1     5     2    12
  9.3619106894638163E-02 a      1133     1     5     2    13
 -3.7368077956427942E-01 a      1134     1     5     2    14
  9.8273357920582094E-01 a      1135     1     5     2    15
 -2.5068275897814835E-01 a      1136     1     5     2    16
  3.6056673962532776E-01 a      1137     1     5     2    17
  9.5236418137132781E-02 a      1138     1     5     2    18
 -5.2706842125936915E-01 a      1139     1     5     2    19
 -3.1617521017539207E-01 a      1140     1     5     2    20
  3.7561023337114285E-01 a      1141     1     6     2     1
  2.7240097685876336E-01 a      1142     1     6     2     2
  1.8053685807352562E-01 a      1143     1     6     2     3
  1.2752702933422437E+00 a      1144     1     6     2     4
  4.7134081918483350E-01 a      1145     1     6     2     5
  3.6902771433228476E-01 a      1146     1     6     2     6
  7.1469706332812230E-02 a      1147     1     6     2     7
  7.8941365112109074E-01 a      1148     1     6     2     8
  1.7846247333450787E-02 a      1149     1     6     2     9
 -7.2176803284508617E-01 a      1150     1     6     2    10
  2.9070362802192384E-01 a      1151     1     6     2    11
  2.0419725844034529E-02 a      1152     1     6     2    12
  4.5854451859106482E-01 a      1153     1     6     2    13
  5.7268642738309150E-01 a      1154     1     6     2    14
  1.2620391453665587E+00 a      1155     1     6     2    15
 -3.1841679442660342E-01 a      1156     1     6     2    16
  6.2750555209810333E-01 a      1157     1     6     2    17
  1.2653043224416199E-01 a      1158     1     6     2    18
 -1.4878256763597442E-01 a      1159     1     6     2    19
 -7.6546524158434126E-01 a      1160     1     6     2    20
 -8.4887205342351932E-02 a      1161     1     7     2     1
 -3.4447669478783131E-02 a      1162     1     7     2     2
 -5.4594397387346416E-01 a      1163     1     7     2     3
  1.5548575076372504E+00 a      1164     1     7     2     4
  4.2891985882842060E-01 a      1165     1     7     2     5
 -1.9143702618636127E-01 a      1166     1     7     2     6
 -4.9295278624077360E-01 a      1167     1     7     2     7
  2.6413542142897856E-01 a      1168     1     7     2     8
 -4.7503730181894244E-01 a      1169     1     7     2     9
 -1.4172950855835778E-01 a      1170     1     7     2    10
  8.3354201870029940E-02 a      1171     1     7     2    11
  2.9956882576086713E-01 a      1172     1     7     2    12
  4.4674366037700353E-01 a      1173     1     7     2    13
  7.9598418774838064E-01 a      1174     1     7     2    14
 -3.7818833175392647E-01 a      1175     1     7     2    15
 -7.2057696092420798E-02 a      1176     1     7     2    16
  4.0478664278719828E-01 a      1177     1     7     2    17
 -7.3917054047176481E-02 a      1178     1     7     2    18
  6.5622765747534695E-01 a      1179     1     7     2    19
  1.7082008051482545E-01 a      1180     1     7     2    20
 -2.5651630432864719E-01 a      1181     1     8     2     1
  2.5541756873723354E-01 a      1182     1     8     2     2
  8.4856608247495080E-01 a      1183     1     8     2     3
 -5.9564823333684534E-02 a      1184     1     8     2     4
 -1.7767199406443648E-01 a      1185     1     8     2     5
 -4.6377508051929744E-01 a      1186     1     8     2     6
  3.8026951727319669E-01 a      1187     1     8     2     7
 -5.5201932831932020E-03 a      1188     1     8     2     8
  7.9319548546414909E-01 a      1189     1     8     2     9
  7.9706634629808329E-02 a      1190     1     8     2    10
 -3.3014768153628349E-01 a      1191     1     8     2    11
 -4.4478867681974327E-01 a      1192     1     8     2    12
 -9.6731049446538847E-02 a      1193     1     8     2    13
 -8.2238390271316009E-01 a      1194     1     8     2    14
 -6.1571365709455228E-01 a      1195     1     8     2    15
 -1.9001297349514290E-01 a      1196     1     8     2    16
  7.1809114082179340E-02 a      1197     1     8     2    17
 -2.5315467385237672E-01 a      1198     1     8     2    18
  1.0656187146577314E-01 a      1199     1     8     2    19
  3.8755993443903791E-02 a      1200     1     8     2    20
 -4.1618799661191896E-01 a      1201     1     9     2     1
  9.5555606362196799E-01 a      1202     1     9     2     2
  2.1828146659483655E-01 a      1203     1     9     2     3
  3.4205373309787124E-01 a      1204     1     9     2     4
 -7.4650615261281683E-01 a      1205     1     9     2     5
 -4.7483636463976192E-01 a      1206     1     9     2     6
 -2.3107836211026281E-01 a      1207     1     9     2     7
 -1.6336354409852058E-01 a      1208     1     9     2     8
 -1.6863518860617412E-02 a      1209     1     9     2     9
  5.1879794251744626E-01 a      1210     1     9     2    10
 -8.8328419050491061E-02 a      1211     1     9     2    11
 -3.4171616609158023E-01 a      1212     1     9     2    12
  5.3465399376511213E-01 a      1213     1     9     2    13
  5.3283436024860942E-01 a      1214     1     9     2    14
  1.5973458612476057E-01 a      1215     1     9     2    15
 -6.3337594588187707E-01 a      1216     1     9     2    16
  1.0514038140060997E+00 a      1217     1     9     2    17
  5.9740954267595092E-01 a      1218     1     9     2    18
 -1.3640894809786189E-01 a      1219     1     9     2    19
  5.7481038501109244E-03 a      1220     1     9     2    20
 -3.2828054365285281E-01 a      1221     1    10     2     1
 -4.3050098075475815E-02 a      1222     1    10     2     2
  6.7076053389945572E-02 a      1223     1    10     2     3
 -5.5984318508910169E-02 a      1224     1    10     2     4
  2.4717460007029121E-01 a      1225     1    10     2     5
 -2.4501122289014281E-03 a      1226     1    10     2     6
  1.1131426265683775E-01 a      1227     1    10     2     7
  8.1243669050785478E-02 a      1228     1    10     2     8
 -3.0729028416057885E-01 a      1229     1    10     2     9
  3.0137750521320317E-01 a      1230     1    10     2    10
 -3.8601973713372600E-01 a      1231     1    10     2    11
  3.4093403044528720E-01 a      1232     1    10     2    12
  1.6755814151126866E-01 a      1233     1    10     2    13
  2.2036390789944686E-02 a      1234     1    10     2    14
 -1.0202571241810898E+00 a      1235     1    10     2    15
  3.2073024520698018E-01 a      1236     1    10     2    16
 -5.6280053936167507E-01 a      1237     1    10     2    17
 -1.0308224274830441E-02 a      1238     1    10     2    18
  2.2715421955829665E-01 a      1239     1    10     2    19
 -3.6247179927900541E-01 a      1240     1    10     2    20
  6.9023484679054270E-01 a      1241     1    11     2     1
 -2.2937730246054736E-01 a      1242     1    11     2     2
  5.2048813572830277E-01 a      1243     1    11     2     3
 -6.9033225999519798E-01 a      1244     1    11     2     4
 -5.5334984570167924E-02 a      1245     1    11     2     5
  8.7113583959379515E-02 a      1246     1    11     2     6
 -4.5777801601024315E-01 a      1247     1    11     2     7
  2.7196632729426057E-01 a      1248     1    11     2     8
  5.7567882232607404E-01 a      1249     1    11     2     9
 -4.5265129415688644E-02 a      1250     1    11     2    10
 -8.0457148196379502E-01 a      1251     1    11     2    11
 -4.4791072872248999E-01 a      1252     1    11     2    12
 -1.7724420832440685E-01 a      1253     1    11     2    13
  1.1149090611522847E+00 a      1254     1    11     2    14
  5.1818077008003827E-01 a      1255     1    11     2    15
 -1.7102056484008960E-01 a      1256     1    11     2    16
 -7.6844955523612435E-01 a      1257     1    11     2    17
  2.6757999799310422E-01 a      1258     1    11     2    18
  6.6524665558970497E-01 a      1259     1    11     2    19
  4.7234119629449650E-01 a      1260     1    11     2    20
  3.7563096700364618E-01 a      1261     1    12     2     1
 -1.2310850805150092E-01 a      1262     1    12     2     2
 -5.0338082407603035E-01 a      1263     1    12     2     3
  6.7785722357037215E-01 a      1264     1    12     2     4
 -3.5166778601456622E-01 a      1265     1    12     2     5
 -3.5208812310869431E-01 a      1266     1    12     2     6
 -1.0466299968916153E-01 a      1267     1    12     2     7
  4.6013942847829531E-01 a      1268     1    12     2     8
 -2.9284233693377593E-01 a      1269     1    12     2     9
 -2.0422867695899971E-01 a      1270     1    12     2    10
  3.0681931196254546E-02 a      1271     1    12     2    11
 -9.6490043248933710E-01 a      1272     1    12     2    12
  6.1395779658878047E-01 a      1273     1    12     2    13
 -5.7148265083115679E-01 a      1274     1    12     2    14
 -1.4113078411521840E-01 a      1275     1    12     2    15
  5.5648355138042324E-02 a      1276     1    12     2    16
 -9.2934126942178452E-01 a      1277     1    12     2    17
  1.1913856877111470E-01 a      1278     1    12     2    18
 -7.7929545814697965E-01 a      1279     1    12     2    19
  3.4072098207536700E-01 a      1280     1    12     2    20
 -5.4023177421714053E-01 a      1281     1    13     2     1
 -4.8056692033622533E-01 a      1282     1    13     2     2
  2.9718489188859959E-01 a      1283     1    13     2     3
  7.9710102516664205E-01 a      1284     1    13     2     4
 -7.7786485231876679E-01 a      1285     1    13     2     5
 -2.9469024565035462E-01 a      1286     1    13     2     6
  5.7257776364624591E-01 a      1287     1    13     2     7
  1.6199947149657656E-01 a      1288     1    13     2     8
  5.1657502375184550E-01 a      1289     1    13     2     9
  1.0702762471568250E+00 a      1290     1    13     2    10
  1.1673852865096156E-01 a      1291     1    13     2    11
  1.7794073496939877E-01 a      1292     1    13     2    12
 -2.4386511769786751E-01 a      1293     1    13     2    13
  2.1418199541045577E-01 a      1294     1    13     2    14
  6.3349210947117457E-02 a      1295     1    13     2    15
 -9.6291322639543053E-01 a      1296     1    13     2    16
 -5.0247846789455619E-01 a      1297     1    13     2    17
 -2.5095949332195938E-01 a      1298     1    13     2    18
  3.4526392307982358E-02 a      1299     1    13     2    19
 -2.9218891060363446E-03 a      1300     1    13     2    20
  3.7328043196965871E-01 a      1301     1    14     2     1
 -9.2206430275975682E-01 a      1302     1    14     2     2
  5.0580261102939950E-01 a      1303     1    14     2     3
 -5.3373222564352049E-02 a      1304     1    14     2     4
 -1.0425314007670201E+00 a      1305     1    14     2     5
 -4.3844140081928790E-01 a      1306     1    14     2     6
  3.7995776914346396E-01 a      1307     1    14     2     7
 -1.7935036794989961E-02 a      1308     1    14     2     8
 -4.4174968549744884E-02 a      1309     1    14     2     9
 -1.0381391763691334E+00 a      1310     1    14     2    10
 -2.1514323831010357E-01 a      1311     1    14     2    11
  5.4271941201376528E-01 a      1312     1    14     2    12
  3.8589977023930777E-01 a      1313     1    14     2    13
  1.9974078682169019E-01 a      1314     1    14     2    14
  1.1610364329427867E+00 a      1315     1    14     2    15
 -6.9603607719155502E-01 a      1316     1    14     2    16
  6.4589247582250719E-01 a      1317     1    14     2    17
  5.5685029036107203E-01 a      1318     1    14     2    18
  3.3380759654257253E-01 a      1319     1    14     2    19
  1.6196568156516378E-01 a      1320     1    14     2    20
  3.2617172583926407E-01 a      1321     1    15     2     1
 -4.8141735901628036E-01 a      1322     1    15     2     2
 -8.4735287984082264E-01 a      1323     1    15     2     3
  6.1825038546710995E-02 a      1324     1    15     2     4
  1.7473221514176654E-01 a      1325     1    15     2     5
 -2.4140389866290884E-02 a      1326     1    15     2     6
  1.4319591923189975E-01 a      1327     1    15     2     7
  4.8973318571282815E-01 a      1328     1    15     2     8
 -4.4290259724493281E-01 a      1329     1    15     2     9
  5.5503345163454143E-01 a      1330     1    15     2    10
  5.1822982230584136E-01 a      1331     1    15     2    11
  6.0266797058973587E-02 a      1332     1    15     2    12
 -1.5541671888087416E-01 a      1333     1    15     2    13
  4.1100301266776440E-01 a      1334     1    15     2    14
  1.0276124108152844E+00 a      1335     1    15     2    15
 -4.3936306863700914E-01 a      1336     1    15     2    16
 -5.3715642650189244E-01 a      1337     1    15     2    17
 -2.3297468078721803E-01 a      1338     1    15     2    18
 -3.9015892580651451E-01 a      1339     1    15     2    19
  4.4185377465658959E-01 a      1340     1    15     2    20
  3.2150030181222217E-01 a      1341     1    16     2     1
  2.1498593955162915E-01 a      1342     1    16     2     2
  3.5772298446773210E-01 a      1343     1    16     2     3
 -8.8200050673082109E-01 a      1344     1    16     2     4
  4.6782395686117112E-01 a      1345     1    16     2     5
  6.9190220812649383E-01 a      1346     1    16     2     6
 -4.4234852938170373E-02 a      1347     1    16     2     7
 -1.0496308715869947E-01 a      1348     1    16     2     8
 -1.2040377673389180E-01 a      1349     1    16     2     9
  6.1732721495511134E-01 a      1350     1    16     2    10
  4.6547236954325755E-01 a      1351     1    16     2    11
  4.7780687760324614E-01 a      1352     1    16     2    12
 -2.4022874564644214E-01 a      1353     1    16     2    13
  7.8937725031561523E-01 a      1354     1    16     2    14
  8.1869395319201599E-01 a      1355     1    16     2    15
 -2.6323780733881058E-01 a      1356     1    16     2    16
  4.5402536750906014E-01 a      1357     1    16     2    17
  4.6814293302517451E-01 a      1358     1    16     2    18
 -2.0736216654498074E-01 a      1359     1    16     2    19
 -1.9528202848628853E-01 a      1360     1    16     2    20
 -5.2087373999982844E-01 a      1361     1    17     2     1
 -3.2737457495832945E-01 a      1362     1    17     2     2
  1.4585144981685041E-01 a      1363     1    17     2     3
  8.7903509465316457E-02 a      1364     1    17     2     4
 -2.6547944336816925E-01 a      1365     1    17     2     5
  6.8031812812445058E-01 a      1366     1    17     2     6
  6.1374923436295725E-01 a      1367     1    17     2     7
 -1.3527844097630061E-02 a      1368     1    17     2     8
  2.7163140706851389E-02 a      1369     1    17     2     9
 -4.0425613211373328E-02 a      1370     1    17     2    10
  4.7799224636091375E-01 a      1371     1    17     2    11
  5.8576958518249322E-01 a      1372     1    17     2    12
  2.5036667816771813E-01 a      1373     1    17     2    13
  9.3043216937035700E-01 a      1374     1    17     2    14
 -1.8006709126605591E-01 a      1375     1    17     2    15
 -1.2334391509215946E-01 a      1376     1    17     2    16
  1.1607898024078357E-01 a      1377     1    17     2    17
 -3.0092204715409054E-01 a      1378     1    17     2    18
  1.5302022752032848E-01 a      1379     1    17     2    19
 -4.9915380341528370E-01 a      1380     1    17     2    20
 -4.9334863444390042E-01 a      1381     1    18     2     1
 -2.0769887067259554E-01 a      1382     1    18     2     2
  3.4140631682384304E-01 a      1383     1    18     2     3
  2.6664053650876179E-01 a      1384     1    18     2     4
  4.6905043760077958E-01 a      1385     1    18     2     5
 -7.5087928500607237E-01 a      1386     1    18     2     6
  8.2926417500466498E-01 a      1387     1    18     2     7
 -6.6993120234158243E-01 a      1388     1    18     2     8
 -1.6269875569045647E-01 a      1389     1    18     2     9
 -6.4697511418925346E-01 a      1390     1    18     2    10
 -1.0015443602773035E-01 a      1391     1    18     2    11
 -8.2355758841450233E-01 a      1392     1    18     2    12
 -2.0853156675816553E-02 a      1393     1    18     2    13
 -2.8801100406177071E-01 a      1394     1    18     2    14
  8.1602444602784407E-01 a      1395     1    18     2    15
  4.5715285010762968E-01 a      1396     1    18     2    16
 -1.2040633087198256E-01 a      1397     1    18     2    17
  1.1267352793491756E+00 a      1398     1    18     2    18
 -9.0900165608574235E-01 a      1399     1    18     2    19
 -2.7821202471924357E-02 a      1400     1    18     2    20
 -1.7838611268101004E-01 a      1401     1    19     2     1
  1.1173010798778393E+00 a      1402     1    19     2     2
  4.9463376325560232E-01 a      1403     1    19     2     3
 -3.1083457735265702E-01 a      1404     1    19     2     4
 -5.5114676788772625E-02 a      1405     1    19     2     5
 -5.2835477526108698E-01 a      1406     1    19     2     6
  3.4277448667513616E-01 a      1407     1    19     2     7
 -1.8240998224009622E-01 a      1408     1    19     2     8
 -7.8603536677824082E-01 a      1409     1    19     2     9
 -1.5720843169262100E-01 a      1410     1    19     2    10
 -2.0132047525378913E-01 a      1411     1    19     2    11
 -3.8661821946967612E-01 a      1412     1    19     2    12
 -2.0412617222151080E-01 a      1413     1    19     2    13
  2.2155596115252355E-01 a      1414     1    19     2    14
  1.6670392927193081E-01 a      1415     1    19     2    15
 -3.4972473804577971E-02 a      1416     1    19     2    16
  4.8713937793321629E-02 a      1417     1    19     2    17
  2.4580428043616812E-01 a      1418     1    19     2    18
  6.8242281763683035E-02 a      1419     1    19     2    19
 -4.1629658142476722E-01 a      1420     1    19     2    20
 -3.5343040084198990E-01 a      1421     1    20     2     1
 -7.3101627778954104E-01 a      1422     1    20     2     2
 -1.4668589656300562E-01 a      1423     1    20     2     3
 -1.2296670234106562E-01 a      1424     1    20     2     4
 -8.0094435006895531E-02 a      1425     1    20     2     5
 -5.5470745140146760E-01 a      1426     1    20     2     6
 -7.8642739514926552E-03 a      1427     1    20     2     7
  5.5549363564134679E-01 a      1428     1    20     2     8
 -4.6526652891746609E-02 a      1429     1    20     2     9
 -8.9874609999787203E-01 a      1430     1    20     2    10
  4.9285959095011475E-02 a      1431     1    20     2    11
 -4.5915678371639890E-01 a      1432     1    20     2    12
  6.1426326234140172E-01 a      1433     1    20     2    13
  7.2766439814002951E-02 a      1434     1    20     2    14
  3.6264236844929087E-01 a      1435     1    20     2    15
 -3.0820896414270178E-02 a      1436     1    20     2    16
  5.3869215175556562E-01 a      1437     1    20     2    17
 -9.9066087958668836E-02 a      1438     1    20     2    18
  4.0190204549680136E-01 a      1439     1    20     2    19
 -1.8404857806475303E-01 a      1440     1    20     2    20
  1.0287869473001456E-01 b      1441     2     1
 -4.0008503697720915E-01 b      1442     2     2
 -1.3544325890332396E+00 b      1443     2     3
  1.4266513000646224E+00 b      1444     2     4
  9.7867216624153675E-01 b      1445     2     5
 -4.5721826797315318E-01 b      1446     2     6
  1.5602336600438860E+00 b      1447     2     7
 -2.4098796690407404E-01 b      1448     2     8
 -1.0780169141138709E+00 b      1449     2     9
 -2.7135324697172236E-01 b      1450     2    10
  1.1865563180166381E+00 b      1451     2    11
  5.3519399547590163E-01 b      1452     2    12
 -1.3844458674896223E+00 b      1453     2    13
  1.3580061225672160E-01 b      1454     2    14
  1.0742771016209258E+00 b      1455     2    15
  6.1178572217983329E-01 b      1456     2    16
  5.5183965104763077E-01 b      1457     2    17
 -1.5273867795153191E+00 b      1458     2    18
  9.3082037562602737E-01 b      1459     2    19
 -1.4373287368878647E+00 b      1460     2    20
 -7.4493483509780734E-01 a      1461     2     1     3     1
 -1.3878121726596152E-01 a      1462     2     2     3     1
 -2.5781278502288298E+00 a      1463     2     3     3     1
  3.0251544919544040E+00 a      1464     2     4     3     1
  1.7488419938075175E+00 a      1465     2     5     3     1
 -3.1684062103431315E-01 a      1466     2     6     3     1
  1.1762610888075036E+00 a      1467     2     7     3     1
 -1.3385644635853953E+00 a      1468     2     8     3     1
 -1.9296871985250668E+00 a      1469     2     9     3     1
 -2.3551780434713424E-01 a      1470     2    10     3     1
  1.3253521497067797E+00 a      1471     2    11     3     1
 -1.0355545832232327E+00 a      1472     2    12     3     1
 -8.3353903948693009E-01 a      1473     2    13     3     1
  2.4550059680994871E-01 a      1474     2    14     3     1
  4.3086791794538121E-01 a      1475     2    15     3     1
  9.6706264381643203E-01 a      1476     2    16     3     1
  5.2181622993167076E-01 a      1477     2    17     3     1
 -9.5431344865661294E-01 a      1478     2    18     3     1
 -5.5191379708815158E-01 a      1479     2    19     3     1
 -5.8408511628264936E-01 a      1480     2    20     3     1
  3.5049334336768294E+00 b      1481     3     1
