################################################################################
# Neural network connection values (weights and biases).
################################################################################
# Col  Name       Description
################################################################################
# 1    connection Neural network connection value.
# 2    t          Connection type (a = weight, b = bias).
# 3    index      Index enumerating weights.
# 4    l_s        Starting point layer (end point layer for biases).
# 5    n_s        Starting point neuron in starting layer (end point neuron for biases).
# 6    l_e        End point layer.
# 7    n_e        End point neuron in end layer.
################################################################################
#                      1 2         3     4     5     6     7
#             connection t     index   l_s   n_s   l_e   n_e
############################################################
 -1.9595642195234096E-02 a         1     0     1     1     1
 -2.1525871404974761E-01 a         2     0     1     1     2
 -6.1965682824613488E-01 a         3     0     1     1     3
  2.1302510105517530E-01 a         4     0     1     1     4
 -1.5493351711286571E-01 a         5     0     1     1     5
 -2.9344700492508097E-01 a         6     0     1     1     6
 -3.9727498236024716E-01 a         7     0     1     1     7
 -2.4755482427736838E-01 a         8     0     1     1     8
  1.4978685833088329E-01 a         9     0     1     1     9
 -2.4543512367171663E-03 a        10     0     1     1    10
  1.8818921744395142E-01 a        11     0     1     1    11
  3.6159941268368928E-01 a        12     0     1     1    12
  1.5546381423777988E-01 a        13     0     1     1    13
 -1.0940332468060132E-01 a        14     0     1     1    14
  5.2814037197475405E-01 a        15     0     1     1    15
 -8.9556875513691736E-02 a        16     0     1     1    16
 -2.4291571316892974E-01 a        17     0     1     1    17
 -5.3794957080761305E-02 a        18     0     1     1    18
  1.4412764082899121E-01 a        19     0     1     1    19
  5.2352697992238983E-01 a        20     0     1     1    20
  1.7964338924525172E-01 a        21     0     2     1     1
  2.4708166882476235E-02 a        22     0     2     1     2
 -1.8986909602210950E-01 a        23     0     2     1     3
 -3.3945345800804699E-01 a        24     0     2     1     4
  2.7290698212468774E-02 a        25     0     2     1     5
 -3.5061547427796311E-02 a        26     0     2     1     6
  6.2574194250366269E-02 a        27     0     2     1     7
 -8.4966418905970294E-03 a        28     0     2     1     8
  5.1237485449768594E-01 a        29     0     2     1     9
  1.4713842533856913E-01 a        30     0     2     1    10
 -6.8349033110843782E-02 a        31     0     2     1    11
  7.3888859391244122E-01 a        32     0     2     1    12
 -1.1069220327272253E-01 a        33     0     2     1    13
  1.0283995627408953E-01 a        34     0     2     1    14
  2.2309039791246132E-01 a        35     0     2     1    15
  2.0633480245393512E-01 a        36     0     2     1    16
 -3.0692519657045957E-02 a        37     0     2     1    17
 -9.8819801077860495E-02 a        38     0     2     1    18
  6.6192654443769068E-03 a        39     0     2     1    19
  4.5614301618443909E-01 a        40     0     2     1    20
 -4.3160376144022417E-01 a        41     0     3     1     1
 -2.4235854788361919E-01 a        42     0     3     1     2
  4.0067406466337913E-01 a        43     0     3     1     3
  3.4478087968616511E-01 a        44     0     3     1     4
 -6.6081003148092621E-02 a        45     0     3     1     5
  2.6742869911993977E-01 a        46     0     3     1     6
 -2.5605934335353259E-01 a        47     0     3     1     7
  1.2433201466465374E-01 a        48     0     3     1     8
  2.4164821936477734E-01 a        49     0     3     1     9
 -4.3551131950588401E-01 a        50     0     3     1    10
 -1.4085141660697967E-01 a        51     0     3     1    11
 -1.4360991480155391E-01 a        52     0     3     1    12
  3.9914364687555534E-02 a        53     0     3     1    13
 -1.3094132039881179E-01 a        54     0     3     1    14
 -2.7814700825321448E-01 a        55     0     3     1    15
  1.2531217598749528E-01 a        56     0     3     1    16
 -1.5996359946272526E-01 a        57     0     3     1    17
  7.4635515032400540E-02 a        58     0     3     1    18
 -5.8555541995252813E-02 a        59     0     3     1    19
 -5.5506535327067641E-01 a        60     0     3     1    20
  3.3916416726295258E-02 a        61     0     4     1     1
 -1.6578310320449610E-01 a        62     0     4     1     2
  7.4508177397646869E-01 a        63     0     4     1     3
 -1.5534776464660135E-02 a        64     0     4     1     4
  2.7781597223754911E-01 a        65     0     4     1     5
 -1.7865971065134850E-02 a        66     0     4     1     6
  2.9864083452516804E-01 a        67     0     4     1     7
  3.3599314693669791E-01 a        68     0     4     1     8
 -2.5015877317326657E-01 a        69     0     4     1     9
 -5.4897570870957493E-02 a        70     0     4     1    10
  7.6337894994501318E-02 a        71     0     4     1    11
 -6.1312051016174673E-01 a        72     0     4     1    12
 -2.3019322251614358E-01 a        73     0     4     1    13
 -4.2942342885002155E-01 a        74     0     4     1    14
 -3.4181027931383157E-01 a        75     0     4     1    15
 -9.9023294068031009E-02 a        76     0     4     1    16
  2.5336787913824493E-01 a        77     0     4     1    17
 -2.6027806533032877E-01 a        78     0     4     1    18
 -2.6368862866625620E-01 a        79     0     4     1    19
 -5.7733817986827174E-01 a        80     0     4     1    20
 -5.1600653725994367E-03 a        81     0     5     1     1
  4.0437394072956462E-02 a        82     0     5     1     2
 -1.0712091351728607E-01 a        83     0     5     1     3
 -7.3911524028089515E-01 a        84     0     5     1     4
  1.1227085169268482E-01 a        85     0     5     1     5
 -3.0339528614162281E-01 a        86     0     5     1     6
 -1.0292840175459849E-02 a        87     0     5     1     7
  8.2292337867349497E-01 a        88     0     5     1     8
 -2.3821766458566118E-01 a        89     0     5     1     9
  5.8984810912304664E-01 a        90     0     5     1    10
 -1.9383235457170944E-01 a        91     0     5     1    11
 -1.1724102606757188E-02 a        92     0     5     1    12
 -3.3203872338168419E-02 a        93     0     5     1    13
  5.1750334497827413E-02 a        94     0     5     1    14
  1.6183917153126404E-01 a        95     0     5     1    15
 -2.0615392932562063E-01 a        96     0     5     1    16
  1.0769127376375424E-01 a        97     0     5     1    17
 -4.1819761279152184E-01 a        98     0     5     1    18
 -3.4561551954484171E-01 a        99     0     5     1    19
  3.0021974199143736E-01 a       100     0     5     1    20
  3.5324676384592141E-01 a       101     0     6     1     1
  1.1829876725743878E-01 a       102     0     6     1     2
  6.7737298678726077E-01 a       103     0     6     1     3
 -5.2547713697282905E-01 a       104     0     6     1     4
  4.4304810606664871E-02 a       105     0     6     1     5
 -2.9811102909759479E-01 a       106     0     6     1     6
  1.0150556086997575E-01 a       107     0     6     1     7
  2.4078027528886170E-01 a       108     0     6     1     8
 -8.2161057408243565E-01 a       109     0     6     1     9
  2.8372128994628886E-02 a       110     0     6     1    10
 -3.0642433069793656E-01 a       111     0     6     1    11
 -6.5988027257113735E-01 a       112     0     6     1    12
 -3.0111044152537647E-01 a       113     0     6     1    13
 -1.6188116620236984E-01 a       114     0     6     1    14
 -2.2717375030122314E-01 a       115     0     6     1    15
 -4.3537019211863107E-02 a       116     0     6     1    16
 -5.6937524744791645E-01 a       117     0     6     1    17
 -1.6891133402442735E-02 a       118     0     6     1    18
 -1.1658693525488723E-01 a       119     0     6     1    19
 -4.2783403763714623E-01 a       120     0     6     1    20
 -6.6929824947072658E-01 a       121     0     7     1     1
  4.2724368287238013E-01 a       122     0     7     1     2
 -5.9779633417869105E-01 a       123     0     7     1     3
  6.5685970404730801E-02 a       124     0     7     1     4
 -2.4574646329313093E-01 a       125     0     7     1     5
  1.0655459940397470E-01 a       126     0     7     1     6
 -4.9104801047137614E-01 a       127     0     7     1     7
 -3.9043148073854061E-01 a       128     0     7     1     8
 -8.2770819762169975E-02 a       129     0     7     1     9
  4.1038160507336097E-01 a       130     0     7     1    10
  2.4133340802186876E-01 a       131     0     7     1    11
  1.0884360991458251E-01 a       132     0     7     1    12
  7.2089503532340393E-01 a       133     0     7     1    13
  5.0476101223921022E-01 a       134     0     7     1    14
  3.4665061329078295E-01 a       135     0     7     1    15
 -2.9136276359125666E-02 a       136     0     7     1    16
  1.0276423817754636E+00 a       137     0     7     1    17
 -3.6835482129904712E-01 a       138     0     7     1    18
  6.5687366058552160E-02 a       139     0     7     1    19
  7.7893237662554815E-01 a       140     0     7     1    20
  3.6478267318674062E-01 a       141     0     8     1     1
 -2.1091060101212034E-01 a       142     0     8     1     2
  3.1629072137976783E-01 a       143     0     8     1     3
 -4.3830692602506230E-02 a       144     0     8     1     4
  1.7300292957734101E-01 a       145     0     8     1     5
 -3.2698569550599121E-01 a       146     0     8     1     6
  3.9680669199874530E-01 a       147     0     8     1     7
 -6.1671450481406653E-02 a       148     0     8     1     8
  1.4399878573732552E-01 a       149     0     8     1     9
 -9.2074083317368646E-02 a       150     0     8     1    10
  3.3729407260510179E-02 a       151     0     8     1    11
  1.7060601488515956E-01 a       152     0     8     1    12
 -3.9482513899839761E-01 a       153     0     8     1    13
  6.2447700755761462E-02 a       154     0     8     1    14
 -9.2718552413666472E-02 a       155     0     8     1    15
 -3.1814438150743585E-02 a       156     0     8     1    16
 -5.8341568176612857E-01 a       157     0     8     1    17
 -2.2012784705358826E-01 a       158     0     8     1    18
 -2.5175704453028125E-01 a       159     0     8     1    19
 -5.9670492584273604E-01 a       160     0     8     1    20
  9.1495556140148732E-02 a       161     0     9     1     1
 -4.7059014188909332E-01 a       162     0     9     1     2
 -1.6600464434444698E-01 a       163     0     9     1     3
 -5.5855015989513236E-02 a       164     0     9     1     4
 -1.9173618391369443E-01 a       165     0     9     1     5
 -2.3842461524000941E-01 a       166     0     9     1     6
 -2.1573259011925347E-01 a       167     0     9     1     7
 -1.6877267861008285E-01 a       168     0     9     1     8
 -2.5443280489693837E-01 a       169     0     9     1     9
 -1.6418530006026247E-01 a       170     0     9     1    10
  5.1118517801663010E-01 a       171     0     9     1    11
 -2.0010456557082815E-01 a       172     0     9     1    12
 -3.5443573805076506E-01 a       173     0     9     1    13
  7.4579743238685359E-01 a       174     0     9     1    14
  1.6930941064484897E-01 a       175     0     9     1    15
 -4.1791715580237804E-01 a       176     0     9     1    16
 -1.9999658626922071E-01 a       177     0     9     1    17
 -3.5682176002679317E-01 a       178     0     9     1    18
  1.1636162996540578E-02 a       179     0     9     1    19
  1.5241264881005018E-01 a       180     0     9     1    20
 -1.6473419629618147E-01 a       181     0    10     1     1
 -1.3100808946155129E-01 a       182     0    10     1     2
 -8.2290775695310639E-02 a       183     0    10     1     3
  9.2312357370990167E-02 a       184     0    10     1     4
  4.3038891083595675E-02 a       185     0    10     1     5
  1.3817417361162092E-02 a       186     0    10     1     6
 -1.2889824245172624E-01 a       187     0    10     1     7
 -2.8747240801538410E-01 a       188     0    10     1     8
 -5.4412525172182225E-01 a       189     0    10     1     9
  2.0255259316559956E-01 a       190     0    10     1    10
  2.0219136818082145E-01 a       191     0    10     1    11
  1.9231818278891621E-01 a       192     0    10     1    12
 -1.5245824079670503E-01 a       193     0    10     1    13
  1.6497167830468101E-01 a       194     0    10     1    14
  1.4381129351125807E-01 a       195     0    10     1    15
 -1.0142396859646534E-02 a       196     0    10     1    16
  2.1271260979667536E-01 a       197     0    10     1    17
  2.3017348408025898E-01 a       198     0    10     1    18
  1.6452246888824790E-01 a       199     0    10     1    19
 -2.4018849843039392E-01 a       200     0    10     1    20
  9.2310516679424442E-02 a       201     0    11     1     1
  2.5851715214345455E-01 a       202     0    11     1     2
  6.0985916243100409E-02 a       203     0    11     1     3
  1.8284277310305738E-01 a       204     0    11     1     4
  5.0504794736397707E-03 a       205     0    11     1     5
 -2.0542141866733585E-01 a       206     0    11     1     6
  4.5299239333479696E-01 a       207     0    11     1     7
  6.7420574697780691E-02 a       208     0    11     1     8
  2.5718514312136137E-01 a       209     0    11     1     9
  1.9772161254216106E-02 a       210     0    11     1    10
  3.2660180250967280E-01 a       211     0    11     1    11
 -8.4493209139398524E-03 a       212     0    11     1    12
  2.8487160392069116E-01 a       213     0    11     1    13
  2.1901627402260850E-02 a       214     0    11     1    14
  1.2956225833158933E-01 a       215     0    11     1    15
 -2.3171255438728916E-02 a       216     0    11     1    16
  2.4209865930744379E-01 a       217     0    11     1    17
  4.8683907562838818E-01 a       218     0    11     1    18
  1.1468562571639468E-01 a       219     0    11     1    19
  2.0215877896844725E-01 a       220     0    11     1    20
 -1.6773216615817652E-01 a       221     0    12     1     1
 -8.7552227634146804E-03 a       222     0    12     1     2
  1.3279111643096919E-01 a       223     0    12     1     3
 -7.2188398990962382E-02 a       224     0    12     1     4
 -1.9067769904594925E-01 a       225     0    12     1     5
  4.2050938533673998E-01 a       226     0    12     1     6
  4.1964445692945856E-01 a       227     0    12     1     7
  8.1275112747753286E-02 a       228     0    12     1     8
 -7.9280052487807479E-02 a       229     0    12     1     9
  4.0866595624203683E-01 a       230     0    12     1    10
 -2.1287023249852524E-01 a       231     0    12     1    11
  1.0686275396322600E-01 a       232     0    12     1    12
  2.0828355015669769E-01 a       233     0    12     1    13
 -4.0874279363839772E-01 a       234     0    12     1    14
 -1.6890663938677078E-01 a       235     0    12     1    15
 -1.5304398502806937E-01 a       236     0    12     1    16
 -1.2423518755579641E-01 a       237     0    12     1    17
  1.8984376684715956E-01 a       238     0    12     1    18
  1.6923581307689766E-02 a       239     0    12     1    19
  4.1636096457167254E-01 a       240     0    12     1    20
  2.8236065903136293E-01 a       241     0    13     1     1
 -3.0574720879518624E-02 a       242     0    13     1     2
  3.2413123789107469E-02 a       243     0    13     1     3
  2.4367357583247651E-01 a       244     0    13     1     4
  4.4182057728402108E-01 a       245     0    13     1     5
 -2.6201286145677216E-01 a       246     0    13     1     6
 -1.2961311731392844E-01 a       247     0    13     1     7
 -1.3780123911564018E-01 a       248     0    13     1     8
 -2.1157282742095981E-01 a       249     0    13     1     9
 -4.2458862457896934E-01 a       250     0    13     1    10
 -4.3806743524054288E-02 a       251     0    13     1    11
 -1.7331870725943646E-01 a       252     0    13     1    12
  2.3385554862084545E-01 a       253     0    13     1    13
  8.1988811433229081E-01 a       254     0    13     1    14
  1.5979993767366954E-01 a       255     0    13     1    15
 -2.2182061542748749E-01 a       256     0    13     1    16
 -1.0377515397462156E-01 a       257     0    13     1    17
  1.9501474809388183E-01 a       258     0    13     1    18
  4.6672918825109772E-01 a       259     0    13     1    19
  4.8347400520777578E-01 a       260     0    13     1    20
 -8.5870870473351665E-02 a       261     0    14     1     1
  3.5442907122654260E-01 a       262     0    14     1     2
  9.1111941211326139E-02 a       263     0    14     1     3
 -4.0738540347834795E-01 a       264     0    14     1     4
 -5.0901905932931346E-01 a       265     0    14     1     5
 -5.0669026518308080E-01 a       266     0    14     1     6
 -1.2920526240102226E-01 a       267     0    14     1     7
 -4.2293893872219440E-01 a       268     0    14     1     8
  3.3439596315720098E-02 a       269     0    14     1     9
 -1.1054785996678748E-01 a       270     0    14     1    10
 -6.1528898776810470E-01 a       271     0    14     1    11
  2.5543023715410412E-01 a       272     0    14     1    12
 -3.8633736238946631E-01 a       273     0    14     1    13
 -2.1588144168785717E-01 a       274     0    14     1    14
  4.3012447844220997E-01 a       275     0    14     1    15
 -2.7539630202873344E-01 a       276     0    14     1    16
  4.7261828329881117E-01 a       277     0    14     1    17
 -4.2739675888651588E-02 a       278     0    14     1    18
 -7.0143063844104098E-02 a       279     0    14     1    19
 -5.2210050434576305E-01 a       280     0    14     1    20
 -3.1248714575167752E-01 a       281     0    15     1     1
  2.9493798176199870E-01 a       282     0    15     1     2
  3.2469208491127076E-02 a       283     0    15     1     3
 -3.8038812989468849E-04 a       284     0    15     1     4
 -4.4162323555940297E-01 a       285     0    15     1     5
 -4.5258609344013448E-02 a       286     0    15     1     6
 -2.3407721501030465E-01 a       287     0    15     1     7
  5.0355541659594094E-01 a       288     0    15     1     8
  2.1401007135428338E-01 a       289     0    15     1     9
  1.4219885893114273E-01 a       290     0    15     1    10
  2.1169640664205563E-01 a       291     0    15     1    11
  6.1005993086942441E-02 a       292     0    15     1    12
 -1.3194042023068575E-01 a       293     0    15     1    13
 -5.2890134055785643E-01 a       294     0    15     1    14
 -8.9229260437604339E-03 a       295     0    15     1    15
  3.1418553102192620E-01 a       296     0    15     1    16
  5.8226290630351472E-02 a       297     0    15     1    17
 -2.7731783373521401E-01 a       298     0    15     1    18
 -2.1521863734327518E-01 a       299     0    15     1    19
 -6.5177366723373903E-02 a       300     0    15     1    20
  6.5019815733586517E-01 a       301     0    16     1     1
 -8.3797365232312038E-01 a       302     0    16     1     2
 -1.5219013813842519E-01 a       303     0    16     1     3
 -5.2232422688013924E-01 a       304     0    16     1     4
  1.0399002554107994E+00 a       305     0    16     1     5
  2.9418307407347610E-01 a       306     0    16     1     6
 -9.1929104885803625E-01 a       307     0    16     1     7
  5.6601071585918383E-01 a       308     0    16     1     8
  2.2983941333861510E-01 a       309     0    16     1     9
 -1.0118475569769864E-01 a       310     0    16     1    10
 -2.5711666463500388E-01 a       311     0    16     1    11
 -3.3640439559673863E-01 a       312     0    16     1    12
  7.7670618792957447E-01 a       313     0    16     1    13
  2.0041588334451959E-03 a       314     0    16     1    14
  4.8665197019130031E-02 a       315     0    16     1    15
 -6.5706728201943332E-01 a       316     0    16     1    16
  1.2846247288169399E+00 a       317     0    16     1    17
  4.5863176860787452E-01 a       318     0    16     1    18
  2.5794508241584335E-01 a       319     0    16     1    19
  4.7079841732859257E-01 a       320     0    16     1    20
 -5.4910113785627712E-01 a       321     0    17     1     1
 -1.5224725081611190E-01 a       322     0    17     1     2
  6.7025367188285070E-02 a       323     0    17     1     3
  1.5790285568374618E-01 a       324     0    17     1     4
 -9.9283345981191828E-01 a       325     0    17     1     5
 -1.3984441130873670E-01 a       326     0    17     1     6
  6.6449321470547307E-01 a       327     0    17     1     7
 -7.1050321992598908E-01 a       328     0    17     1     8
 -4.0217640853030467E-01 a       329     0    17     1     9
  8.5427924772010344E-01 a       330     0    17     1    10
  4.4869135991320813E-01 a       331     0    17     1    11
  4.1169835739887556E-01 a       332     0    17     1    12
 -1.2504059078680112E+00 a       333     0    17     1    13
 -6.2118600601718577E-01 a       334     0    17     1    14
 -8.4656655544084788E-02 a       335     0    17     1    15
  5.8387426998816383E-01 a       336     0    17     1    16
 -1.1555599692433487E+00 a       337     0    17     1    17
 -2.9132071356026984E-01 a       338     0    17     1    18
 -4.2829315159360981E-01 a       339     0    17     1    19
 -2.8423730724006979E-01 a       340     0    17     1    20
  1.1620054249035198E-02 a       341     0    18     1     1
  3.9285224953580572E-01 a       342     0    18     1     2
  3.4142626798034853E-01 a       343     0    18     1     3
  7.4290011080197879E-02 a       344     0    18     1     4
 -2.0682562811013755E-01 a       345     0    18     1     5
  2.0556802144446795E-01 a       346     0    18     1     6
  3.0099772263292468E-01 a       347     0    18     1     7
  1.1378812333521524E-01 a       348     0    18     1     8
 -1.3648204233289671E-01 a       349     0    18     1     9
  1.2182420581743950E-01 a       350     0    18     1    10
 -5.0127477342336590E-01 a       351     0    18     1    11
 -7.4866711724697477E-01 a       352     0    18     1    12
 -4.0006827406309675E-01 a       353     0    18     1    13
  9.2676991023486655E-01 a       354     0    18     1    14
  6.0572391270745995E-01 a       355     0    18     1    15
  2.3879015352775082E-01 a       356     0    18     1    16
 -3.6723055226126816E-01 a       357     0    18     1    17
 -3.8233706653380312E-01 a       358     0    18     1    18
 -2.5295090131319919E-02 a       359     0    18     1    19
 -6.5490446451687634E-01 a       360     0    18     1    20
 -1.5500948461390440E-01 a       361     0    19     1     1
 -5.9570851571053085E-01 a       362     0    19     1     2
 -2.1256107277510009E-01 a       363     0    19     1     3
  6.5792881398186642E-01 a       364     0    19     1     4
 -8.3287775987222798E-02 a       365     0    19     1     5
 -1.4120921798382782E-01 a       366     0    19     1     6
  3.8726628595437296E-01 a       367     0    19     1     7
 -5.3812335372366571E-01 a       368     0    19     1     8
  3.2235216045840426E-02 a       369     0    19     1     9
 -7.2176136446887917E-01 a       370     0    19     1    10
 -4.0468780040331713E-02 a       371     0    19     1    11
  3.7012676031081460E-01 a       372     0    19     1    12
  7.7092370727194415E-01 a       373     0    19     1    13
 -2.1813963617982948E-02 a       374     0    19     1    14
 -8.4154909055234511E-02 a       375     0    19     1    15
 -2.9873670340559610E-01 a       376     0    19     1    16
  1.2139078317905814E+00 a       377     0    19     1    17
  7.3366427695950209E-01 a       378     0    19     1    18
 -6.4065028294914853E-02 a       379     0    19     1    19
  7.9445974640768402E-01 a       380     0    19     1    20
  9.5414687974806220E-02 a       381     0    20     1     1
  1.1091687391312881E+00 a       382     0    20     1     2
  1.6227331608929094E-01 a       383     0    20     1     3
 -1.9716982536026495E-01 a       384     0    20     1     4
 -6.2539640247531247E-01 a       385     0    20     1     5
 -2.7309279894129102E-01 a       386     0    20     1     6
  4.5768236682192598E-01 a       387     0    20     1     7
  3.2081258709957966E-01 a       388     0    20     1     8
 -4.3552763657859084E-01 a       389     0    20     1     9
 -2.2116159615871417E-01 a       390     0    20     1    10
 -2.2474513767569809E-01 a       391     0    20     1    11
 -7.6957043316097762E-02 a       392     0    20     1    12
 -1.7603467052419600E-01 a       393     0    20     1    13
  1.8312494632272103E-01 a       394     0    20     1    14
 -2.7683337226271432E-01 a       395     0    20     1    15
  4.7201492670113265E-01 a       396     0    20     1    16
 -1.3702238846503219E+00 a       397     0    20     1    17
 -3.0021255844520245E-01 a       398     0    20     1    18
  1.1720222652562430E-01 a       399     0    20     1    19
 -8.9576512920287607E-02 a       400     0    20     1    20
  6.4088787222456034E-02 a       401     0    21     1     1
  7.3163575008585767E-03 a       402     0    21     1     2
 -3.8036811034785079E-01 a       403     0    21     1     3
 -1.4480556646196643E-01 a       404     0    21     1     4
  4.6440358383014191E-01 a       405     0    21     1     5
  1.7807940548745854E-01 a       406     0    21     1     6
 -7.1637378761308201E-01 a       407     0    21     1     7
 -2.1880938249143947E-01 a       408     0    21     1     8
  7.5988528782869391E-01 a       409     0    21     1     9
 -7.5425429088132323E-02 a       410     0    21     1    10
 -2.2557573354631238E-02 a       411     0    21     1    11
 -3.1394222054957349E-01 a       412     0    21     1    12
  3.6230998050194263E-01 a       413     0    21     1    13
  8.5422816515558231E-01 a       414     0    21     1    14
 -2.1385867520318935E-01 a       415     0    21     1    15
 -2.9356099666010871E-01 a       416     0    21     1    16
  2.7997478960681788E-01 a       417     0    21     1    17
  1.6305694672526541E-01 a       418     0    21     1    18
  7.2900849490827507E-02 a       419     0    21     1    19
  2.9365317802706747E-01 a       420     0    21     1    20
  1.9691646136333241E-01 a       421     0    22     1     1
 -6.1884310611480448E-02 a       422     0    22     1     2
 -1.5542489805634507E-01 a       423     0    22     1     3
 -4.7254206699624129E-01 a       424     0    22     1     4
  3.0507092193356089E-01 a       425     0    22     1     5
 -4.0053811183466281E-01 a       426     0    22     1     6
 -1.0663060315774779E-01 a       427     0    22     1     7
  8.6224579553593417E-02 a       428     0    22     1     8
  5.9790026272649968E-02 a       429     0    22     1     9
 -8.8606542191169557E-01 a       430     0    22     1    10
  3.6826419898408302E-01 a       431     0    22     1    11
  6.4705097828565061E-01 a       432     0    22     1    12
  4.5406735863830899E-01 a       433     0    22     1    13
 -7.4740784110270420E-01 a       434     0    22     1    14
 -8.4163305714651360E-01 a       435     0    22     1    15
 -2.9732390873526322E-02 a       436     0    22     1    16
  6.3656815566283120E-01 a       437     0    22     1    17
  3.6477893393829963E-01 a       438     0    22     1    18
  4.4111234262322896E-01 a       439     0    22     1    19
 -1.7580285676942597E-01 a       440     0    22     1    20
 -4.2411174777927357E-01 a       441     0    23     1     1
  3.7923160914193216E-01 a       442     0    23     1     2
  8.2686459841286614E-02 a       443     0    23     1     3
 -2.9949141589507033E-01 a       444     0    23     1     4
  2.8458919842507927E-02 a       445     0    23     1     5
  3.1547095974049039E-01 a       446     0    23     1     6
 -4.5179437353059598E-01 a       447     0    23     1     7
  3.5966047609346946E-01 a       448     0    23     1     8
  7.1011598100980677E-02 a       449     0    23     1     9
  7.1772664689485943E-01 a       450     0    23     1    10
 -5.9607692802158885E-01 a       451     0    23     1    11
  1.0039697916646038E+00 a       452     0    23     1    12
 -7.6393393044059976E-01 a       453     0    23     1    13
 -4.9743369241952251E-01 a       454     0    23     1    14
  2.2062787241140516E-01 a       455     0    23     1    15
  8.6348630524526548E-01 a       456     0    23     1    16
 -1.3674555975284119E+00 a       457     0    23     1    17
 -5.8704325216875375E-01 a       458     0    23     1    18
 -4.9701278035035729E-01 a       459     0    23     1    19
 -1.3220988855029001E-01 a       460     0    23     1    20
  2.6077444870329258E-02 a       461     0    24     1     1
 -3.8823189457711949E-01 a       462     0    24     1     2
 -1.2768467547795154E-01 a       463     0    24     1     3
 -5.4040989014453984E-02 a       464     0    24     1     4
  8.8789306974091080E-03 a       465     0    24     1     5
 -2.2274577468322440E-02 a       466     0    24     1     6
  2.6733401526097084E-01 a       467     0    24     1     7
  4.5953257833063553E-02 a       468     0    24     1     8
 -3.0968669542084520E-01 a       469     0    24     1     9
  2.0076356878356716E-01 a       470     0    24     1    10
 -6.9554734874579680E-02 a       471     0    24     1    11
 -1.6831609395127392E-01 a       472     0    24     1    12
  1.8301925433755598E-01 a       473     0    24     1    13
  4.4493514410181269E-02 a       474     0    24     1    14
 -1.3382983431028239E-01 a       475     0    24     1    15
  9.3337339485102366E-02 a       476     0    24     1    16
 -3.4392701757549499E-01 a       477     0    24     1    17
  1.0662353338431618E-01 a       478     0    24     1    18
 -2.4440861458877056E-01 a       479     0    24     1    19
  3.2593321887118282E-01 a       480     0    24     1    20
  5.7939133278714905E-01 a       481     0    25     1     1
 -3.2675689348670661E-01 a       482     0    25     1     2
  9.9003288747402177E-02 a       483     0    25     1     3
  5.5963076760454165E-02 a       484     0    25     1     4
  8.3780006930224929E-02 a       485     0    25     1     5
  9.0430642829437524E-02 a       486     0    25     1     6
 -1.6486708195731600E-02 a       487     0    25     1     7
 -4.1101430910307774E-01 a       488     0    25     1     8
  3.5987730015377584E-01 a       489     0    25     1     9
 -3.2797574494666193E-01 a       490     0    25     1    10
  4.8243657486852853E-01 a       491     0    25     1    11
 -1.0764173586995396E+00 a       492     0    25     1    12
 -4.6266492161490097E-01 a       493     0    25     1    13
  1.9200719518564666E-01 a       494     0    25     1    14
  3.8629602297062637E-01 a       495     0    25     1    15
  3.8144278715415242E-01 a       496     0    25     1    16
 -5.7492661227088682E-01 a       497     0    25     1    17
  2.8767921606988617E-01 a       498     0    25     1    18
 -2.9436871508158263E-01 a       499     0    25     1    19
  1.3134693608018863E-01 a       500     0    25     1    20
  3.8626348088832474E-01 a       501     0    26     1     1
 -4.8012901435660033E-01 a       502     0    26     1     2
  3.4746890393069196E-01 a       503     0    26     1     3
 -6.6945424532786202E-01 a       504     0    26     1     4
 -7.1390765539760190E-02 a       505     0    26     1     5
  6.9676469724185686E-01 a       506     0    26     1     6
 -5.2784983459636982E-02 a       507     0    26     1     7
  2.6252706827400909E-02 a       508     0    26     1     8
  1.9021883548020224E-01 a       509     0    26     1     9
 -1.0744943392045929E-01 a       510     0    26     1    10
  1.4874130434959926E-01 a       511     0    26     1    11
 -3.9164152515809408E-01 a       512     0    26     1    12
 -2.2878051948243125E-01 a       513     0    26     1    13
 -4.0672581524864526E-01 a       514     0    26     1    14
 -7.2666878666944712E-01 a       515     0    26     1    15
  3.5081697575413090E-01 a       516     0    26     1    16
  4.8291787991948387E-03 a       517     0    26     1    17
 -1.4990112468692043E-01 a       518     0    26     1    18
 -4.8155630305769781E-01 a       519     0    26     1    19
 -3.7223227736237385E-01 a       520     0    26     1    20
 -9.7575261761485632E-01 a       521     0    27     1     1
  4.5407579549624782E-01 a       522     0    27     1     2
  2.6549088041039565E-01 a       523     0    27     1     3
  4.1355868307172944E-01 a       524     0    27     1     4
 -1.0863580538764753E-02 a       525     0    27     1     5
 -6.6553464675283547E-01 a       526     0    27     1     6
  2.8349338811160439E-02 a       527     0    27     1     7
  3.6411288046966067E-01 a       528     0    27     1     8
 -4.8227980143230417E-02 a       529     0    27     1     9
  4.4523761464496664E-01 a       530     0    27     1    10
  1.9527621516245941E-01 a       531     0    27     1    11
  3.1712445845296927E-01 a       532     0    27     1    12
 -4.7833170094833916E-01 a       533     0    27     1    13
 -1.1942662590824060E+00 a       534     0    27     1    14
  1.8068076193147620E-01 a       535     0    27     1    15
  4.5116258017686067E-01 a       536     0    27     1    16
 -1.8202772150758229E-01 a       537     0    27     1    17
  5.3720721271147992E-02 a       538     0    27     1    18
 -5.8447392583128199E-01 a       539     0    27     1    19
 -2.9977378949178096E-01 a       540     0    27     1    20
  1.4972600967688890E-01 a       541     0    28     1     1
  3.9341412969243994E-01 a       542     0    28     1     2
 -1.3723911500675204E-01 a       543     0    28     1     3
 -1.1016459020547630E-01 a       544     0    28     1     4
  2.9690654257528543E-01 a       545     0    28     1     5
 -9.4154206938311585E-02 a       546     0    28     1     6
  5.0219637743887258E-01 a       547     0    28     1     7
  5.4655588691015750E-02 a       548     0    28     1     8
  5.4546334451381628E-01 a       549     0    28     1     9
  6.4145475488360214E-03 a       550     0    28     1    10
  1.1545149524838978E-01 a       551     0    28     1    11
  4.8387186650321087E-02 a       552     0    28     1    12
 -3.2822678015125437E-02 a       553     0    28     1    13
 -2.8013508108943547E-01 a       554     0    28     1    14
 -4.9489527831794881E-02 a       555     0    28     1    15
  2.4310192148517157E-01 a       556     0    28     1    16
  1.7821737623264122E-01 a       557     0    28     1    17
  4.8253147363374288E-01 a       558     0    28     1    18
 -1.8544578323216421E-01 a       559     0    28     1    19
  5.9277769630199199E-02 a       560     0    28     1    20
 -3.5948472278146454E-01 a       561     0    29     1     1
  5.9953557634082211E-01 a       562     0    29     1     2
  2.9830404801918464E-01 a       563     0    29     1     3
 -2.0016946368237035E-01 a       564     0    29     1     4
 -2.4003948248272417E-02 a       565     0    29     1     5
  6.9857758542020720E-01 a       566     0    29     1     6
  1.6073006238921683E-01 a       567     0    29     1     7
 -2.5514471405827077E-01 a       568     0    29     1     8
  2.9124140972169497E-02 a       569     0    29     1     9
 -7.6533344937612310E-02 a       570     0    29     1    10
 -3.6245759608496228E-02 a       571     0    29     1    11
  6.6273313607210338E-01 a       572     0    29     1    12
 -6.5934140323763701E-01 a       573     0    29     1    13
  5.1105877602264715E-01 a       574     0    29     1    14
  4.7585655547235989E-01 a       575     0    29     1    15
 -6.0824790001385121E-01 a       576     0    29     1    16
  1.2911570461128399E+00 a       577     0    29     1    17
  3.1117773747612487E-01 a       578     0    29     1    18
  2.3733109710637038E-02 a       579     0    29     1    19
 -6.2376749231220774E-01 a       580     0    29     1    20
  1.5501689793893386E-01 a       581     0    30     1     1
 -2.3286977442738432E-01 a       582     0    30     1     2
  3.7576360234761776E-02 a       583     0    30     1     3
  4.7553769172702187E-01 a       584     0    30     1     4
 -1.3006648264554110E-01 a       585     0    30     1     5
 -3.5418942962027561E-01 a       586     0    30     1     6
 -3.8085249057060788E-01 a       587     0    30     1     7
 -2.5388284655387911E-02 a       588     0    30     1     8
  2.1925768633634193E-01 a       589     0    30     1     9
  2.4935908339395468E-01 a       590     0    30     1    10
 -1.4934056407133081E-01 a       591     0    30     1    11
 -4.6656802109115414E-01 a       592     0    30     1    12
  8.5033563885061736E-01 a       593     0    30     1    13
 -4.2823883744538621E-01 a       594     0    30     1    14
 -4.8993317376276879E-01 a       595     0    30     1    15
  2.9669299151946343E-01 a       596     0    30     1    16
 -3.5653851221998900E-01 a       597     0    30     1    17
 -8.3956036682056556E-01 a       598     0    30     1    18
  1.0741713675406241E-01 a       599     0    30     1    19
  7.7891614426532019E-01 a       600     0    30     1    20
  1.2901936197982045E-01 a       601     0    31     1     1
 -5.9470409773792268E-02 a       602     0    31     1     2
  4.6120611415998736E-01 a       603     0    31     1     3
 -2.5903907113972453E-02 a       604     0    31     1     4
  3.4629958639017944E-01 a       605     0    31     1     5
  2.2715465759594274E-02 a       606     0    31     1     6
 -5.1158469275252627E-01 a       607     0    31     1     7
  3.8889327613415892E-01 a       608     0    31     1     8
  2.5150376278437803E-01 a       609     0    31     1     9
  1.4965850911291442E-01 a       610     0    31     1    10
  2.5606498672336797E-01 a       611     0    31     1    11
  1.6147153490887411E-01 a       612     0    31     1    12
 -1.2123873553749619E-01 a       613     0    31     1    13
 -2.4601043688392524E-01 a       614     0    31     1    14
 -5.5630607581138614E-01 a       615     0    31     1    15
  1.1794071140872579E-01 a       616     0    31     1    16
 -7.8304813345422963E-01 a       617     0    31     1    17
  6.7021308985916850E-02 a       618     0    31     1    18
  7.9408646440841599E-02 a       619     0    31     1    19
  9.6834397995304600E-01 a       620     0    31     1    20
  2.8041579274982978E-02 a       621     0    32     1     1
 -2.5332446444263251E-01 a       622     0    32     1     2
 -4.2615214708779281E-01 a       623     0    32     1     3
  7.8413804138911014E-01 a       624     0    32     1     4
  2.0738802956942282E-01 a       625     0    32     1     5
  1.4594929644548918E-01 a       626     0    32     1     6
 -5.6376262709991443E-01 a       627     0    32     1     7
 -9.0202014575027911E-01 a       628     0    32     1     8
  3.5071276686043512E-02 a       629     0    32     1     9
  4.9070391494085437E-02 a       630     0    32     1    10
  8.5011767363647528E-01 a       631     0    32     1    11
 -5.0757404952074214E-01 a       632     0    32     1    12
 -4.3103163719119814E-01 a       633     0    32     1    13
 -1.5610081346567117E-01 a       634     0    32     1    14
  4.2646636087859835E-01 a       635     0    32     1    15
 -1.1406954479679456E-01 a       636     0    32     1    16
 -4.1928221698500068E-01 a       637     0    32     1    17
  1.4539851270592661E-02 a       638     0    32     1    18
  3.4735398622556279E-01 a       639     0    32     1    19
  1.1536158666069136E-01 a       640     0    32     1    20
  5.1792652810551809E-01 a       641     0    33     1     1
  5.9405344949982608E-01 a       642     0    33     1     2
 -5.7361955526115049E-01 a       643     0    33     1     3
 -3.2074607146412848E-01 a       644     0    33     1     4
  4.6231778084641711E-02 a       645     0    33     1     5
  2.9346621331020811E-02 a       646     0    33     1     6
  5.0903130314002265E-01 a       647     0    33     1     7
  7.1759177363892790E-01 a       648     0    33     1     8
 -3.5394651507817554E-01 a       649     0    33     1     9
  8.1958379745810397E-02 a       650     0    33     1    10
  6.9880328076040596E-02 a       651     0    33     1    11
  6.0230939308563314E-01 a       652     0    33     1    12
  3.3621549053332134E-01 a       653     0    33     1    13
  2.9049301146890344E-01 a       654     0    33     1    14
 -7.4616407217202108E-01 a       655     0    33     1    15
 -6.0708671974757600E-01 a       656     0    33     1    16
  8.2021478318293484E-01 a       657     0    33     1    17
  4.5504111366590320E-02 a       658     0    33     1    18
 -1.6904837013614621E-01 a       659     0    33     1    19
 -6.9241040658506914E-01 a       660     0    33     1    20
 -1.6842133153917757E-01 a       661     0    34     1     1
 -1.1767763037474730E-02 a       662     0    34     1     2
 -2.5398815331125779E-01 a       663     0    34     1     3
  5.4459845453204225E-01 a       664     0    34     1     4
 -3.6064896615715852E-01 a       665     0    34     1     5
  7.3736290161247131E-01 a       666     0    34     1     6
 -2.3927435722709564E-01 a       667     0    34     1     7
 -1.6571389129024644E-01 a       668     0    34     1     8
  2.1003652011086441E-01 a       669     0    34     1     9
 -1.1897957825520385E-01 a       670     0    34     1    10
  6.7953933867738447E-01 a       671     0    34     1    11
  1.6040529984125704E-01 a       672     0    34     1    12
 -5.7776729825667617E-01 a       673     0    34     1    13
 -7.4413163781404071E-02 a       674     0    34     1    14
  6.0349925329307685E-01 a       675     0    34     1    15
 -7.0385564140321585E-02 a       676     0    34     1    16
 -1.9582724072648425E-02 a       677     0    34     1    17
  5.4694411492103349E-02 a       678     0    34     1    18
  4.6537066130690208E-01 a       679     0    34     1    19
 -4.7262291267881684E-01 a       680     0    34     1    20
 -3.4426343025774263E-02 a       681     0    35     1     1
 -4.1853518990516037E-01 a       682     0    35     1     2
  5.6913860864371257E-01 a       683     0    35     1     3
 -2.2324563890357232E-01 a       684     0    35     1     4
  2.7042801855519893E-01 a       685     0    35     1     5
 -9.4093625365647460E-01 a       686     0    35     1     6
  9.3593092510500875E-01 a       687     0    35     1     7
  1.8120163732430822E-01 a       688     0    35     1     8
 -1.3689364901893333E+00 a       689     0    35     1     9
  4.9166974023243315E-01 a       690     0    35     1    10
 -4.4518703125838582E-01 a       691     0    35     1    11
  1.9483885471435408E-01 a       692     0    35     1    12
  1.4965416436317375E-01 a       693     0    35     1    13
  5.3070651078107289E-01 a       694     0    35     1    14
 -4.8611541113313739E-01 a       695     0    35     1    15
  1.4611467759301972E-01 a       696     0    35     1    16
 -2.2583658593495912E-02 a       697     0    35     1    17
 -4.0639328715001705E-01 a       698     0    35     1    18
 -7.4304259381834370E-01 a       699     0    35     1    19
 -1.0167029062125439E-01 a       700     0    35     1    20
  1.8400122261708046E-01 a       701     0    36     1     1
  4.1357055872533005E-01 a       702     0    36     1     2
  6.8869426961874425E-01 a       703     0    36     1     3
 -6.7822090365128829E-01 a       704     0    36     1     4
 -3.8401314129883651E-01 a       705     0    36     1     5
 -5.2470425716810409E-01 a       706     0    36     1     6
 -1.5163845601811754E-01 a       707     0    36     1     7
  4.9180917205071883E-01 a       708     0    36     1     8
 -7.7468458914206728E-01 a       709     0    36     1     9
  2.7002952386377804E-01 a       710     0    36     1    10
 -2.3867619936079365E-01 a       711     0    36     1    11
  7.9363736725867817E-01 a       712     0    36     1    12
  2.4052760312558250E-01 a       713     0    36     1    13
 -9.7037850601151121E-01 a       714     0    36     1    14
  5.2335805585118456E-01 a       715     0    36     1    15
  2.2848387630640329E-02 a       716     0    36     1    16
 -1.1039997670642322E-01 a       717     0    36     1    17
  2.5685592433315248E-02 a       718     0    36     1    18
  8.9789263648047221E-02 a       719     0    36     1    19
  2.8129297852295765E-01 a       720     0    36     1    20
  8.0712775933664063E-02 a       721     0    37     1     1
  1.1532883608739080E+00 a       722     0    37     1     2
  4.0948226439003443E-01 a       723     0    37     1     3
 -4.7820980101998867E-02 a       724     0    37     1     4
  2.6929799376334806E-01 a       725     0    37     1     5
 -1.0158373569734934E-01 a       726     0    37     1     6
  7.5897514395813015E-01 a       727     0    37     1     7
  2.4905121554323614E-01 a       728     0    37     1     8
 -2.5102977915159924E-01 a       729     0    37     1     9
 -3.3956734906806574E-01 a       730     0    37     1    10
 -4.0363277946426973E-01 a       731     0    37     1    11
  8.1847916222061279E-01 a       732     0    37     1    12
  2.1095346336494424E-02 a       733     0    37     1    13
 -1.1310266326007196E-01 a       734     0    37     1    14
  4.9158224263928529E-01 a       735     0    37     1    15
  5.6044809580275723E-01 a       736     0    37     1    16
 -7.9916595931592860E-01 a       737     0    37     1    17
 -3.7291675878101632E-01 a       738     0    37     1    18
 -9.0773255704237429E-02 a       739     0    37     1    19
 -2.5039893409514186E-01 a       740     0    37     1    20
  5.1274655934858315E-01 a       741     0    38     1     1
 -1.1635131404678926E-01 a       742     0    38     1     2
  5.5301457536704379E-01 a       743     0    38     1     3
 -8.1952440888943726E-02 a       744     0    38     1     4
  6.6728139158630670E-02 a       745     0    38     1     5
  5.2700513750220124E-01 a       746     0    38     1     6
 -3.1016257078585585E-01 a       747     0    38     1     7
 -1.8237213036458595E-02 a       748     0    38     1     8
  1.1849954397877003E+00 a       749     0    38     1     9
  2.2251187790794116E-01 a       750     0    38     1    10
  1.2362896132259106E-01 a       751     0    38     1    11
 -6.5794311522214510E-01 a       752     0    38     1    12
  8.8329169619220244E-02 a       753     0    38     1    13
  1.5557482514867654E-01 a       754     0    38     1    14
 -9.0460689646801373E-02 a       755     0    38     1    15
  1.0526652497315747E-01 a       756     0    38     1    16
  3.1226137859479175E-01 a       757     0    38     1    17
 -3.9379870479093748E-01 a       758     0    38     1    18
 -4.4622377864768012E-02 a       759     0    38     1    19
  3.6587242139125248E-01 a       760     0    38     1    20
 -4.3923105218257175E-01 a       761     0    39     1     1
  1.1776921434199186E+00 a       762     0    39     1     2
 -7.8834037220246490E-03 a       763     0    39     1     3
  4.5432569857214772E-01 a       764     0    39     1     4
  5.7182676868555382E-01 a       765     0    39     1     5
  4.6820785382510272E-01 a       766     0    39     1     6
  4.5702503651262782E-01 a       767     0    39     1     7
 -2.0017809705473602E-01 a       768     0    39     1     8
  1.5184178401244550E-01 a       769     0    39     1     9
  3.5906201467434701E-01 a       770     0    39     1    10
 -1.9034057393036913E-01 a       771     0    39     1    11
  3.9299465135934120E-01 a       772     0    39     1    12
  4.8835336972604178E-02 a       773     0    39     1    13
  5.7868340072730540E-01 a       774     0    39     1    14
  9.6929505432230167E-01 a       775     0    39     1    15
  6.5423260866439725E-01 a       776     0    39     1    16
 -1.4426021370910080E+00 a       777     0    39     1    17
 -4.9669371573615978E-01 a       778     0    39     1    18
  1.0920557141340398E-01 a       779     0    39     1    19
 -2.1784309459536733E-01 a       780     0    39     1    20
 -1.9688138836647193E-01 a       781     0    40     1     1
 -3.1784187346107640E-01 a       782     0    40     1     2
 -8.0914945659234816E-01 a       783     0    40     1     3
 -6.8177469902044607E-01 a       784     0    40     1     4
  1.4186050756054683E-01 a       785     0    40     1     5
 -4.9303658188166971E-01 a       786     0    40     1     6
  1.1812425508828112E-01 a       787     0    40     1     7
  5.2768225669356239E-01 a       788     0    40     1     8
  6.4292722147241477E-01 a       789     0    40     1     9
 -6.4238259628467305E-03 a       790     0    40     1    10
 -7.1166604409615797E-01 a       791     0    40     1    11
  1.0898712343260047E-01 a       792     0    40     1    12
  4.8644791809603244E-01 a       793     0    40     1    13
  3.7051354460122288E-01 a       794     0    40     1    14
 -1.0256577490133700E+00 a       795     0    40     1    15
 -4.1106786583700577E-01 a       796     0    40     1    16
  1.3157610030125166E-01 a       797     0    40     1    17
  2.5542517190102842E-01 a       798     0    40     1    18
  6.1117939825694956E-01 a       799     0    40     1    19
 -8.4845270017031071E-02 a       800     0    40     1    20
  7.4250242735855607E-02 a       801     0    41     1     1
  5.1951026892620256E-01 a       802     0    41     1     2
  1.1880135520963193E-01 a       803     0    41     1     3
 -4.2366184852715594E-01 a       804     0    41     1     4
 -7.1687283521586292E-02 a       805     0    41     1     5
 -2.2112010468278487E-01 a       806     0    41     1     6
  1.3126364936381361E-02 a       807     0    41     1     7
  3.0840563392890724E-01 a       808     0    41     1     8
 -1.4294853172277358E-01 a       809     0    41     1     9
 -1.3627447204169921E-01 a       810     0    41     1    10
 -2.4010918020764224E-01 a       811     0    41     1    11
 -4.0173057784854288E-01 a       812     0    41     1    12
 -3.5697186718866875E-02 a       813     0    41     1    13
 -4.0172931320940608E-01 a       814     0    41     1    14
  4.7415449042465702E-01 a       815     0    41     1    15
 -3.0008572659836041E-01 a       816     0    41     1    16
  1.6565853081656787E-02 a       817     0    41     1    17
 -1.9242637503570445E-01 a       818     0    41     1    18
 -8.2598197806590556E-02 a       819     0    41     1    19
 -1.1509577690381072E-01 a       820     0    41     1    20
  1.9054242045379904E-01 a       821     0    42     1     1
  9.0986092687288600E-01 a       822     0    42     1     2
 -1.2679799376363574E-01 a       823     0    42     1     3
 -1.9647830780507222E-01 a       824     0    42     1     4
  4.8753253351725218E-01 a       825     0    42     1     5
  9.5109408391444161E-02 a       826     0    42     1     6
 -6.6562729145797739E-01 a       827     0    42     1     7
  3.8664414904652211E-01 a       828     0    42     1     8
 -2.8201339410008724E-01 a       829     0    42     1     9
 -4.7746513446755090E-01 a       830     0    42     1    10
 -3.1986218381216541E-01 a       831     0    42     1    11
  2.8765927739656766E-01 a       832     0    42     1    12
 -4.3511535508237685E-03 a       833     0    42     1    13
 -4.1310416590408111E-01 a       834     0    42     1    14
 -2.8740894799040395E-01 a       835     0    42     1    15
  7.9504614316656397E-01 a       836     0    42     1    16
 -5.4963153179434188E-01 a       837     0    42     1    17
 -1.6985567211382907E-01 a       838     0    42     1    18
  5.5709116325232633E-01 a       839     0    42     1    19
 -1.2480482060534454E-01 a       840     0    42     1    20
 -3.4284417789349673E-02 a       841     0    43     1     1
  3.5704041353185581E-03 a       842     0    43     1     2
 -7.3665960343333045E-02 a       843     0    43     1     3
  2.1522626108246090E-01 a       844     0    43     1     4
  5.4294115683013966E-01 a       845     0    43     1     5
  5.7757738021125833E-02 a       846     0    43     1     6
 -2.1154386510299925E-01 a       847     0    43     1     7
 -1.6991862936626906E-01 a       848     0    43     1     8
 -1.1469157662798461E-01 a       849     0    43     1     9
 -2.3732370235199310E-01 a       850     0    43     1    10
  2.1713609169935777E-01 a       851     0    43     1    11
 -2.0851445344261188E-01 a       852     0    43     1    12
 -3.6856352798698491E-02 a       853     0    43     1    13
 -2.2240187838741440E-01 a       854     0    43     1    14
  1.4075718481492397E-02 a       855     0    43     1    15
 -1.6442795099278015E-01 a       856     0    43     1    16
 -2.0045678770974804E-01 a       857     0    43     1    17
 -3.5247219666620415E-02 a       858     0    43     1    18
  6.1281047770743082E-03 a       859     0    43     1    19
  2.7724035541130940E-02 a       860     0    43     1    20
 -5.3899569964313054E-01 a       861     0    44     1     1
 -1.2326441738037557E+00 a       862     0    44     1     2
  2.8421392468887441E-01 a       863     0    44     1     3
  1.1128470259004233E-01 a       864     0    44     1     4
 -3.0300754406157698E-01 a       865     0    44     1     5
  1.9940761887002612E-01 a       866     0    44     1     6
  8.4424148251592857E-01 a       867     0    44     1     7
  4.2744070184386324E-01 a       868     0    44     1     8
  2.7818563776572491E-01 a       869     0    44     1     9
  9.6659368305520210E-01 a       870     0    44     1    10
  4.4615887622528810E-01 a       871     0    44     1    11
  2.1193044654213092E-01 a       872     0    44     1    12
  8.8747749985816471E-02 a       873     0    44     1    13
 -5.9917875135393450E-01 a       874     0    44     1    14
  1.4726516402183226E-01 a       875     0    44     1    15
 -1.2258718731214580E+00 a       876     0    44     1    16
  5.9873637882612729E-01 a       877     0    44     1    17
  4.1586852472206157E-02 a       878     0    44     1    18
 -8.1249366469177042E-01 a       879     0    44     1    19
 -2.3114811046431649E-01 a       880     0    44     1    20
 -2.7162217011334361E-01 a       881     0    45     1     1
  3.9366057667689064E-01 a       882     0    45     1     2
 -2.9963877673126516E-01 a       883     0    45     1     3
  3.8471497348273165E-01 a       884     0    45     1     4
 -1.2288326825524479E-01 a       885     0    45     1     5
 -3.5274990677185558E-01 a       886     0    45     1     6
 -4.1575336151368453E-01 a       887     0    45     1     7
 -1.1164908725151284E+00 a       888     0    45     1     8
 -4.4821093200773798E-01 a       889     0    45     1     9
 -1.1016089624164746E-01 a       890     0    45     1    10
 -4.2754787367171221E-01 a       891     0    45     1    11
 -3.4267679475327573E-01 a       892     0    45     1    12
  2.1678605643481001E-02 a       893     0    45     1    13
  6.5029472988944637E-01 a       894     0    45     1    14
  1.6002011766926398E+00 a       895     0    45     1    15
  9.9898957000920607E-01 a       896     0    45     1    16
  4.1225270681633681E-02 a       897     0    45     1    17
 -7.9905204091457696E-02 a       898     0    45     1    18
  9.3615477433588667E-01 a       899     0    45     1    19
 -3.3319793293660199E-01 a       900     0    45     1    20
  2.3795358700887201E-01 a       901     0    46     1     1
 -1.0912767800465926E+00 a       902     0    46     1     2
 -9.2396166185204506E-02 a       903     0    46     1     3
 -2.8733290350603118E-02 a       904     0    46     1     4
 -5.2979171480864629E-01 a       905     0    46     1     5
  3.1430416482274159E-01 a       906     0    46     1     6
 -1.2844574333484879E-01 a       907     0    46     1     7
  3.5091518154179357E-01 a       908     0    46     1     8
 -2.2127494650230980E-01 a       909     0    46     1     9
 -4.8543136436079837E-01 a       910     0    46     1    10
  9.9087871268048400E-01 a       911     0    46     1    11
 -5.7514199639617097E-02 a       912     0    46     1    12
 -6.1269213259646765E-02 a       913     0    46     1    13
  4.0243173482434141E-01 a       914     0    46     1    14
 -1.1117975542045853E+00 a       915     0    46     1    15
 -1.1614012063145454E+00 a       916     0    46     1    16
  1.4861374931614435E+00 a       917     0    46     1    17
  3.2398988908421289E-01 a       918     0    46     1    18
 -3.7521041531883170E-01 a       919     0    46     1    19
  7.8310008729287417E-01 a       920     0    46     1    20
  9.6037284609879636E-01 a       921     0    47     1     1
 -2.5051061148010723E-01 a       922     0    47     1     2
 -9.3505429794519035E-02 a       923     0    47     1     3
  1.8100442111486353E-01 a       924     0    47     1     4
  4.9511436669543213E-01 a       925     0    47     1     5
  1.1135355189073298E-01 a       926     0    47     1     6
  1.8295951183080278E-01 a       927     0    47     1     7
 -9.0189657156598657E-02 a       928     0    47     1     8
  2.5579588909521106E-01 a       929     0    47     1     9
  5.5116506625040085E-01 a       930     0    47     1    10
  3.0980207722881806E-02 a       931     0    47     1    11
 -7.1567166998900800E-01 a       932     0    47     1    12
 -1.2197151248769529E+00 a       933     0    47     1    13
  2.3797041625391115E-02 a       934     0    47     1    14
 -8.8358998689719237E-01 a       935     0    47     1    15
 -2.3258932737669491E-01 a       936     0    47     1    16
  3.1300029340901869E-01 a       937     0    47     1    17
 -5.1335879441633536E-01 a       938     0    47     1    18
  2.2918624459671469E-01 a       939     0    47     1    19
  2.4125164333803326E-01 a       940     0    47     1    20
  1.3914454418843353E-01 a       941     0    48     1     1
 -4.3239391894759373E-03 a       942     0    48     1     2
  5.2249696553437597E-01 a       943     0    48     1     3
 -5.5738204318591078E-01 a       944     0    48     1     4
 -1.5323427926444230E-01 a       945     0    48     1     5
 -6.6343872675649296E-01 a       946     0    48     1     6
  4.0167916779346086E-02 a       947     0    48     1     7
 -3.7769654836336947E-01 a       948     0    48     1     8
 -1.8961775852421370E-01 a       949     0    48     1     9
  9.9394685051367990E-02 a       950     0    48     1    10
  8.2732508569810159E-01 a       951     0    48     1    11
 -3.4767764892785907E-01 a       952     0    48     1    12
  5.4760316884542337E-01 a       953     0    48     1    13
  1.7768232395365433E-02 a       954     0    48     1    14
  5.6023986351707877E-01 a       955     0    48     1    15
  1.5461769991168342E-01 a       956     0    48     1    16
 -8.0822441927369135E-02 a       957     0    48     1    17
  1.4571942860681564E-01 a       958     0    48     1    18
 -3.5408448251558927E-01 a       959     0    48     1    19
 -5.7286036156569942E-01 a       960     0    48     1    20
 -2.0008880094876851E+00 a       961     0    49     1     1
  1.7836668758056629E-01 a       962     0    49     1     2
 -8.5660204120640826E-01 a       963     0    49     1     3
  4.9448477078661729E-01 a       964     0    49     1     4
  3.4154618106859197E-01 a       965     0    49     1     5
  6.3627259665456279E-02 a       966     0    49     1     6
  5.2020045324892761E-01 a       967     0    49     1     7
  1.0839246112911288E-01 a       968     0    49     1     8
 -4.8366277523500295E-01 a       969     0    49     1     9
  7.6004634427298323E-02 a       970     0    49     1    10
 -7.9557195845364470E-01 a       971     0    49     1    11
 -8.1172463722140120E-01 a       972     0    49     1    12
 -1.3484983894624894E-01 a       973     0    49     1    13
  3.2216359329702726E-01 a       974     0    49     1    14
  8.5843894635367124E-01 a       975     0    49     1    15
  1.3347221080482097E+00 a       976     0    49     1    16
 -8.8149136842079567E-01 a       977     0    49     1    17
 -1.1946145245720179E-01 a       978     0    49     1    18
 -3.2615100890541376E-01 a       979     0    49     1    19
 -1.3151238500277198E+00 a       980     0    49     1    20
  1.2732089911547002E+00 a       981     0    50     1     1
 -5.9622915145905286E-01 a       982     0    50     1     2
 -1.5662680894001946E-01 a       983     0    50     1     3
  3.2248119568735090E-01 a       984     0    50     1     4
 -4.0017451618051106E-02 a       985     0    50     1     5
  4.8623511505138117E-01 a       986     0    50     1     6
 -1.6902748658002302E+00 a       987     0    50     1     7
  1.1596167449918400E+00 a       988     0    50     1     8
  9.1624194064304243E-01 a       989     0    50     1     9
 -1.4784244633128254E+00 a       990     0    50     1    10
 -2.1876510413993547E-01 a       991     0    50     1    11
  6.0587248384471493E-02 a       992     0    50     1    12
  1.4061698262787012E+00 a       993     0    50     1    13
 -4.0719698363869537E-02 a       994     0    50     1    14
 -1.8770378878190350E+00 a       995     0    50     1    15
 -1.3796579993716960E+00 a       996     0    50     1    16
  2.6161187455119483E+00 a       997     0    50     1    17
  8.8774991610582699E-01 a       998     0    50     1    18
 -1.2035048592867174E-01 a       999     0    50     1    19
  9.0922836665406648E-01 a      1000     0    50     1    20
  3.9794120726767600E-02 a      1001     0    51     1     1
  2.1578709316300682E-02 a      1002     0    51     1     2
  2.5361696344532014E-01 a      1003     0    51     1     3
 -5.1660156181071348E-01 a      1004     0    51     1     4
 -9.6855891368111083E-02 a      1005     0    51     1     5
  1.2919705238172477E-01 a      1006     0    51     1     6
 -1.5790387295856417E-01 a      1007     0    51     1     7
  2.6031274815454120E-01 a      1008     0    51     1     8
 -1.8909838142769331E-01 a      1009     0    51     1     9
  1.2382947839320832E-01 a      1010     0    51     1    10
 -9.9716637510345162E-03 a      1011     0    51     1    11
 -9.0828898196525801E-02 a      1012     0    51     1    12
  2.4488228398042677E-01 a      1013     0    51     1    13
  9.2551153222429960E-02 a      1014     0    51     1    14
  3.8087097302476745E-02 a      1015     0    51     1    15
 -5.8986744719719776E-03 a      1016     0    51     1    16
  3.7676168364751982E-02 a      1017     0    51     1    17
 -3.2361313543613013E-01 a      1018     0    51     1    18
  2.1376617003557430E-01 a      1019     0    51     1    19
 -4.7154862181099499E-01 a      1020     0    51     1    20
  8.7156834717722753E-01 b      1021     1     1
  8.5165514557890820E-01 b      1022     1     2
  5.2449679223274737E-01 b      1023     1     3
  1.0465501764311649E+00 b      1024     1     4
  9.5176991614967665E-01 b      1025     1     5
 -1.5172028499664580E+00 b      1026     1     6
  3.8486043410338636E-02 b      1027     1     7
  1.2649452158246859E+00 b      1028     1     8
  7.9432795119925681E-01 b      1029     1     9
  1.3238386987498731E+00 b      1030     1    10
 -1.3861659171424581E+00 b      1031     1    11
 -1.5915209925890543E+00 b      1032     1    12
 -1.0785307175625947E+00 b      1033     1    13
 -1.5912664848010509E+00 b      1034     1    14
  1.2287464423585430E+00 b      1035     1    15
 -1.0120754047783984E+00 b      1036     1    16
  5.3298072129303564E-01 b      1037     1    17
 -1.2938193940066460E+00 b      1038     1    18
  9.3203742703645942E-01 b      1039     1    19
 -7.7020919867953352E-01 b      1040     1    20
  1.3570814200128270E-01 a      1041     1     1     2     1
 -1.0018725952879923E-01 a      1042     1     1     2     2
 -6.6076003457614219E-01 a      1043     1     1     2     3
 -3.7070196002758071E-01 a      1044     1     1     2     4
 -3.8758401383682300E-01 a      1045     1     1     2     5
  3.1230053282181497E-01 a      1046     1     1     2     6
  7.9299334185397119E-01 a      1047     1     1     2     7
  4.5038607158535504E-01 a      1048     1     1     2     8
 -4.6478553427583731E-02 a      1049     1     1     2     9
 -4.8099084662482050E-01 a      1050     1     1     2    10
  9.1427946472137511E-01 a      1051     1     1     2    11
  5.6694587358887050E-01 a      1052     1     1     2    12
 -6.4907155069166234E-01 a      1053     1     1     2    13
  2.7714646516275288E-01 a      1054     1     1     2    14
 -8.5680621480044938E-01 a      1055     1     1     2    15
 -8.8223607641791310E-02 a      1056     1     1     2    16
  3.1630948035058937E-01 a      1057     1     1     2    17
  2.0034665823578116E-02 a      1058     1     1     2    18
  3.1697012464710045E-01 a      1059     1     1     2    19
 -5.4813939437430559E-01 a      1060     1     1     2    20
 -4.2518263338001649E-01 a      1061     1     2     2     1
  2.0391176446747014E-01 a      1062     1     2     2     2
 -1.0466231055770533E-01 a      1063     1     2     2     3
 -5.3674637659808366E-01 a      1064     1     2     2     4
 -2.0313146266525645E-01 a      1065     1     2     2     5
 -3.1469239965318818E-01 a      1066     1     2     2     6
  2.1567981483358539E-01 a      1067     1     2     2     7
 -2.1354220973132726E-01 a      1068     1     2     2     8
 -3.1304448394660267E-01 a      1069     1     2     2     9
  7.9532880198187172E-01 a      1070     1     2     2    10
 -4.5318287585514300E-01 a      1071     1     2     2    11
  9.1723447174247186E-02 a      1072     1     2     2    12
  3.0127588184187931E-01 a      1073     1     2     2    13
  3.6437325543765409E-01 a      1074     1     2     2    14
  3.4068324397864519E-01 a      1075     1     2     2    15
  2.2115836190374955E-01 a      1076     1     2     2    16
 -5.9238542928521522E-02 a      1077     1     2     2    17
  6.4619949723897752E-01 a      1078     1     2     2    18
  2.4265466403997840E-01 a      1079     1     2     2    19
  5.5923995334462892E-02 a      1080     1     2     2    20
 -4.4203478725995804E-01 a      1081     1     3     2     1
  5.9777556815986864E-02 a      1082     1     3     2     2
  6.7140742148991706E-01 a      1083     1     3     2     3
 -8.9191170326539160E-01 a      1084     1     3     2     4
  3.3140743443290671E-01 a      1085     1     3     2     5
 -2.8776381123554762E-01 a      1086     1     3     2     6
  6.3190336387403595E-02 a      1087     1     3     2     7
  1.9788387179841593E-01 a      1088     1     3     2     8
 -5.2352900083774490E-01 a      1089     1     3     2     9
 -3.4438667384564209E-01 a      1090     1     3     2    10
 -1.7936903828827590E-02 a      1091     1     3     2    11
 -2.6586193725570983E-01 a      1092     1     3     2    12
  4.1490257245295808E-01 a      1093     1     3     2    13
 -3.3832426570058904E-01 a      1094     1     3     2    14
 -4.6090748384864555E-01 a      1095     1     3     2    15
 -6.3293453859979601E-02 a      1096     1     3     2    16
  6.3273398485649968E-01 a      1097     1     3     2    17
  2.3304556652307359E-01 a      1098     1     3     2    18
  4.1008212412095746E-01 a      1099     1     3     2    19
  3.1250197776648364E-01 a      1100     1     3     2    20
  6.3408375829711738E-01 a      1101     1     4     2     1
 -2.0724574297274829E-02 a      1102     1     4     2     2
  4.7424244585242338E-02 a      1103     1     4     2     3
 -7.1615509761602941E-02 a      1104     1     4     2     4
 -7.5640871174571300E-02 a      1105     1     4     2     5
  4.5015440062769391E-01 a      1106     1     4     2     6
  2.5164047305905785E-01 a      1107     1     4     2     7
 -4.2647872699777156E-01 a      1108     1     4     2     8
  1.0365609990040799E-01 a      1109     1     4     2     9
  4.5465725127822448E-01 a      1110     1     4     2    10
  5.2029068768871492E-02 a      1111     1     4     2    11
  2.8064498662763732E-01 a      1112     1     4     2    12
 -1.8176350822011769E-01 a      1113     1     4     2    13
 -1.0175607385499431E-01 a      1114     1     4     2    14
 -1.1977243032750326E-01 a      1115     1     4     2    15
 -4.9627903201362722E-01 a      1116     1     4     2    16
 -2.0854589686337147E-01 a      1117     1     4     2    17
 -2.9907755194386804E-01 a      1118     1     4     2    18
 -2.4624311493159587E-01 a      1119     1     4     2    19
  2.0616512024567402E-01 a      1120     1     4     2    20
  5.4829165389997547E-01 a      1121     1     5     2     1
 -5.8852883744695261E-01 a      1122     1     5     2     2
 -4.8174129014022410E-01 a      1123     1     5     2     3
  4.4261686764760076E-02 a      1124     1     5     2     4
  4.7015688564298075E-01 a      1125     1     5     2     5
  6.4110881278529530E-01 a      1126     1     5     2     6
 -3.3358466152366562E-01 a      1127     1     5     2     7
  1.7304246717417934E-01 a      1128     1     5     2     8
 -1.9711345306610747E-01 a      1129     1     5     2     9
 -3.7847215165569703E-01 a      1130     1     5     2    10
 -2.5466890883440824E-01 a      1131     1     5     2    11
 -2.8245287652923701E-01 a      1132     1     5     2    12
 -3.3323905448495927E-01 a      1133     1     5     2    13
 -1.0421806096848301E+00 a      1134     1     5     2    14
 -3.7300527486624530E-01 a      1135     1     5     2    15
 -5.7306560786469796E-01 a      1136     1     5     2    16
 -1.4347916878262439E+00 a      1137     1     5     2    17
  9.8341420823280568E-02 a      1138     1     5     2    18
  5.0898245270014830E-01 a      1139     1     5     2    19
  4.9425968107771506E-01 a      1140     1     5     2    20
 -3.7229181676892231E-01 a      1141     1     6     2     1
  7.6451701080955881E-01 a      1142     1     6     2     2
  2.5477574519601348E-01 a      1143     1     6     2     3
  2.8742322497337911E-02 a      1144     1     6     2     4
  1.2851553320324052E-01 a      1145     1     6     2     5
  9.1277383342573737E-01 a      1146     1     6     2     6
  3.3697405154353183E-01 a      1147     1     6     2     7
  4.3851325088793763E-01 a      1148     1     6     2     8
  3.4849119330047534E-01 a      1149     1     6     2     9
  3.4813014189403640E-01 a      1150     1     6     2    10
 -7.8725697518018756E-01 a      1151     1     6     2    11
 -6.4545513488958495E-01 a      1152     1     6     2    12
  6.8346843807368851E-01 a      1153     1     6     2    13
 -6.6397653207172280E-02 a      1154     1     6     2    14
  3.9116678543635225E-01 a      1155     1     6     2    15
 -3.6692227633911050E-02 a      1156     1     6     2    16
  3.8128148942114548E-01 a      1157     1     6     2    17
  2.4061847027944230E-01 a      1158     1     6     2    18
  1.8361162082392343E-01 a      1159     1     6     2    19
 -5.2690497302725681E-01 a      1160     1     6     2    20
  2.2215902905756282E-01 a      1161     1     7     2     1
  1.5910425161996156E-01 a      1162     1     7     2     2
 -8.5199149142204375E-02 a      1163     1     7     2     3
  4.0362430551020467E-01 a      1164     1     7     2     4
  6.6610168817858051E-01 a      1165     1     7     2     5
  3.6329822782277099E-01 a      1166     1     7     2     6
  2.3953780759657547E-01 a      1167     1     7     2     7
  1.9924501391067770E-01 a      1168     1     7     2     8
 -1.1348990990774679E-01 a      1169     1     7     2     9
 -3.0849865334950290E-02 a      1170     1     7     2    10
  6.8628467653858341E-02 a      1171     1     7     2    11
  2.6834039195086645E-01 a      1172     1     7     2    12
  1.0825972238468094E-01 a      1173     1     7     2    13
 -4.7929088468368591E-01 a      1174     1     7     2    14
 -5.0031892530703337E-03 a      1175     1     7     2    15
  7.3716206595748879E-01 a      1176     1     7     2    16
 -2.1053381106969080E-01 a      1177     1     7     2    17
 -4.2762145868616308E-01 a      1178     1     7     2    18
  3.6524222245579330E-01 a      1179     1     7     2    19
  2.1107905866917021E-02 a      1180     1     7     2    20
  3.3592646498575918E-01 a      1181     1     8     2     1
 -4.6790458117164196E-01 a      1182     1     8     2     2
  4.4829924366856033E-01 a      1183     1     8     2     3
  1.4700982837738338E-01 a      1184     1     8     2     4
 -6.8087063193355235E-01 a      1185     1     8     2     5
  4.8181097609825546E-01 a      1186     1     8     2     6
  1.3768638792624022E-01 a      1187     1     8     2     7
  7.3039562356499485E-02 a      1188     1     8     2     8
  4.9105267126993579E-01 a      1189     1     8     2     9
  2.9601163175194800E-01 a      1190     1     8     2    10
  3.9498272486801389E-01 a      1191     1     8     2    11
  6.0431653187901627E-02 a      1192     1     8     2    12
  2.5342484916058577E-01 a      1193     1     8     2    13
  5.9261035922999006E-01 a      1194     1     8     2    14
  1.1598967364617452E+00 a      1195     1     8     2    15
 -1.9730812827609721E+00 a      1196     1     8     2    16
  3.7732902066691099E-01 a      1197     1     8     2    17
 -5.1005492304074795E-01 a      1198     1     8     2    18
 -8.1947187476283911E-01 a      1199     1     8     2    19
  9.3746500522145504E-01 a      1200     1     8     2    20
 -1.1639492643491640E-01 a      1201     1     9     2     1
 -6.4045674603664882E-01 a      1202     1     9     2     2
 -4.8005391483263044E-01 a      1203     1     9     2     3
 -2.9482739993540241E-01 a      1204     1     9     2     4
  1.7563425301199981E-01 a      1205     1     9     2     5
  2.0137882044623878E-01 a      1206     1     9     2     6
 -1.5165470633930672E-01 a      1207     1     9     2     7
  4.1817398729250249E-01 a      1208     1     9     2     8
  5.6613858930975860E-03 a      1209     1     9     2     9
 -4.4848905773390069E-01 a      1210     1     9     2    10
 -3.8764395388325668E-01 a      1211     1     9     2    11
  1.8711439914546438E-01 a      1212     1     9     2    12
 -5.9706696840531914E-01 a      1213     1     9     2    13
  9.3573842960898346E-01 a      1214     1     9     2    14
 -3.3121497413146977E-01 a      1215     1     9     2    15
 -1.3671880036596109E+00 a      1216     1     9     2    16
  3.1087698664920166E-01 a      1217     1     9     2    17
 -6.9169015666492473E-01 a      1218     1     9     2    18
  7.6939066953468194E-02 a      1219     1     9     2    19
  1.6709795412311493E-01 a      1220     1     9     2    20
  5.8912251156565432E-01 a      1221     1    10     2     1
 -4.0201572224688703E-01 a      1222     1    10     2     2
 -8.2036370649899371E-01 a      1223     1    10     2     3
 -5.6323765737550135E-01 a      1224     1    10     2     4
  5.6887775669765828E-01 a      1225     1    10     2     5
 -1.2955653457697860E-01 a      1226     1    10     2     6
 -6.1104560028334554E-01 a      1227     1    10     2     7
 -2.6090701261971438E-01 a      1228     1    10     2     8
 -3.2462193270008927E-01 a      1229     1    10     2     9
 -4.0811509996332673E-01 a      1230     1    10     2    10
 -3.3679509337803437E-01 a      1231     1    10     2    11
  3.0581744056467330E-01 a      1232     1    10     2    12
 -1.8613220827754162E-01 a      1233     1    10     2    13
  1.3865914698119480E-01 a      1234     1    10     2    14
  4.2261837971663990E-01 a      1235     1    10     2    15
  1.0262955114673222E+00 a      1236     1    10     2    16
 -1.4772745701517964E-01 a      1237     1    10     2    17
  5.2067447922692404E-02 a      1238     1    10     2    18
 -2.5588823696709112E-01 a      1239     1    10     2    19
  2.1427915188148272E-01 a      1240     1    10     2    20
  9.2465247672704409E-01 a      1241     1    11     2     1
  8.1641154984436692E-01 a      1242     1    11     2     2
 -1.6294169795667224E-02 a      1243     1    11     2     3
  4.7572228437697922E-01 a      1244     1    11     2     4
 -3.9204406657864632E-01 a      1245     1    11     2     5
  9.2957708627173397E-01 a      1246     1    11     2     6
  8.0881790437391443E-01 a      1247     1    11     2     7
 -2.8881830361167105E-01 a      1248     1    11     2     8
 -4.1038180005857328E-01 a      1249     1    11     2     9
 -7.5456018799302782E-01 a      1250     1    11     2    10
 -1.0469665575433532E-01 a      1251     1    11     2    11
  2.2183438636655553E-01 a      1252     1    11     2    12
 -1.4130906840481897E-01 a      1253     1    11     2    13
 -1.3327350648330621E-01 a      1254     1    11     2    14
  4.2968702035142897E-01 a      1255     1    11     2    15
 -8.4389428008525313E-01 a      1256     1    11     2    16
 -7.8640045194104458E-01 a      1257     1    11     2    17
 -6.3779691828324561E-02 a      1258     1    11     2    18
  1.2964451401231683E-01 a      1259     1    11     2    19
 -2.0286089142380076E-01 a      1260     1    11     2    20
 -1.1818233553081445E+00 a      1261     1    12     2     1
  5.0482297867876114E-01 a      1262     1    12     2     2
  4.4360968701144676E-01 a      1263     1    12     2     3
 -9.6376406273351159E-02 a      1264     1    12     2     4
 -1.6534095207538388E-01 a      1265     1    12     2     5
  5.9195736301289703E-01 a      1266     1    12     2     6
  1.8966939568296577E+00 a      1267     1    12     2     7
  4.0312303242481456E-01 a      1268     1    12     2     8
  3.7292032152250763E-02 a      1269     1    12     2     9
  8.4661734536832997E-02 a      1270     1    12     2    10
  2.1767970732616373E-01 a      1271     1    12     2    11
 -2.5449305179367271E-01 a      1272     1    12     2    12
  5.2314672199213798E-02 a      1273     1    12     2    13
 -1.3011026503861631E-01 a      1274     1    12     2    14
  2.2606795517668382E-01 a      1275     1    12     2    15
 -1.4310602881196530E-01 a      1276     1    12     2    16
 -1.7572262287569218E-01 a      1277     1    12     2    17
  5.1968816960898456E-01 a      1278     1    12     2    18
  8.6188093874331873E-01 a      1279     1    12     2    19
 -8.2283379339749413E-02 a      1280     1    12     2    20
 -3.9780825924741703E-01 a      1281     1    13     2     1
  7.2334130775682437E-01 a      1282     1    13     2     2
  2.1218940156175126E-01 a      1283     1    13     2     3
 -4.5104606009835450E-02 a      1284     1    13     2     4
  3.9482454762376890E-01 a      1285     1    13     2     5
  5.0418322370441704E-01 a      1286     1    13     2     6
 -2.5664991683955220E-02 a      1287     1    13     2     7
 -5.9801662173229886E-01 a      1288     1    13     2     8
 -4.5376857313780172E-01 a      1289     1    13     2     9
 -9.9336411709436842E-02 a      1290     1    13     2    10
 -5.0991102544372651E-03 a      1291     1    13     2    11
 -7.8500769201521869E-01 a      1292     1    13     2    12
 -2.8346425661399099E-01 a      1293     1    13     2    13
  9.1751624466197657E-01 a      1294     1    13     2    14
  6.1688002646271967E-01 a      1295     1    13     2    15
 -1.0967760569770464E+00 a      1296     1    13     2    16
 -4.5925161833122286E-01 a      1297     1    13     2    17
  4.5056832892840154E-01 a      1298     1    13     2    18
 -4.5277057819574335E-01 a      1299     1    13     2    19
  1.1457739821306949E-01 a      1300     1    13     2    20
  5.6618081420799371E-01 a      1301     1    14     2     1
  2.0446355487414830E-01 a      1302     1    14     2     2
  1.2229327531598662E-01 a      1303     1    14     2     3
  2.4340156711032171E-01 a      1304     1    14     2     4
 -2.8078244247756978E-01 a      1305     1    14     2     5
  6.8486837361316599E-01 a      1306     1    14     2     6
 -9.7344221859411784E-01 a      1307     1    14     2     7
 -9.3343887436490780E-01 a      1308     1    14     2     8
  2.0023138786964240E-01 a      1309     1    14     2     9
 -1.6987150960353978E-01 a      1310     1    14     2    10
 -6.6550557488896322E-01 a      1311     1    14     2    11
  1.1810562413693734E-01 a      1312     1    14     2    12
  5.7755168519057132E-01 a      1313     1    14     2    13
 -3.4311870473063361E-02 a      1314     1    14     2    14
 -8.2664498127037989E-01 a      1315     1    14     2    15
 -1.0541936513475807E+00 a      1316     1    14     2    16
  5.5262181468974880E-01 a      1317     1    14     2    17
  5.0120574601447065E-01 a      1318     1    14     2    18
  1.6485723045897485E-01 a      1319     1    14     2    19
  5.0444007587817911E-02 a      1320     1    14     2    20
  2.4052585028008200E-01 a      1321     1    15     2     1
  2.6760070296847127E-01 a      1322     1    15     2     2
 -1.6971182841798366E-01 a      1323     1    15     2     3
  1.3012216953173733E-01 a      1324     1    15     2     4
  1.1622817449287297E+00 a      1325     1    15     2     5
  8.8452503218108769E-01 a      1326     1    15     2     6
  8.9692066149642158E-01 a      1327     1    15     2     7
  5.2314997607994118E-01 a      1328     1    15     2     8
  4.2639782051135328E-01 a      1329     1    15     2     9
  6.8937660483325713E-01 a      1330     1    15     2    10
  3.8058161570591159E-01 a      1331     1    15     2    11
  5.3707821458792837E-01 a      1332     1    15     2    12
 -2.2376949068513061E-01 a      1333     1    15     2    13
  1.1084202402583808E-01 a      1334     1    15     2    14
 -7.5349744741393207E-02 a      1335     1    15     2    15
  2.4821910289569460E-01 a      1336     1    15     2    16
 -3.4655262497191586E-01 a      1337     1    15     2    17
 -5.6391552182836735E-01 a      1338     1    15     2    18
  1.8810068460456761E-01 a      1339     1    15     2    19
  8.8418221699409424E-02 a      1340     1    15     2    20
  6.8070424710707689E-01 a      1341     1    16     2     1
  5.2425663541721690E-01 a      1342     1    16     2     2
  4.4882599879572521E-01 a      1343     1    16     2     3
  2.4547138228269222E-01 a      1344     1    16     2     4
  4.7008535803982565E-01 a      1345     1    16     2     5
 -5.4897409334891945E-01 a      1346     1    16     2     6
 -5.5002449005977982E-01 a      1347     1    16     2     7
 -2.7940545924750571E-01 a      1348     1    16     2     8
 -5.0792829147165021E-02 a      1349     1    16     2     9
 -9.9317436970566153E-01 a      1350     1    16     2    10
  4.7932319864053263E-01 a      1351     1    16     2    11
  3.4965560157985021E-01 a      1352     1    16     2    12
  3.6873641056806028E-01 a      1353     1    16     2    13
 -4.2486462812606202E-01 a      1354     1    16     2    14
  4.9557728640043197E-01 a      1355     1    16     2    15
  3.4343001797217704E-01 a      1356     1    16     2    16
 -3.4371477739899114E-01 a      1357     1    16     2    17
  6.8798633706504109E-01 a      1358     1    16     2    18
 -3.0089484961941703E-02 a      1359     1    16     2    19
 -1.0084739210440035E+00 a      1360     1    16     2    20
  2.5656044608349721E-01 a      1361     1    17     2     1
 -7.6746525034558277E-01 a      1362     1    17     2     2
  2.0052479374682153E-01 a      1363     1    17     2     3
 -4.8162470475393585E-02 a      1364     1    17     2     4
 -1.1493791416621022E+00 a      1365     1    17     2     5
 -2.1646688806827050E-01 a      1366     1    17     2     6
 -1.1760397654410197E-01 a      1367     1    17     2     7
  7.1430469644587213E-02 a      1368     1    17     2     8
  2.8164691595229407E-01 a      1369     1    17     2     9
 -2.4794879927214022E-01 a      1370     1    17     2    10
 -2.4731747992533706E-01 a      1371     1    17     2    11
  3.1834720215487905E-01 a      1372     1    17     2    12
  1.7932799322310403E-01 a      1373     1    17     2    13
  2.2899610530504344E-01 a      1374     1    17     2    14
 -2.4261451149468991E-01 a      1375     1    17     2    15
 -1.5288677452664392E+00 a      1376     1    17     2    16
 -5.2095974543526447E-01 a      1377     1    17     2    17
 -5.6895658595417453E-01 a      1378     1    17     2    18
 -1.4737794942127092E-01 a      1379     1    17     2    19
 -5.8577388878190251E-01 a      1380     1    17     2    20
  2.8055107905311648E-02 a      1381     1    18     2     1
  8.4784193787359929E-01 a      1382     1    18     2     2
 -8.3863797071889248E-02 a      1383     1    18     2     3
  3.9450588061104652E-01 a      1384     1    18     2     4
 -4.5482119073626100E-02 a      1385     1    18     2     5
  1.2239177849261164E-01 a      1386     1    18     2     6
 -1.8079300450056998E-01 a      1387     1    18     2     7
  2.6357798092181911E-01 a      1388     1    18     2     8
  4.7897471592091945E-01 a      1389     1    18     2     9
 -1.6255506224390670E-01 a      1390     1    18     2    10
 -7.8234490328393269E-01 a      1391     1    18     2    11
 -2.2860353169333658E-01 a      1392     1    18     2    12
  5.5429610307001720E-01 a      1393     1    18     2    13
  7.5890802528030155E-01 a      1394     1    18     2    14
  1.9152812597601457E-01 a      1395     1    18     2    15
 -2.3799191193829625E-01 a      1396     1    18     2    16
 -1.5067920591118025E-01 a      1397     1    18     2    17
  4.3047102291963968E-01 a      1398     1    18     2    18
  9.0945261454554366E-02 a      1399     1    18     2    19
  7.3374764084040234E-01 a      1400     1    18     2    20
 -2.9128182496427046E-01 a      1401     1    19     2     1
 -2.1921955102247609E-01 a      1402     1    19     2     2
  4.1259984076754086E-01 a      1403     1    19     2     3
 -7.3093344434352414E-01 a      1404     1    19     2     4
 -6.2297612603160335E-01 a      1405     1    19     2     5
 -3.4855389206358001E-01 a      1406     1    19     2     6
  5.0632172076642307E-02 a      1407     1    19     2     7
  9.7916800819590721E-01 a      1408     1    19     2     8
 -1.8940597741975232E-01 a      1409     1    19     2     9
 -1.0328606397562906E-01 a      1410     1    19     2    10
 -3.7453459147988677E-01 a      1411     1    19     2    11
  9.5942679309465248E-02 a      1412     1    19     2    12
 -6.6016765246980380E-01 a      1413     1    19     2    13
  8.4700705987761682E-01 a      1414     1    19     2    14
 -2.5763124297974001E-02 a      1415     1    19     2    15
 -7.5735857348714863E-01 a      1416     1    19     2    16
  5.1623607841431629E-01 a      1417     1    19     2    17
  2.4546600848490610E-01 a      1418     1    19     2    18
  4.5225083986122538E-01 a      1419     1    19     2    19
 -2.0215891341473111E-01 a      1420     1    19     2    20
  1.7915687623587798E-01 a      1421     1    20     2     1
 -8.4173019181038353E-02 a      1422     1    20     2     2
  1.1177647284972032E-01 a      1423     1    20     2     3
  1.9945149356520875E-01 a      1424     1    20     2     4
 -1.2187423806882167E+00 a      1425     1    20     2     5
 -4.1031951641416747E-01 a      1426     1    20     2     6
 -2.0508261468592343E-01 a      1427     1    20     2     7
 -4.3730574518004821E-02 a      1428     1    20     2     8
 -6.9438414892910610E-02 a      1429     1    20     2     9
 -3.8933565432701656E-01 a      1430     1    20     2    10
  5.8754044538337091E-01 a      1431     1    20     2    11
  1.1054339859030662E-01 a      1432     1    20     2    12
 -1.1209841673198816E-01 a      1433     1    20     2    13
 -5.9986744971937778E-01 a      1434     1    20     2    14
  2.9996449483047521E-01 a      1435     1    20     2    15
  1.5576894593844773E-01 a      1436     1    20     2    16
  4.1585436547452304E-01 a      1437     1    20     2    17
 -4.5416765941868481E-01 a      1438     1    20     2    18
  6.1594250697252861E-01 a      1439     1    20     2    19
  2.0259984434708353E-01 a      1440     1    20     2    20
  1.1828242561812792E+00 b      1441     2     1
 -9.2765208811131461E-01 b      1442     2     2
 -6.3336394221693149E-01 b      1443     2     3
 -3.4644862416085764E-01 b      1444     2     4
 -2.7290406187359001E-01 b      1445     2     5
  1.2566728172815487E+00 b      1446     2     6
 -8.9416877503812642E-01 b      1447     2     7
  1.3452900853677039E+00 b      1448     2     8
 -6.7753479467909739E-01 b      1449     2     9
 -1.1123078403935391E+00 b      1450     2    10
 -2.4733722136367747E-01 b      1451     2    11
  9.5696748431821677E-01 b      1452     2    12
 -1.8045177010421407E+00 b      1453     2    13
 -9.3373233363927033E-01 b      1454     2    14
 -6.5367360639949257E-01 b      1455     2    15
  7.0332006233843747E-01 b      1456     2    16
 -1.3392371462767201E+00 b      1457     2    17
 -8.9405291083150840E-01 b      1458     2    18
 -1.2450465954490755E+00 b      1459     2    19
 -5.4548963235845060E-01 b      1460     2    20
  1.0870887587173903E+00 a      1461     2     1     3     1
 -2.4294906775741492E+00 a      1462     2     2     3     1
 -8.3992429128091761E-01 a      1463     2     3     3     1
 -1.5643317228179405E+00 a      1464     2     4     3     1
 -3.3623989147105898E-01 a      1465     2     5     3     1
  3.4910448264671828E-01 a      1466     2     6     3     1
 -1.3675845300023055E+00 a      1467     2     7     3     1
  2.0864315053986076E+00 a      1468     2     8     3     1
 -1.3889306863904378E+00 a      1469     2     9     3     1
 -2.1779899479601708E-01 a      1470     2    10     3     1
  1.5656832248170209E+00 a      1471     2    11     3     1
  2.2514719078242669E+00 a      1472     2    12     3     1
 -2.7160659117286925E+00 a      1473     2    13     3     1
  6.1628876995272275E-01 a      1474     2    14     3     1
 -1.1461608775049452E+00 a      1475     2    15     3     1
  3.3593127403902906E-01 a      1476     2    16     3     1
 -1.0655776385177689E+00 a      1477     2    17     3     1
 -1.9910811848764078E+00 a      1478     2    18     3     1
 -1.9580031615026872E+00 a      1479     2    19     3     1
  5.0289782555005480E-01 a      1480     2    20     3     1
  2.2738104868803766E+00 b      1481     3     1
