################################################################################
# Neural network connection values (weights and biases).
################################################################################
# Col  Name       Description
################################################################################
# 1    connection Neural network connection value.
# 2    t          Connection type (a = weight, b = bias).
# 3    index      Index enumerating weights.
# 4    l_s        Starting point layer (end point layer for biases).
# 5    n_s        Starting point neuron in starting layer (end point neuron for biases).
# 6    l_e        End point layer.
# 7    n_e        End point neuron in end layer.
################################################################################
#                      1 2         3     4     5     6     7
#             connection t     index   l_s   n_s   l_e   n_e
############################################################
  7.5799313889075859E-01 a         1     0     1     1     1
  9.5682673913701475E-04 a         2     0     1     1     2
 -1.3024297363028556E-01 a         3     0     1     1     3
 -5.6848090197637417E-02 a         4     0     1     1     4
  3.7515181563261424E-01 a         5     0     1     1     5
  1.1277924245130247E-01 a         6     0     1     1     6
 -3.6791679590488552E-01 a         7     0     1     1     7
 -1.0063453551286780E-01 a         8     0     1     1     8
 -3.5303076405396949E-01 a         9     0     1     1     9
  1.5587158172155355E-01 a        10     0     1     1    10
 -7.1996888758105462E-02 a        11     0     1     1    11
 -1.0177791271177669E-01 a        12     0     1     1    12
 -1.0177555770655404E-01 a        13     0     1     1    13
 -1.9450983403363004E-01 a        14     0     1     1    14
 -2.6451153757158591E-02 a        15     0     1     1    15
 -1.4639785354167964E-01 a        16     0     1     1    16
 -3.4054749879336273E-02 a        17     0     1     1    17
  3.9538113533544667E-01 a        18     0     1     1    18
  2.1161281488386477E-01 a        19     0     1     1    19
  5.0440118206166196E-01 a        20     0     1     1    20
  1.4073947453314925E-01 a        21     0     2     1     1
 -5.5903725914414504E-01 a        22     0     2     1     2
  4.3301549381851651E-01 a        23     0     2     1     3
  5.3584714766806052E-01 a        24     0     2     1     4
  9.7215397017142824E-02 a        25     0     2     1     5
  1.4543882365406041E-01 a        26     0     2     1     6
 -3.1237810063249261E-01 a        27     0     2     1     7
 -4.6398431131437223E-01 a        28     0     2     1     8
 -4.0006022315244527E-01 a        29     0     2     1     9
  1.4681225696889544E-01 a        30     0     2     1    10
  3.0740148915354787E-01 a        31     0     2     1    11
 -1.5752809517790078E-01 a        32     0     2     1    12
 -5.3670225881405320E-01 a        33     0     2     1    13
 -4.2947829414902866E-01 a        34     0     2     1    14
  6.2992925329602975E-02 a        35     0     2     1    15
 -1.7751082423440340E-01 a        36     0     2     1    16
 -2.7772818408262173E-01 a        37     0     2     1    17
 -2.1861834381817680E-01 a        38     0     2     1    18
  3.3458242684401690E-01 a        39     0     2     1    19
  1.6790096314888775E-01 a        40     0     2     1    20
  1.8206043247390176E-02 a        41     0     3     1     1
  5.5378215704772304E-02 a        42     0     3     1     2
  4.3876351756362886E-01 a        43     0     3     1     3
 -4.4633911059415166E-02 a        44     0     3     1     4
 -1.0199632473046620E-01 a        45     0     3     1     5
 -3.7718378749878118E-01 a        46     0     3     1     6
 -2.5239288510547730E-01 a        47     0     3     1     7
  2.9620709249464888E-01 a        48     0     3     1     8
 -3.5638848353436026E-01 a        49     0     3     1     9
  3.0446846122814686E-01 a        50     0     3     1    10
 -3.9800286298179013E-02 a        51     0     3     1    11
 -1.1270903358845576E-01 a        52     0     3     1    12
  1.1902253693797321E-01 a        53     0     3     1    13
  2.1867797222820362E-01 a        54     0     3     1    14
 -2.9500936159048907E-01 a        55     0     3     1    15
  4.2974912098538147E-02 a        56     0     3     1    16
 -8.3544581637486653E-02 a        57     0     3     1    17
  1.5093665571683296E-01 a        58     0     3     1    18
  1.2558474200230524E-01 a        59     0     3     1    19
  2.8138960611054720E-01 a        60     0     3     1    20
 -7.1830840743293956E-01 a        61     0     4     1     1
  2.0083898720077600E-01 a        62     0     4     1     2
  3.5274905717027884E-02 a        63     0     4     1     3
  2.9679180686256623E-01 a        64     0     4     1     4
 -2.4040566062314858E-01 a        65     0     4     1     5
 -7.9370348403022470E-02 a        66     0     4     1     6
 -9.8230746758866852E-02 a        67     0     4     1     7
  4.4497865848534257E-01 a        68     0     4     1     8
 -6.5777486520818704E-02 a        69     0     4     1     9
 -5.3773864687041727E-02 a        70     0     4     1    10
 -2.5179473800675367E-01 a        71     0     4     1    11
  5.2786243907750752E-01 a        72     0     4     1    12
  2.2254578450204520E-02 a        73     0     4     1    13
  1.3522960332390208E-01 a        74     0     4     1    14
 -5.9662235345502834E-01 a        75     0     4     1    15
 -3.5269103371435090E-01 a        76     0     4     1    16
  1.1845014607272072E-01 a        77     0     4     1    17
 -5.2381436676996440E-01 a        78     0     4     1    18
 -2.1402674177933045E-01 a        79     0     4     1    19
  9.6322192227393855E-02 a        80     0     4     1    20
 -7.2860030723561486E-01 a        81     0     5     1     1
 -2.2513975643889853E-01 a        82     0     5     1     2
 -5.7716528693097646E-01 a        83     0     5     1     3
 -4.2723740080639566E-01 a        84     0     5     1     4
  6.0285451160931469E-01 a        85     0     5     1     5
  4.9555101042241326E-02 a        86     0     5     1     6
 -2.9838799521413491E-02 a        87     0     5     1     7
  3.4717976353942603E-01 a        88     0     5     1     8
  2.7643541701261015E-01 a        89     0     5     1     9
 -1.3522495705540971E-01 a        90     0     5     1    10
  5.2494548668783070E-01 a        91     0     5     1    11
 -1.1627834875336394E-01 a        92     0     5     1    12
  2.3099442058981479E-01 a        93     0     5     1    13
  6.9837236280013088E-03 a        94     0     5     1    14
  4.2171647164802406E-01 a        95     0     5     1    15
 -2.2342497330791419E-01 a        96     0     5     1    16
 -1.7117123716872534E-01 a        97     0     5     1    17
 -7.5301624259814987E-02 a        98     0     5     1    18
 -5.7440310712841480E-01 a        99     0     5     1    19
  5.3718235759514343E-02 a       100     0     5     1    20
 -7.9517165734414452E-01 a       101     0     6     1     1
 -5.9150482128039605E-01 a       102     0     6     1     2
 -6.2038585471616092E-01 a       103     0     6     1     3
 -7.5876012696271156E-01 a       104     0     6     1     4
  5.0719882131271776E-01 a       105     0     6     1     5
  2.0627860276673038E-01 a       106     0     6     1     6
  5.5104254443629341E-01 a       107     0     6     1     7
  4.5883793491744995E-01 a       108     0     6     1     8
  5.2363516741993377E-01 a       109     0     6     1     9
  1.7327087294983881E-01 a       110     0     6     1    10
  4.9002627365362506E-01 a       111     0     6     1    11
 -7.4231343728482502E-02 a       112     0     6     1    12
  4.4299627338176155E-02 a       113     0     6     1    13
 -1.6729892813218278E-01 a       114     0     6     1    14
 -3.2197899580082256E-01 a       115     0     6     1    15
  2.8032251994581647E-01 a       116     0     6     1    16
  4.6987904953489462E-01 a       117     0     6     1    17
 -3.0629520225635659E-01 a       118     0     6     1    18
  2.5471269561370630E-01 a       119     0     6     1    19
 -2.1396878520372819E-02 a       120     0     6     1    20
 -1.2409664393934018E-01 a       121     0     7     1     1
 -1.5224684272958389E-01 a       122     0     7     1     2
  1.1181919911499083E+00 a       123     0     7     1     3
  1.3379253287745769E+00 a       124     0     7     1     4
 -1.2373943624153230E+00 a       125     0     7     1     5
 -1.7692297783034855E-01 a       126     0     7     1     6
 -1.8818535964993041E-01 a       127     0     7     1     7
 -5.6099052136758953E-01 a       128     0     7     1     8
  2.3482439260794649E-01 a       129     0     7     1     9
 -5.8944403028875869E-01 a       130     0     7     1    10
 -1.7664812372470307E-01 a       131     0     7     1    11
  6.2495095004869416E-01 a       132     0     7     1    12
  7.0891065622512772E-01 a       133     0     7     1    13
  1.4367673932206712E-01 a       134     0     7     1    14
  9.5025397098674580E-02 a       135     0     7     1    15
 -5.6367257823189221E-01 a       136     0     7     1    16
 -7.0860524750688991E-01 a       137     0     7     1    17
 -1.7551794065636710E-02 a       138     0     7     1    18
 -1.5698924585568759E-03 a       139     0     7     1    19
 -2.8432191277953994E-01 a       140     0     7     1    20
  3.0380402762172976E-01 a       141     0     8     1     1
  1.6317743903547294E-01 a       142     0     8     1     2
 -2.0966107422653255E-01 a       143     0     8     1     3
 -2.5689861259866248E-01 a       144     0     8     1     4
  3.3429849451909743E-01 a       145     0     8     1     5
  6.5248238796458802E-02 a       146     0     8     1     6
 -2.8061853269001177E-02 a       147     0     8     1     7
  6.6130038862047200E-02 a       148     0     8     1     8
 -1.4115700521067315E-01 a       149     0     8     1     9
  4.3924149149184150E-01 a       150     0     8     1    10
 -2.9482044158123327E-01 a       151     0     8     1    11
 -1.3189915497405036E-01 a       152     0     8     1    12
 -7.0298737465373684E-01 a       153     0     8     1    13
 -1.1405919041748669E-01 a       154     0     8     1    14
 -3.8625736939009753E-01 a       155     0     8     1    15
  3.2484840319347735E-01 a       156     0     8     1    16
  4.6505882435768969E-01 a       157     0     8     1    17
  6.5182551736448588E-02 a       158     0     8     1    18
  2.2788945190271145E-01 a       159     0     8     1    19
 -1.6805134572633249E-01 a       160     0     8     1    20
 -5.0474697448816330E-01 a       161     0     9     1     1
 -1.0176492704105244E+00 a       162     0     9     1     2
  3.3420076231530382E-01 a       163     0     9     1     3
  1.9113440735217174E-01 a       164     0     9     1     4
  8.7780745963465823E-01 a       165     0     9     1     5
  3.9845319198651508E-01 a       166     0     9     1     6
 -1.6611077027331603E-01 a       167     0     9     1     7
 -5.7790900814437285E-01 a       168     0     9     1     8
  2.4192223850348105E-01 a       169     0     9     1     9
  1.2988782380876427E+00 a       170     0     9     1    10
 -7.8928311339607560E-01 a       171     0     9     1    11
 -1.1840768986848188E-01 a       172     0     9     1    12
  4.1258847325412212E-02 a       173     0     9     1    13
 -3.0085144181253159E-01 a       174     0     9     1    14
 -8.8817439297394329E-01 a       175     0     9     1    15
  1.0984174312205189E-01 a       176     0     9     1    16
  3.2211468434126206E-01 a       177     0     9     1    17
 -2.5445834071053069E-01 a       178     0     9     1    18
 -2.0805366533833829E+00 a       179     0     9     1    19
  2.1067937340083934E-01 a       180     0     9     1    20
  1.7844776520140840E-01 a       181     0    10     1     1
  1.5190696080795045E+00 a       182     0    10     1     2
 -6.7605301604363155E-01 a       183     0    10     1     3
 -6.9653261160936930E-01 a       184     0    10     1     4
 -1.4844758670171503E+00 a       185     0    10     1     5
 -2.6469804543030973E-01 a       186     0    10     1     6
 -5.7196805294446418E-01 a       187     0    10     1     7
  1.1725339520807228E+00 a       188     0    10     1     8
  4.3011927477982975E-01 a       189     0    10     1     9
 -1.3634240114136880E+00 a       190     0    10     1    10
  6.7044127008714904E-01 a       191     0    10     1    11
  4.0068950184268481E-02 a       192     0    10     1    12
 -3.7318900647677961E-01 a       193     0    10     1    13
  7.3651426054274038E-01 a       194     0    10     1    14
  1.5054666907813690E+00 a       195     0    10     1    15
 -5.1293559067478831E-02 a       196     0    10     1    16
  3.0196340658556531E-01 a       197     0    10     1    17
  3.3380430423319318E-01 a       198     0    10     1    18
  2.0866538409592414E+00 a       199     0    10     1    19
 -7.9589427584253947E-01 a       200     0    10     1    20
  1.2492570369307394E+00 a       201     0    11     1     1
  6.9464939028233752E-01 a       202     0    11     1     2
  7.2944573704147087E-01 a       203     0    11     1     3
 -7.7440113291371543E-02 a       204     0    11     1     4
 -1.7156923715053524E-01 a       205     0    11     1     5
 -8.6290256207831373E-01 a       206     0    11     1     6
  7.3697753918985254E-02 a       207     0    11     1     7
 -2.7394384293003449E-01 a       208     0    11     1     8
 -2.5867120950367933E-01 a       209     0    11     1     9
 -2.7104607292880800E-01 a       210     0    11     1    10
  6.7607273074425511E-01 a       211     0    11     1    11
 -5.5945402293593027E-01 a       212     0    11     1    12
  6.4199501841003859E-01 a       213     0    11     1    13
 -1.3967441760453544E-01 a       214     0    11     1    14
 -7.2159068514544372E-02 a       215     0    11     1    15
 -8.7499788134662437E-01 a       216     0    11     1    16
  8.6319290536655338E-02 a       217     0    11     1    17
 -4.0724491310238961E-02 a       218     0    11     1    18
 -9.8148374614667377E-01 a       219     0    11     1    19
  2.0894278391633503E-01 a       220     0    11     1    20
 -1.2242371391687352E+00 a       221     0    12     1     1
 -1.4366455723889962E+00 a       222     0    12     1     2
 -6.8045873642024612E-01 a       223     0    12     1     3
  9.3592702509429748E-01 a       224     0    12     1     4
  1.0546750917478711E+00 a       225     0    12     1     5
 -1.8539092669717422E-01 a       226     0    12     1     6
  6.3105549986515422E-02 a       227     0    12     1     7
  5.1912076281000485E-01 a       228     0    12     1     8
 -1.5528113155259782E-01 a       229     0    12     1     9
  1.0318752869183159E+00 a       230     0    12     1    10
 -4.2960539871938902E-01 a       231     0    12     1    11
  1.2548487468219496E-01 a       232     0    12     1    12
 -7.5323515328139523E-01 a       233     0    12     1    13
 -5.0292697546656040E-01 a       234     0    12     1    14
 -2.5800438909203655E-01 a       235     0    12     1    15
  3.6627237540120933E-01 a       236     0    12     1    16
  1.1153348156077868E-01 a       237     0    12     1    17
 -1.5073692518479254E-01 a       238     0    12     1    18
 -6.6550834299747552E-01 a       239     0    12     1    19
 -3.8597292482720297E-01 a       240     0    12     1    20
  4.6511017645815007E-02 a       241     0    13     1     1
 -2.1438544414694033E-01 a       242     0    13     1     2
 -8.7072489374256226E-02 a       243     0    13     1     3
 -3.8090972686972380E-01 a       244     0    13     1     4
 -3.9963793668582898E-01 a       245     0    13     1     5
 -7.6158102807040842E-02 a       246     0    13     1     6
  2.8511062406113591E-01 a       247     0    13     1     7
  5.6058338552350029E-01 a       248     0    13     1     8
  7.2006343440779635E-02 a       249     0    13     1     9
  1.6141531582172439E-01 a       250     0    13     1    10
 -6.7207794834525325E-01 a       251     0    13     1    11
 -3.1507475768714832E-01 a       252     0    13     1    12
  3.4169556755983010E-01 a       253     0    13     1    13
 -3.3514393078963145E-01 a       254     0    13     1    14
  9.6006088863430405E-01 a       255     0    13     1    15
  1.1059581811661974E-01 a       256     0    13     1    16
 -1.2261918867823259E-01 a       257     0    13     1    17
  3.7385924040911167E-01 a       258     0    13     1    18
 -6.9040621431616400E-01 a       259     0    13     1    19
 -1.0895369474058193E-01 a       260     0    13     1    20
  1.5388592516665646E-02 a       261     0    14     1     1
  3.1214005900517533E-01 a       262     0    14     1     2
  4.8588580310979490E-01 a       263     0    14     1     3
  1.7769102388484762E-01 a       264     0    14     1     4
  3.0490296086485419E-01 a       265     0    14     1     5
 -1.4284962881571589E-01 a       266     0    14     1     6
 -1.8605372795552669E-01 a       267     0    14     1     7
  1.6368460766622690E-02 a       268     0    14     1     8
 -3.8267934954509608E-01 a       269     0    14     1     9
 -4.6650083181272300E-01 a       270     0    14     1    10
  6.2866832283235219E-01 a       271     0    14     1    11
  4.5218513958459111E-01 a       272     0    14     1    12
  1.1127281331987321E-02 a       273     0    14     1    13
 -3.5236254809767020E-01 a       274     0    14     1    14
 -8.3928716826889582E-01 a       275     0    14     1    15
 -6.9918597123100035E-01 a       276     0    14     1    16
  1.4933329899135031E-01 a       277     0    14     1    17
 -3.8978456797542849E-01 a       278     0    14     1    18
 -1.5289495944953220E+00 a       279     0    14     1    19
  7.6170754186273282E-01 a       280     0    14     1    20
  1.5834206755702832E-01 a       281     0    15     1     1
 -4.3079325809989127E-01 a       282     0    15     1     2
 -1.2943042908126715E-01 a       283     0    15     1     3
  8.1902725655852815E-01 a       284     0    15     1     4
 -9.6071011005666918E-01 a       285     0    15     1     5
 -3.8134013529819252E-02 a       286     0    15     1     6
  1.5588179421566972E-01 a       287     0    15     1     7
 -1.4958489472223643E-01 a       288     0    15     1     8
  2.7958520514944385E-01 a       289     0    15     1     9
  2.3569443739051377E-01 a       290     0    15     1    10
 -2.6474818178041470E-01 a       291     0    15     1    11
  4.5519530608562409E-01 a       292     0    15     1    12
 -1.8895178183117858E-01 a       293     0    15     1    13
 -4.6477521474611555E-01 a       294     0    15     1    14
 -1.7354294631300551E-01 a       295     0    15     1    15
 -3.3993340726092725E-01 a       296     0    15     1    16
 -1.0088279829697473E-01 a       297     0    15     1    17
  3.2548634937485033E-01 a       298     0    15     1    18
  3.4580442214734936E-01 a       299     0    15     1    19
  2.0891792387143536E-04 a       300     0    15     1    20
 -1.3986667359910004E-01 a       301     0    16     1     1
  3.9198361663991182E-01 a       302     0    16     1     2
 -3.6587183944080465E-01 a       303     0    16     1     3
  1.8201995755261927E-01 a       304     0    16     1     4
 -2.1123017563361846E-01 a       305     0    16     1     5
  4.7236061639518023E-01 a       306     0    16     1     6
  1.5671225610742551E-02 a       307     0    16     1     7
  7.7878437693499517E-02 a       308     0    16     1     8
 -1.1046416181606830E-01 a       309     0    16     1     9
  1.7013369816714324E-01 a       310     0    16     1    10
 -8.3898551722930970E-01 a       311     0    16     1    11
 -2.0943074838883188E-01 a       312     0    16     1    12
 -1.1251974668729005E-01 a       313     0    16     1    13
  3.0525400595301905E-01 a       314     0    16     1    14
  3.7750505677900847E-01 a       315     0    16     1    15
  2.5799336186933031E-01 a       316     0    16     1    16
 -2.1530527897480586E-01 a       317     0    16     1    17
 -5.8322278738624174E-02 a       318     0    16     1    18
 -3.1341565026273072E-01 a       319     0    16     1    19
  7.2715238970329762E-02 a       320     0    16     1    20
  9.9104945020141222E-01 a       321     0    17     1     1
  7.6395348994990331E-01 a       322     0    17     1     2
  5.0863732391086891E-01 a       323     0    17     1     3
 -9.4150150358123130E-01 a       324     0    17     1     4
  3.7443884431087354E-01 a       325     0    17     1     5
 -9.7603209492824583E-02 a       326     0    17     1     6
  6.8179551171278585E-01 a       327     0    17     1     7
  3.3312138209828501E-01 a       328     0    17     1     8
 -4.4187062055487858E-01 a       329     0    17     1     9
  7.6033378842645535E-02 a       330     0    17     1    10
  8.2922200208427688E-01 a       331     0    17     1    11
  4.7780138370557301E-01 a       332     0    17     1    12
 -1.5887953563293891E-01 a       333     0    17     1    13
 -2.8514251991715339E-02 a       334     0    17     1    14
 -5.3175454453322846E-01 a       335     0    17     1    15
 -5.9973006499943216E-01 a       336     0    17     1    16
  2.5316613296667789E-01 a       337     0    17     1    17
 -3.6606474612881787E-02 a       338     0    17     1    18
 -5.1548724061561513E-01 a       339     0    17     1    19
  5.3678949949445010E-01 a       340     0    17     1    20
 -3.4527040521447766E-01 a       341     0    18     1     1
 -9.9478707838053815E-01 a       342     0    18     1     2
 -7.6931414048674529E-01 a       343     0    18     1     3
 -2.1741306068753644E-01 a       344     0    18     1     4
 -1.9581256589192891E-01 a       345     0    18     1     5
  5.6635957915851687E-01 a       346     0    18     1     6
  1.9890999382660199E-01 a       347     0    18     1     7
  4.6358197715157617E-01 a       348     0    18     1     8
  2.1057799539568555E-02 a       349     0    18     1     9
  6.5489913195331739E-01 a       350     0    18     1    10
 -5.7474595893554914E-01 a       351     0    18     1    11
 -7.2064173423486574E-02 a       352     0    18     1    12
  1.0760666870247848E-01 a       353     0    18     1    13
 -3.3085650622496793E-01 a       354     0    18     1    14
  4.0934500486826571E-02 a       355     0    18     1    15
  6.6171667460321670E-01 a       356     0    18     1    16
 -3.8755922705471091E-01 a       357     0    18     1    17
  3.6267820278802271E-01 a       358     0    18     1    18
  8.6463938245115779E-01 a       359     0    18     1    19
 -1.4530674293758825E-01 a       360     0    18     1    20
 -1.0522035293528811E+00 a       361     0    19     1     1
  3.2430242359961434E-02 a       362     0    19     1     2
  9.0043742636679025E-02 a       363     0    19     1     3
 -1.9737718941513654E-01 a       364     0    19     1     4
  8.2940063036935319E-01 a       365     0    19     1     5
 -2.1866075592376041E-01 a       366     0    19     1     6
  2.4835853425038112E-01 a       367     0    19     1     7
 -8.4213002366950984E-01 a       368     0    19     1     8
  1.7909347049066640E-01 a       369     0    19     1     9
 -1.4569775349942360E-01 a       370     0    19     1    10
 -1.5664763941567289E-01 a       371     0    19     1    11
  3.0368481916396950E-01 a       372     0    19     1    12
  9.1900933214221703E-01 a       373     0    19     1    13
 -4.2632567536817012E-01 a       374     0    19     1    14
  5.5959200118470798E-01 a       375     0    19     1    15
 -2.6366262002283109E-02 a       376     0    19     1    16
  6.3869455702406663E-01 a       377     0    19     1    17
 -3.0596648446122460E-01 a       378     0    19     1    18
  3.0603607751121642E-01 a       379     0    19     1    19
 -8.6004730691895070E-01 a       380     0    19     1    20
  1.3376247325657123E-01 a       381     0    20     1     1
  7.0581864123511906E-01 a       382     0    20     1     2
  2.6785079242463313E-02 a       383     0    20     1     3
  2.1528161536383486E-01 a       384     0    20     1     4
 -1.4447503642339785E-01 a       385     0    20     1     5
  4.1625591315242194E-01 a       386     0    20     1     6
 -3.2348309475774484E-01 a       387     0    20     1     7
 -1.0657603167391780E+00 a       388     0    20     1     8
 -6.2112474422996923E-02 a       389     0    20     1     9
  1.1758642660856086E-01 a       390     0    20     1    10
  6.1301619278348499E-02 a       391     0    20     1    11
  1.8135996929662543E-01 a       392     0    20     1    12
  2.9888646986094451E-02 a       393     0    20     1    13
 -2.6067450444536339E-01 a       394     0    20     1    14
  1.4929536055006909E-01 a       395     0    20     1    15
  1.2186606437436143E-01 a       396     0    20     1    16
 -1.8877458758086796E-01 a       397     0    20     1    17
 -3.7327989567943343E-01 a       398     0    20     1    18
  3.3723105848605334E-01 a       399     0    20     1    19
 -3.2459124015703272E-01 a       400     0    20     1    20
  3.2920347104364006E-01 a       401     0    21     1     1
  2.3285568888895422E-01 a       402     0    21     1     2
  1.1449328714548979E-01 a       403     0    21     1     3
 -3.5224320881180071E-01 a       404     0    21     1     4
 -7.4172723521083439E-01 a       405     0    21     1     5
 -5.8415178250521183E-01 a       406     0    21     1     6
  2.6814948029040725E-01 a       407     0    21     1     7
 -4.1877319576223787E-01 a       408     0    21     1     8
 -7.7412799769248405E-02 a       409     0    21     1     9
  1.1535992837490915E-01 a       410     0    21     1    10
  6.3397832128636367E-01 a       411     0    21     1    11
  8.0789917221699439E-02 a       412     0    21     1    12
  4.8384189533114602E-01 a       413     0    21     1    13
 -6.3391964789409871E-01 a       414     0    21     1    14
  7.9668338055635368E-01 a       415     0    21     1    15
  5.1712036974602749E-01 a       416     0    21     1    16
  4.3515332517304633E-01 a       417     0    21     1    17
 -1.3689345778625892E-01 a       418     0    21     1    18
  3.7088632725235982E-01 a       419     0    21     1    19
  3.7890185405979804E-01 a       420     0    21     1    20
  8.7434175162726085E-02 a       421     0    22     1     1
  1.6276392607288595E-01 a       422     0    22     1     2
 -3.0568471492441901E-01 a       423     0    22     1     3
 -4.7673296216928307E-01 a       424     0    22     1     4
  7.8452333503760863E-01 a       425     0    22     1     5
  1.7901008931940113E-01 a       426     0    22     1     6
  1.5525510098324084E-02 a       427     0    22     1     7
  9.6391507583751201E-02 a       428     0    22     1     8
  2.7083928815094447E-02 a       429     0    22     1     9
 -4.5868629028987057E-01 a       430     0    22     1    10
  7.8426195922878039E-01 a       431     0    22     1    11
 -7.1389617315655585E-01 a       432     0    22     1    12
  1.9995952219324289E-01 a       433     0    22     1    13
 -7.0000702076333732E-01 a       434     0    22     1    14
  8.2899022842831283E-01 a       435     0    22     1    15
  4.7143735313020935E-03 a       436     0    22     1    16
 -9.1458442702168838E-02 a       437     0    22     1    17
 -8.3930715485259322E-02 a       438     0    22     1    18
 -3.5009090629801909E-01 a       439     0    22     1    19
 -2.0008387151793424E-03 a       440     0    22     1    20
 -3.9949121560416682E-02 a       441     0    23     1     1
  4.7513360870551455E-02 a       442     0    23     1     2
 -6.7511922017667619E-02 a       443     0    23     1     3
  1.3220420539109823E-02 a       444     0    23     1     4
 -7.5015525397296723E-02 a       445     0    23     1     5
 -1.9976996231967284E-01 a       446     0    23     1     6
 -9.1259384430866980E-02 a       447     0    23     1     7
 -7.0641522424712083E-02 a       448     0    23     1     8
  9.2431705496192479E-02 a       449     0    23     1     9
 -1.1193621827046168E-01 a       450     0    23     1    10
 -7.4362881472532127E-01 a       451     0    23     1    11
 -2.2191109551146651E-01 a       452     0    23     1    12
 -3.6371588926511988E-01 a       453     0    23     1    13
 -5.0805607313097700E-01 a       454     0    23     1    14
  5.5964383980817933E-01 a       455     0    23     1    15
  6.7682964152800873E-01 a       456     0    23     1    16
 -3.5883319239187950E-01 a       457     0    23     1    17
  4.0587981980796095E-01 a       458     0    23     1    18
 -1.1115491410188688E-02 a       459     0    23     1    19
  2.5317761556390295E-01 a       460     0    23     1    20
 -5.7410010970323422E-01 a       461     0    24     1     1
 -1.5556176823852810E-01 a       462     0    24     1     2
  4.9888771433462187E-01 a       463     0    24     1     3
  3.1159106916290802E-01 a       464     0    24     1     4
 -8.5575517734646367E-01 a       465     0    24     1     5
 -1.0339670696943035E-02 a       466     0    24     1     6
 -9.3980366614122735E-02 a       467     0    24     1     7
  1.0627405817966645E-01 a       468     0    24     1     8
 -3.8982680869588776E-01 a       469     0    24     1     9
  1.2759562895745766E-01 a       470     0    24     1    10
 -4.2157191790261217E-01 a       471     0    24     1    11
 -4.7817315566699707E-02 a       472     0    24     1    12
  2.8602837157522559E-01 a       473     0    24     1    13
  1.2811463245101379E-01 a       474     0    24     1    14
 -1.5155414678777285E-01 a       475     0    24     1    15
  3.8209644392612641E-01 a       476     0    24     1    16
 -3.4111295401759878E-01 a       477     0    24     1    17
 -1.5307701887170611E-01 a       478     0    24     1    18
 -4.6333118446140947E-01 a       479     0    24     1    19
  2.9954604540914498E-01 a       480     0    24     1    20
  1.0154379916319178E+00 a       481     0    25     1     1
  7.5015316083445394E-01 a       482     0    25     1     2
 -4.7736228582005968E-01 a       483     0    25     1     3
 -5.5487288968551922E-02 a       484     0    25     1     4
  8.5896184145740551E-01 a       485     0    25     1     5
  3.2308340815711972E-01 a       486     0    25     1     6
  4.3088870429657422E-01 a       487     0    25     1     7
 -5.8877720049460502E-01 a       488     0    25     1     8
  7.1092640777043747E-01 a       489     0    25     1     9
 -5.2838434145926616E-01 a       490     0    25     1    10
  4.2971454294036288E-01 a       491     0    25     1    11
  5.2626669792010194E-01 a       492     0    25     1    12
 -6.9245320270880895E-01 a       493     0    25     1    13
 -3.2230776857284715E-01 a       494     0    25     1    14
  4.5049315934986750E-01 a       495     0    25     1    15
 -9.7424560875690458E-02 a       496     0    25     1    16
  2.3980007796800565E-01 a       497     0    25     1    17
  7.8393073766865795E-01 a       498     0    25     1    18
  2.3883941560216657E-01 a       499     0    25     1    19
 -6.4201639629230187E-02 a       500     0    25     1    20
  2.2323944397585815E-01 a       501     0    26     1     1
  2.6802505747076782E-01 a       502     0    26     1     2
 -3.4350556720718034E-01 a       503     0    26     1     3
 -3.9744007223121136E-01 a       504     0    26     1     4
  6.4038236211286048E-01 a       505     0    26     1     5
  8.9917727350019377E-02 a       506     0    26     1     6
  2.4966041109430637E-01 a       507     0    26     1     7
  1.9255450695526136E-01 a       508     0    26     1     8
  3.3304966338897735E-01 a       509     0    26     1     9
 -2.0537724478282537E-01 a       510     0    26     1    10
  3.1526312535292128E-01 a       511     0    26     1    11
 -2.4774946805812639E-01 a       512     0    26     1    12
 -2.1098400027978578E-01 a       513     0    26     1    13
  2.0400965302983079E-01 a       514     0    26     1    14
  1.3005566896648817E-02 a       515     0    26     1    15
 -1.6080913897715568E-01 a       516     0    26     1    16
  1.9451550622108643E-01 a       517     0    26     1    17
  3.2636254828682543E-01 a       518     0    26     1    18
  1.2066783916220317E-01 a       519     0    26     1    19
 -9.0520747890835002E-03 a       520     0    26     1    20
 -7.2552256924131975E-01 a       521     0    27     1     1
 -6.4179666863486251E-01 a       522     0    27     1     2
 -1.1269181187430100E-01 a       523     0    27     1     3
  2.5054888152311089E-01 a       524     0    27     1     4
 -8.2220550382105162E-01 a       525     0    27     1     5
 -6.7453349639609847E-02 a       526     0    27     1     6
  3.7395298423322704E-01 a       527     0    27     1     7
  1.6175862284759368E-01 a       528     0    27     1     8
 -3.1369994746857277E-01 a       529     0    27     1     9
  2.2112845114914212E-01 a       530     0    27     1    10
 -3.0801487171280073E-01 a       531     0    27     1    11
 -3.0949763553948382E-02 a       532     0    27     1    12
  1.0199639059134369E+00 a       533     0    27     1    13
  1.4581113975233255E+00 a       534     0    27     1    14
 -5.3382818797884879E-01 a       535     0    27     1    15
  2.8621428144966077E-01 a       536     0    27     1    16
  6.6324824940280275E-02 a       537     0    27     1    17
 -6.1826881210532825E-01 a       538     0    27     1    18
  5.2967925218225920E-01 a       539     0    27     1    19
  4.4872421930999756E-01 a       540     0    27     1    20
  2.6131150510947293E-01 a       541     0    28     1     1
 -9.3275829932509574E-02 a       542     0    28     1     2
 -1.9183950634045152E-01 a       543     0    28     1     3
  4.9305568563009966E-01 a       544     0    28     1     4
  6.0532279624319979E-02 a       545     0    28     1     5
  2.2492709267987712E-01 a       546     0    28     1     6
  2.3059579973960184E-01 a       547     0    28     1     7
  1.1101624620869116E-01 a       548     0    28     1     8
 -7.4602703162550105E-02 a       549     0    28     1     9
  6.1084808573166605E-01 a       550     0    28     1    10
  2.9263372242674612E-01 a       551     0    28     1    11
  2.0810466050804904E-01 a       552     0    28     1    12
 -3.1755555589358037E-01 a       553     0    28     1    13
 -2.1705310252479040E-01 a       554     0    28     1    14
 -9.0162743649966559E-01 a       555     0    28     1    15
 -3.0771348982646302E-01 a       556     0    28     1    16
 -3.0418687144634227E-01 a       557     0    28     1    17
  2.5638553594597696E-01 a       558     0    28     1    18
  4.4770483140764517E-01 a       559     0    28     1    19
  1.1061227695843016E-01 a       560     0    28     1    20
  1.5163603439355638E-01 a       561     0    29     1     1
  7.2077854810903397E-01 a       562     0    29     1     2
 -2.3878265734950899E-01 a       563     0    29     1     3
 -3.0558142070005245E-01 a       564     0    29     1     4
  1.1307361796014401E-01 a       565     0    29     1     5
  4.1069831744548069E-01 a       566     0    29     1     6
 -3.8038425119280489E-01 a       567     0    29     1     7
  1.1192701371031512E-01 a       568     0    29     1     8
  3.8379745462921855E-01 a       569     0    29     1     9
 -1.2957711854369347E-01 a       570     0    29     1    10
  3.1940327230412881E-02 a       571     0    29     1    11
 -2.8237363627988632E-01 a       572     0    29     1    12
 -2.2735427559495754E-02 a       573     0    29     1    13
  1.4363134374298486E-01 a       574     0    29     1    14
  3.0670160451714449E-02 a       575     0    29     1    15
 -3.9987604425598955E-01 a       576     0    29     1    16
 -2.3901278622510214E-01 a       577     0    29     1    17
  5.3570228986211207E-02 a       578     0    29     1    18
  6.3321214092057276E-01 a       579     0    29     1    19
  2.4848575957962991E-02 a       580     0    29     1    20
  3.7016577220957603E-01 a       581     0    30     1     1
 -2.4700868745422502E-01 a       582     0    30     1     2
  4.5325966763519032E-01 a       583     0    30     1     3
 -3.3546762736117869E-01 a       584     0    30     1     4
  2.2343674091734372E-01 a       585     0    30     1     5
 -1.0992641972161914E+00 a       586     0    30     1     6
 -3.9173186183656106E-01 a       587     0    30     1     7
 -5.6307301459602421E-01 a       588     0    30     1     8
  4.9395855523977072E-01 a       589     0    30     1     9
  2.9310299793649214E-01 a       590     0    30     1    10
 -4.6048037546882553E-01 a       591     0    30     1    11
  4.7424273865180222E-01 a       592     0    30     1    12
 -1.5819107447641709E-01 a       593     0    30     1    13
 -4.4843649588171497E-01 a       594     0    30     1    14
  1.6963694221561432E-01 a       595     0    30     1    15
 -1.3371175028460588E-01 a       596     0    30     1    16
 -2.6757136911059742E-01 a       597     0    30     1    17
 -3.4596423876296356E-01 a       598     0    30     1    18
  5.2589775967330540E-02 a       599     0    30     1    19
  7.1196802152135849E-02 a       600     0    30     1    20
  4.4118359519171446E-01 a       601     0    31     1     1
  2.6037428248262118E-01 a       602     0    31     1     2
  5.6599735285027997E-01 a       603     0    31     1     3
 -3.0751959685686830E-01 a       604     0    31     1     4
  2.8363149623782291E-01 a       605     0    31     1     5
 -8.1839257079382810E-01 a       606     0    31     1     6
 -3.9154841503966969E-01 a       607     0    31     1     7
  4.2013858727846953E-01 a       608     0    31     1     8
  3.1941257773269123E-02 a       609     0    31     1     9
 -6.0616827828059494E-02 a       610     0    31     1    10
 -1.0347185876252007E-01 a       611     0    31     1    11
  4.6842058226675265E-01 a       612     0    31     1    12
  1.0238226199588452E-01 a       613     0    31     1    13
  7.6229307904150279E-02 a       614     0    31     1    14
  2.7386708584066211E-01 a       615     0    31     1    15
  2.4595034171486815E-01 a       616     0    31     1    16
 -4.9071710062765583E-01 a       617     0    31     1    17
 -4.7905810589784859E-01 a       618     0    31     1    18
  3.5769391798011024E-01 a       619     0    31     1    19
 -1.6880185818141241E-01 a       620     0    31     1    20
 -2.0102666703099409E-01 a       621     0    32     1     1
  3.5235171794596803E-01 a       622     0    32     1     2
  1.0835566777648488E-01 a       623     0    32     1     3
  4.3713273306535982E-01 a       624     0    32     1     4
  2.4536992845494346E-01 a       625     0    32     1     5
  4.5871056541693538E-02 a       626     0    32     1     6
 -5.2121760907019599E-01 a       627     0    32     1     7
  1.1350109269061939E+00 a       628     0    32     1     8
 -2.6366883719778675E-02 a       629     0    32     1     9
  1.2389738175342856E-01 a       630     0    32     1    10
 -2.0606040991719526E-01 a       631     0    32     1    11
 -7.5754409777236964E-01 a       632     0    32     1    12
 -8.2002758905822704E-02 a       633     0    32     1    13
  9.1578506654942282E-01 a       634     0    32     1    14
 -1.6026797332839876E-01 a       635     0    32     1    15
 -1.7319032301011728E-01 a       636     0    32     1    16
  1.5744057211483659E-01 a       637     0    32     1    17
  3.8546545089876272E-01 a       638     0    32     1    18
 -1.1128023381310443E+00 a       639     0    32     1    19
 -5.2268461125280041E-01 a       640     0    32     1    20
 -2.7407172836816807E-01 a       641     0    33     1     1
  2.4317795927110261E-01 a       642     0    33     1     2
 -4.0704048291855321E-01 a       643     0    33     1     3
 -4.8086539838102982E-01 a       644     0    33     1     4
  4.8079132458944801E-01 a       645     0    33     1     5
 -1.8138133741135856E-01 a       646     0    33     1     6
 -4.5709385130630059E-01 a       647     0    33     1     7
  3.8998853629733865E-01 a       648     0    33     1     8
 -1.9148195652417643E-01 a       649     0    33     1     9
 -6.2535576996222220E-01 a       650     0    33     1    10
 -2.9506643227363683E-01 a       651     0    33     1    11
  9.1680459666330683E-01 a       652     0    33     1    12
  9.1130331994459324E-01 a       653     0    33     1    13
 -1.1777373347023989E+00 a       654     0    33     1    14
  4.9236718899466714E-01 a       655     0    33     1    15
  5.8960486067021443E-03 a       656     0    33     1    16
 -4.8226268965432179E-01 a       657     0    33     1    17
  3.9286220797038707E-01 a       658     0    33     1    18
 -5.5553298381966265E-01 a       659     0    33     1    19
  2.5990656859454769E-01 a       660     0    33     1    20
  8.2595305207743303E-02 a       661     0    34     1     1
  1.6957448377955719E-02 a       662     0    34     1     2
  1.0721147693407883E-01 a       663     0    34     1     3
  2.0614185436388749E-01 a       664     0    34     1     4
  7.7712700713151686E-02 a       665     0    34     1     5
 -2.3130453915193300E-01 a       666     0    34     1     6
 -9.3538174427256329E-02 a       667     0    34     1     7
 -6.9068738723210554E-01 a       668     0    34     1     8
  3.5045427396644591E-01 a       669     0    34     1     9
  5.6812156418269877E-01 a       670     0    34     1    10
  2.3912804912250571E-01 a       671     0    34     1    11
 -4.9641039251978047E-01 a       672     0    34     1    12
 -2.5497713148427491E-02 a       673     0    34     1    13
  2.9726124283561484E-01 a       674     0    34     1    14
 -5.7788380534879169E-01 a       675     0    34     1    15
  5.1818254139403230E-01 a       676     0    34     1    16
 -2.8559124475397513E-01 a       677     0    34     1    17
  1.6658995998817100E-01 a       678     0    34     1    18
  1.9076595469198228E+00 a       679     0    34     1    19
 -2.4059826386199074E-01 a       680     0    34     1    20
  6.7672757415902240E-01 a       681     0    35     1     1
 -5.0636475101573097E-01 a       682     0    35     1     2
  4.6811227214200074E-01 a       683     0    35     1     3
  4.3663388439747419E-01 a       684     0    35     1     4
  4.8023656157433869E-01 a       685     0    35     1     5
 -6.5966932953660617E-01 a       686     0    35     1     6
  1.0974521572275121E-01 a       687     0    35     1     7
 -6.9124179632418647E-01 a       688     0    35     1     8
 -8.0861616117419399E-01 a       689     0    35     1     9
 -4.2356527775739179E-03 a       690     0    35     1    10
  7.3138057181183297E-02 a       691     0    35     1    11
  6.3166525174121901E-01 a       692     0    35     1    12
  2.4447390648148415E-01 a       693     0    35     1    13
  5.8710305747736169E-01 a       694     0    35     1    14
 -2.3298159288572573E-01 a       695     0    35     1    15
  4.0832304778711603E-01 a       696     0    35     1    16
  1.0881449048032885E-02 a       697     0    35     1    17
 -4.5236511219112036E-01 a       698     0    35     1    18
  4.1486189165983950E-01 a       699     0    35     1    19
  6.4637586085380561E-01 a       700     0    35     1    20
  8.9370738169110869E-02 a       701     0    36     1     1
  1.3712976397716412E-01 a       702     0    36     1     2
 -3.6315947340668377E-02 a       703     0    36     1     3
 -1.0026420252508393E-01 a       704     0    36     1     4
 -1.1210708814074272E-01 a       705     0    36     1     5
  2.3377749287563704E-01 a       706     0    36     1     6
  1.7455847124098764E-01 a       707     0    36     1     7
  1.0034379381524386E-01 a       708     0    36     1     8
  3.6955635122826361E-02 a       709     0    36     1     9
  1.5811183072652124E-01 a       710     0    36     1    10
 -1.9740080829733925E-01 a       711     0    36     1    11
 -1.8509901900221845E-01 a       712     0    36     1    12
  9.2017426047553447E-02 a       713     0    36     1    13
 -1.4009200744512337E-01 a       714     0    36     1    14
 -6.1598673638844414E-02 a       715     0    36     1    15
 -2.1827590140321074E-01 a       716     0    36     1    16
 -3.9793851996835949E-01 a       717     0    36     1    17
  1.3398346767947011E-01 a       718     0    36     1    18
  1.1698509979616232E+00 a       719     0    36     1    19
  9.0044348243395536E-02 a       720     0    36     1    20
  3.9596645346647336E-01 a       721     0    37     1     1
 -6.5187617189512492E-02 a       722     0    37     1     2
 -2.4105049961448789E-02 a       723     0    37     1     3
  1.4802596002162025E-01 a       724     0    37     1     4
 -2.8955563491969222E-01 a       725     0    37     1     5
  4.4377604248046110E-01 a       726     0    37     1     6
  2.7169477977016659E-01 a       727     0    37     1     7
 -7.8489954355854197E-01 a       728     0    37     1     8
  2.4415226202332907E-01 a       729     0    37     1     9
  2.5501248786873343E-01 a       730     0    37     1    10
  1.2561562643053764E-01 a       731     0    37     1    11
 -3.1276922796418821E-01 a       732     0    37     1    12
 -3.0988754120106166E-01 a       733     0    37     1    13
  8.3677177277704651E-01 a       734     0    37     1    14
 -7.0373540163011128E-01 a       735     0    37     1    15
  2.9327553165935505E-01 a       736     0    37     1    16
  3.1578843425437353E-01 a       737     0    37     1    17
 -2.3715237201240610E-01 a       738     0    37     1    18
  4.3075411103743122E-01 a       739     0    37     1    19
 -2.7505913107902580E-01 a       740     0    37     1    20
 -7.4419317496051285E-01 a       741     0    38     1     1
  1.0275260541856281E-01 a       742     0    38     1     2
  3.2936242326107451E-01 a       743     0    38     1     3
 -2.0431387164456923E-02 a       744     0    38     1     4
  1.5755448887349996E-01 a       745     0    38     1     5
  2.5786353583564942E-01 a       746     0    38     1     6
  1.4906530345108271E-01 a       747     0    38     1     7
  5.5880397587533504E-01 a       748     0    38     1     8
  8.6206073974340958E-01 a       749     0    38     1     9
 -5.4073101648431965E-01 a       750     0    38     1    10
  1.9806451291115493E-01 a       751     0    38     1    11
 -3.4152798867106032E-01 a       752     0    38     1    12
 -8.8339454627647432E-02 a       753     0    38     1    13
 -4.2653313113232416E-01 a       754     0    38     1    14
  3.6016256751650116E-01 a       755     0    38     1    15
 -5.4512197365077220E-01 a       756     0    38     1    16
  2.9842865479719805E-01 a       757     0    38     1    17
 -2.0746964746321120E-01 a       758     0    38     1    18
 -6.8744763579670243E-01 a       759     0    38     1    19
  1.7860111781921190E-01 a       760     0    38     1    20
  3.6318980875217372E-01 a       761     0    39     1     1
 -2.0002637097791101E-01 a       762     0    39     1     2
 -1.7426086368441390E-01 a       763     0    39     1     3
 -4.3277386573996107E-01 a       764     0    39     1     4
 -1.1471295046393275E+00 a       765     0    39     1     5
 -2.5460731094061367E-01 a       766     0    39     1     6
  1.5131097773458291E-01 a       767     0    39     1     7
  6.3143086847859808E-01 a       768     0    39     1     8
 -5.0631906642777436E-01 a       769     0    39     1     9
  2.0795513105460284E-01 a       770     0    39     1    10
  5.3904586734435933E-01 a       771     0    39     1    11
  6.8236516537042791E-01 a       772     0    39     1    12
 -1.8279421004536830E-02 a       773     0    39     1    13
  4.0290669885087294E-01 a       774     0    39     1    14
  8.4515175355001160E-01 a       775     0    39     1    15
 -2.1197131391122248E-01 a       776     0    39     1    16
 -3.3416342361808926E-01 a       777     0    39     1    17
 -2.1844702060479382E-01 a       778     0    39     1    18
  6.1723167884314301E-01 a       779     0    39     1    19
  1.3393222527230605E-01 a       780     0    39     1    20
 -7.6413076336212660E-01 a       781     0    40     1     1
  7.0418409635257950E-01 a       782     0    40     1     2
  3.3385979728872986E-02 a       783     0    40     1     3
 -1.5880977631909055E-01 a       784     0    40     1     4
  1.1005390092076792E+00 a       785     0    40     1     5
 -5.9743702783422936E-01 a       786     0    40     1     6
  8.1812333671641635E-01 a       787     0    40     1     7
  6.0711639836107667E-01 a       788     0    40     1     8
 -4.6236911106861989E-01 a       789     0    40     1     9
 -2.0322389223869424E+00 a       790     0    40     1    10
 -8.0129657762411932E-01 a       791     0    40     1    11
 -1.4138549455969665E+00 a       792     0    40     1    12
 -5.1363108313367511E-01 a       793     0    40     1    13
  8.2444321197809034E-01 a       794     0    40     1    14
  5.6991316912643653E-01 a       795     0    40     1    15
  1.1589338658211792E+00 a       796     0    40     1    16
  4.5466347735153534E-01 a       797     0    40     1    17
 -4.2828817955440224E-01 a       798     0    40     1    18
 -4.1556408839284653E-01 a       799     0    40     1    19
  3.1006765375557105E-01 a       800     0    40     1    20
  2.1440733439790572E-02 a       801     0    41     1     1
 -3.0609498738911223E-01 a       802     0    41     1     2
  9.4269327341176726E-02 a       803     0    41     1     3
  4.9240978835199162E-01 a       804     0    41     1     4
  2.9337099570747146E-02 a       805     0    41     1     5
  2.0944753198822361E-01 a       806     0    41     1     6
 -6.1355152864265827E-01 a       807     0    41     1     7
  4.5607145516103964E-01 a       808     0    41     1     8
  3.6245943594972241E-01 a       809     0    41     1     9
  3.8700999131362496E-01 a       810     0    41     1    10
  8.7578368204627599E-01 a       811     0    41     1    11
  1.9425437502969603E-01 a       812     0    41     1    12
 -6.2619508889587916E-01 a       813     0    41     1    13
  7.6139160912786871E-02 a       814     0    41     1    14
 -5.9102972940699794E-01 a       815     0    41     1    15
 -9.1042622088000724E-01 a       816     0    41     1    16
  3.3318855791062529E-01 a       817     0    41     1    17
 -4.4802249065400640E-01 a       818     0    41     1    18
 -2.3385705288760099E+00 a       819     0    41     1    19
 -2.0087748639655914E-01 a       820     0    41     1    20
 -1.1666903794661967E+00 a       821     0    42     1     1
  1.2234325001586153E-01 a       822     0    42     1     2
 -9.2253641831520627E-01 a       823     0    42     1     3
  3.6082571906900202E-01 a       824     0    42     1     4
 -3.3216240525857244E-01 a       825     0    42     1     5
  3.0482192620678589E-01 a       826     0    42     1     6
  1.1420937323110637E-01 a       827     0    42     1     7
 -6.3604681215006054E-01 a       828     0    42     1     8
 -2.6376537654356746E-01 a       829     0    42     1     9
  5.6043300838214238E-01 a       830     0    42     1    10
 -1.0910124261956237E-01 a       831     0    42     1    11
 -5.6181109151485176E-01 a       832     0    42     1    12
 -4.5394946314323753E-01 a       833     0    42     1    13
 -6.2148108469523615E-02 a       834     0    42     1    14
 -1.8394934501825341E-01 a       835     0    42     1    15
  1.0877849313279112E-01 a       836     0    42     1    16
 -3.6308615431388774E-01 a       837     0    42     1    17
  5.1457293990917508E-01 a       838     0    42     1    18
 -6.0610159192534541E-01 a       839     0    42     1    19
  1.4834375731707239E-01 a       840     0    42     1    20
  7.6747516489025780E-01 a       841     0    43     1     1
 -1.0046374995251850E+00 a       842     0    43     1     2
  1.4094397506009329E-01 a       843     0    43     1     3
  1.4207912221961233E-01 a       844     0    43     1     4
 -4.1209546468935931E-01 a       845     0    43     1     5
  7.4263877696605207E-01 a       846     0    43     1     6
 -1.0808568809434180E+00 a       847     0    43     1     7
 -9.3709049762115615E-01 a       848     0    43     1     8
  5.7052924006598349E-01 a       849     0    43     1     9
 -6.2954445878092335E-01 a       850     0    43     1    10
  1.1471323185953426E+00 a       851     0    43     1    11
  7.2350327854316698E-01 a       852     0    43     1    12
  4.7345506515009156E-01 a       853     0    43     1    13
  7.2633834329491076E-01 a       854     0    43     1    14
  6.2862095736651835E-01 a       855     0    43     1    15
  5.5482286222914338E-02 a       856     0    43     1    16
 -1.1733110099122085E-01 a       857     0    43     1    17
  2.4646291106386092E-01 a       858     0    43     1    18
  5.7842375840775839E-01 a       859     0    43     1    19
 -1.7122757349472267E-01 a       860     0    43     1    20
 -2.8828308515850054E-01 a       861     0    44     1     1
  4.6532903094941458E-01 a       862     0    44     1     2
 -1.0399766639903324E-01 a       863     0    44     1     3
 -2.7660333400029102E-01 a       864     0    44     1     4
  1.6991843630994116E-01 a       865     0    44     1     5
 -2.7431485414795620E-02 a       866     0    44     1     6
  4.2265489613116290E-02 a       867     0    44     1     7
 -1.7214098488572660E-01 a       868     0    44     1     8
  1.6087013618099699E-01 a       869     0    44     1     9
  7.7595129316947314E-02 a       870     0    44     1    10
 -9.5709720103314333E-01 a       871     0    44     1    11
 -1.5722491647181314E-01 a       872     0    44     1    12
  5.2092577533819062E-01 a       873     0    44     1    13
  1.6287961045523203E-01 a       874     0    44     1    14
 -3.6550367289853496E-02 a       875     0    44     1    15
  5.4467961871251547E-01 a       876     0    44     1    16
  3.5449449785621312E-01 a       877     0    44     1    17
  1.5846976108531907E-01 a       878     0    44     1    18
  1.7357828442294412E-01 a       879     0    44     1    19
  1.1083531502006888E-01 a       880     0    44     1    20
  3.4421336381647921E-01 a       881     0    45     1     1
  8.3598198531197890E-02 a       882     0    45     1     2
  5.2251253885735302E-02 a       883     0    45     1     3
 -3.2365033767939999E-01 a       884     0    45     1     4
  1.0122720869967097E-01 a       885     0    45     1     5
  6.3488405401678638E-01 a       886     0    45     1     6
 -1.6441852872113355E-01 a       887     0    45     1     7
  2.5353563183118932E-01 a       888     0    45     1     8
 -1.9336670969331970E-01 a       889     0    45     1     9
 -2.1421796360978881E-01 a       890     0    45     1    10
 -5.8523521664596338E-02 a       891     0    45     1    11
 -3.6134435390003905E-01 a       892     0    45     1    12
  2.7511295310540917E-01 a       893     0    45     1    13
 -2.5459212493941358E-01 a       894     0    45     1    14
  2.5354534381792918E-02 a       895     0    45     1    15
 -1.9406174886692015E-01 a       896     0    45     1    16
 -9.4401299046124501E-02 a       897     0    45     1    17
 -1.9921133929562500E-02 a       898     0    45     1    18
 -1.1189387751767763E-01 a       899     0    45     1    19
 -4.1948976392851051E-01 a       900     0    45     1    20
  2.1992519152687065E-01 a       901     0    46     1     1
 -9.4808921785739042E-01 a       902     0    46     1     2
 -1.0454402678637337E-01 a       903     0    46     1     3
  7.8027566202938736E-01 a       904     0    46     1     4
 -1.2332833742858226E-01 a       905     0    46     1     5
 -2.8977017810566241E-01 a       906     0    46     1     6
  3.0981701671088324E-01 a       907     0    46     1     7
 -1.1099730331039480E-01 a       908     0    46     1     8
  1.0061034006823537E-01 a       909     0    46     1     9
  3.5871579532978831E-01 a       910     0    46     1    10
  1.8950315917394600E-01 a       911     0    46     1    11
  4.7879020418218254E-01 a       912     0    46     1    12
 -4.8990833094005572E-02 a       913     0    46     1    13
 -4.4648067879787139E-02 a       914     0    46     1    14
 -4.6105790775726913E-01 a       915     0    46     1    15
 -3.8025908287943583E-01 a       916     0    46     1    16
 -5.0204365584847477E-01 a       917     0    46     1    17
  2.1663207087414615E-01 a       918     0    46     1    18
  1.1087208143180696E-01 a       919     0    46     1    19
 -3.6176643433260891E-01 a       920     0    46     1    20
 -6.4576657535459714E-01 b       921     1     1
 -1.1036712405491649E-01 b       922     1     2
  9.4705185845647943E-01 b       923     1     3
 -6.8925515198587495E-01 b       924     1     4
  6.3236204673392560E-01 b       925     1     5
 -5.8808442659800875E-01 b       926     1     6
 -7.4278589894430336E-01 b       927     1     7
  9.8318297213406891E-01 b       928     1     8
  1.0164926335938631E+00 b       929     1     9
  7.8489127713565177E-01 b       930     1    10
  8.6014623029204473E-01 b       931     1    11
 -7.7297272709491571E-01 b       932     1    12
  1.3257463941666172E+00 b       933     1    13
 -1.5892729604086178E+00 b       934     1    14
  1.0996117998658745E+00 b       935     1    15
 -6.1095150733820047E-01 b       936     1    16
 -8.7014271816885136E-01 b       937     1    17
  1.2464135943597072E+00 b       938     1    18
 -1.5989036853421121E+00 b       939     1    19
  1.2553019707463740E+00 b       940     1    20
  6.2768657044500764E-01 a       941     1     1     2     1
 -3.3216700385641884E-01 a       942     1     1     2     2
  1.9408077316731032E-01 a       943     1     1     2     3
  2.9784248906420602E-01 a       944     1     1     2     4
 -7.2514083620105563E-01 a       945     1     1     2     5
  3.6561242595214599E-01 a       946     1     1     2     6
 -2.1600012987491349E-01 a       947     1     1     2     7
  7.7052652301892322E-01 a       948     1     1     2     8
  7.2999099057800310E-01 a       949     1     1     2     9
 -2.7251074221864602E-01 a       950     1     1     2    10
  6.6206237800821388E-01 a       951     1     1     2    11
  7.5555207386250967E-01 a       952     1     1     2    12
 -5.5167890421533938E-01 a       953     1     1     2    13
  9.3300482447031208E-02 a       954     1     1     2    14
 -3.4509749130151354E-02 a       955     1     1     2    15
  1.8326872416913356E-01 a       956     1     1     2    16
 -1.3637053946607230E-01 a       957     1     1     2    17
 -3.8535973141286428E-01 a       958     1     1     2    18
 -1.6958668166033250E-01 a       959     1     1     2    19
 -2.7366196146638666E-01 a       960     1     1     2    20
 -1.0051978360634298E-01 a       961     1     2     2     1
 -4.4020252554364181E-01 a       962     1     2     2     2
 -3.3235295275755827E-01 a       963     1     2     2     3
  3.3609536681558799E-01 a       964     1     2     2     4
 -3.5260898081632014E-01 a       965     1     2     2     5
  3.0133312767830311E-01 a       966     1     2     2     6
  3.1488394110777501E-01 a       967     1     2     2     7
  4.0262677555500470E-01 a       968     1     2     2     8
  9.2901502141750270E-01 a       969     1     2     2     9
 -2.9189357403826388E-01 a       970     1     2     2    10
  6.1198255161985249E-01 a       971     1     2     2    11
  1.0473367620401230E+00 a       972     1     2     2    12
 -2.4142970739000919E-01 a       973     1     2     2    13
 -4.1995159437010210E-01 a       974     1     2     2    14
 -8.2482718747399097E-01 a       975     1     2     2    15
  3.8273063862765677E-01 a       976     1     2     2    16
 -4.1734048310378413E-01 a       977     1     2     2    17
 -1.9774372440524352E-01 a       978     1     2     2    18
  4.0917386735642713E-01 a       979     1     2     2    19
 -5.9016898190003619E-01 a       980     1     2     2    20
 -5.8016265893902463E-01 a       981     1     3     2     1
 -3.5131847918884274E-01 a       982     1     3     2     2
  1.1663642840299043E-01 a       983     1     3     2     3
  7.5202531759608490E-02 a       984     1     3     2     4
 -4.8651609180601912E-01 a       985     1     3     2     5
  2.5240145639615796E-01 a       986     1     3     2     6
  3.1723066172424957E-01 a       987     1     3     2     7
  5.4809905821710259E-01 a       988     1     3     2     8
  8.5981757399828029E-01 a       989     1     3     2     9
 -6.8388967864382599E-01 a       990     1     3     2    10
  3.7016586126101608E-01 a       991     1     3     2    11
 -4.8853552504093983E-01 a       992     1     3     2    12
  5.7097484138740129E-01 a       993     1     3     2    13
 -1.5817133233883149E-01 a       994     1     3     2    14
 -5.9716952865673842E-02 a       995     1     3     2    15
  4.0660621560063431E-01 a       996     1     3     2    16
  4.2315285108029838E-01 a       997     1     3     2    17
 -2.9059039446911367E-01 a       998     1     3     2    18
  3.6142723424974849E-01 a       999     1     3     2    19
  9.9418892769511236E-01 a      1000     1     3     2    20
 -5.6955358091847319E-01 a      1001     1     4     2     1
 -2.1269071971786238E-01 a      1002     1     4     2     2
  3.6794127464031441E-02 a      1003     1     4     2     3
  2.1052882390882682E-01 a      1004     1     4     2     4
 -2.7716775050496800E-01 a      1005     1     4     2     5
 -3.7094732151559384E-01 a      1006     1     4     2     6
 -4.0177475769474835E-01 a      1007     1     4     2     7
  2.1200975512084436E-01 a      1008     1     4     2     8
  1.5974807070933605E-01 a      1009     1     4     2     9
  9.6261824383377781E-01 a      1010     1     4     2    10
 -3.9070680562249477E-01 a      1011     1     4     2    11
 -8.0316840035678461E-01 a      1012     1     4     2    12
  6.3406556570387951E-01 a      1013     1     4     2    13
 -5.6597974407681662E-01 a      1014     1     4     2    14
  6.3499957140559060E-02 a      1015     1     4     2    15
 -2.4619813585365183E-01 a      1016     1     4     2    16
 -3.2957038169801128E-01 a      1017     1     4     2    17
  9.7721395035619690E-02 a      1018     1     4     2    18
  7.1754513012890889E-02 a      1019     1     4     2    19
 -5.2806703910341835E-01 a      1020     1     4     2    20
  1.3520825977444580E-02 a      1021     1     5     2     1
 -1.6718737854102947E-01 a      1022     1     5     2     2
  1.0363145552172133E+00 a      1023     1     5     2     3
  4.3187107032537625E-01 a      1024     1     5     2     4
 -3.2311651244443346E-01 a      1025     1     5     2     5
  3.5230431807275275E-01 a      1026     1     5     2     6
  3.3841994394780617E-01 a      1027     1     5     2     7
  8.7135599393494489E-01 a      1028     1     5     2     8
 -1.1688921307731717E+00 a      1029     1     5     2     9
 -4.3937175198003392E-01 a      1030     1     5     2    10
 -3.3534423003769814E-01 a      1031     1     5     2    11
  3.8991250237720843E-01 a      1032     1     5     2    12
  5.4554419583145053E-01 a      1033     1     5     2    13
  1.4908977580332625E-01 a      1034     1     5     2    14
 -4.0562080129816075E-02 a      1035     1     5     2    15
  6.5283565178398473E-01 a      1036     1     5     2    16
  1.5547688387246331E-01 a      1037     1     5     2    17
  2.3500862902270070E-01 a      1038     1     5     2    18
 -1.0422038208302165E-01 a      1039     1     5     2    19
  3.3443719322893306E-01 a      1040     1     5     2    20
  4.6624195695923287E-01 a      1041     1     6     2     1
  3.7307451684424975E-01 a      1042     1     6     2     2
  1.1366899643768018E+00 a      1043     1     6     2     3
  8.8235555781534220E-02 a      1044     1     6     2     4
  1.1254098865846858E-02 a      1045     1     6     2     5
  2.3801107516495804E-01 a      1046     1     6     2     6
 -4.1485338716865222E-01 a      1047     1     6     2     7
 -2.7981961468505210E-02 a      1048     1     6     2     8
 -1.7165062178295970E-01 a      1049     1     6     2     9
 -8.5903501701785567E-01 a      1050     1     6     2    10
  3.3546363801573081E-01 a      1051     1     6     2    11
  5.6189467710956009E-01 a      1052     1     6     2    12
  4.9186845082376848E-02 a      1053     1     6     2    13
 -6.1379139691789908E-01 a      1054     1     6     2    14
 -3.7225424498694565E-01 a      1055     1     6     2    15
  7.3151812390522541E-02 a      1056     1     6     2    16
 -2.0516235411426928E-01 a      1057     1     6     2    17
  5.5907567869651931E-01 a      1058     1     6     2    18
 -2.0447065285922256E-01 a      1059     1     6     2    19
 -9.5579465951774334E-01 a      1060     1     6     2    20
 -4.0016629465107556E-01 a      1061     1     7     2     1
 -5.8941012275216498E-01 a      1062     1     7     2     2
  1.3272437869182389E-02 a      1063     1     7     2     3
  9.8514080439644358E-01 a      1064     1     7     2     4
 -3.5600798048669685E-01 a      1065     1     7     2     5
 -5.0914719451969481E-01 a      1066     1     7     2     6
 -2.1652903982130006E-01 a      1067     1     7     2     7
 -8.4987293171789835E-01 a      1068     1     7     2     8
 -4.4470421870277055E-01 a      1069     1     7     2     9
  6.5423032723233177E-01 a      1070     1     7     2    10
 -9.5334796076303685E-01 a      1071     1     7     2    11
  1.1736361887632613E-01 a      1072     1     7     2    12
  5.5845435680680700E-01 a      1073     1     7     2    13
 -5.4290605582834150E-01 a      1074     1     7     2    14
 -1.4642023886923605E-01 a      1075     1     7     2    15
  8.1147356797939751E-01 a      1076     1     7     2    16
  2.3827155529833313E-01 a      1077     1     7     2    17
 -1.1031965694385042E+00 a      1078     1     7     2    18
 -3.2769422565320722E-01 a      1079     1     7     2    19
  7.4037450604279453E-01 a      1080     1     7     2    20
  9.9076895238894036E-01 a      1081     1     8     2     1
  4.4468331734895505E-01 a      1082     1     8     2     2
  6.9536127789008792E-02 a      1083     1     8     2     3
  6.7425095255652867E-01 a      1084     1     8     2     4
 -4.0057057720265798E-01 a      1085     1     8     2     5
 -4.0499603424816188E-01 a      1086     1     8     2     6
  4.9108974850417086E-01 a      1087     1     8     2     7
  7.3163259351589227E-01 a      1088     1     8     2     8
  2.6195180476580698E-01 a      1089     1     8     2     9
  2.2199598369842480E-01 a      1090     1     8     2    10
  7.5264250509377206E-01 a      1091     1     8     2    11
  3.7033044010984012E-01 a      1092     1     8     2    12
 -1.0563006456894887E-01 a      1093     1     8     2    13
  4.6032601937287987E-01 a      1094     1     8     2    14
  1.5473323464733774E-01 a      1095     1     8     2    15
  2.3655061662155044E-01 a      1096     1     8     2    16
  4.8384106551889496E-03 a      1097     1     8     2    17
 -4.8393881549759932E-01 a      1098     1     8     2    18
 -3.9734431403497007E-02 a      1099     1     8     2    19
 -1.3724308437677164E+00 a      1100     1     8     2    20
 -5.5921044995390645E-01 a      1101     1     9     2     1
 -9.1006415505022947E-02 a      1102     1     9     2     2
  3.4662563420530207E-01 a      1103     1     9     2     3
  9.2592012741199703E-01 a      1104     1     9     2     4
  1.1163959051194178E-02 a      1105     1     9     2     5
  4.7677020786067004E-01 a      1106     1     9     2     6
  2.5254946971020359E-01 a      1107     1     9     2     7
 -5.6941002682685304E-01 a      1108     1     9     2     8
  1.5536582468997906E-01 a      1109     1     9     2     9
  4.2014066302943454E-01 a      1110     1     9     2    10
  4.2645056749211463E-01 a      1111     1     9     2    11
  1.5278202374411626E-01 a      1112     1     9     2    12
 -4.5085136995789110E-01 a      1113     1     9     2    13
 -3.8620780481258433E-03 a      1114     1     9     2    14
  6.8467543010531096E-01 a      1115     1     9     2    15
 -2.7466083719700474E-01 a      1116     1     9     2    16
  5.4808124933268620E-01 a      1117     1     9     2    17
  6.4184971178473205E-01 a      1118     1     9     2    18
 -1.3982786037115200E-01 a      1119     1     9     2    19
 -7.4729744904064643E-01 a      1120     1     9     2    20
  5.2919896355420271E-01 a      1121     1    10     2     1
  2.1221838248476890E-01 a      1122     1    10     2     2
  1.0440774897505090E+00 a      1123     1    10     2     3
  1.6524333149360432E-01 a      1124     1    10     2     4
 -7.8348456046503104E-02 a      1125     1    10     2     5
  3.8009376896813024E-01 a      1126     1    10     2     6
  3.5863106454611660E-01 a      1127     1    10     2     7
  6.0064294212709861E-02 a      1128     1    10     2     8
 -9.4341154911202141E-01 a      1129     1    10     2     9
  3.7100485349460893E-01 a      1130     1    10     2    10
 -4.8972261485939772E-01 a      1131     1    10     2    11
 -6.2590146933726068E-02 a      1132     1    10     2    12
  5.4854132844635461E-01 a      1133     1    10     2    13
  4.9949320896668337E-01 a      1134     1    10     2    14
  1.3736270969570352E+00 a      1135     1    10     2    15
  6.1572760279489958E-01 a      1136     1    10     2    16
  1.3468616677823370E-01 a      1137     1    10     2    17
 -6.8629788942445924E-01 a      1138     1    10     2    18
  5.2330080205630458E-01 a      1139     1    10     2    19
  1.0939473165531066E-01 a      1140     1    10     2    20
  5.5378489992901003E-01 a      1141     1    11     2     1
 -4.1850645274240383E-01 a      1142     1    11     2     2
 -6.8924313678092430E-01 a      1143     1    11     2     3
  5.9278759166356887E-01 a      1144     1    11     2     4
  4.1596007430521253E-01 a      1145     1    11     2     5
 -2.3940635240895417E-01 a      1146     1    11     2     6
 -3.7200724216996794E-01 a      1147     1    11     2     7
  3.2497740473219439E-01 a      1148     1    11     2     8
  1.2148397870394327E+00 a      1149     1    11     2     9
  4.0375741073413884E-01 a      1150     1    11     2    10
  4.0924414878055493E-01 a      1151     1    11     2    11
  1.0969239657853358E+00 a      1152     1    11     2    12
  2.4384247885092608E-01 a      1153     1    11     2    13
 -4.5680499597149005E-01 a      1154     1    11     2    14
 -1.0866678403343402E+00 a      1155     1    11     2    15
  4.6331504567983672E-01 a      1156     1    11     2    16
 -5.4341723072582049E-01 a      1157     1    11     2    17
 -6.2631252683668603E-01 a      1158     1    11     2    18
 -1.3698468345602324E-01 a      1159     1    11     2    19
  1.2898547779379366E-01 a      1160     1    11     2    20
  4.8190665315818798E-01 a      1161     1    12     2     1
 -2.1335567257066601E-01 a      1162     1    12     2     2
 -2.7078276593515427E-01 a      1163     1    12     2     3
  9.7908337701684653E-02 a      1164     1    12     2     4
 -5.0538995832002320E-01 a      1165     1    12     2     5
 -3.5600925203614037E-01 a      1166     1    12     2     6
 -3.8127012358020579E-01 a      1167     1    12     2     7
 -8.8035039794968262E-01 a      1168     1    12     2     8
  6.4460649125592639E-01 a      1169     1    12     2     9
  7.8519414884544680E-01 a      1170     1    12     2    10
  3.7892401643108581E-01 a      1171     1    12     2    11
  1.6896254959584267E-01 a      1172     1    12     2    12
  1.0049354180726668E-01 a      1173     1    12     2    13
 -3.4905336026343353E-01 a      1174     1    12     2    14
 -1.5146835606160014E-01 a      1175     1    12     2    15
 -4.1523778286373925E-01 a      1176     1    12     2    16
  4.8022935490816418E-02 a      1177     1    12     2    17
  2.9541282597030027E-01 a      1178     1    12     2    18
  1.1178183668884405E+00 a      1179     1    12     2    19
 -7.5375198998834114E-01 a      1180     1    12     2    20
  2.3415674313320539E-01 a      1181     1    13     2     1
  4.2054230312491481E-01 a      1182     1    13     2     2
  7.6442003031889327E-01 a      1183     1    13     2     3
 -6.3880356075097844E-01 a      1184     1    13     2     4
  1.6188732179388418E-01 a      1185     1    13     2     5
 -3.5164825926906518E-01 a      1186     1    13     2     6
  1.6613556043762676E-01 a      1187     1    13     2     7
  9.7121948372716663E-02 a      1188     1    13     2     8
  3.8566803954116718E-01 a      1189     1    13     2     9
 -3.6295244116461782E-02 a      1190     1    13     2    10
  9.1632331960715374E-01 a      1191     1    13     2    11
 -8.6145887652797626E-01 a      1192     1    13     2    12
  7.8640756922188271E-01 a      1193     1    13     2    13
  5.1938589586834605E-01 a      1194     1    13     2    14
  4.4118796245646935E-01 a      1195     1    13     2    15
  1.3920512624237253E-02 a      1196     1    13     2    16
  4.5271966785371948E-01 a      1197     1    13     2    17
 -9.6525980289468034E-03 a      1198     1    13     2    18
 -4.1838495417771826E-01 a      1199     1    13     2    19
 -1.4198654431433535E+00 a      1200     1    13     2    20
 -1.8557769479226624E-01 a      1201     1    14     2     1
 -5.3840395284184517E-01 a      1202     1    14     2     2
 -3.4474293576890885E-01 a      1203     1    14     2     3
 -6.2200672980115301E-01 a      1204     1    14     2     4
 -1.4095682856275790E-01 a      1205     1    14     2     5
 -3.7299175706218274E-01 a      1206     1    14     2     6
  3.3238543575853347E-01 a      1207     1    14     2     7
  3.0611110192315771E-01 a      1208     1    14     2     8
  5.7414610335705374E-01 a      1209     1    14     2     9
  4.6604728965207995E-02 a      1210     1    14     2    10
 -2.9622496529917763E-01 a      1211     1    14     2    11
 -1.7299833490653707E-01 a      1212     1    14     2    12
 -6.8985907067293273E-01 a      1213     1    14     2    13
 -1.8662388572420141E-01 a      1214     1    14     2    14
 -5.8558783569624950E-01 a      1215     1    14     2    15
  7.0437662078233809E-01 a      1216     1    14     2    16
  4.3123845843393072E-01 a      1217     1    14     2    17
 -2.3155228937943886E-01 a      1218     1    14     2    18
  4.1097797007883741E-01 a      1219     1    14     2    19
 -4.4997094410357635E-01 a      1220     1    14     2    20
 -9.3301931932209692E-01 a      1221     1    15     2     1
 -1.2391733944487537E-01 a      1222     1    15     2     2
 -1.7730295454765307E-01 a      1223     1    15     2     3
 -2.5874137655946444E-01 a      1224     1    15     2     4
 -1.0644732769657179E+00 a      1225     1    15     2     5
  2.7406406078378515E-01 a      1226     1    15     2     6
  3.7102383193935939E-01 a      1227     1    15     2     7
 -8.1238029125300204E-01 a      1228     1    15     2     8
  3.9822341876731532E-02 a      1229     1    15     2     9
 -2.4936253695438983E-02 a      1230     1    15     2    10
 -1.2097998707360863E-01 a      1231     1    15     2    11
 -8.2456622465624588E-02 a      1232     1    15     2    12
 -8.4880448743229697E-01 a      1233     1    15     2    13
  4.6971582583757238E-01 a      1234     1    15     2    14
 -1.9288612106401426E-01 a      1235     1    15     2    15
  9.0691458916167078E-01 a      1236     1    15     2    16
  3.6439354599027662E-01 a      1237     1    15     2    17
 -4.8613640381998768E-01 a      1238     1    15     2    18
  7.9958348263405518E-02 a      1239     1    15     2    19
 -3.2545056204141626E-01 a      1240     1    15     2    20
 -4.7364790305720439E-01 a      1241     1    16     2     1
  2.5168362396929295E-01 a      1242     1    16     2     2
  2.7035908129513586E-01 a      1243     1    16     2     3
  5.3374266108572699E-01 a      1244     1    16     2     4
  9.0889252192465353E-01 a      1245     1    16     2     5
 -3.7313249752751221E-01 a      1246     1    16     2     6
 -1.3788720513857164E-01 a      1247     1    16     2     7
  3.3634775947510603E-01 a      1248     1    16     2     8
 -6.1418399222028752E-01 a      1249     1    16     2     9
 -1.8076628118713398E-01 a      1250     1    16     2    10
 -6.5556535836373608E-01 a      1251     1    16     2    11
 -6.1695427796362778E-01 a      1252     1    16     2    12
  5.5997164739770378E-01 a      1253     1    16     2    13
 -5.6389917135328638E-01 a      1254     1    16     2    14
  5.9222740249384465E-01 a      1255     1    16     2    15
  6.1704292978325148E-01 a      1256     1    16     2    16
  2.7282044484863061E-01 a      1257     1    16     2    17
 -1.1953599682797582E+00 a      1258     1    16     2    18
  6.4571224499674518E-01 a      1259     1    16     2    19
  1.4374266002780711E-01 a      1260     1    16     2    20
  6.8112717292510983E-01 a      1261     1    17     2     1
 -3.4734010891190009E-01 a      1262     1    17     2     2
  1.2847938925747579E-01 a      1263     1    17     2     3
  7.3477577102914571E-01 a      1264     1    17     2     4
  4.0751195028828741E-01 a      1265     1    17     2     5
 -4.2774302467729847E-01 a      1266     1    17     2     6
 -5.2615623529362121E-01 a      1267     1    17     2     7
 -3.3599158386529421E-01 a      1268     1    17     2     8
  2.0030177221302450E-01 a      1269     1    17     2     9
  4.1235977347535063E-01 a      1270     1    17     2    10
 -3.4816526564363093E-01 a      1271     1    17     2    11
  4.0981083938343754E-01 a      1272     1    17     2    12
 -6.5275026081794330E-01 a      1273     1    17     2    13
 -7.3478859168512947E-02 a      1274     1    17     2    14
  9.4256138213179341E-01 a      1275     1    17     2    15
  2.7317769159061123E-01 a      1276     1    17     2    16
 -2.7812059699483477E-01 a      1277     1    17     2    17
  1.5418489627440659E-03 a      1278     1    17     2    18
 -2.0189366971587261E-01 a      1279     1    17     2    19
  7.2437826919142501E-01 a      1280     1    17     2    20
  6.0025594514361569E-01 a      1281     1    18     2     1
  5.9110266859220040E-01 a      1282     1    18     2     2
 -2.2450835219121490E-01 a      1283     1    18     2     3
 -5.6646558950658656E-02 a      1284     1    18     2     4
 -8.1092147444523555E-01 a      1285     1    18     2     5
 -4.5057673077064536E-01 a      1286     1    18     2     6
 -5.6708692456445897E-01 a      1287     1    18     2     7
 -2.4809837548904964E-01 a      1288     1    18     2     8
  3.4876310296700339E-02 a      1289     1    18     2     9
 -8.2950694679441872E-01 a      1290     1    18     2    10
 -5.7679945949532840E-01 a      1291     1    18     2    11
  5.9228682873744120E-03 a      1292     1    18     2    12
  2.4492023573765492E-02 a      1293     1    18     2    13
 -2.6572853669515333E-02 a      1294     1    18     2    14
  4.0624904811786444E-01 a      1295     1    18     2    15
 -5.1312121967547386E-01 a      1296     1    18     2    16
  3.0060438239567167E-01 a      1297     1    18     2    17
 -1.1252934247416635E-01 a      1298     1    18     2    18
 -6.9041453997508373E-01 a      1299     1    18     2    19
  6.3802416239849413E-01 a      1300     1    18     2    20
  1.4638405677111219E-01 a      1301     1    19     2     1
 -4.2328133522716799E-01 a      1302     1    19     2     2
  8.6916111326658899E-02 a      1303     1    19     2     3
  2.2325666917786935E-01 a      1304     1    19     2     4
 -2.6987066556156658E-01 a      1305     1    19     2     5
 -2.7448997803626357E-01 a      1306     1    19     2     6
  1.7616199624426253E-02 a      1307     1    19     2     7
 -8.3949443274814933E-02 a      1308     1    19     2     8
  1.1638833828066162E+00 a      1309     1    19     2     9
 -1.6622350865384372E-01 a      1310     1    19     2    10
  1.9036582238612709E+00 a      1311     1    19     2    11
  6.0945290526952078E-01 a      1312     1    19     2    12
 -1.7804048026502586E-01 a      1313     1    19     2    13
  2.9151888983930752E-01 a      1314     1    19     2    14
  2.1517690030924064E-02 a      1315     1    19     2    15
 -8.1600280949071036E-01 a      1316     1    19     2    16
 -2.2825378446458724E-01 a      1317     1    19     2    17
  4.1616577076011002E-01 a      1318     1    19     2    18
  5.2084590760030469E-01 a      1319     1    19     2    19
 -3.2586550696214783E-01 a      1320     1    19     2    20
 -6.6457557371436016E-01 a      1321     1    20     2     1
 -1.3908137479092803E-01 a      1322     1    20     2     2
 -7.4087807190671956E-02 a      1323     1    20     2     3
  5.5469518015796737E-01 a      1324     1    20     2     4
  3.5783432065477133E-01 a      1325     1    20     2     5
  2.4660200443566824E-01 a      1326     1    20     2     6
  5.4744599767933044E-01 a      1327     1    20     2     7
  6.6988165340693495E-01 a      1328     1    20     2     8
  1.5205523911878413E-01 a      1329     1    20     2     9
 -1.8673972024939947E-01 a      1330     1    20     2    10
  2.4421045927401363E-02 a      1331     1    20     2    11
  6.5208823438105135E-02 a      1332     1    20     2    12
  7.2124288488817034E-01 a      1333     1    20     2    13
 -5.1459002791658837E-01 a      1334     1    20     2    14
  2.4847664666216790E-01 a      1335     1    20     2    15
  3.0620480800148187E-01 a      1336     1    20     2    16
 -2.7651842162784346E-01 a      1337     1    20     2    17
  6.7576617861777100E-01 a      1338     1    20     2    18
 -1.5160079300425053E-01 a      1339     1    20     2    19
 -3.8075423374275114E-01 a      1340     1    20     2    20
  9.0956499363090082E-01 b      1341     2     1
  1.6658059106597529E+00 b      1342     2     2
  7.9769928648696353E-01 b      1343     2     3
  1.1026254570140288E+00 b      1344     2     4
 -7.4184542607871540E-01 b      1345     2     5
  1.2483571581133384E+00 b      1346     2     6
  1.3785999670266891E+00 b      1347     2     7
  4.3501943942606158E-01 b      1348     2     8
  3.6545141432493061E-01 b      1349     2     9
 -6.6559465982085952E-01 b      1350     2    10
 -3.5165417766679985E-01 b      1351     2    11
  4.3941996623434197E-02 b      1352     2    12
  1.1080274261027536E+00 b      1353     2    13
  7.3043065387064254E-01 b      1354     2    14
  1.0096207575241758E+00 b      1355     2    15
 -1.5456434078816965E+00 b      1356     2    16
  1.5673322347217249E+00 b      1357     2    17
  1.3044410420563048E+00 b      1358     2    18
 -1.0878035217105289E+00 b      1359     2    19
  1.9433499939821339E+00 b      1360     2    20
 -4.1887417842402762E-02 a      1361     2     1     3     1
  1.7145999863364427E+00 a      1362     2     2     3     1
  1.4364894121856508E+00 a      1363     2     3     3     1
  1.0091230458312435E+00 a      1364     2     4     3     1
 -4.3297812457884421E-01 a      1365     2     5     3     1
  2.9003998368389661E-01 a      1366     2     6     3     1
  3.1308157942832315E-01 a      1367     2     7     3     1
  1.5290622940124170E+00 a      1368     2     8     3     1
  1.2815163111964205E+00 a      1369     2     9     3     1
 -7.3240771924793024E-01 a      1370     2    10     3     1
 -8.0046723592276892E-01 a      1371     2    11     3     1
 -5.9695495910631968E-01 a      1372     2    12     3     1
  1.8849171597073515E+00 a      1373     2    13     3     1
  5.1718211435854100E-01 a      1374     2    14     3     1
  2.0672687715286351E+00 a      1375     2    15     3     1
 -8.8726571331781934E-01 a      1376     2    16     3     1
  6.1466097717426482E-01 a      1377     2    17     3     1
  6.2115445145465731E-01 a      1378     2    18     3     1
 -1.8506536992535734E+00 a      1379     2    19     3     1
 -2.0030510191780457E-01 a      1380     2    20     3     1
  2.0267488846348582E+00 b      1381     3     1
