################################################################################
# Neural network connection values (weights and biases).
################################################################################
# Col  Name       Description
################################################################################
# 1    connection Neural network connection value.
# 2    t          Connection type (a = weight, b = bias).
# 3    index      Index enumerating weights.
# 4    l_s        Starting point layer (end point layer for biases).
# 5    n_s        Starting point neuron in starting layer (end point neuron for biases).
# 6    l_e        End point layer.
# 7    n_e        End point neuron in end layer.
################################################################################
#                      1 2         3     4     5     6     7
#             connection t     index   l_s   n_s   l_e   n_e
############################################################
 -1.2305331104052880E-01 a         1     0     1     1     1
  3.4804981773391164E-01 a         2     0     1     1     2
  4.4339842789537909E-01 a         3     0     1     1     3
  1.1851709221935279E-01 a         4     0     1     1     4
  1.0649778654648501E-01 a         5     0     1     1     5
 -6.6375091160240013E-02 a         6     0     1     1     6
 -3.0985903999354214E-01 a         7     0     1     1     7
  4.9116839313251554E-01 a         8     0     1     1     8
 -7.6811749437485843E-01 a         9     0     1     1     9
  5.9636344706919009E-01 a        10     0     1     1    10
 -9.1900626483724830E-03 a        11     0     1     1    11
  2.5919481780003154E-02 a        12     0     1     1    12
  1.4246764894765626E-01 a        13     0     1     1    13
 -6.6144496827048438E-01 a        14     0     1     1    14
 -3.7035506110872041E-01 a        15     0     1     1    15
  3.5120243729572925E-01 a        16     0     1     1    16
  3.3100314982062889E-01 a        17     0     1     1    17
  1.2607352480861886E-01 a        18     0     1     1    18
 -1.9353314904943461E-01 a        19     0     1     1    19
  4.5202390952337990E-01 a        20     0     1     1    20
 -2.7201123453793791E-01 a        21     0     2     1     1
  2.8882149338722213E-01 a        22     0     2     1     2
  1.3747992929727776E-01 a        23     0     2     1     3
  1.0113344094532875E-01 a        24     0     2     1     4
  8.4757504896862124E-02 a        25     0     2     1     5
  1.7152549214685640E-02 a        26     0     2     1     6
  3.5011573487700058E-02 a        27     0     2     1     7
 -4.3199000952376512E-02 a        28     0     2     1     8
 -9.2020987375120641E-02 a        29     0     2     1     9
  3.4101150930595174E-02 a        30     0     2     1    10
 -8.4067504689174982E-02 a        31     0     2     1    11
 -4.5517497183879096E-01 a        32     0     2     1    12
 -1.1043554974787072E-01 a        33     0     2     1    13
  1.9727888912188610E-01 a        34     0     2     1    14
  1.1217940777776751E-01 a        35     0     2     1    15
  3.5857380414522094E-01 a        36     0     2     1    16
  4.7491789244167387E-02 a        37     0     2     1    17
 -1.8417974049335523E-01 a        38     0     2     1    18
  1.7736684041455446E-02 a        39     0     2     1    19
  2.1485513005575932E-01 a        40     0     2     1    20
  3.1540543358154172E-01 a        41     0     3     1     1
  1.0315972101206435E-01 a        42     0     3     1     2
  4.1322885265940995E-03 a        43     0     3     1     3
 -4.2806926742881682E-02 a        44     0     3     1     4
  1.7821470593928007E-01 a        45     0     3     1     5
  2.2607427796596183E-01 a        46     0     3     1     6
  1.6437261049367186E-01 a        47     0     3     1     7
  8.0208865174139166E-02 a        48     0     3     1     8
  9.3264177740332410E-02 a        49     0     3     1     9
  3.9035848900055875E-02 a        50     0     3     1    10
  4.5415218420797709E-01 a        51     0     3     1    11
 -3.8973440793830194E-01 a        52     0     3     1    12
 -1.4663890545000166E-01 a        53     0     3     1    13
  4.4200227510059864E-01 a        54     0     3     1    14
 -1.6791973503955848E-01 a        55     0     3     1    15
  9.9385899199154609E-02 a        56     0     3     1    16
 -4.9142253062209394E-02 a        57     0     3     1    17
  6.8618717243149066E-02 a        58     0     3     1    18
 -2.6640419273404209E-01 a        59     0     3     1    19
 -3.4649946322951997E-01 a        60     0     3     1    20
  1.7954984818935918E-01 a        61     0     4     1     1
  9.2546871139491699E-02 a        62     0     4     1     2
 -1.0845229911628265E-01 a        63     0     4     1     3
 -3.9219897248533714E-01 a        64     0     4     1     4
  1.8127295412052108E-01 a        65     0     4     1     5
  1.6909026343548270E-02 a        66     0     4     1     6
  3.9131780766459207E-01 a        67     0     4     1     7
 -4.9082259154978208E-01 a        68     0     4     1     8
  1.2510550665738251E-01 a        69     0     4     1     9
 -8.0881400694551886E-01 a        70     0     4     1    10
  2.2721958350531363E-01 a        71     0     4     1    11
  7.6765137125047622E-02 a        72     0     4     1    12
 -7.3857804844169456E-02 a        73     0     4     1    13
  2.4954970403988086E-01 a        74     0     4     1    14
  3.2984494878726489E-01 a        75     0     4     1    15
 -3.6412288103496182E-01 a        76     0     4     1    16
 -4.1049837139706657E-01 a        77     0     4     1    17
 -2.1172339321908745E-01 a        78     0     4     1    18
 -1.2092964259659093E-01 a        79     0     4     1    19
 -6.7117782880740495E-01 a        80     0     4     1    20
 -7.1704898668471115E-02 a        81     0     5     1     1
 -3.7052215252972295E-02 a        82     0     5     1     2
  6.6036904868069471E-02 a        83     0     5     1     3
 -3.0059606788854498E-01 a        84     0     5     1     4
  3.2175608609249906E-01 a        85     0     5     1     5
 -4.9338983589345187E-01 a        86     0     5     1     6
 -3.7025895940829756E-01 a        87     0     5     1     7
 -4.0664238224885418E-01 a        88     0     5     1     8
  2.0722291311312216E-01 a        89     0     5     1     9
 -2.3164350217962992E-01 a        90     0     5     1    10
 -8.6039365786073507E-01 a        91     0     5     1    11
 -6.8285343810312704E-02 a        92     0     5     1    12
 -2.9422414136469893E-01 a        93     0     5     1    13
  2.3069630962216461E-01 a        94     0     5     1    14
  1.3726305015082915E-01 a        95     0     5     1    15
 -5.3147443971088559E-02 a        96     0     5     1    16
  1.6556891810858090E-01 a        97     0     5     1    17
  6.5338273654683010E-01 a        98     0     5     1    18
  4.7311935209214639E-01 a        99     0     5     1    19
 -1.8783113755737257E-01 a       100     0     5     1    20
 -5.0854140765634034E-02 a       101     0     6     1     1
 -1.2602899239982892E+00 a       102     0     6     1     2
 -8.7421730758244515E-03 a       103     0     6     1     3
 -3.6284158153981838E-01 a       104     0     6     1     4
  4.2655023673537756E-01 a       105     0     6     1     5
 -5.6190110516896696E-01 a       106     0     6     1     6
  3.5451636154827970E-01 a       107     0     6     1     7
 -1.8984680894771569E-01 a       108     0     6     1     8
  3.5715900460698746E-01 a       109     0     6     1     9
 -7.3874305821652175E-01 a       110     0     6     1    10
 -2.0184324369456039E-01 a       111     0     6     1    11
  1.5296280728614631E-01 a       112     0     6     1    12
 -1.6976410713349002E-01 a       113     0     6     1    13
 -2.0417652291233829E-01 a       114     0     6     1    14
  7.5331671801967082E-01 a       115     0     6     1    15
  1.2367915088962077E-01 a       116     0     6     1    16
  3.8031435073730822E-02 a       117     0     6     1    17
  4.8337295099062383E-01 a       118     0     6     1    18
 -3.4258813269925838E-02 a       119     0     6     1    19
 -5.5118471803514957E-01 a       120     0     6     1    20
  3.5646819013779800E-02 a       121     0     7     1     1
  5.3876591795143591E-01 a       122     0     7     1     2
 -3.6128254439767227E-01 a       123     0     7     1     3
  5.4576968430295403E-01 a       124     0     7     1     4
 -8.4677776101091573E-01 a       125     0     7     1     5
  5.6123651874470049E-01 a       126     0     7     1     6
  3.6231458925916354E-01 a       127     0     7     1     7
 -2.9071405643806492E-01 a       128     0     7     1     8
 -8.1914610643525846E-03 a       129     0     7     1     9
  1.2302086957458671E+00 a       130     0     7     1    10
 -8.6740017611681619E-01 a       131     0     7     1    11
 -3.0903300826940217E-01 a       132     0     7     1    12
  2.9680246210117767E-01 a       133     0     7     1    13
  5.9266178949514448E-01 a       134     0     7     1    14
 -8.7722676563032856E-02 a       135     0     7     1    15
 -3.8276578898912755E-01 a       136     0     7     1    16
  1.7434454785198172E-01 a       137     0     7     1    17
  4.8240578021513769E-01 a       138     0     7     1    18
  7.4811101274330638E-01 a       139     0     7     1    19
  3.9861081319298869E-01 a       140     0     7     1    20
  3.7839700060910997E-01 a       141     0     8     1     1
 -1.7075844998473794E-01 a       142     0     8     1     2
  1.6067627513531693E-01 a       143     0     8     1     3
 -2.8168819498230691E-01 a       144     0     8     1     4
  4.3863780813660014E-01 a       145     0     8     1     5
 -4.3867735342152003E-01 a       146     0     8     1     6
 -3.4454126055283507E-01 a       147     0     8     1     7
  3.2384612329461898E-01 a       148     0     8     1     8
  7.5266261462189413E-02 a       149     0     8     1     9
 -6.5918426607976710E-01 a       150     0     8     1    10
  1.5536819835980870E-01 a       151     0     8     1    11
  3.6837170681204950E-01 a       152     0     8     1    12
  7.9339580487774383E-02 a       153     0     8     1    13
 -1.9720804862131439E-01 a       154     0     8     1    14
 -3.1301201595182612E-02 a       155     0     8     1    15
  5.0009224196194557E-01 a       156     0     8     1    16
 -5.0156704421310461E-01 a       157     0     8     1    17
 -4.5335372540510788E-01 a       158     0     8     1    18
 -2.7285880007687352E-01 a       159     0     8     1    19
  9.5295018971602419E-02 a       160     0     8     1    20
  2.4726651876179426E-01 a       161     0     9     1     1
 -3.3348577172687847E-02 a       162     0     9     1     2
  1.7102887726587065E-02 a       163     0     9     1     3
 -4.4972641080834219E-01 a       164     0     9     1     4
  1.8253474677190026E-01 a       165     0     9     1     5
  3.2344038221303600E-01 a       166     0     9     1     6
 -1.7154675517321413E-01 a       167     0     9     1     7
  2.1889521886068486E-01 a       168     0     9     1     8
  3.7269886033103918E-02 a       169     0     9     1     9
  7.3300412236765922E-02 a       170     0     9     1    10
 -9.4810178922237504E-02 a       171     0     9     1    11
 -2.5488348336232675E-01 a       172     0     9     1    12
  8.1712610767028043E-02 a       173     0     9     1    13
 -3.2770387064833921E-02 a       174     0     9     1    14
 -1.6176706505841909E-01 a       175     0     9     1    15
 -9.9069961738448755E-03 a       176     0     9     1    16
 -1.4972893744903520E-01 a       177     0     9     1    17
  1.2606940395816008E-01 a       178     0     9     1    18
  7.6919890074643116E-02 a       179     0     9     1    19
 -1.2407013663699475E-01 a       180     0     9     1    20
  2.2915255799833531E-01 a       181     0    10     1     1
  5.3089742006659772E-02 a       182     0    10     1     2
 -3.6581971904898508E-01 a       183     0    10     1     3
 -4.6343467820825997E-02 a       184     0    10     1     4
 -4.6054753635903839E-03 a       185     0    10     1     5
  1.1691842233135376E-01 a       186     0    10     1     6
  1.7406877766177990E-02 a       187     0    10     1     7
  2.9820759172382610E-01 a       188     0    10     1     8
 -2.5196043250613059E-01 a       189     0    10     1     9
  1.0823555019038092E-01 a       190     0    10     1    10
  4.5119790083446121E-01 a       191     0    10     1    11
 -4.4985745051954330E-02 a       192     0    10     1    12
  9.1188191375713330E-03 a       193     0    10     1    13
 -1.6594786869524983E-01 a       194     0    10     1    14
 -2.8565078586197989E-01 a       195     0    10     1    15
 -4.3919096627260949E-02 a       196     0    10     1    16
  2.1701092967636981E-01 a       197     0    10     1    17
  4.6486197749102363E-02 a       198     0    10     1    18
  3.0934244132118580E-03 a       199     0    10     1    19
 -1.4611787340387800E-01 a       200     0    10     1    20
 -1.4130163019959882E-01 a       201     0    11     1     1
 -5.3254556066062206E-02 a       202     0    11     1     2
 -3.3146612862386286E-02 a       203     0    11     1     3
  6.9991903146543223E-03 a       204     0    11     1     4
 -8.0573191398479391E-02 a       205     0    11     1     5
 -2.7266950045253485E-01 a       206     0    11     1     6
 -2.3387116986500964E-01 a       207     0    11     1     7
 -4.0779523044230809E-01 a       208     0    11     1     8
  2.8858386426297206E-01 a       209     0    11     1     9
 -3.0644340499343670E-01 a       210     0    11     1    10
 -1.7462079264796265E-01 a       211     0    11     1    11
 -9.9113151119396378E-02 a       212     0    11     1    12
 -1.9662532945525019E-01 a       213     0    11     1    13
 -1.7886872952802120E-02 a       214     0    11     1    14
  9.7938019848200983E-02 a       215     0    11     1    15
  6.2408868546608161E-02 a       216     0    11     1    16
  2.1313346595792779E-01 a       217     0    11     1    17
 -4.1495592359290112E-01 a       218     0    11     1    18
 -1.5025196404522223E-01 a       219     0    11     1    19
  5.8735701316239466E-02 a       220     0    11     1    20
 -1.3466310966509254E-01 a       221     0    12     1     1
 -1.5637025235069096E-01 a       222     0    12     1     2
  2.3673700997606489E-01 a       223     0    12     1     3
 -6.9988206118664062E-02 a       224     0    12     1     4
 -4.2232603069664365E-01 a       225     0    12     1     5
 -4.4241776824344009E-01 a       226     0    12     1     6
 -1.8223369788294985E-02 a       227     0    12     1     7
 -1.7317628624788353E-01 a       228     0    12     1     8
 -8.9927564591066975E-02 a       229     0    12     1     9
 -5.1817922992630272E-01 a       230     0    12     1    10
 -2.0482658414215676E-01 a       231     0    12     1    11
 -1.5393781460920325E-01 a       232     0    12     1    12
 -5.3211580050792039E-02 a       233     0    12     1    13
  1.1493862373671231E-01 a       234     0    12     1    14
 -1.7042168305645686E-01 a       235     0    12     1    15
 -8.1624972629699782E-02 a       236     0    12     1    16
  4.2978492476591773E-01 a       237     0    12     1    17
  8.3302943646710564E-02 a       238     0    12     1    18
  8.9526960572259770E-03 a       239     0    12     1    19
  2.1484564607428286E-02 a       240     0    12     1    20
  1.3190143299737644E-01 a       241     0    13     1     1
  1.1882176323567234E-01 a       242     0    13     1     2
  5.8449279119933556E-02 a       243     0    13     1     3
 -7.5283432343833412E-01 a       244     0    13     1     4
  3.6176921645803405E-02 a       245     0    13     1     5
 -4.5923479733683881E-01 a       246     0    13     1     6
 -1.6171199510040324E-01 a       247     0    13     1     7
  5.4600470014431179E-01 a       248     0    13     1     8
 -5.3503923146248069E-03 a       249     0    13     1     9
  6.7589398937032941E-01 a       250     0    13     1    10
 -6.2740537789720197E-01 a       251     0    13     1    11
 -4.2220706505659740E-02 a       252     0    13     1    12
 -2.2647252093098241E-01 a       253     0    13     1    13
  1.8273275030649586E-02 a       254     0    13     1    14
 -3.0183776715349026E-01 a       255     0    13     1    15
 -3.8827459965817396E-01 a       256     0    13     1    16
 -6.5268237055509756E-02 a       257     0    13     1    17
  9.5871443792498762E-02 a       258     0    13     1    18
 -7.4461856600729501E-02 a       259     0    13     1    19
  1.3098388939730563E-01 a       260     0    13     1    20
 -3.1891083002693249E-01 a       261     0    14     1     1
  3.7905889239026741E-01 a       262     0    14     1     2
  1.6475823768687209E-01 a       263     0    14     1     3
  1.7925337023651355E-01 a       264     0    14     1     4
 -2.4444900767516095E-03 a       265     0    14     1     5
  7.4883984344546739E-01 a       266     0    14     1     6
 -4.8411366223954999E-01 a       267     0    14     1     7
 -2.5522649081888904E-01 a       268     0    14     1     8
 -3.7866502721591494E-01 a       269     0    14     1     9
 -1.2544552224758471E-01 a       270     0    14     1    10
  6.9644192359125601E-01 a       271     0    14     1    11
 -7.0598790262481392E-01 a       272     0    14     1    12
 -1.1145921587900365E-01 a       273     0    14     1    13
  1.7380642774392085E-01 a       274     0    14     1    14
  1.8983981080768750E-01 a       275     0    14     1    15
 -1.0538457382861138E-01 a       276     0    14     1    16
  3.1259657753935716E-01 a       277     0    14     1    17
  9.9098016307508641E-02 a       278     0    14     1    18
 -8.6739612423382975E-02 a       279     0    14     1    19
 -1.3586765470931375E-01 a       280     0    14     1    20
 -4.1395924119585925E-01 a       281     0    15     1     1
 -1.6989613269952294E-01 a       282     0    15     1     2
 -2.5396277463910422E-01 a       283     0    15     1     3
  4.1029406239348259E-01 a       284     0    15     1     4
  1.6975044435119857E-01 a       285     0    15     1     5
  1.8280827178493220E-01 a       286     0    15     1     6
 -2.1771019801000175E-03 a       287     0    15     1     7
 -5.2608976230605425E-02 a       288     0    15     1     8
 -2.2762614501384534E-01 a       289     0    15     1     9
 -3.4963923516261430E-01 a       290     0    15     1    10
  7.3682951019610615E-02 a       291     0    15     1    11
  4.3709713866732008E-01 a       292     0    15     1    12
  3.5989045667273606E-01 a       293     0    15     1    13
 -1.5906700933047940E-01 a       294     0    15     1    14
  2.4162836739470020E-01 a       295     0    15     1    15
  2.4238491668857481E-01 a       296     0    15     1    16
 -1.2490194422094782E-01 a       297     0    15     1    17
  3.6371451721043391E-01 a       298     0    15     1    18
 -1.9371482282044597E-01 a       299     0    15     1    19
 -1.6509202556747959E-01 a       300     0    15     1    20
  6.6793024682565783E-01 a       301     0    16     1     1
  1.0058100111589914E-01 a       302     0    16     1     2
  1.4138972917890399E-01 a       303     0    16     1     3
 -1.8923032725852643E-01 a       304     0    16     1     4
  7.4666084570209168E-01 a       305     0    16     1     5
 -1.4235250980127118E-01 a       306     0    16     1     6
  2.1819102784861213E-01 a       307     0    16     1     7
 -2.1581016259242655E-01 a       308     0    16     1     8
  1.2071501964091425E+00 a       309     0    16     1     9
  1.0789602233063140E+00 a       310     0    16     1    10
 -6.2511706814519419E-01 a       311     0    16     1    11
  3.4661925185095546E-02 a       312     0    16     1    12
 -2.4968670799839388E-01 a       313     0    16     1    13
 -1.2766703588197240E-01 a       314     0    16     1    14
 -6.1110812641141610E-01 a       315     0    16     1    15
 -9.6007439133110761E-01 a       316     0    16     1    16
  5.7548375958690823E-01 a       317     0    16     1    17
  5.6639672756348391E-01 a       318     0    16     1    18
 -5.9773188294445494E-02 a       319     0    16     1    19
  4.1809267917480630E-01 a       320     0    16     1    20
 -5.7295355972958473E-01 a       321     0    17     1     1
 -1.4325138142743915E-01 a       322     0    17     1     2
  6.1546209316933398E-01 a       323     0    17     1     3
 -2.1266864348883038E-01 a       324     0    17     1     4
 -2.6343602253254605E-01 a       325     0    17     1     5
  1.6856588995478872E-01 a       326     0    17     1     6
 -4.0100944643700520E-01 a       327     0    17     1     7
  6.7072949890888545E-01 a       328     0    17     1     8
 -6.4620783981887697E-01 a       329     0    17     1     9
 -3.6604165552595108E-01 a       330     0    17     1    10
  5.6686182738904689E-01 a       331     0    17     1    11
  1.8695037290141459E-01 a       332     0    17     1    12
  4.3638983568864509E-01 a       333     0    17     1    13
  3.2220198136509959E-01 a       334     0    17     1    14
  6.9295411566139498E-01 a       335     0    17     1    15
  6.1410026933826678E-01 a       336     0    17     1    16
 -4.1396197213466690E-01 a       337     0    17     1    17
 -9.6175090379844425E-02 a       338     0    17     1    18
  4.8087336750665760E-01 a       339     0    17     1    19
 -3.4070108478929678E-01 a       340     0    17     1    20
 -3.9672392224806935E-01 a       341     0    18     1     1
 -4.1339070679665280E-01 a       342     0    18     1     2
  3.9195857046891958E-01 a       343     0    18     1     3
  2.1733901911510861E-01 a       344     0    18     1     4
 -1.6922761749732015E-01 a       345     0    18     1     5
 -4.6429782961841658E-02 a       346     0    18     1     6
  2.9182323253112163E-01 a       347     0    18     1     7
  1.7253162834462221E-01 a       348     0    18     1     8
  4.5404070429824400E-01 a       349     0    18     1     9
 -2.9389365310350479E-01 a       350     0    18     1    10
  6.6294057582119770E-01 a       351     0    18     1    11
 -5.9669479018327798E-01 a       352     0    18     1    12
  1.6988594770944815E-01 a       353     0    18     1    13
 -1.5997627961862712E-01 a       354     0    18     1    14
  1.1708534297444977E-01 a       355     0    18     1    15
  3.7415178240904945E-01 a       356     0    18     1    16
 -2.6850242033829713E-01 a       357     0    18     1    17
 -7.3104392610888269E-01 a       358     0    18     1    18
  4.0559822228604053E-01 a       359     0    18     1    19
 -2.8124630549234014E-01 a       360     0    18     1    20
  4.1225937083064285E-01 a       361     0    19     1     1
  6.7540778317825456E-01 a       362     0    19     1     2
 -1.7348612920944728E-01 a       363     0    19     1     3
  2.2978052254121456E-01 a       364     0    19     1     4
 -4.3525980725314058E-02 a       365     0    19     1     5
  1.7467856164990578E-01 a       366     0    19     1     6
  4.4941848956984737E-01 a       367     0    19     1     7
 -7.7346358284105377E-01 a       368     0    19     1     8
  2.0529886455868462E-01 a       369     0    19     1     9
 -2.9012834680659083E-01 a       370     0    19     1    10
 -7.8291046927863484E-01 a       371     0    19     1    11
  8.0436961509372529E-01 a       372     0    19     1    12
 -2.8775846120823395E-01 a       373     0    19     1    13
 -3.9444346526675578E-01 a       374     0    19     1    14
  7.9609901652904838E-02 a       375     0    19     1    15
  2.7892710097585045E-02 a       376     0    19     1    16
 -1.5205352624447588E-01 a       377     0    19     1    17
 -2.3667591188383647E-01 a       378     0    19     1    18
 -1.0841504605821726E+00 a       379     0    19     1    19
  1.2767935866058433E-01 a       380     0    19     1    20
 -5.2344259864644038E-01 a       381     0    20     1     1
 -5.0372095147463392E-01 a       382     0    20     1     2
  5.7070760190155534E-01 a       383     0    20     1     3
  2.1469973149811408E-01 a       384     0    20     1     4
 -5.6650021600015699E-01 a       385     0    20     1     5
 -9.9650238672412988E-02 a       386     0    20     1     6
 -5.2486460393933942E-01 a       387     0    20     1     7
  4.4922514913085104E-02 a       388     0    20     1     8
 -3.2059439250807142E-01 a       389     0    20     1     9
 -6.0902832400105122E-01 a       390     0    20     1    10
  3.9316225381049862E-02 a       391     0    20     1    11
 -3.4059369489269092E-01 a       392     0    20     1    12
 -3.5843298109873617E-01 a       393     0    20     1    13
  1.0205336023962151E-01 a       394     0    20     1    14
 -1.3672920626283694E-01 a       395     0    20     1    15
  2.1346434380792206E-01 a       396     0    20     1    16
  8.3010727786119884E-02 a       397     0    20     1    17
  2.1999107706709195E-01 a       398     0    20     1    18
  2.4113318715447724E-01 a       399     0    20     1    19
  2.4740334372511746E-02 a       400     0    20     1    20
  5.6001545483716841E-01 a       401     0    21     1     1
  3.5203080834320005E-01 a       402     0    21     1     2
 -4.9796279017131317E-01 a       403     0    21     1     3
  2.8362899607595715E-01 a       404     0    21     1     4
 -1.3786941194766605E-01 a       405     0    21     1     5
 -2.8267288764467022E-02 a       406     0    21     1     6
 -3.1871596219214865E-01 a       407     0    21     1     7
  1.2411824786291271E-01 a       408     0    21     1     8
  2.8752227181069184E-01 a       409     0    21     1     9
  4.4775858252676215E-01 a       410     0    21     1    10
  3.9848647333733701E-02 a       411     0    21     1    11
  1.6543864697976901E-01 a       412     0    21     1    12
 -1.2880058646751766E-01 a       413     0    21     1    13
  8.4645147540967733E-02 a       414     0    21     1    14
 -4.8590738756347479E-01 a       415     0    21     1    15
  1.1336960986422695E-01 a       416     0    21     1    16
  2.4318424071729752E-01 a       417     0    21     1    17
  4.1021941690312363E-01 a       418     0    21     1    18
  3.4299380093712856E-01 a       419     0    21     1    19
  3.4426224343035511E-01 a       420     0    21     1    20
  6.4584052243505674E-01 a       421     0    22     1     1
  2.2337015775908264E-01 a       422     0    22     1     2
  5.2234572470534024E-01 a       423     0    22     1     3
  3.9156623094045592E-02 a       424     0    22     1     4
  2.6169660450769933E-01 a       425     0    22     1     5
 -3.1463638818246314E-01 a       426     0    22     1     6
 -8.9336101763193065E-02 a       427     0    22     1     7
 -3.0730024740835798E-01 a       428     0    22     1     8
  3.2024602519981837E-01 a       429     0    22     1     9
 -1.5207105853780184E-01 a       430     0    22     1    10
 -4.8038352408689872E-01 a       431     0    22     1    11
 -3.6777008654974835E-01 a       432     0    22     1    12
  5.1254304804192719E-01 a       433     0    22     1    13
 -3.5466872565347102E-01 a       434     0    22     1    14
 -5.8392832996157762E-01 a       435     0    22     1    15
 -5.2564731891765148E-01 a       436     0    22     1    16
 -2.9411180969826856E-01 a       437     0    22     1    17
 -3.4728016311907056E-01 a       438     0    22     1    18
 -4.6575496485614337E-01 a       439     0    22     1    19
 -6.4656022305542671E-01 a       440     0    22     1    20
 -1.4538933058076826E+00 a       441     0    23     1     1
 -4.6084229830121104E-01 a       442     0    23     1     2
 -2.2684541246137432E-01 a       443     0    23     1     3
 -5.7810134025816806E-01 a       444     0    23     1     4
  5.4456673971954950E-01 a       445     0    23     1     5
 -7.2656332956179281E-01 a       446     0    23     1     6
 -6.6894448794153638E-01 a       447     0    23     1     7
  2.8459810228821991E-01 a       448     0    23     1     8
 -8.2994570413215518E-01 a       449     0    23     1     9
  2.0998652692742661E-01 a       450     0    23     1    10
  1.1191964517050950E+00 a       451     0    23     1    11
  2.9658413178223651E-03 a       452     0    23     1    12
 -2.9201250837642723E-01 a       453     0    23     1    13
  2.1127037458657730E-01 a       454     0    23     1    14
  7.0559565993180451E-01 a       455     0    23     1    15
 -2.4456228570540844E-01 a       456     0    23     1    16
  5.6745910424721036E-01 a       457     0    23     1    17
 -4.1099645908161481E-01 a       458     0    23     1    18
  6.4155356234653937E-01 a       459     0    23     1    19
  4.3397508594624108E-02 a       460     0    23     1    20
 -2.0836713456774675E-01 a       461     0    24     1     1
 -3.0112420068882012E-01 a       462     0    24     1     2
  3.1372032415356904E-01 a       463     0    24     1     3
 -4.2348766969322377E-01 a       464     0    24     1     4
  4.8537208748936800E-02 a       465     0    24     1     5
 -1.3615321630812194E-01 a       466     0    24     1     6
  9.0204128123151442E-02 a       467     0    24     1     7
  2.2517305261784792E-01 a       468     0    24     1     8
  1.7158344378341644E-01 a       469     0    24     1     9
  1.8026812685754545E-01 a       470     0    24     1    10
 -2.5623225981888859E-01 a       471     0    24     1    11
 -4.1725162619357420E-01 a       472     0    24     1    12
 -4.4542152724967171E-02 a       473     0    24     1    13
 -2.0746879064549231E-01 a       474     0    24     1    14
  2.5739917328667333E-01 a       475     0    24     1    15
  2.3054404640443646E-01 a       476     0    24     1    16
 -2.8251508574348405E-01 a       477     0    24     1    17
  1.8649694893270327E-01 a       478     0    24     1    18
 -3.1233343734189917E-01 a       479     0    24     1    19
 -5.0333610554650721E-01 a       480     0    24     1    20
 -9.8532098702089865E-01 a       481     0    25     1     1
 -3.8216633874129169E-01 a       482     0    25     1     2
  1.3580265668775676E-01 a       483     0    25     1     3
  3.3845200050793356E-01 a       484     0    25     1     4
 -4.4643829910392963E-01 a       485     0    25     1     5
 -5.8140124516210312E-01 a       486     0    25     1     6
 -3.9139952033276665E-01 a       487     0    25     1     7
  3.8970810055774696E-01 a       488     0    25     1     8
  6.6715509137742368E-01 a       489     0    25     1     9
 -8.0669199966548893E-02 a       490     0    25     1    10
  9.6507769896624795E-01 a       491     0    25     1    11
  2.2372194603434220E-01 a       492     0    25     1    12
 -4.8507599353685021E-01 a       493     0    25     1    13
 -3.6722962353122746E-01 a       494     0    25     1    14
  3.1486301695246166E-01 a       495     0    25     1    15
  1.3891683020041456E-01 a       496     0    25     1    16
 -3.4456322241256554E-01 a       497     0    25     1    17
 -2.4339067251266550E-01 a       498     0    25     1    18
 -2.6369868385103157E-01 a       499     0    25     1    19
  9.5451760810605774E-02 a       500     0    25     1    20
  5.7033062484209807E-01 a       501     0    26     1     1
 -2.2087703830264752E-01 a       502     0    26     1     2
  4.1508449123786019E-02 a       503     0    26     1     3
  3.7662988204401537E-01 a       504     0    26     1     4
  6.9822412290194480E-01 a       505     0    26     1     5
  6.3137326463551288E-02 a       506     0    26     1     6
  7.9186725138218395E-01 a       507     0    26     1     7
  3.0562101574864425E-02 a       508     0    26     1     8
  8.3481249340877597E-02 a       509     0    26     1     9
 -4.8892746277475391E-01 a       510     0    26     1    10
 -1.1938118404691495E-02 a       511     0    26     1    11
 -3.9314027421111303E-01 a       512     0    26     1    12
  5.1681151893198529E-01 a       513     0    26     1    13
 -1.8579668237131114E-01 a       514     0    26     1    14
  4.4028506315462221E-02 a       515     0    26     1    15
  4.0805210098905326E-01 a       516     0    26     1    16
 -4.4762320664462885E-01 a       517     0    26     1    17
 -3.2947129506008277E-01 a       518     0    26     1    18
 -1.0972375224573198E-01 a       519     0    26     1    19
 -1.8877311023481685E-01 a       520     0    26     1    20
  2.3009336437569328E-01 a       521     0    27     1     1
  3.2390363448370302E-01 a       522     0    27     1     2
 -1.3895613508480917E-01 a       523     0    27     1     3
 -5.5048788311314500E-01 a       524     0    27     1     4
  1.4201612768998835E+00 a       525     0    27     1     5
 -5.1599930540420613E-01 a       526     0    27     1     6
 -2.2019331603225276E-01 a       527     0    27     1     7
 -7.4972869664296948E-01 a       528     0    27     1     8
 -6.6159009802594745E-02 a       529     0    27     1     9
 -3.9952921111524370E-01 a       530     0    27     1    10
  7.4719572824766967E-01 a       531     0    27     1    11
  5.9131488714947045E-01 a       532     0    27     1    12
 -3.9379010596063402E-01 a       533     0    27     1    13
  1.0901016482703554E-01 a       534     0    27     1    14
  2.4524332129508042E-01 a       535     0    27     1    15
 -1.0337404043406356E-01 a       536     0    27     1    16
  5.2767545837912246E-02 a       537     0    27     1    17
  2.0984295048506454E-01 a       538     0    27     1    18
  7.2529622801490135E-01 a       539     0    27     1    19
 -7.6121849384564833E-01 a       540     0    27     1    20
  4.4573059367010676E-01 a       541     0    28     1     1
  2.8137570102415471E-01 a       542     0    28     1     2
 -3.8463386065597333E-01 a       543     0    28     1     3
 -4.6244033952334440E-01 a       544     0    28     1     4
 -2.2226337941398841E-01 a       545     0    28     1     5
 -7.7842102729418078E-02 a       546     0    28     1     6
  2.0959522968474839E-01 a       547     0    28     1     7
 -5.2618993209588648E-02 a       548     0    28     1     8
 -2.4696024008623620E-03 a       549     0    28     1     9
  8.4579902572631760E-02 a       550     0    28     1    10
  1.6243757078998705E-01 a       551     0    28     1    11
  3.8578286262481348E-01 a       552     0    28     1    12
  5.8764115005561668E-02 a       553     0    28     1    13
  2.7394666797245981E-01 a       554     0    28     1    14
  2.0780982256867687E-02 a       555     0    28     1    15
 -7.8585540540773782E-02 a       556     0    28     1    16
  2.3200720797080612E-01 a       557     0    28     1    17
 -6.9138176872780510E-01 a       558     0    28     1    18
  7.2870789593573945E-02 a       559     0    28     1    19
 -1.9736725474679523E-01 a       560     0    28     1    20
 -1.1520803275555626E-01 a       561     0    29     1     1
  6.8052156249679652E-01 a       562     0    29     1     2
 -2.3666103963931823E-01 a       563     0    29     1     3
  4.6433812629791638E-01 a       564     0    29     1     4
 -3.5862883720580313E-01 a       565     0    29     1     5
  3.7428393326572901E-01 a       566     0    29     1     6
  1.9819732905921819E-01 a       567     0    29     1     7
 -1.5786771521601956E-01 a       568     0    29     1     8
  2.0033067294304083E-01 a       569     0    29     1     9
  1.7215624901960502E-01 a       570     0    29     1    10
  1.9302611856243615E-02 a       571     0    29     1    11
 -1.2542572389458378E-01 a       572     0    29     1    12
 -1.1774655347779281E-01 a       573     0    29     1    13
 -6.3066280052194043E-02 a       574     0    29     1    14
  5.2607647037270430E-02 a       575     0    29     1    15
 -1.2321078051462584E+00 a       576     0    29     1    16
  7.5613177559826661E-01 a       577     0    29     1    17
 -6.7731844038525590E-01 a       578     0    29     1    18
 -8.2506568493871404E-02 a       579     0    29     1    19
  5.3629672686165963E-01 a       580     0    29     1    20
 -3.0147200136359385E-02 a       581     0    30     1     1
 -3.8921480606066444E-01 a       582     0    30     1     2
  3.6256463046935522E-01 a       583     0    30     1     3
 -1.2273164318222322E-01 a       584     0    30     1     4
 -1.5409234501810640E-01 a       585     0    30     1     5
  4.5416682950043569E-01 a       586     0    30     1     6
  2.2092478475764254E-01 a       587     0    30     1     7
  2.3955216202065858E-02 a       588     0    30     1     8
 -3.2369264070182963E-01 a       589     0    30     1     9
  6.1555919998825714E-01 a       590     0    30     1    10
  5.4386704821890383E-02 a       591     0    30     1    11
 -1.5208537069380940E-01 a       592     0    30     1    12
 -1.6169821115311483E-02 a       593     0    30     1    13
 -1.9963308746911468E-01 a       594     0    30     1    14
 -4.2066899602972885E-01 a       595     0    30     1    15
 -2.9072882026331161E-02 a       596     0    30     1    16
 -4.4413294022521720E-02 a       597     0    30     1    17
  3.4770935452866891E-01 a       598     0    30     1    18
 -8.5876862999825290E-02 a       599     0    30     1    19
 -1.4263826228208898E-01 a       600     0    30     1    20
  4.9584472205004487E-01 a       601     0    31     1     1
 -9.8414072045538381E-01 a       602     0    31     1     2
  1.0084527026797017E-01 a       603     0    31     1     3
  5.6487614663458452E-01 a       604     0    31     1     4
  5.2567034112630480E-02 a       605     0    31     1     5
  3.0785327683002600E-01 a       606     0    31     1     6
 -1.6154466660183245E-01 a       607     0    31     1     7
  1.3429503056659955E-01 a       608     0    31     1     8
  5.8621241747016872E-01 a       609     0    31     1     9
  6.1566696562424661E-01 a       610     0    31     1    10
 -5.3554129762456937E-01 a       611     0    31     1    11
  9.7037399046763639E-01 a       612     0    31     1    12
 -2.9708729093303249E-01 a       613     0    31     1    13
 -1.5741785662257098E-02 a       614     0    31     1    14
  1.4121863411301022E-01 a       615     0    31     1    15
  3.9242803911645291E-01 a       616     0    31     1    16
 -3.0674570681927338E-01 a       617     0    31     1    17
 -2.7663600924835374E-01 a       618     0    31     1    18
  1.9667889250865300E-01 a       619     0    31     1    19
 -2.3800442212877786E-02 a       620     0    31     1    20
  6.5270119914897473E-01 a       621     0    32     1     1
  2.4672665204476807E-01 a       622     0    32     1     2
 -6.4123513503138563E-01 a       623     0    32     1     3
  4.4547577145959683E-01 a       624     0    32     1     4
 -2.6818699715623551E-01 a       625     0    32     1     5
  8.5748106241831279E-01 a       626     0    32     1     6
 -1.7798337560654062E-01 a       627     0    32     1     7
 -3.4422597658688769E-01 a       628     0    32     1     8
  4.1533343601422812E-01 a       629     0    32     1     9
  2.0764878476870413E-01 a       630     0    32     1    10
  6.2412829150386795E-01 a       631     0    32     1    11
  5.4182419072794863E-01 a       632     0    32     1    12
  3.6147278644654091E-01 a       633     0    32     1    13
 -4.6994534655214415E-01 a       634     0    32     1    14
  7.8105826198215411E-01 a       635     0    32     1    15
  3.2110714698050928E-02 a       636     0    32     1    16
 -9.9224189138442415E-02 a       637     0    32     1    17
  1.5019743317724552E-01 a       638     0    32     1    18
  3.7343788758769025E-01 a       639     0    32     1    19
 -8.0546672502621888E-02 a       640     0    32     1    20
  1.9460658506581516E-01 a       641     0    33     1     1
 -1.7727684805892225E-02 a       642     0    33     1     2
  2.5311940012884243E-01 a       643     0    33     1     3
 -6.0927922159681867E-02 a       644     0    33     1     4
 -9.4384096358910430E-02 a       645     0    33     1     5
 -1.1214980631227006E-01 a       646     0    33     1     6
  2.9100595674657131E-01 a       647     0    33     1     7
 -9.9867559552912349E-02 a       648     0    33     1     8
 -3.5244602267741515E-01 a       649     0    33     1     9
 -8.2345999553121807E-01 a       650     0    33     1    10
 -1.4207412156593893E-01 a       651     0    33     1    11
 -2.3495890676269854E-01 a       652     0    33     1    12
  7.5517320849595726E-02 a       653     0    33     1    13
 -2.8261368628203443E-01 a       654     0    33     1    14
 -8.6147573594107341E-01 a       655     0    33     1    15
 -5.1876831161270576E-01 a       656     0    33     1    16
  4.3140173200313839E-02 a       657     0    33     1    17
 -5.5705897023943435E-02 a       658     0    33     1    18
  2.4839294874125109E-01 a       659     0    33     1    19
  1.0805997792274133E+00 a       660     0    33     1    20
  4.6370764744602233E-01 a       661     0    34     1     1
  5.1080566359957214E-01 a       662     0    34     1     2
 -8.9763169311152746E-02 a       663     0    34     1     3
 -1.0955197849039376E-01 a       664     0    34     1     4
  4.6014269160518317E-02 a       665     0    34     1     5
  4.7143145969400602E-01 a       666     0    34     1     6
 -5.1793189037116361E-01 a       667     0    34     1     7
  2.0551924375289768E-01 a       668     0    34     1     8
  3.3257706511731350E-01 a       669     0    34     1     9
 -5.2198434466026247E-02 a       670     0    34     1    10
  8.2358602644458490E-01 a       671     0    34     1    11
  1.6508340079228159E-01 a       672     0    34     1    12
  1.8590865516223931E-01 a       673     0    34     1    13
 -4.4029706594461043E-01 a       674     0    34     1    14
  2.9458726447077366E-01 a       675     0    34     1    15
  2.8285492244766153E-01 a       676     0    34     1    16
  5.3379051646017417E-01 a       677     0    34     1    17
  5.2050307080133251E-01 a       678     0    34     1    18
  3.2932344127455532E-01 a       679     0    34     1    19
 -2.4054320428576703E-01 a       680     0    34     1    20
 -5.1347999118192589E-01 a       681     0    35     1     1
 -1.0742530034629705E+00 a       682     0    35     1     2
 -1.2958684163056683E-01 a       683     0    35     1     3
 -3.2365015037547706E-01 a       684     0    35     1     4
  4.0625055161433860E-02 a       685     0    35     1     5
 -6.8623860965204475E-01 a       686     0    35     1     6
  1.0180185296489854E+00 a       687     0    35     1     7
  3.9730175805313447E-02 a       688     0    35     1     8
 -5.0733479902814427E-01 a       689     0    35     1     9
 -2.8605605071173656E-01 a       690     0    35     1    10
 -9.2952005864941889E-01 a       691     0    35     1    11
 -3.3099579363499348E-01 a       692     0    35     1    12
 -2.6519328177908136E-01 a       693     0    35     1    13
  7.2500131510529797E-01 a       694     0    35     1    14
 -3.7218952000870748E-01 a       695     0    35     1    15
 -8.0146146906027213E-02 a       696     0    35     1    16
 -5.5455691064747314E-01 a       697     0    35     1    17
 -5.9864673020010983E-01 a       698     0    35     1    18
 -9.3059706777875964E-02 a       699     0    35     1    19
 -3.6400785213903414E-01 a       700     0    35     1    20
 -3.0691935931040482E-01 a       701     0    36     1     1
  5.5907748450761081E-02 a       702     0    36     1     2
 -5.2737171273747463E-01 a       703     0    36     1     3
 -5.6517098524647114E-01 a       704     0    36     1     4
  4.8594578631352975E-01 a       705     0    36     1     5
 -4.6888409773708978E-01 a       706     0    36     1     6
 -8.9947266268864412E-01 a       707     0    36     1     7
 -7.5645506184410224E-02 a       708     0    36     1     8
 -4.4231581793366659E-01 a       709     0    36     1     9
 -8.7341054749140901E-01 a       710     0    36     1    10
 -1.7821696372624224E-01 a       711     0    36     1    11
 -8.5658801751294511E-01 a       712     0    36     1    12
 -7.3650610948555184E-02 a       713     0    36     1    13
  4.9438460207252077E-01 a       714     0    36     1    14
  9.7108527455742755E-01 a       715     0    36     1    15
 -6.0299768912902862E-01 a       716     0    36     1    16
 -1.3237401618814432E-01 a       717     0    36     1    17
 -4.2878156519054267E-01 a       718     0    36     1    18
 -2.6204935461502893E-01 a       719     0    36     1    19
 -8.2967194317465756E-02 a       720     0    36     1    20
 -1.1390906434228851E+00 a       721     0    37     1     1
  3.9299582959309125E-02 a       722     0    37     1     2
 -2.0361684485189105E-01 a       723     0    37     1     3
 -1.0750823998231526E-01 a       724     0    37     1     4
  3.5751946857681689E-02 a       725     0    37     1     5
 -6.6928444626690642E-01 a       726     0    37     1     6
 -4.2749896937199139E-01 a       727     0    37     1     7
  6.4063794403614571E-01 a       728     0    37     1     8
 -5.5654004988706285E-01 a       729     0    37     1     9
 -3.7381806000860707E-01 a       730     0    37     1    10
  6.9294613789829984E-01 a       731     0    37     1    11
  2.4613069181775976E-01 a       732     0    37     1    12
 -5.0434232771595394E-02 a       733     0    37     1    13
  1.3109236581488057E-01 a       734     0    37     1    14
  8.9146833351685184E-01 a       735     0    37     1    15
  1.0322905661279211E-01 a       736     0    37     1    16
 -4.6020955710619171E-01 a       737     0    37     1    17
 -4.6436586922144762E-01 a       738     0    37     1    18
  3.5458823879578327E-01 a       739     0    37     1    19
  1.4160335918802389E-01 a       740     0    37     1    20
  4.3663396722594380E-02 a       741     0    38     1     1
 -2.6189343753376587E-01 a       742     0    38     1     2
 -1.0029311059973325E-01 a       743     0    38     1     3
 -8.9099968368173244E-01 a       744     0    38     1     4
 -3.7463853542916303E-01 a       745     0    38     1     5
 -4.1672169846510024E-02 a       746     0    38     1     6
  5.7981106580259588E-02 a       747     0    38     1     7
 -1.5492131102834675E-01 a       748     0    38     1     8
  3.5598814841521137E-01 a       749     0    38     1     9
  7.3755032855725944E-01 a       750     0    38     1    10
 -4.3943374887291498E-01 a       751     0    38     1    11
 -1.6527681040155739E-01 a       752     0    38     1    12
  2.1940134780158471E-01 a       753     0    38     1    13
 -2.7479936547923512E-02 a       754     0    38     1    14
  2.3410070858527460E-01 a       755     0    38     1    15
  7.9726057826642063E-02 a       756     0    38     1    16
  6.6965073610375359E-01 a       757     0    38     1    17
  4.9591979924470640E-02 a       758     0    38     1    18
 -1.6961450714776616E-01 a       759     0    38     1    19
  3.7031654150837767E-01 a       760     0    38     1    20
 -1.4604466413212869E+00 a       761     0    39     1     1
 -6.5418407299652453E-02 a       762     0    39     1     2
  2.5517178115942057E-01 a       763     0    39     1     3
 -2.0900687024519046E-01 a       764     0    39     1     4
 -5.8597049931363510E-01 a       765     0    39     1     5
  1.8052379587283082E-01 a       766     0    39     1     6
  5.6372149585625586E-01 a       767     0    39     1     7
  4.2845282815062369E-01 a       768     0    39     1     8
 -8.0612414069462512E-01 a       769     0    39     1     9
  2.1874394500224905E-02 a       770     0    39     1    10
  4.2223573735913172E-01 a       771     0    39     1    11
  5.7688907698271241E-01 a       772     0    39     1    12
  6.6701162496973776E-02 a       773     0    39     1    13
 -4.0853486063036853E-01 a       774     0    39     1    14
  1.3393657604738032E-01 a       775     0    39     1    15
  4.3962614921606863E-01 a       776     0    39     1    16
  6.6334154316267241E-02 a       777     0    39     1    17
 -6.6945367004585010E-01 a       778     0    39     1    18
  3.6889060468346646E-01 a       779     0    39     1    19
  1.6927276079344403E-01 a       780     0    39     1    20
  1.2523173195553765E+00 a       781     0    40     1     1
  5.6704918817365635E-01 a       782     0    40     1     2
  1.7252653500913605E-02 a       783     0    40     1     3
  9.4647262540258381E-01 a       784     0    40     1     4
 -5.6599607316602840E-01 a       785     0    40     1     5
 -2.1305658532584448E-01 a       786     0    40     1     6
  6.4898721845694257E-02 a       787     0    40     1     7
 -1.4688595202302798E-01 a       788     0    40     1     8
 -2.1454728066767507E-02 a       789     0    40     1     9
  8.0605729998016773E-01 a       790     0    40     1    10
 -5.4825152809165167E-01 a       791     0    40     1    11
 -3.2921447041724561E-02 a       792     0    40     1    12
 -1.1918478159363277E-01 a       793     0    40     1    13
  2.0629173673531956E-01 a       794     0    40     1    14
 -5.8335795618498720E-01 a       795     0    40     1    15
  4.4893192953275279E-01 a       796     0    40     1    16
  3.0211114750473989E-01 a       797     0    40     1    17
  6.8838043908492130E-01 a       798     0    40     1    18
  1.0154814676643731E-01 a       799     0    40     1    19
  4.4399115171273318E-01 a       800     0    40     1    20
 -4.8600800997833615E-01 a       801     0    41     1     1
 -1.0928043189077387E-01 a       802     0    41     1     2
  2.0410651331560611E-01 a       803     0    41     1     3
  3.0564026963121121E-01 a       804     0    41     1     4
  3.0240624630499691E-01 a       805     0    41     1     5
  2.7068285889449545E-03 a       806     0    41     1     6
 -1.0849033603722445E-01 a       807     0    41     1     7
 -1.0376937750532145E-01 a       808     0    41     1     8
 -4.8524484446968170E-02 a       809     0    41     1     9
 -6.6374448731811253E-01 a       810     0    41     1    10
  1.8752477007787784E-02 a       811     0    41     1    11
 -2.7189884213710469E-01 a       812     0    41     1    12
 -1.2056304691699173E-01 a       813     0    41     1    13
  1.0712496924851178E-01 a       814     0    41     1    14
 -3.9688226516381861E-02 a       815     0    41     1    15
 -3.4142221736588735E-01 a       816     0    41     1    16
 -1.5577916936664937E-01 a       817     0    41     1    17
  3.8673754622477123E-02 a       818     0    41     1    18
  3.6506761563704769E-02 a       819     0    41     1    19
 -3.3336863265340883E-02 a       820     0    41     1    20
 -3.0342801414554843E-01 a       821     0    42     1     1
  7.2042576055327878E-02 a       822     0    42     1     2
 -5.2976724844543310E-01 a       823     0    42     1     3
 -3.6925669787363814E-03 a       824     0    42     1     4
  3.5573582377504709E-01 a       825     0    42     1     5
 -3.1806481417348398E-01 a       826     0    42     1     6
 -4.0199051343066899E-01 a       827     0    42     1     7
  1.4455320746526051E-01 a       828     0    42     1     8
 -3.4135938690125706E-01 a       829     0    42     1     9
  1.3111372055967277E-01 a       830     0    42     1    10
  3.5194591301276756E-01 a       831     0    42     1    11
  8.5324015397398895E-02 a       832     0    42     1    12
 -1.3463130953914951E-02 a       833     0    42     1    13
 -1.5249983536442369E-01 a       834     0    42     1    14
 -1.3277214990461909E-02 a       835     0    42     1    15
 -7.6702147206800297E-02 a       836     0    42     1    16
  7.5662457354572055E-02 a       837     0    42     1    17
 -1.9648238285664049E-01 a       838     0    42     1    18
  1.5451402135889303E-01 a       839     0    42     1    19
 -4.4057993385480006E-02 a       840     0    42     1    20
 -7.6894826225475221E-02 a       841     0    43     1     1
  2.4260817057516262E-01 a       842     0    43     1     2
  1.4912300127011310E-01 a       843     0    43     1     3
 -2.4558833250761034E-01 a       844     0    43     1     4
  1.1325065852490625E-02 a       845     0    43     1     5
  1.4396978368785363E-01 a       846     0    43     1     6
 -6.8145218764045584E-02 a       847     0    43     1     7
  1.1693840028682864E-01 a       848     0    43     1     8
  1.6685956790027265E-01 a       849     0    43     1     9
  3.5958196627743955E-01 a       850     0    43     1    10
 -9.4569889867056819E-02 a       851     0    43     1    11
  3.8681271215464835E-01 a       852     0    43     1    12
  3.6461912216042586E-01 a       853     0    43     1    13
  6.5113853280687597E-02 a       854     0    43     1    14
  3.7755572326056736E-01 a       855     0    43     1    15
  1.6796156161374889E-02 a       856     0    43     1    16
 -3.0085325670905205E-01 a       857     0    43     1    17
  1.0376880873190731E-02 a       858     0    43     1    18
 -8.0690297760245708E-02 a       859     0    43     1    19
 -3.2217188644360473E-01 a       860     0    43     1    20
  9.5395044520296857E-01 a       861     0    44     1     1
 -4.1786682002784648E-01 a       862     0    44     1     2
  6.7186267232121444E-01 a       863     0    44     1     3
 -1.2491114761890142E-01 a       864     0    44     1     4
 -2.2599436735331913E-01 a       865     0    44     1     5
  4.2608093638924532E-01 a       866     0    44     1     6
  7.5719490051561866E-01 a       867     0    44     1     7
 -4.3293641432787872E-01 a       868     0    44     1     8
  1.5664477056099238E-01 a       869     0    44     1     9
 -3.6022349045169086E-02 a       870     0    44     1    10
 -1.5199409626864072E-01 a       871     0    44     1    11
 -6.9149867503603646E-01 a       872     0    44     1    12
 -1.0330078302801511E-01 a       873     0    44     1    13
  4.4068023177009963E-01 a       874     0    44     1    14
  2.3730787176758597E-01 a       875     0    44     1    15
 -3.5224736523037627E-02 a       876     0    44     1    16
  2.3104869568955833E-01 a       877     0    44     1    17
  5.3913115177751392E-01 a       878     0    44     1    18
 -2.4543707983605303E-02 a       879     0    44     1    19
  2.1904382515876883E-01 a       880     0    44     1    20
 -8.8398157930533616E-01 a       881     0    45     1     1
  5.0024927682696529E-01 a       882     0    45     1     2
 -5.0300749246335430E-01 a       883     0    45     1     3
  5.1796659890124852E-01 a       884     0    45     1     4
 -3.5075636234203683E-01 a       885     0    45     1     5
  4.5003278143569087E-01 a       886     0    45     1     6
 -1.8517884412430621E-01 a       887     0    45     1     7
  2.3159715753339341E-01 a       888     0    45     1     8
  1.7819165249005275E-01 a       889     0    45     1     9
  5.5447128994202644E-01 a       890     0    45     1    10
  1.1955398299494671E+00 a       891     0    45     1    11
  1.5748753469548855E-02 a       892     0    45     1    12
 -7.4852420049645887E-02 a       893     0    45     1    13
 -3.5006078002232943E-01 a       894     0    45     1    14
 -3.9157700102403775E-01 a       895     0    45     1    15
  5.1285417069825878E-01 a       896     0    45     1    16
  4.5992906426763645E-02 a       897     0    45     1    17
  2.0121147347535265E-01 a       898     0    45     1    18
  1.0492893136142982E-01 a       899     0    45     1    19
 -7.1971455296405487E-02 a       900     0    45     1    20
  2.0842098790264441E+00 a       901     0    46     1     1
 -4.4418937599369074E-01 a       902     0    46     1     2
 -6.4345482260933839E-02 a       903     0    46     1     3
  4.8552926191026086E-01 a       904     0    46     1     4
 -5.7512481999012377E-01 a       905     0    46     1     5
  1.0371276315474292E+00 a       906     0    46     1     6
  9.9477870762352227E-01 a       907     0    46     1     7
 -4.5941308126571984E-01 a       908     0    46     1     8
  5.0863075972213823E-01 a       909     0    46     1     9
  2.7958239876074892E-01 a       910     0    46     1    10
 -1.4408037091760959E+00 a       911     0    46     1    11
 -1.2070643500202229E+00 a       912     0    46     1    12
 -1.8088367696392143E-02 a       913     0    46     1    13
  9.0577885265291036E-02 a       914     0    46     1    14
 -7.0038164797745139E-01 a       915     0    46     1    15
 -5.5296004166324797E-01 a       916     0    46     1    16
 -4.8122808547525814E-01 a       917     0    46     1    17
  5.5253218212059774E-01 a       918     0    46     1    18
 -7.5663019446965507E-01 a       919     0    46     1    19
  1.1631131966124883E-01 a       920     0    46     1    20
  8.0633767217087426E-01 a       921     0    47     1     1
 -6.0517123417629048E-01 a       922     0    47     1     2
  2.7695060615799222E-01 a       923     0    47     1     3
 -1.0958922361483348E+00 a       924     0    47     1     4
  4.9768690034293295E-01 a       925     0    47     1     5
  4.5792743442568989E-01 a       926     0    47     1     6
  9.7605670843710010E-02 a       927     0    47     1     7
  1.5351317077441690E-01 a       928     0    47     1     8
  1.5546561948828513E-01 a       929     0    47     1     9
  1.7660471534547437E-01 a       930     0    47     1    10
 -2.3624439770140737E-01 a       931     0    47     1    11
  2.6705191718642901E-01 a       932     0    47     1    12
  6.0526836174256339E-02 a       933     0    47     1    13
 -2.0311696669816154E-01 a       934     0    47     1    14
  7.2741979603992524E-01 a       935     0    47     1    15
  1.1263455408665048E-01 a       936     0    47     1    16
  2.9312177160513125E-01 a       937     0    47     1    17
 -1.4800315565135738E-01 a       938     0    47     1    18
  3.2289996375690139E-01 a       939     0    47     1    19
 -2.6087001672885590E-01 a       940     0    47     1    20
 -4.2575133512171814E-01 a       941     0    48     1     1
 -8.2445124991851526E-02 a       942     0    48     1     2
  1.7171126347117086E-01 a       943     0    48     1     3
 -7.1822836629439876E-02 a       944     0    48     1     4
  1.0016779881871223E-01 a       945     0    48     1     5
 -3.8733700220075565E-02 a       946     0    48     1     6
  2.7776691467530173E-01 a       947     0    48     1     7
 -2.4534773586938088E-01 a       948     0    48     1     8
 -6.8165291777709258E-01 a       949     0    48     1     9
 -9.0266983407967227E-01 a       950     0    48     1    10
  1.3600997966697065E-01 a       951     0    48     1    11
 -1.3567942612254980E-01 a       952     0    48     1    12
  2.4008204990658344E-01 a       953     0    48     1    13
 -1.4286974336990233E-02 a       954     0    48     1    14
 -2.7970191200612410E-01 a       955     0    48     1    15
  2.6533141228108548E-01 a       956     0    48     1    16
 -3.9581045038893620E-01 a       957     0    48     1    17
  6.4651211595345190E-02 a       958     0    48     1    18
 -3.3139295995207485E-01 a       959     0    48     1    19
 -2.6012686460080172E-02 a       960     0    48     1    20
 -1.0897715143511977E+00 a       961     0    49     1     1
  1.2347916737719560E+00 a       962     0    49     1     2
  1.5089042683809506E-01 a       963     0    49     1     3
 -8.9073876991564591E-02 a       964     0    49     1     4
 -3.5063122718792256E-01 a       965     0    49     1     5
 -8.8749922654131019E-01 a       966     0    49     1     6
  6.4004580380457521E-01 a       967     0    49     1     7
 -7.0087499821658086E-02 a       968     0    49     1     8
 -3.8085504723589447E-01 a       969     0    49     1     9
 -5.0590599965896421E-01 a       970     0    49     1    10
  7.3492680339894534E-01 a       971     0    49     1    11
  4.0869263507770448E-01 a       972     0    49     1    12
  1.2129498268984974E-01 a       973     0    49     1    13
  1.6728452709941630E-01 a       974     0    49     1    14
  7.2228476396628633E-02 a       975     0    49     1    15
  8.9355187103123990E-01 a       976     0    49     1    16
 -1.3709992222703257E-01 a       977     0    49     1    17
  3.4974370086206275E-01 a       978     0    49     1    18
  1.1230826786401646E+00 a       979     0    49     1    19
 -3.8315592538987620E-01 a       980     0    49     1    20
  1.0454297321273500E+00 a       981     0    50     1     1
  1.1396627064486430E-01 a       982     0    50     1     2
  1.9576745264569265E-01 a       983     0    50     1     3
  3.3326172952559491E-01 a       984     0    50     1     4
  3.1525073536101206E-01 a       985     0    50     1     5
  5.9669125257651734E-01 a       986     0    50     1     6
 -2.6836380773257301E-01 a       987     0    50     1     7
 -4.6740098383939555E-01 a       988     0    50     1     8
  5.6525940439522704E-01 a       989     0    50     1     9
  1.0518778344788293E+00 a       990     0    50     1    10
 -1.7076288797424837E+00 a       991     0    50     1    11
  2.0007159647690481E-01 a       992     0    50     1    12
 -3.6293920881113551E-01 a       993     0    50     1    13
  1.8186214557958721E-01 a       994     0    50     1    14
 -2.4268238218064604E+00 a       995     0    50     1    15
 -1.6843627464846280E+00 a       996     0    50     1    16
 -1.3476877505053872E-01 a       997     0    50     1    17
  5.8889549021764276E-01 a       998     0    50     1    18
 -1.7630013408029481E+00 a       999     0    50     1    19
  1.0351947117099132E+00 a      1000     0    50     1    20
 -1.0785090548915201E-01 a      1001     0    51     1     1
 -7.6355649293467748E-02 a      1002     0    51     1     2
  4.7146506979924126E-02 a      1003     0    51     1     3
 -2.1668545333199749E-01 a      1004     0    51     1     4
 -1.4561672948780321E-01 a      1005     0    51     1     5
 -2.0585613711891235E-01 a      1006     0    51     1     6
  1.6752939462081404E-01 a      1007     0    51     1     7
 -5.8553674375011702E-02 a      1008     0    51     1     8
 -3.9094563129517629E-01 a      1009     0    51     1     9
 -6.3435356832471435E-01 a      1010     0    51     1    10
  1.0361834240227913E-02 a      1011     0    51     1    11
 -5.9029910870837987E-01 a      1012     0    51     1    12
  4.6509906590152877E-01 a      1013     0    51     1    13
  2.3329259446052836E-01 a      1014     0    51     1    14
 -1.5527955236881050E-01 a      1015     0    51     1    15
  1.5562357938598267E-01 a      1016     0    51     1    16
  2.0527986358146133E-01 a      1017     0    51     1    17
  3.9556490341888753E-02 a      1018     0    51     1    18
 -2.4713702969074439E-01 a      1019     0    51     1    19
  4.1625604180073794E-01 a      1020     0    51     1    20
  5.0143661125459238E-01 b      1021     1     1
  4.8802843055350757E-02 b      1022     1     2
  1.1767812143129721E+00 b      1023     1     3
 -1.5917858264543470E+00 b      1024     1     4
  1.7103346448567791E+00 b      1025     1     5
  2.2974550936829824E-01 b      1026     1     6
  8.2825972059631892E-01 b      1027     1     7
  7.3634480690643311E-01 b      1028     1     8
  1.6459616909253147E+00 b      1029     1     9
 -3.5396073432850933E-01 b      1030     1    10
  6.6561748399360088E-01 b      1031     1    11
 -8.8097283058827836E-01 b      1032     1    12
 -9.8511462914481851E-01 b      1033     1    13
 -5.9873434358834458E-02 b      1034     1    14
 -5.0558951365060745E-01 b      1035     1    15
 -7.3982784363844822E-01 b      1036     1    16
 -1.0924678100235909E+00 b      1037     1    17
 -2.4691423394202525E-01 b      1038     1    18
  6.3716496565823927E-03 b      1039     1    19
 -7.9760798699609836E-01 b      1040     1    20
 -9.6130849082987146E-01 a      1041     1     1     2     1
 -2.2545904431157604E-01 a      1042     1     1     2     2
  2.0282831237314317E-01 a      1043     1     1     2     3
 -1.4556281655603331E-01 a      1044     1     1     2     4
 -4.6313425207315301E-01 a      1045     1     1     2     5
 -3.2384622616054104E-01 a      1046     1     1     2     6
 -5.2900305825067262E-01 a      1047     1     1     2     7
 -6.5648599813652131E-01 a      1048     1     1     2     8
 -1.1511635038573225E+00 a      1049     1     1     2     9
 -4.1732879636790815E-01 a      1050     1     1     2    10
  1.3630356330525161E-02 a      1051     1     1     2    11
  4.5415013595530668E-01 a      1052     1     1     2    12
 -4.7512853173873820E-01 a      1053     1     1     2    13
 -3.0762553552845101E-02 a      1054     1     1     2    14
  2.2904538639205396E-01 a      1055     1     1     2    15
 -4.6500358036613360E-01 a      1056     1     1     2    16
 -1.2311439720886410E+00 a      1057     1     1     2    17
  4.0110057858730030E-01 a      1058     1     1     2    18
  7.3478616616922554E-01 a      1059     1     1     2    19
 -4.5222473237890148E-01 a      1060     1     1     2    20
 -1.3794365467539582E-01 a      1061     1     2     2     1
 -3.2267401495600373E-01 a      1062     1     2     2     2
  7.3517764019874254E-01 a      1063     1     2     2     3
 -5.9622851448465930E-01 a      1064     1     2     2     4
 -3.5268011743539121E-02 a      1065     1     2     2     5
 -5.8240365140164752E-01 a      1066     1     2     2     6
 -1.0715879068292642E+00 a      1067     1     2     2     7
  1.6312556623767521E-01 a      1068     1     2     2     8
 -9.8537997970620184E-01 a      1069     1     2     2     9
 -4.5456338572706145E-01 a      1070     1     2     2    10
  6.6404739714784319E-02 a      1071     1     2     2    11
  3.5830417271476858E-02 a      1072     1     2     2    12
 -1.4769872608732564E-02 a      1073     1     2     2    13
 -3.9845691332481986E-01 a      1074     1     2     2    14
 -2.2214899226015581E-02 a      1075     1     2     2    15
 -4.2607660399546438E-01 a      1076     1     2     2    16
  1.2960288494549171E-01 a      1077     1     2     2    17
  1.0725846230976264E-01 a      1078     1     2     2    18
  9.8479618676420144E-01 a      1079     1     2     2    19
 -1.6137967457542812E-01 a      1080     1     2     2    20
 -3.1173930517366494E-01 a      1081     1     3     2     1
  1.7723791992177659E-02 a      1082     1     3     2     2
  1.0738445295293603E-01 a      1083     1     3     2     3
 -7.4431003755793925E-03 a      1084     1     3     2     4
  8.0194458589082196E-01 a      1085     1     3     2     5
 -2.2690524834827582E-02 a      1086     1     3     2     6
  4.3525078696293107E-01 a      1087     1     3     2     7
 -1.4631314788741474E+00 a      1088     1     3     2     8
 -1.0625139310549798E-01 a      1089     1     3     2     9
 -2.9703548144066644E-01 a      1090     1     3     2    10
 -3.7925093455059000E-01 a      1091     1     3     2    11
 -7.6462775946122263E-01 a      1092     1     3     2    12
  4.9289509452093194E-01 a      1093     1     3     2    13
 -1.3892319845179887E-01 a      1094     1     3     2    14
 -9.9794403513270041E-02 a      1095     1     3     2    15
 -3.3255318681784905E-02 a      1096     1     3     2    16
  5.1974277888780995E-01 a      1097     1     3     2    17
  2.8684707576138191E-01 a      1098     1     3     2    18
  1.1078655941820603E-01 a      1099     1     3     2    19
 -3.5585501974854113E-02 a      1100     1     3     2    20
 -4.0346819657938959E-01 a      1101     1     4     2     1
  8.5609310404061778E-02 a      1102     1     4     2     2
 -3.9148341171761397E-01 a      1103     1     4     2     3
  2.7625894176408555E-01 a      1104     1     4     2     4
 -2.1244830266759301E-01 a      1105     1     4     2     5
  8.8509173772291261E-01 a      1106     1     4     2     6
 -7.1510549158337511E-01 a      1107     1     4     2     7
  1.1359413863069902E-01 a      1108     1     4     2     8
 -6.0806640388091526E-01 a      1109     1     4     2     9
  1.3936862575636422E-01 a      1110     1     4     2    10
 -2.8935623417783579E-01 a      1111     1     4     2    11
  6.6196744737520796E-01 a      1112     1     4     2    12
  6.6279288301564709E-01 a      1113     1     4     2    13
  1.8027633186347083E-01 a      1114     1     4     2    14
  1.3892981328633520E+00 a      1115     1     4     2    15
  5.1188474976692676E-02 a      1116     1     4     2    16
  5.7174139324405360E-01 a      1117     1     4     2    17
 -2.4701913246148813E-01 a      1118     1     4     2    18
 -2.0160722035377832E-01 a      1119     1     4     2    19
  5.0464743943345247E-01 a      1120     1     4     2    20
  2.6489849202261589E-01 a      1121     1     5     2     1
  6.6735156693604081E-02 a      1122     1     5     2     2
 -8.4019792657216452E-01 a      1123     1     5     2     3
 -7.0973226019004854E-01 a      1124     1     5     2     4
 -5.1010674805059986E-01 a      1125     1     5     2     5
 -1.9753034951891354E-01 a      1126     1     5     2     6
  1.6038159531538415E-01 a      1127     1     5     2     7
 -5.8090502003140931E-01 a      1128     1     5     2     8
  1.8031190418737980E-01 a      1129     1     5     2     9
  2.0814070983078556E-01 a      1130     1     5     2    10
 -1.2606596749041438E-01 a      1131     1     5     2    11
 -3.4741137325671079E-01 a      1132     1     5     2    12
 -9.1618299225173394E-01 a      1133     1     5     2    13
  2.3809639356717590E-02 a      1134     1     5     2    14
  5.1052741104886912E-01 a      1135     1     5     2    15
 -4.2218022504063191E-01 a      1136     1     5     2    16
  5.3111359293481056E-02 a      1137     1     5     2    17
 -7.4473440071440200E-01 a      1138     1     5     2    18
  1.1300618391431519E-01 a      1139     1     5     2    19
  6.4020188600839500E-01 a      1140     1     5     2    20
 -5.4629495272158579E-01 a      1141     1     6     2     1
  6.8219542025170138E-02 a      1142     1     6     2     2
  5.5028992487338613E-01 a      1143     1     6     2     3
  7.9920264096050200E-02 a      1144     1     6     2     4
 -3.6992377277456828E-02 a      1145     1     6     2     5
  6.1797075799475065E-01 a      1146     1     6     2     6
  2.9238492980675984E-01 a      1147     1     6     2     7
 -6.5751718930268033E-01 a      1148     1     6     2     8
 -1.0353427483216238E+00 a      1149     1     6     2     9
 -5.2909062903376139E-03 a      1150     1     6     2    10
 -9.4406504453632312E-01 a      1151     1     6     2    11
 -9.7089101107429987E-01 a      1152     1     6     2    12
  2.9972340119949376E-01 a      1153     1     6     2    13
 -2.4226066216536118E-01 a      1154     1     6     2    14
 -5.7751950838893673E-01 a      1155     1     6     2    15
 -3.9196050419640456E-03 a      1156     1     6     2    16
  9.4228265860007276E-01 a      1157     1     6     2    17
 -7.4802487995229247E-02 a      1158     1     6     2    18
  1.9666177844961735E-01 a      1159     1     6     2    19
  1.6760476868413568E-01 a      1160     1     6     2    20
  3.2414227133659634E-01 a      1161     1     7     2     1
 -3.6317858466261654E-01 a      1162     1     7     2     2
  1.1287721626263438E+00 a      1163     1     7     2     3
 -2.9098671790315972E-01 a      1164     1     7     2     4
 -4.3573970919348026E-01 a      1165     1     7     2     5
 -5.7941697283982097E-01 a      1166     1     7     2     6
  9.0437097320132809E-01 a      1167     1     7     2     7
  4.4129455882427414E-02 a      1168     1     7     2     8
 -8.9781469496538219E-03 a      1169     1     7     2     9
  2.3622231811360664E-01 a      1170     1     7     2    10
  9.7743965551969292E-02 a      1171     1     7     2    11
  7.0896017289519020E-01 a      1172     1     7     2    12
 -3.3415367387377920E-01 a      1173     1     7     2    13
 -6.4135562889999165E-02 a      1174     1     7     2    14
 -2.6315319759722705E-01 a      1175     1     7     2    15
 -3.2631693642607346E-01 a      1176     1     7     2    16
 -9.2024954017405444E-02 a      1177     1     7     2    17
 -2.9160491317619935E-01 a      1178     1     7     2    18
  5.5853458633820441E-01 a      1179     1     7     2    19
  3.7528518155680445E-02 a      1180     1     7     2    20
 -6.2855015882334719E-01 a      1181     1     8     2     1
 -1.1910711464376016E-01 a      1182     1     8     2     2
  3.7749639754699710E-01 a      1183     1     8     2     3
 -2.7289300152739038E-01 a      1184     1     8     2     4
 -4.2902834010387420E-01 a      1185     1     8     2     5
  1.9927074596906025E-01 a      1186     1     8     2     6
  7.7679864292361600E-01 a      1187     1     8     2     7
 -2.3142139118748992E-01 a      1188     1     8     2     8
 -3.0006327954158862E-01 a      1189     1     8     2     9
 -4.7103014733251519E-01 a      1190     1     8     2    10
 -4.5803177335629114E-01 a      1191     1     8     2    11
 -1.0647041173440073E+00 a      1192     1     8     2    12
 -1.8393501455529723E-01 a      1193     1     8     2    13
  1.4843868530814215E+00 a      1194     1     8     2    14
 -2.8715013729418748E-01 a      1195     1     8     2    15
  3.9222908898988484E-01 a      1196     1     8     2    16
 -3.8158926260923021E-01 a      1197     1     8     2    17
 -4.6853604191446291E-01 a      1198     1     8     2    18
  5.5167566131398793E-01 a      1199     1     8     2    19
 -1.5155441558638752E-01 a      1200     1     8     2    20
  5.1479411358039717E-01 a      1201     1     9     2     1
  7.9666595354911474E-01 a      1202     1     9     2     2
 -4.1815624433621840E-01 a      1203     1     9     2     3
 -8.3715814273880040E-01 a      1204     1     9     2     4
  5.7078979728976575E-01 a      1205     1     9     2     5
  1.5981192464572747E-01 a      1206     1     9     2     6
 -3.9567892216000794E-01 a      1207     1     9     2     7
  4.0369757222234764E-01 a      1208     1     9     2     8
 -2.9928311401970997E-01 a      1209     1     9     2     9
 -3.2979054791059831E-01 a      1210     1     9     2    10
 -6.3772324603355623E-01 a      1211     1     9     2    11
 -1.7929646650490683E-02 a      1212     1     9     2    12
 -2.8004100128444059E-01 a      1213     1     9     2    13
 -1.3820837486408824E-01 a      1214     1     9     2    14
 -6.3632698349907890E-01 a      1215     1     9     2    15
 -3.9932207338093795E-01 a      1216     1     9     2    16
  1.5401833045308949E-01 a      1217     1     9     2    17
  4.0374427255116602E-01 a      1218     1     9     2    18
  4.4255725109384092E-01 a      1219     1     9     2    19
  5.8998667264031679E-01 a      1220     1     9     2    20
  1.8174121261377094E-01 a      1221     1    10     2     1
 -6.2157071434368272E-02 a      1222     1    10     2     2
 -3.3129531721203448E-01 a      1223     1    10     2     3
  7.4101519181191078E-01 a      1224     1    10     2     4
  6.6570914167166595E-01 a      1225     1    10     2     5
 -3.1983845713583653E-01 a      1226     1    10     2     6
  2.1171945080484020E-01 a      1227     1    10     2     7
 -7.4033850587506111E-01 a      1228     1    10     2     8
  7.3132540573569682E-01 a      1229     1    10     2     9
 -6.4024659964714858E-01 a      1230     1    10     2    10
 -6.6499020932262454E-02 a      1231     1    10     2    11
  7.8429455500037396E-02 a      1232     1    10     2    12
  3.6176047684576462E-01 a      1233     1    10     2    13
 -1.0902110320069871E+00 a      1234     1    10     2    14
 -2.7720286160765822E-01 a      1235     1    10     2    15
  4.1631819158623068E-01 a      1236     1    10     2    16
 -9.7033590755758992E-01 a      1237     1    10     2    17
  8.0477477916467999E-01 a      1238     1    10     2    18
 -3.6753375647204678E-01 a      1239     1    10     2    19
  2.6113192880650909E-01 a      1240     1    10     2    20
 -2.5555582764582629E-01 a      1241     1    11     2     1
  1.9446791939196986E-01 a      1242     1    11     2     2
  5.2638609121661029E-01 a      1243     1    11     2     3
  2.1384903384499426E-01 a      1244     1    11     2     4
  7.2506151225370874E-01 a      1245     1    11     2     5
  4.0396056590383733E-01 a      1246     1    11     2     6
 -4.0825775354484928E-01 a      1247     1    11     2     7
 -6.6517264301767642E-01 a      1248     1    11     2     8
 -1.3688138771379416E-01 a      1249     1    11     2     9
  1.8585089219856818E-01 a      1250     1    11     2    10
 -6.4656260867534376E-01 a      1251     1    11     2    11
 -4.0496850960257325E-01 a      1252     1    11     2    12
  3.4583958106099377E-01 a      1253     1    11     2    13
  2.6714239764422149E-01 a      1254     1    11     2    14
  2.8553688680037387E-01 a      1255     1    11     2    15
 -3.3068779078844435E-01 a      1256     1    11     2    16
  2.9639962851060619E-01 a      1257     1    11     2    17
 -1.7879903259273741E-01 a      1258     1    11     2    18
  3.9320032320958209E-01 a      1259     1    11     2    19
  1.9197130699313782E-03 a      1260     1    11     2    20
 -3.8576884545320395E-01 a      1261     1    12     2     1
 -1.9544615168860885E-01 a      1262     1    12     2     2
 -9.1201663614231876E-02 a      1263     1    12     2     3
 -2.2077778651310395E-01 a      1264     1    12     2     4
 -1.5175140411883284E-01 a      1265     1    12     2     5
 -1.5564822258281236E-01 a      1266     1    12     2     6
  1.8400074769002581E-01 a      1267     1    12     2     7
  7.1051691082385426E-01 a      1268     1    12     2     8
 -3.1562863178838563E-01 a      1269     1    12     2     9
 -3.9719373992236168E-01 a      1270     1    12     2    10
  2.2893162946242074E-01 a      1271     1    12     2    11
 -7.3562904459038528E-02 a      1272     1    12     2    12
 -8.6103206601364879E-01 a      1273     1    12     2    13
  2.9050048577379695E-01 a      1274     1    12     2    14
  3.0717062682738983E-01 a      1275     1    12     2    15
 -2.3804634083612228E-01 a      1276     1    12     2    16
  6.8943318815079135E-01 a      1277     1    12     2    17
  2.7627924303562024E-01 a      1278     1    12     2    18
  4.5087421406221706E-01 a      1279     1    12     2    19
  6.8907638395553278E-02 a      1280     1    12     2    20
  4.5889281400069826E-01 a      1281     1    13     2     1
 -5.3004242792288006E-02 a      1282     1    13     2     2
  3.2438619276993613E-01 a      1283     1    13     2     3
  6.0048016762816259E-01 a      1284     1    13     2     4
 -6.4576309755952521E-01 a      1285     1    13     2     5
 -7.0800844347751368E-01 a      1286     1    13     2     6
 -5.1776572860920744E-02 a      1287     1    13     2     7
  1.2603965336000883E-02 a      1288     1    13     2     8
  2.7742250208924024E-01 a      1289     1    13     2     9
 -8.2291454371782158E-01 a      1290     1    13     2    10
 -2.7990592453983687E-01 a      1291     1    13     2    11
  2.4892233869837047E-01 a      1292     1    13     2    12
  2.5715742667772673E-01 a      1293     1    13     2    13
  1.0394452095140549E+00 a      1294     1    13     2    14
  1.4641118729238473E-02 a      1295     1    13     2    15
  5.2155929277024804E-01 a      1296     1    13     2    16
  2.0179285307095834E-01 a      1297     1    13     2    17
  1.9898264634538310E-01 a      1298     1    13     2    18
  3.3164565011748137E-01 a      1299     1    13     2    19
  3.2021299475476606E-01 a      1300     1    13     2    20
  1.5350488614197219E-01 a      1301     1    14     2     1
 -5.1469525359653434E-01 a      1302     1    14     2     2
 -1.0345050642509555E-01 a      1303     1    14     2     3
 -2.6734550394086698E-01 a      1304     1    14     2     4
  5.6290693557765181E-01 a      1305     1    14     2     5
  1.9235164083306996E-01 a      1306     1    14     2     6
 -4.8641352944492566E-01 a      1307     1    14     2     7
  5.2420862216868291E-01 a      1308     1    14     2     8
 -9.4340096103575286E-02 a      1309     1    14     2     9
  1.7164987633890211E-01 a      1310     1    14     2    10
  1.5112927395904391E-01 a      1311     1    14     2    11
 -3.6206886011676437E-01 a      1312     1    14     2    12
 -9.9053209193282210E-01 a      1313     1    14     2    13
  9.8545788279469282E-01 a      1314     1    14     2    14
 -5.2619294303633102E-01 a      1315     1    14     2    15
 -4.2674691084227684E-01 a      1316     1    14     2    16
 -1.4722219614643481E-01 a      1317     1    14     2    17
  3.0121963407995400E-01 a      1318     1    14     2    18
  4.5369760555373362E-01 a      1319     1    14     2    19
 -3.7350910611235799E-02 a      1320     1    14     2    20
  2.8182585540790012E-01 a      1321     1    15     2     1
  3.2143232480552247E-01 a      1322     1    15     2     2
 -2.3109665355758299E-01 a      1323     1    15     2     3
  4.8141805798530551E-01 a      1324     1    15     2     4
  1.5133371783482946E-01 a      1325     1    15     2     5
  1.4933145672240752E-01 a      1326     1    15     2     6
 -4.6138451059775853E-01 a      1327     1    15     2     7
  4.0313518792969288E-01 a      1328     1    15     2     8
 -3.4659052223526876E-01 a      1329     1    15     2     9
  4.9986346662356712E-01 a      1330     1    15     2    10
  8.3563544359593533E-01 a      1331     1    15     2    11
  4.8815988062190058E-01 a      1332     1    15     2    12
  2.3264316783169570E-01 a      1333     1    15     2    13
 -1.2207208249752852E-01 a      1334     1    15     2    14
 -6.9938844117396692E-01 a      1335     1    15     2    15
  8.1771366853176097E-01 a      1336     1    15     2    16
 -4.7981041695396229E-02 a      1337     1    15     2    17
 -1.1136597128992369E-01 a      1338     1    15     2    18
  3.2818135965054201E-01 a      1339     1    15     2    19
 -4.7106167387939535E-01 a      1340     1    15     2    20
  1.9953115195509968E-01 a      1341     1    16     2     1
 -2.1162042061556607E-01 a      1342     1    16     2     2
  1.8251784714304140E-01 a      1343     1    16     2     3
  5.9163157924628573E-01 a      1344     1    16     2     4
  2.1168613671171058E-01 a      1345     1    16     2     5
 -2.1380210253014231E-01 a      1346     1    16     2     6
  5.6881722484293004E-02 a      1347     1    16     2     7
  4.8343972367536799E-02 a      1348     1    16     2     8
  1.4069757116823238E+00 a      1349     1    16     2     9
  7.2223045117176576E-01 a      1350     1    16     2    10
 -3.2375058648510857E-01 a      1351     1    16     2    11
  8.5009266380113613E-01 a      1352     1    16     2    12
  3.9784329867479684E-01 a      1353     1    16     2    13
  4.6373536790450359E-01 a      1354     1    16     2    14
  9.1131161983798531E-02 a      1355     1    16     2    15
  1.8635536135137791E-02 a      1356     1    16     2    16
  1.3305757614042957E+00 a      1357     1    16     2    17
 -9.8535674350630598E-01 a      1358     1    16     2    18
 -4.1385732288903343E-01 a      1359     1    16     2    19
 -3.0430757061436425E-01 a      1360     1    16     2    20
 -7.0235595403126394E-01 a      1361     1    17     2     1
 -5.5094639590907646E-01 a      1362     1    17     2     2
  2.2952371269150229E-01 a      1363     1    17     2     3
  9.1239434336654546E-01 a      1364     1    17     2     4
 -3.1991896170186891E-02 a      1365     1    17     2     5
  7.8079928169065060E-01 a      1366     1    17     2     6
  5.0706113668742658E-01 a      1367     1    17     2     7
  5.7636773951274041E-02 a      1368     1    17     2     8
 -1.7478123999298574E+00 a      1369     1    17     2     9
 -9.4820493421475216E-01 a      1370     1    17     2    10
 -3.7362902622309804E-02 a      1371     1    17     2    11
  7.7159007438721949E-02 a      1372     1    17     2    12
  3.9642242971298404E-02 a      1373     1    17     2    13
 -4.8971648355475833E-01 a      1374     1    17     2    14
  4.0091834329344472E-01 a      1375     1    17     2    15
  6.0033489208181190E-01 a      1376     1    17     2    16
 -1.9119253756941668E-01 a      1377     1    17     2    17
  2.0042309442916770E-01 a      1378     1    17     2    18
 -2.1909863375215641E-01 a      1379     1    17     2    19
 -2.3647889949242601E-01 a      1380     1    17     2    20
  6.2446477375064258E-04 a      1381     1    18     2     1
 -2.8226206504983853E-01 a      1382     1    18     2     2
  3.6840601428534386E-01 a      1383     1    18     2     3
  3.7896270798272969E-01 a      1384     1    18     2     4
 -1.7967990245429527E-01 a      1385     1    18     2     5
 -5.1552754410389856E-01 a      1386     1    18     2     6
  1.1981603388111464E-01 a      1387     1    18     2     7
 -1.3963341781625319E-01 a      1388     1    18     2     8
 -3.1525174913725716E-02 a      1389     1    18     2     9
 -8.8553007222557933E-01 a      1390     1    18     2    10
  1.5432871094503417E-01 a      1391     1    18     2    11
 -1.7278292120032884E-01 a      1392     1    18     2    12
  2.9376760264733182E-01 a      1393     1    18     2    13
 -8.7043480845604176E-02 a      1394     1    18     2    14
 -5.9087475514686227E-01 a      1395     1    18     2    15
  4.7387302821972083E-01 a      1396     1    18     2    16
  6.2152450277713944E-01 a      1397     1    18     2    17
 -4.8776717088810428E-01 a      1398     1    18     2    18
 -6.7243076000932087E-02 a      1399     1    18     2    19
  1.6104206957303668E-01 a      1400     1    18     2    20
 -4.0541810910863746E-01 a      1401     1    19     2     1
 -9.2390732026212896E-01 a      1402     1    19     2     2
  8.0673074725454985E-01 a      1403     1    19     2     3
  4.7317351340499542E-01 a      1404     1    19     2     4
 -2.1279077017826292E-01 a      1405     1    19     2     5
 -6.5996995575692563E-01 a      1406     1    19     2     6
 -2.7664559373716746E-01 a      1407     1    19     2     7
 -1.9937793239380736E-02 a      1408     1    19     2     8
 -4.0250928057720764E-01 a      1409     1    19     2     9
 -1.5845604869356314E-01 a      1410     1    19     2    10
  5.3364787627601662E-03 a      1411     1    19     2    11
  2.6272988023745564E-01 a      1412     1    19     2    12
  1.0440855928792996E-02 a      1413     1    19     2    13
  2.6491788927221277E-01 a      1414     1    19     2    14
 -6.2957291704707219E-01 a      1415     1    19     2    15
 -1.8564846944292138E-01 a      1416     1    19     2    16
  2.4221533194483688E-01 a      1417     1    19     2    17
 -4.8759436619789209E-01 a      1418     1    19     2    18
  4.0301080092969604E-01 a      1419     1    19     2    19
 -2.2739573482298700E-01 a      1420     1    19     2    20
 -1.6130041683523119E-01 a      1421     1    20     2     1
  4.5668817260183542E-01 a      1422     1    20     2     2
 -9.7275542709910498E-02 a      1423     1    20     2     3
  6.7479275223226221E-01 a      1424     1    20     2     4
  1.3824821285744343E-01 a      1425     1    20     2     5
 -2.7050520229290165E-02 a      1426     1    20     2     6
 -7.3737379024225780E-01 a      1427     1    20     2     7
 -9.0356725766094992E-02 a      1428     1    20     2     8
  4.6675330124451814E-01 a      1429     1    20     2     9
 -7.4570053863719388E-01 a      1430     1    20     2    10
 -4.8801828074080406E-01 a      1431     1    20     2    11
 -5.8786124922816141E-01 a      1432     1    20     2    12
  8.9458967952963975E-01 a      1433     1    20     2    13
 -6.7139988443365384E-01 a      1434     1    20     2    14
  1.6921756605079448E-02 a      1435     1    20     2    15
 -1.3725518378162163E-01 a      1436     1    20     2    16
  6.7980422313914241E-02 a      1437     1    20     2    17
  9.6567650061757726E-01 a      1438     1    20     2    18
  6.9184855403377543E-01 a      1439     1    20     2    19
 -5.3125472490695957E-01 a      1440     1    20     2    20
 -7.1863254016015421E-01 b      1441     2     1
  5.3230591418548601E-01 b      1442     2     2
 -1.1397981867735756E+00 b      1443     2     3
  3.1044988729620066E-01 b      1444     2     4
 -4.8753628415874423E-01 b      1445     2     5
 -1.3385047002769468E+00 b      1446     2     6
  3.2923262577825030E-01 b      1447     2     7
 -4.2904881698845887E-01 b      1448     2     8
 -2.0813900617470973E-01 b      1449     2     9
 -1.0928876482492311E+00 b      1450     2    10
  3.3772968545615417E-01 b      1451     2    11
  1.6442165787520140E+00 b      1452     2    12
  5.4158892903830902E-01 b      1453     2    13
  1.9358671281615211E-01 b      1454     2    14
  6.4892523387095213E-01 b      1455     2    15
 -1.2316258477651574E+00 b      1456     2    16
  9.5169457057957818E-01 b      1457     2    17
  9.3730703098023627E-01 b      1458     2    18
  6.4004932955797211E-01 b      1459     2    19
 -2.3744464675511949E+00 b      1460     2    20
 -2.4633400504903677E-01 a      1461     2     1     3     1
  1.7913433381625807E+00 a      1462     2     2     3     1
 -8.9739342044785664E-01 a      1463     2     3     3     1
 -3.2402009246042365E+00 a      1464     2     4     3     1
 -3.0657914470244300E-02 a      1465     2     5     3     1
 -2.0036140998590990E+00 a      1466     2     6     3     1
  1.7475704394664093E+00 a      1467     2     7     3     1
 -2.2087915364338029E+00 a      1468     2     8     3     1
  3.8587562030337119E-01 a      1469     2     9     3     1
 -5.7423971464916157E-01 a      1470     2    10     3     1
  1.7119131313760669E-01 a      1471     2    11     3     1
  9.1407847341506004E-02 a      1472     2    12     3     1
 -1.0972419992126363E+00 a      1473     2    13     3     1
 -1.2841550447492822E-01 a      1474     2    14     3     1
 -3.2484682887540528E-01 a      1475     2    15     3     1
 -3.2520216595423439E+00 a      1476     2    16     3     1
  5.8426284091418382E-02 a      1477     2    17     3     1
 -8.2823481929013232E-01 a      1478     2    18     3     1
  1.5094968652211445E+00 a      1479     2    19     3     1
 -1.4606465540000200E+00 a      1480     2    20     3     1
  3.2480114415829777E+00 b      1481     3     1
