################################################################################
# Neural network connection values (weights and biases).
################################################################################
# Col  Name       Description
################################################################################
# 1    connection Neural network connection value.
# 2    t          Connection type (a = weight, b = bias).
# 3    index      Index enumerating weights.
# 4    l_s        Starting point layer (end point layer for biases).
# 5    n_s        Starting point neuron in starting layer (end point neuron for biases).
# 6    l_e        End point layer.
# 7    n_e        End point neuron in end layer.
################################################################################
#                      1 2         3     4     5     6     7
#             connection t     index   l_s   n_s   l_e   n_e
############################################################
  2.4560252740920233E-01 a         1     0     1     1     1
  1.1621318489587568E-01 a         2     0     1     1     2
  2.5861309685750724E-03 a         3     0     1     1     3
 -3.4308038873377134E-01 a         4     0     1     1     4
  3.4137251419716585E-01 a         5     0     1     1     5
 -2.5764196628415992E-01 a         6     0     1     1     6
 -1.0615944082033942E-01 a         7     0     1     1     7
 -1.0213698655683009E-01 a         8     0     1     1     8
 -3.8599017364087516E-02 a         9     0     1     1     9
 -3.9662955396844463E-03 a        10     0     1     1    10
  3.7405088507642797E-01 a        11     0     1     1    11
 -1.0430373121327871E-02 a        12     0     1     1    12
 -4.9940356106955852E-01 a        13     0     1     1    13
  7.4497829323007622E-02 a        14     0     1     1    14
 -1.4232487503814475E-01 a        15     0     1     1    15
 -4.4159266592467267E-01 a        16     0     1     1    16
  7.2697109658670545E-02 a        17     0     1     1    17
  4.4722377876622760E-01 a        18     0     1     1    18
 -1.0193175509794308E-01 a        19     0     1     1    19
 -1.4079521011361010E-01 a        20     0     1     1    20
  2.1590013073242473E-01 a        21     0     2     1     1
 -5.9256710895332451E-02 a        22     0     2     1     2
 -4.9898615250094930E-01 a        23     0     2     1     3
  4.3494795560981944E-02 a        24     0     2     1     4
 -1.3209258519344543E-02 a        25     0     2     1     5
 -2.2259770690657359E-02 a        26     0     2     1     6
 -6.4315639574565331E-01 a        27     0     2     1     7
 -1.8675126086270974E-01 a        28     0     2     1     8
  2.7247364121017315E-01 a        29     0     2     1     9
 -3.7954994408098147E-01 a        30     0     2     1    10
  3.7548217251492128E-01 a        31     0     2     1    11
 -2.3707468303604270E-01 a        32     0     2     1    12
  1.6190083145576667E-01 a        33     0     2     1    13
 -3.6964529024461706E-01 a        34     0     2     1    14
 -3.2831161867018971E-01 a        35     0     2     1    15
 -1.4344824479169149E-01 a        36     0     2     1    16
  1.1974498322854446E-01 a        37     0     2     1    17
  3.3938930595940282E-02 a        38     0     2     1    18
 -2.9590760484181722E-01 a        39     0     2     1    19
 -3.2775976197666690E-01 a        40     0     2     1    20
  1.8611980080256382E-01 a        41     0     3     1     1
 -1.6469856196694627E-01 a        42     0     3     1     2
 -3.2633954049208563E-01 a        43     0     3     1     3
  5.1468925032646451E-01 a        44     0     3     1     4
 -2.3569017339260656E-01 a        45     0     3     1     5
 -9.2915051496395396E-02 a        46     0     3     1     6
 -4.6150259716885508E-02 a        47     0     3     1     7
 -1.9556981504483187E-01 a        48     0     3     1     8
 -6.0521033834990821E-02 a        49     0     3     1     9
  2.1211409652675234E-01 a        50     0     3     1    10
 -5.7741169748414770E-02 a        51     0     3     1    11
  2.5575191851341489E-01 a        52     0     3     1    12
  3.6691109276890826E-01 a        53     0     3     1    13
 -3.6696194270377075E-01 a        54     0     3     1    14
 -2.9649509025711501E-01 a        55     0     3     1    15
  4.6285952448452038E-02 a        56     0     3     1    16
 -2.6541906249338321E-01 a        57     0     3     1    17
  3.3058730869608055E-01 a        58     0     3     1    18
  2.6686446381216838E-01 a        59     0     3     1    19
  1.7653028335219756E-01 a        60     0     3     1    20
  3.3936472856993460E-01 a        61     0     4     1     1
 -3.7685646921857541E-01 a        62     0     4     1     2
  2.3681361202636086E-01 a        63     0     4     1     3
  6.5661208261727644E-01 a        64     0     4     1     4
 -2.6386332871749896E-01 a        65     0     4     1     5
  2.0433779389462464E-01 a        66     0     4     1     6
 -4.6812325037359714E-01 a        67     0     4     1     7
 -4.4450401880302232E-01 a        68     0     4     1     8
 -1.5528222309088854E-01 a        69     0     4     1     9
 -1.6582731164365622E-01 a        70     0     4     1    10
  2.2876896066487150E-02 a        71     0     4     1    11
  2.3145864083866521E-01 a        72     0     4     1    12
  6.0088726255120539E-01 a        73     0     4     1    13
  6.2103739752903418E-02 a        74     0     4     1    14
 -3.1731991730930936E-01 a        75     0     4     1    15
  4.7008186167506316E-01 a        76     0     4     1    16
 -2.9009113503531103E-01 a        77     0     4     1    17
 -2.1261728918236233E-01 a        78     0     4     1    18
  1.6501764902907018E-01 a        79     0     4     1    19
  4.5839444044609751E-01 a        80     0     4     1    20
 -6.1104370876643332E-02 a        81     0     5     1     1
  2.9902495295805803E-01 a        82     0     5     1     2
 -3.1214267504885571E-02 a        83     0     5     1     3
 -7.9903874938718034E-01 a        84     0     5     1     4
 -4.4720908918434427E-01 a        85     0     5     1     5
 -3.2956180941820584E-01 a        86     0     5     1     6
  4.5472556585563373E-01 a        87     0     5     1     7
  6.6045971463086095E-01 a        88     0     5     1     8
 -4.2851185720679995E-02 a        89     0     5     1     9
 -1.3447985936924448E-01 a        90     0     5     1    10
 -1.7951642425192091E-01 a        91     0     5     1    11
  1.1910387733618012E-01 a        92     0     5     1    12
 -3.8626374148350223E-01 a        93     0     5     1    13
  6.1961049267801616E-01 a        94     0     5     1    14
  1.3811003568308211E-01 a        95     0     5     1    15
 -6.7566194127666046E-01 a        96     0     5     1    16
  3.9460213079197497E-02 a        97     0     5     1    17
  6.0545524228066838E-01 a        98     0     5     1    18
  6.0537817678130643E-02 a        99     0     5     1    19
 -2.2431785967287016E-01 a       100     0     5     1    20
 -2.6802531040581164E-02 a       101     0     6     1     1
 -2.3297587051917870E-01 a       102     0     6     1     2
 -8.1337854929806733E-02 a       103     0     6     1     3
 -1.0003147786107994E-01 a       104     0     6     1     4
  1.3053195809787935E-01 a       105     0     6     1     5
 -2.7532747918861294E-01 a       106     0     6     1     6
 -7.1322683836793285E-02 a       107     0     6     1     7
 -2.7641630717448767E-01 a       108     0     6     1     8
 -6.9945909671317685E-01 a       109     0     6     1     9
  4.2247759053753337E-01 a       110     0     6     1    10
 -8.8273245529738188E-03 a       111     0     6     1    11
 -2.0160240829740841E-03 a       112     0     6     1    12
  8.0316875452733327E-01 a       113     0     6     1    13
  3.0001277037000085E-01 a       114     0     6     1    14
  3.3635642589251780E-01 a       115     0     6     1    15
  2.1555023237910539E-01 a       116     0     6     1    16
 -9.9876702175713677E-02 a       117     0     6     1    17
 -1.9553167900746204E-01 a       118     0     6     1    18
 -2.0360163910756460E-01 a       119     0     6     1    19
  7.7758201300514473E-01 a       120     0     6     1    20
 -7.9694000085784289E-01 a       121     0     7     1     1
  2.6340216988260912E-01 a       122     0     7     1     2
 -1.1554260408202242E-01 a       123     0     7     1     3
 -7.8996377411781515E-01 a       124     0     7     1     4
  1.0189253355382663E-01 a       125     0     7     1     5
  5.1790093237424517E-01 a       126     0     7     1     6
  3.5657043605725947E-01 a       127     0     7     1     7
  9.7081859553994743E-01 a       128     0     7     1     8
  4.2200862702518938E-01 a       129     0     7     1     9
  1.1323166322478789E-01 a       130     0     7     1    10
 -1.9368384432225857E-01 a       131     0     7     1    11
  1.9073712038109786E-01 a       132     0     7     1    12
 -4.1504141623258578E-01 a       133     0     7     1    13
 -4.0656980343436994E-01 a       134     0     7     1    14
  4.0918568898213659E-01 a       135     0     7     1    15
 -7.9761493054403387E-01 a       136     0     7     1    16
  3.4967349074599363E-01 a       137     0     7     1    17
  6.1657364376464663E-01 a       138     0     7     1    18
 -5.5381682974060889E-02 a       139     0     7     1    19
 -4.8466043699170486E-01 a       140     0     7     1    20
  3.7896583694074626E-01 a       141     0     8     1     1
  1.4647231031660690E-01 a       142     0     8     1     2
 -8.7639173609345034E-01 a       143     0     8     1     3
  5.9973438531609835E-01 a       144     0     8     1     4
 -6.4767214624986871E-02 a       145     0     8     1     5
 -4.6121930947486300E-01 a       146     0     8     1     6
 -2.5355650695421550E-01 a       147     0     8     1     7
 -1.0089013757628635E+00 a       148     0     8     1     8
  8.0135273064207396E-02 a       149     0     8     1     9
  1.8256550786510051E-01 a       150     0     8     1    10
  2.2053309842447541E-01 a       151     0     8     1    11
 -1.9524750188385423E-01 a       152     0     8     1    12
  3.8305512009220755E-01 a       153     0     8     1    13
  3.4159722724233599E-01 a       154     0     8     1    14
 -4.2600320939953223E-01 a       155     0     8     1    15
  6.0753487253759542E-01 a       156     0     8     1    16
  1.3086715677973010E-01 a       157     0     8     1    17
 -2.4995280982604504E-01 a       158     0     8     1    18
 -2.5524471229849666E-01 a       159     0     8     1    19
  6.9737084870789023E-01 a       160     0     8     1    20
 -2.7872331971173964E-01 a       161     0     9     1     1
  2.0405488266200805E-01 a       162     0     9     1     2
 -3.6654036331987266E-01 a       163     0     9     1     3
  1.4656837758118277E-01 a       164     0     9     1     4
  3.0466377620837509E-01 a       165     0     9     1     5
 -3.8177062969920801E-02 a       166     0     9     1     6
 -2.7382097115833631E-01 a       167     0     9     1     7
 -1.5109212016950260E-01 a       168     0     9     1     8
  2.4292521704463799E-01 a       169     0     9     1     9
  3.7349694157805438E-02 a       170     0     9     1    10
  3.3519991064754223E-01 a       171     0     9     1    11
  3.5433175129200728E-01 a       172     0     9     1    12
  2.3538844599612097E-01 a       173     0     9     1    13
 -4.6977372188547273E-01 a       174     0     9     1    14
 -9.4659663960378074E-02 a       175     0     9     1    15
 -3.1471643327071008E-01 a       176     0     9     1    16
  3.7471402993112085E-01 a       177     0     9     1    17
  9.6484244345476033E-02 a       178     0     9     1    18
 -3.3459938178027104E-01 a       179     0     9     1    19
 -2.1756852222095679E-01 a       180     0     9     1    20
 -3.6486500471803818E-03 a       181     0    10     1     1
 -4.0596168276078193E-01 a       182     0    10     1     2
 -9.6488201628538842E-02 a       183     0    10     1     3
 -5.1709199536104512E-02 a       184     0    10     1     4
  6.1952215603436583E-02 a       185     0    10     1     5
 -2.7095435614463564E-01 a       186     0    10     1     6
  5.9607125354945993E-02 a       187     0    10     1     7
 -8.5560447843296195E-02 a       188     0    10     1     8
 -7.2692263909545501E-02 a       189     0    10     1     9
 -1.1464130269008047E-01 a       190     0    10     1    10
 -4.1331585467349823E-02 a       191     0    10     1    11
  3.9740549985778295E-01 a       192     0    10     1    12
  3.6152114193618683E-02 a       193     0    10     1    13
  7.6504663425604911E-03 a       194     0    10     1    14
  1.3910204466948770E-01 a       195     0    10     1    15
  2.6608596590486910E-01 a       196     0    10     1    16
 -1.8916126605575592E-02 a       197     0    10     1    17
 -2.0970916056873623E-01 a       198     0    10     1    18
 -2.1513212062188192E-02 a       199     0    10     1    19
 -1.3120932805487728E-01 a       200     0    10     1    20
 -2.0917752590085815E-02 a       201     0    11     1     1
  2.9941925366459538E-02 a       202     0    11     1     2
  2.8123822706376239E-01 a       203     0    11     1     3
 -1.6841489431969731E-01 a       204     0    11     1     4
 -5.0296829642729712E-01 a       205     0    11     1     5
  6.5470641013748754E-01 a       206     0    11     1     6
  2.0052425742423041E-01 a       207     0    11     1     7
  3.6053155250176633E-01 a       208     0    11     1     8
  2.1501297607999204E-01 a       209     0    11     1     9
  8.5477094398312359E-02 a       210     0    11     1    10
 -8.4763117862992926E-02 a       211     0    11     1    11
 -5.8574169861369996E-01 a       212     0    11     1    12
  1.4930285680701694E-01 a       213     0    11     1    13
 -2.4394019716544809E-02 a       214     0    11     1    14
 -2.7987608737178565E-01 a       215     0    11     1    15
  2.4967287794889712E-01 a       216     0    11     1    16
  2.8868515853527253E-02 a       217     0    11     1    17
 -1.7179457025203237E-01 a       218     0    11     1    18
  1.3962588166140197E-01 a       219     0    11     1    19
  1.2765957396266095E-01 a       220     0    11     1    20
  2.0881106311581410E-01 a       221     0    12     1     1
 -8.0746758230581431E-02 a       222     0    12     1     2
  6.0005657677957003E-01 a       223     0    12     1     3
 -1.6175957799214390E-02 a       224     0    12     1     4
 -4.3561027440628364E-01 a       225     0    12     1     5
 -2.0424787969237507E-01 a       226     0    12     1     6
 -6.3030517189550106E-02 a       227     0    12     1     7
  6.2307703734019582E-01 a       228     0    12     1     8
 -1.2836475030550115E-01 a       229     0    12     1     9
  3.5741832544395291E-01 a       230     0    12     1    10
 -3.5886016944800431E-01 a       231     0    12     1    11
 -2.3088139668327529E-01 a       232     0    12     1    12
  1.7620894509585699E-01 a       233     0    12     1    13
 -6.3697357381269012E-02 a       234     0    12     1    14
 -5.1982409140760710E-01 a       235     0    12     1    15
 -1.2371038583221126E-01 a       236     0    12     1    16
 -1.8073665994054405E-01 a       237     0    12     1    17
  3.0770736136939003E-01 a       238     0    12     1    18
  7.0094806796199571E-01 a       239     0    12     1    19
  8.8911472200436534E-02 a       240     0    12     1    20
  7.9439826611461331E-02 a       241     0    13     1     1
  2.7973523751479237E-02 a       242     0    13     1     2
 -3.2958725716411652E-01 a       243     0    13     1     3
 -7.7697047065874533E-02 a       244     0    13     1     4
 -1.6367511328540893E-01 a       245     0    13     1     5
  4.3664527107933171E-01 a       246     0    13     1     6
  8.5463799797489770E-01 a       247     0    13     1     7
  7.6608407708137358E-02 a       248     0    13     1     8
  3.6424554797219938E-01 a       249     0    13     1     9
 -1.6215533352617920E-01 a       250     0    13     1    10
 -3.9184257320386701E-01 a       251     0    13     1    11
 -4.0732678516598370E-01 a       252     0    13     1    12
  3.2162881975016600E-01 a       253     0    13     1    13
 -2.0583374416755364E-02 a       254     0    13     1    14
  3.6758521491602947E-01 a       255     0    13     1    15
  6.5491543900268190E-01 a       256     0    13     1    16
  7.6753619566190345E-01 a       257     0    13     1    17
 -1.2523003750995237E-01 a       258     0    13     1    18
 -6.1094533843368648E-01 a       259     0    13     1    19
 -3.8617656755715761E-02 a       260     0    13     1    20
 -9.0880838684198224E-03 a       261     0    14     1     1
 -4.7183108906735827E-01 a       262     0    14     1     2
  1.4674005420330427E-01 a       263     0    14     1     3
  2.7660020690855375E-01 a       264     0    14     1     4
  3.7870056650807177E-01 a       265     0    14     1     5
 -3.6791182313444595E-02 a       266     0    14     1     6
 -3.4434554590902056E-01 a       267     0    14     1     7
 -5.4450962261677352E-02 a       268     0    14     1     8
 -5.3156606255295380E-01 a       269     0    14     1     9
 -2.0492130172433343E-01 a       270     0    14     1    10
  4.0045330497172037E-02 a       271     0    14     1    11
  6.3047373398415141E-01 a       272     0    14     1    12
 -1.6728133374977674E-01 a       273     0    14     1    13
  3.1829250775453094E-01 a       274     0    14     1    14
 -2.1487729815487203E-01 a       275     0    14     1    15
  2.2569901226202022E-02 a       276     0    14     1    16
 -4.5433290429519646E-01 a       277     0    14     1    17
  3.1860409371008175E-02 a       278     0    14     1    18
  8.7791876997393534E-02 a       279     0    14     1    19
 -4.1602235973098750E-01 a       280     0    14     1    20
  1.0687312670663532E-01 a       281     0    15     1     1
  6.4834469962364097E-02 a       282     0    15     1     2
  1.1834356453332147E-01 a       283     0    15     1     3
 -2.0606854885357580E-02 a       284     0    15     1     4
  3.8528530393835386E-02 a       285     0    15     1     5
 -2.1218632735992354E-01 a       286     0    15     1     6
 -4.5902950372801737E-01 a       287     0    15     1     7
 -9.7057001000263932E-02 a       288     0    15     1     8
  4.1127269530364424E-01 a       289     0    15     1     9
 -3.4692997791384715E-03 a       290     0    15     1    10
  5.6382101416078900E-01 a       291     0    15     1    11
 -1.7013081396652349E-01 a       292     0    15     1    12
 -1.0820540709910997E-01 a       293     0    15     1    13
  1.8895664528606829E-01 a       294     0    15     1    14
 -6.1891556836224097E-02 a       295     0    15     1    15
 -1.8461730547915809E-02 a       296     0    15     1    16
 -5.6184256956694612E-01 a       297     0    15     1    17
  7.5236349996955360E-02 a       298     0    15     1    18
  5.5108471604196385E-01 a       299     0    15     1    19
  6.9903677800446914E-02 a       300     0    15     1    20
  1.3020584246681013E-01 a       301     0    16     1     1
 -4.2665242491592903E-01 a       302     0    16     1     2
  4.5331058107803157E-01 a       303     0    16     1     3
 -5.0570695848657177E-01 a       304     0    16     1     4
 -9.9689034110140948E-02 a       305     0    16     1     5
  3.9099503196049579E-01 a       306     0    16     1     6
 -1.6095284309562224E-01 a       307     0    16     1     7
  2.5049756319384664E-01 a       308     0    16     1     8
 -9.6919384290594657E-02 a       309     0    16     1     9
 -2.6174690133100087E-01 a       310     0    16     1    10
  3.6610315722315379E-01 a       311     0    16     1    11
  2.2560375330043424E-02 a       312     0    16     1    12
 -4.2424165561771404E-01 a       313     0    16     1    13
  4.9436745735150873E-03 a       314     0    16     1    14
  1.8493449565928812E+00 a       315     0    16     1    15
  1.5788308995123856E-01 a       316     0    16     1    16
  5.6034813545295037E-01 a       317     0    16     1    17
 -1.0305742818080230E-01 a       318     0    16     1    18
 -1.0532974413292929E-03 a       319     0    16     1    19
  1.5581283464341608E-01 a       320     0    16     1    20
  3.7289744330449365E-01 a       321     0    17     1     1
  2.3319013482446513E-01 a       322     0    17     1     2
 -1.7946158851305266E-02 a       323     0    17     1     3
  3.4563786518124795E-01 a       324     0    17     1     4
  3.4537855363479608E-01 a       325     0    17     1     5
 -1.0184088265576243E+00 a       326     0    17     1     6
  9.2960387326648214E-02 a       327     0    17     1     7
 -4.7576210653549250E-01 a       328     0    17     1     8
 -3.6685594648144354E-01 a       329     0    17     1     9
 -5.7572130424999035E-01 a       330     0    17     1    10
 -2.6961245672479117E-01 a       331     0    17     1    11
  2.3708148372165402E-01 a       332     0    17     1    12
  5.0183130289058901E-02 a       333     0    17     1    13
  7.7540683340070457E-02 a       334     0    17     1    14
 -1.4042034587723977E+00 a       335     0    17     1    15
 -5.4682856399480639E-01 a       336     0    17     1    16
 -5.8095853369854578E-01 a       337     0    17     1    17
  2.0609213926408795E-01 a       338     0    17     1    18
 -6.8655957742698270E-01 a       339     0    17     1    19
 -7.3015219772354567E-01 a       340     0    17     1    20
 -1.0122747274590806E+00 a       341     0    18     1     1
  2.4420299752780675E-01 a       342     0    18     1     2
 -4.1129691749423331E-01 a       343     0    18     1     3
 -1.4880080917793084E-01 a       344     0    18     1     4
  2.9829628358505982E-02 a       345     0    18     1     5
 -1.2793528589991554E-01 a       346     0    18     1     6
 -1.6282084667802474E-01 a       347     0    18     1     7
 -8.4338235947158113E-02 a       348     0    18     1     8
  3.2309373180329962E-02 a       349     0    18     1     9
  6.0116964879421020E-01 a       350     0    18     1    10
 -4.9876742726969892E-01 a       351     0    18     1    11
 -1.0409242725151037E-01 a       352     0    18     1    12
  7.1277766909907403E-01 a       353     0    18     1    13
  5.4250915439432634E-01 a       354     0    18     1    14
 -6.9004058461263929E-01 a       355     0    18     1    15
  6.0497445883033879E-02 a       356     0    18     1    16
 -2.0408354954598354E-01 a       357     0    18     1    17
 -5.6835811252673052E-01 a       358     0    18     1    18
  3.5108575768361922E-01 a       359     0    18     1    19
 -5.7284590440138679E-02 a       360     0    18     1    20
 -3.1329255614806689E-01 a       361     0    19     1     1
 -3.9018695328523478E-01 a       362     0    19     1     2
  1.8295529346034570E-01 a       363     0    19     1     3
  1.6838337147314050E-01 a       364     0    19     1     4
  2.9361180717490282E-01 a       365     0    19     1     5
  1.3444157676065094E+00 a       366     0    19     1     6
 -7.6275804660492580E-02 a       367     0    19     1     7
  1.0534951628742968E+00 a       368     0    19     1     8
  4.8064465301404520E-02 a       369     0    19     1     9
  5.1477744807566372E-01 a       370     0    19     1    10
  9.5859609335281881E-01 a       371     0    19     1    11
  3.8810826199929177E-01 a       372     0    19     1    12
 -5.2175712793174045E-01 a       373     0    19     1    13
 -2.2546940223593281E-01 a       374     0    19     1    14
  9.3308733483019923E-01 a       375     0    19     1    15
  9.2758932497860019E-02 a       376     0    19     1    16
  3.3891055616503063E-01 a       377     0    19     1    17
  2.5347565632938002E-01 a       378     0    19     1    18
  1.5572256772285600E-01 a       379     0    19     1    19
  5.5391165779753748E-01 a       380     0    19     1    20
 -4.2147519355523960E-01 a       381     0    20     1     1
  6.0272082421415296E-01 a       382     0    20     1     2
  1.3597474511353350E-01 a       383     0    20     1     3
  3.7578724301392591E-01 a       384     0    20     1     4
 -6.9250766828957561E-02 a       385     0    20     1     5
 -2.8119806927662011E-01 a       386     0    20     1     6
  4.1789108287404275E-01 a       387     0    20     1     7
 -1.7673533892728874E-01 a       388     0    20     1     8
 -8.9502622571298499E-02 a       389     0    20     1     9
 -2.7357323767248987E-01 a       390     0    20     1    10
 -6.9543956780977745E-01 a       391     0    20     1    11
 -4.6745075327823360E-01 a       392     0    20     1    12
  4.2729828493126326E-01 a       393     0    20     1    13
 -5.0720634270109322E-01 a       394     0    20     1    14
 -1.0809732820394289E+00 a       395     0    20     1    15
  4.7077323735290960E-01 a       396     0    20     1    16
 -1.5042540959715039E-01 a       397     0    20     1    17
  1.6091539092907439E-01 a       398     0    20     1    18
  1.6064293997947918E-01 a       399     0    20     1    19
 -4.5605248578705203E-02 a       400     0    20     1    20
 -7.2299765798015336E-02 a       401     0    21     1     1
  2.8243978920127494E-01 a       402     0    21     1     2
 -4.5779916355281741E-01 a       403     0    21     1     3
 -1.0679472184203398E-01 a       404     0    21     1     4
 -6.2041947282479681E-01 a       405     0    21     1     5
  1.0883148099906727E-01 a       406     0    21     1     6
  1.5446661078527077E-01 a       407     0    21     1     7
 -1.8883369662058463E-01 a       408     0    21     1     8
 -2.2189108899576671E-01 a       409     0    21     1     9
  5.3605211751703297E-01 a       410     0    21     1    10
 -6.7531030571222095E-01 a       411     0    21     1    11
 -3.3704698331431610E-01 a       412     0    21     1    12
 -1.9783719755365922E-01 a       413     0    21     1    13
 -1.0029931663449493E-01 a       414     0    21     1    14
  2.2823795604489769E-01 a       415     0    21     1    15
  5.5602879198441280E-01 a       416     0    21     1    16
  8.1755185319966039E-01 a       417     0    21     1    17
 -8.3648025059319869E-02 a       418     0    21     1    18
  7.5626193862636193E-01 a       419     0    21     1    19
 -6.8251783523508455E-02 a       420     0    21     1    20
  2.2608808019167895E-01 a       421     0    22     1     1
 -6.5146422191330808E-02 a       422     0    22     1     2
  6.0285293228477754E-01 a       423     0    22     1     3
 -1.1880233359821162E-01 a       424     0    22     1     4
  2.2188363871156258E-01 a       425     0    22     1     5
  8.8426893988479738E-01 a       426     0    22     1     6
 -1.4013942890328687E-01 a       427     0    22     1     7
 -4.9688799374012527E-01 a       428     0    22     1     8
 -1.7581982958062316E-02 a       429     0    22     1     9
 -5.1137306147910533E-01 a       430     0    22     1    10
  6.8725243376861200E-02 a       431     0    22     1    11
  2.3106283366222929E-01 a       432     0    22     1    12
  2.9734310156541072E-01 a       433     0    22     1    13
 -3.2959089265034730E-01 a       434     0    22     1    14
 -9.5009547958873619E-02 a       435     0    22     1    15
  1.4064145764084235E-01 a       436     0    22     1    16
 -1.1198666656440934E-01 a       437     0    22     1    17
  5.7258654357613070E-02 a       438     0    22     1    18
 -2.0218781217367154E-01 a       439     0    22     1    19
  1.4178345013370577E-01 a       440     0    22     1    20
 -1.2444835167382245E-01 a       441     0    23     1     1
  2.3226410420157889E-01 a       442     0    23     1     2
  1.4389351554761612E-01 a       443     0    23     1     3
 -2.6123106720058559E-01 a       444     0    23     1     4
 -3.2237648771929883E-01 a       445     0    23     1     5
 -5.0296573187509663E-01 a       446     0    23     1     6
 -7.1046406550919750E-01 a       447     0    23     1     7
 -1.5166072263475402E-01 a       448     0    23     1     8
 -1.0555582829461629E+00 a       449     0    23     1     9
 -2.5812570768764515E-01 a       450     0    23     1    10
 -4.7249849961160012E-01 a       451     0    23     1    11
 -6.8771230021360197E-01 a       452     0    23     1    12
 -1.8404426227596241E-01 a       453     0    23     1    13
  4.1145230650207820E-01 a       454     0    23     1    14
 -2.9984705257900490E-01 a       455     0    23     1    15
 -7.8549903023322754E-01 a       456     0    23     1    16
 -1.1752459802286119E+00 a       457     0    23     1    17
  2.4025365601779652E-01 a       458     0    23     1    18
 -1.2520415370098087E-01 a       459     0    23     1    19
 -1.6391205043789900E-01 a       460     0    23     1    20
 -4.8290847710810836E-01 a       461     0    24     1     1
  5.4645561071875337E-01 a       462     0    24     1     2
 -2.2597151651121594E-01 a       463     0    24     1     3
 -5.0351614738957129E-01 a       464     0    24     1     4
  6.0964394966179558E-01 a       465     0    24     1     5
 -1.2814709691739876E-01 a       466     0    24     1     6
  2.5998981109643754E-01 a       467     0    24     1     7
  2.2026504788092366E-01 a       468     0    24     1     8
 -3.5529956891905599E-02 a       469     0    24     1     9
 -9.3240950988884644E-02 a       470     0    24     1    10
  1.6064082372493615E-01 a       471     0    24     1    11
  6.5762023270546408E-02 a       472     0    24     1    12
  2.0963080552678368E-01 a       473     0    24     1    13
 -5.9655765048286891E-01 a       474     0    24     1    14
 -2.2720640368395673E-01 a       475     0    24     1    15
 -3.9034195365558533E-01 a       476     0    24     1    16
 -4.7757546176878427E-02 a       477     0    24     1    17
  2.3455881229018169E-01 a       478     0    24     1    18
 -2.2034831492454908E-02 a       479     0    24     1    19
  6.3869764817956576E-01 a       480     0    24     1    20
 -3.1359223268643355E-01 a       481     0    25     1     1
  2.0035890398960731E-03 a       482     0    25     1     2
 -1.5038794068618583E-01 a       483     0    25     1     3
 -4.9602721302429492E-01 a       484     0    25     1     4
  4.2054264695071941E-01 a       485     0    25     1     5
 -8.3344108941725781E-01 a       486     0    25     1     6
  1.1846209648662741E-01 a       487     0    25     1     7
 -2.3234024812521487E-01 a       488     0    25     1     8
 -5.8069862830181218E-01 a       489     0    25     1     9
 -6.5215871379821122E-01 a       490     0    25     1    10
 -4.1595889220225502E-01 a       491     0    25     1    11
 -9.1005690159487385E-01 a       492     0    25     1    12
  1.3412924103920193E-01 a       493     0    25     1    13
 -3.3998858473905941E-01 a       494     0    25     1    14
 -1.3616543364286582E-01 a       495     0    25     1    15
  1.2363921032163137E+00 a       496     0    25     1    16
  1.8009464849093818E-01 a       497     0    25     1    17
 -6.4356631682025400E-01 a       498     0    25     1    18
  5.6683441474104657E-01 a       499     0    25     1    19
  2.1477835440701448E-01 a       500     0    25     1    20
 -1.8634733465663930E-01 a       501     0    26     1     1
  8.4607587417612956E-02 a       502     0    26     1     2
  1.1715578091592752E-01 a       503     0    26     1     3
 -2.4823799365753738E-01 a       504     0    26     1     4
  9.8790384659219799E-01 a       505     0    26     1     5
  4.0550509807713644E-02 a       506     0    26     1     6
 -6.9564990176213781E-01 a       507     0    26     1     7
 -1.1632686803369290E+00 a       508     0    26     1     8
 -1.0107540315564488E-01 a       509     0    26     1     9
 -2.5224094123413165E-01 a       510     0    26     1    10
  3.2959268168095457E-01 a       511     0    26     1    11
  4.2506435009913557E-01 a       512     0    26     1    12
  1.7208291498147835E-01 a       513     0    26     1    13
  6.4752386950110363E-01 a       514     0    26     1    14
  2.6088868443206459E-01 a       515     0    26     1    15
  1.9033614293175460E-01 a       516     0    26     1    16
  3.5643143609495254E-01 a       517     0    26     1    17
  3.4736650763649457E-01 a       518     0    26     1    18
 -1.1043325159631832E-01 a       519     0    26     1    19
  2.8328089405627271E-01 a       520     0    26     1    20
  1.3504860204767441E-01 a       521     0    27     1     1
  1.2783778654275441E-01 a       522     0    27     1     2
 -4.6641907788212722E-01 a       523     0    27     1     3
  7.7490177711995090E-01 a       524     0    27     1     4
 -8.2050803033037267E-01 a       525     0    27     1     5
  3.4800657084145542E-01 a       526     0    27     1     6
  2.2133665049961798E-01 a       527     0    27     1     7
 -7.2318243651472414E-01 a       528     0    27     1     8
 -1.2336394925985514E-01 a       529     0    27     1     9
  7.3258137305901716E-01 a       530     0    27     1    10
  6.1526207075244987E-01 a       531     0    27     1    11
  1.2210320557145170E-01 a       532     0    27     1    12
 -6.9828639877190779E-01 a       533     0    27     1    13
  2.6926788362387161E-01 a       534     0    27     1    14
 -3.4130817532402921E-02 a       535     0    27     1    15
 -7.9894455867769543E-01 a       536     0    27     1    16
 -1.1897758354817853E+00 a       537     0    27     1    17
  8.1281336596635267E-01 a       538     0    27     1    18
 -6.4149664490853830E-01 a       539     0    27     1    19
  1.6948803800693424E-01 a       540     0    27     1    20
 -7.2532691877112865E-02 a       541     0    28     1     1
 -2.5073961327452382E-01 a       542     0    28     1     2
  1.4195703568872320E-01 a       543     0    28     1     3
 -6.3054875164231389E-02 a       544     0    28     1     4
 -3.3205258189626913E-01 a       545     0    28     1     5
 -1.8374161437469411E-02 a       546     0    28     1     6
  4.4703054331820230E-01 a       547     0    28     1     7
  4.9217814416689785E-02 a       548     0    28     1     8
  4.2681540115258415E-01 a       549     0    28     1     9
  2.2666798591922377E-01 a       550     0    28     1    10
 -1.8713872096668085E-01 a       551     0    28     1    11
 -9.1990546305186591E-02 a       552     0    28     1    12
 -3.9297709903011135E-01 a       553     0    28     1    13
  8.1353240475933286E-02 a       554     0    28     1    14
  3.6156161554971505E-01 a       555     0    28     1    15
 -1.5121853661309978E-01 a       556     0    28     1    16
  5.3792759709928799E-02 a       557     0    28     1    17
 -4.6939012513915784E-01 a       558     0    28     1    18
 -4.4401560765575648E-01 a       559     0    28     1    19
 -2.2372294707562715E-01 a       560     0    28     1    20
 -3.7208205863433347E-02 a       561     0    29     1     1
 -5.9020886982993037E-01 a       562     0    29     1     2
  1.8654693585172866E-01 a       563     0    29     1     3
 -7.3766121575043242E-01 a       564     0    29     1     4
 -1.5116901320402037E-01 a       565     0    29     1     5
  4.8634887702463775E-01 a       566     0    29     1     6
 -4.7469472805754337E-02 a       567     0    29     1     7
  2.0181780791170628E-01 a       568     0    29     1     8
  2.8336908697313018E-01 a       569     0    29     1     9
  2.6939518732621043E-01 a       570     0    29     1    10
 -1.5072280835311461E-01 a       571     0    29     1    11
  1.4661844981185426E-01 a       572     0    29     1    12
 -6.0409932827141988E-01 a       573     0    29     1    13
  3.0263068292341361E-01 a       574     0    29     1    14
  2.1752884286092855E-01 a       575     0    29     1    15
  2.3214077460425342E-01 a       576     0    29     1    16
 -2.7114404054150509E-01 a       577     0    29     1    17
 -4.2065452654386992E-01 a       578     0    29     1    18
  5.5549113613256401E-02 a       579     0    29     1    19
 -1.1232048789880877E+00 a       580     0    29     1    20
 -5.6917621270314862E-02 a       581     0    30     1     1
  2.8791076336722177E-01 a       582     0    30     1     2
 -3.2942450871608442E-01 a       583     0    30     1     3
  5.5989526736741846E-01 a       584     0    30     1     4
  7.9916397748806586E-02 a       585     0    30     1     5
  5.4030810110001981E-01 a       586     0    30     1     6
  2.8043812566209615E-02 a       587     0    30     1     7
  5.7444461931383339E-01 a       588     0    30     1     8
  5.9916864705937833E-01 a       589     0    30     1     9
 -2.7621354214323540E-01 a       590     0    30     1    10
  9.9203677099549914E-02 a       591     0    30     1    11
  3.8396190769271088E-02 a       592     0    30     1    12
  1.5643241621863316E-02 a       593     0    30     1    13
 -4.4286239877040162E-01 a       594     0    30     1    14
  2.3874971080520954E-01 a       595     0    30     1    15
 -2.9083601726275971E-01 a       596     0    30     1    16
 -6.0030042298413876E-02 a       597     0    30     1    17
  6.8506389205953047E-02 a       598     0    30     1    18
  1.4772445862111408E-01 a       599     0    30     1    19
 -3.8440642551763694E-02 a       600     0    30     1    20
 -3.1724809390692543E-01 a       601     0    31     1     1
  2.3991240920655904E-01 a       602     0    31     1     2
 -9.8819577166226491E-01 a       603     0    31     1     3
  7.3885116565621287E-02 a       604     0    31     1     4
 -4.6035860160423558E-01 a       605     0    31     1     5
  1.8985776480586836E-01 a       606     0    31     1     6
 -1.4686406266951577E-01 a       607     0    31     1     7
  6.6432266167193366E-01 a       608     0    31     1     8
 -1.5472928630812677E-01 a       609     0    31     1     9
  6.9616146562507392E-02 a       610     0    31     1    10
 -4.3430355749963401E-01 a       611     0    31     1    11
  1.7514497638962140E-01 a       612     0    31     1    12
  2.1545183158969353E-01 a       613     0    31     1    13
 -4.5780581553142108E-01 a       614     0    31     1    14
  3.3164998506254173E-01 a       615     0    31     1    15
 -1.8673576847210049E-01 a       616     0    31     1    16
  2.9071397090588824E-01 a       617     0    31     1    17
  1.9318802850608358E-02 a       618     0    31     1    18
  5.2924214121658597E-01 a       619     0    31     1    19
  8.9094555664266786E-02 a       620     0    31     1    20
 -4.6029087424109877E-01 a       621     0    32     1     1
  1.2228454771627066E-01 a       622     0    32     1     2
 -7.0146810856036579E-01 a       623     0    32     1     3
 -3.2056740602283745E-01 a       624     0    32     1     4
  1.9777179394116387E-01 a       625     0    32     1     5
 -1.5471704667237679E-01 a       626     0    32     1     6
  2.4487249086662649E-01 a       627     0    32     1     7
 -2.5454554252722167E-01 a       628     0    32     1     8
 -2.5026126609173294E-01 a       629     0    32     1     9
  3.5644010556198161E-02 a       630     0    32     1    10
  2.2149741194218905E-01 a       631     0    32     1    11
  9.4902944952710455E-02 a       632     0    32     1    12
 -5.3184121415735730E-03 a       633     0    32     1    13
  2.7352541377603778E-01 a       634     0    32     1    14
 -2.2009459498325851E-01 a       635     0    32     1    15
  7.2974528421823198E-02 a       636     0    32     1    16
 -1.4561758000075564E-01 a       637     0    32     1    17
  1.1997352818405126E-01 a       638     0    32     1    18
  8.0969183138198952E-02 a       639     0    32     1    19
 -3.3197497506177193E-01 a       640     0    32     1    20
  2.5310887129008036E-01 a       641     0    33     1     1
 -1.1525453978913899E-01 a       642     0    33     1     2
  8.0749785776745409E-01 a       643     0    33     1     3
 -2.2529240857594093E-01 a       644     0    33     1     4
  2.8012256320726009E-01 a       645     0    33     1     5
  2.4910557076004630E-01 a       646     0    33     1     6
 -2.1384288560956000E-01 a       647     0    33     1     7
  2.6221152673308706E-01 a       648     0    33     1     8
 -1.0390616930533200E-01 a       649     0    33     1     9
  5.7277994762134021E-02 a       650     0    33     1    10
  2.0753663800488154E-01 a       651     0    33     1    11
 -2.8132223643600723E-01 a       652     0    33     1    12
 -2.3015234639337281E-01 a       653     0    33     1    13
  3.3791702228125953E-01 a       654     0    33     1    14
  2.1098806714337795E-01 a       655     0    33     1    15
 -1.9725324156537910E-01 a       656     0    33     1    16
  1.5239199059520622E-01 a       657     0    33     1    17
 -6.5548703237351202E-01 a       658     0    33     1    18
 -4.8601354306020134E-01 a       659     0    33     1    19
  7.0830270740251486E-02 a       660     0    33     1    20
 -2.3032962974634179E-02 a       661     0    34     1     1
 -3.9531093717640697E-01 a       662     0    34     1     2
 -7.7779955299589920E-02 a       663     0    34     1     3
 -1.8557659492020559E-01 a       664     0    34     1     4
  3.1017362378249030E-01 a       665     0    34     1     5
 -4.6219124873986765E-02 a       666     0    34     1     6
 -1.4517134509841467E-01 a       667     0    34     1     7
 -5.3760547880869779E-02 a       668     0    34     1     8
 -2.3984587824358458E-01 a       669     0    34     1     9
 -1.7883545472348050E-01 a       670     0    34     1    10
  6.4474388621400558E-01 a       671     0    34     1    11
 -2.2188008774123827E-01 a       672     0    34     1    12
 -3.6135189758403646E-01 a       673     0    34     1    13
  5.0883897567418868E-01 a       674     0    34     1    14
 -2.6642297900176237E-01 a       675     0    34     1    15
  2.8975581622463226E-01 a       676     0    34     1    16
 -4.3570298693198090E-01 a       677     0    34     1    17
 -1.8886751962250459E-01 a       678     0    34     1    18
  2.5679979849469348E-01 a       679     0    34     1    19
 -2.4652489724729756E-01 a       680     0    34     1    20
 -2.7710637971961982E-01 a       681     0    35     1     1
 -6.6674061188788283E-02 a       682     0    35     1     2
  4.2684344355508635E-01 a       683     0    35     1     3
  4.1934360821319522E-01 a       684     0    35     1     4
 -5.0032766428085851E-01 a       685     0    35     1     5
 -2.1260985137056226E-01 a       686     0    35     1     6
 -9.7809779037746430E-02 a       687     0    35     1     7
  1.2902385184235621E-01 a       688     0    35     1     8
  3.3184950335406010E-01 a       689     0    35     1     9
  2.6500442578848493E-01 a       690     0    35     1    10
 -9.0263236224957666E-01 a       691     0    35     1    11
  4.1150938432485895E-01 a       692     0    35     1    12
  4.1452612060714800E-01 a       693     0    35     1    13
 -7.7785489267864627E-01 a       694     0    35     1    14
  6.1718891279927790E-01 a       695     0    35     1    15
 -5.3314791844161669E-01 a       696     0    35     1    16
  3.8305629411348396E-01 a       697     0    35     1    17
  2.1693272308148817E-01 a       698     0    35     1    18
 -1.2657476342329528E+00 a       699     0    35     1    19
  1.3944040049222819E-01 a       700     0    35     1    20
  1.1559576344744551E+00 a       701     0    36     1     1
  4.4125293225876738E-01 a       702     0    36     1     2
  9.5413025015622419E-02 a       703     0    36     1     3
  2.2667802882560605E-02 a       704     0    36     1     4
 -5.4371709657137079E-01 a       705     0    36     1     5
  3.5122649629914493E-01 a       706     0    36     1     6
 -6.8095353017703128E-02 a       707     0    36     1     7
 -4.8254603112297223E-01 a       708     0    36     1     8
 -9.9298536709074819E-02 a       709     0    36     1     9
 -9.8076512181949060E-01 a       710     0    36     1    10
  9.9731383964157960E-01 a       711     0    36     1    11
  5.8203458627920635E-01 a       712     0    36     1    12
  6.7079415306054879E-01 a       713     0    36     1    13
 -1.1821265289122718E-01 a       714     0    36     1    14
 -7.5394915313087041E-01 a       715     0    36     1    15
 -4.0686270466716185E-01 a       716     0    36     1    16
 -1.3117571098010801E+00 a       717     0    36     1    17
  3.2193296551905937E-01 a       718     0    36     1    18
 -6.9425262035278124E-01 a       719     0    36     1    19
  3.0104947498522910E-01 a       720     0    36     1    20
  3.2385825017789827E-01 a       721     0    37     1     1
 -7.8713040783705557E-02 a       722     0    37     1     2
  2.8673544567149256E-01 a       723     0    37     1     3
 -2.3823000469081768E-01 a       724     0    37     1     4
  2.1173369078693977E-01 a       725     0    37     1     5
 -9.4185873020292588E-01 a       726     0    37     1     6
 -2.6783679762357127E-01 a       727     0    37     1     7
  2.1121616750247638E-01 a       728     0    37     1     8
  4.7224000936239414E-02 a       729     0    37     1     9
  2.6235909806480195E-01 a       730     0    37     1    10
 -5.7039031266218787E-02 a       731     0    37     1    11
 -8.2790850226962431E-01 a       732     0    37     1    12
 -1.5900217778040004E-01 a       733     0    37     1    13
 -1.4264516633399069E-01 a       734     0    37     1    14
 -6.9594666641445591E-01 a       735     0    37     1    15
 -1.8301272798315696E-01 a       736     0    37     1    16
 -5.4415443066497693E-01 a       737     0    37     1    17
  3.7471241237940983E-01 a       738     0    37     1    18
 -4.3320929361991012E-01 a       739     0    37     1    19
 -4.4831841927587252E-01 a       740     0    37     1    20
 -8.5482358930587796E-02 a       741     0    38     1     1
  2.5237212986222513E-01 a       742     0    38     1     2
 -8.8692072824120149E-01 a       743     0    38     1     3
 -5.5552917910647370E-01 a       744     0    38     1     4
  1.2397961229706396E-01 a       745     0    38     1     5
  1.2747144174141253E-01 a       746     0    38     1     6
  2.2528508575538356E-01 a       747     0    38     1     7
 -3.4737972788495514E-01 a       748     0    38     1     8
 -3.9786555395230699E-01 a       749     0    38     1     9
  3.8201473539934326E-02 a       750     0    38     1    10
  3.3776347968922669E-02 a       751     0    38     1    11
 -2.3942735856108013E-01 a       752     0    38     1    12
  3.2700284302181287E-01 a       753     0    38     1    13
 -2.0918970687723051E-01 a       754     0    38     1    14
  1.9839120725799408E-01 a       755     0    38     1    15
 -7.2723008068092926E-02 a       756     0    38     1    16
  1.5610877372244528E-01 a       757     0    38     1    17
  1.4037138849807620E-01 a       758     0    38     1    18
  5.9336689201063875E-01 a       759     0    38     1    19
 -3.5307037807168073E-01 a       760     0    38     1    20
 -3.0647889637614012E-01 a       761     0    39     1     1
 -6.9299722338108688E-02 a       762     0    39     1     2
  1.0357263750307841E-01 a       763     0    39     1     3
  5.5508763868926086E-02 a       764     0    39     1     4
  2.2606116750660449E-01 a       765     0    39     1     5
 -1.4088646036957131E+00 a       766     0    39     1     6
 -2.2450217832967123E-01 a       767     0    39     1     7
  1.9563303255808049E-02 a       768     0    39     1     8
  4.4481136411685565E-02 a       769     0    39     1     9
  2.7235875601652582E-01 a       770     0    39     1    10
 -4.8828615878793358E-01 a       771     0    39     1    11
 -1.1208645747887593E+00 a       772     0    39     1    12
 -1.4489024372300752E-01 a       773     0    39     1    13
  1.4029786126557739E-01 a       774     0    39     1    14
 -6.2877096533485144E-01 a       775     0    39     1    15
  4.7690915294755160E-01 a       776     0    39     1    16
 -4.9333121196463875E-01 a       777     0    39     1    17
 -2.7279626374867899E-01 a       778     0    39     1    18
 -2.4029068456006261E-01 a       779     0    39     1    19
 -5.2675343804837094E-01 a       780     0    39     1    20
 -6.3016213646077024E-01 a       781     0    40     1     1
  3.6364844249687067E-01 a       782     0    40     1     2
 -1.4742576885320244E-01 a       783     0    40     1     3
  2.4588726668760036E-01 a       784     0    40     1     4
 -6.1856396464230323E-01 a       785     0    40     1     5
  9.1420849572401464E-01 a       786     0    40     1     6
  1.9357030187102989E-01 a       787     0    40     1     7
  6.8528543924100349E-01 a       788     0    40     1     8
 -4.3976875673187060E-02 a       789     0    40     1     9
  1.5008906667214897E-01 a       790     0    40     1    10
 -4.0851966732719491E-01 a       791     0    40     1    11
  7.3183224373416766E-01 a       792     0    40     1    12
 -9.6909813251944921E-01 a       793     0    40     1    13
 -1.2698409398054231E-01 a       794     0    40     1    14
  9.8782291256474997E-01 a       795     0    40     1    15
  1.7389122973884635E-01 a       796     0    40     1    16
  1.0610692202245025E+00 a       797     0    40     1    17
 -1.5427017400279450E-01 a       798     0    40     1    18
  3.9972788869555620E-01 a       799     0    40     1    19
  2.2150268455417409E-02 a       800     0    40     1    20
  3.6523688414230848E-01 a       801     0    41     1     1
 -6.2946476611155364E-02 a       802     0    41     1     2
  3.5800249680083218E-02 a       803     0    41     1     3
  1.4269420932103913E-01 a       804     0    41     1     4
  1.6213671061159546E-01 a       805     0    41     1     5
 -2.3078472341695450E-01 a       806     0    41     1     6
  1.5376143897341085E-01 a       807     0    41     1     7
  1.1514521341213385E-01 a       808     0    41     1     8
 -2.5014052951305771E-01 a       809     0    41     1     9
 -1.2128514553282491E-01 a       810     0    41     1    10
 -6.0389341294092583E-02 a       811     0    41     1    11
  1.1261878885209686E-01 a       812     0    41     1    12
  1.4006137314475900E-01 a       813     0    41     1    13
  2.3748508982765364E-02 a       814     0    41     1    14
 -4.3162582652413406E-01 a       815     0    41     1    15
  8.2763955019600821E-02 a       816     0    41     1    16
 -6.0652780804933104E-01 a       817     0    41     1    17
 -1.3901724676670535E-01 a       818     0    41     1    18
  1.0303373797186501E-01 a       819     0    41     1    19
  1.3795013310127238E-02 a       820     0    41     1    20
  1.9470891148543210E-02 a       821     0    42     1     1
  1.6715595327927553E-02 a       822     0    42     1     2
  2.0323108408046173E-01 a       823     0    42     1     3
  2.4545390230754455E-01 a       824     0    42     1     4
 -9.8259026611094619E-02 a       825     0    42     1     5
  7.5078304586165628E-02 a       826     0    42     1     6
  1.4446466975794381E-01 a       827     0    42     1     7
 -3.9706818324115351E-01 a       828     0    42     1     8
 -2.1169850092655476E-01 a       829     0    42     1     9
 -1.9331514666212934E-01 a       830     0    42     1    10
 -4.4241835340558355E-01 a       831     0    42     1    11
 -3.9808554510478561E-01 a       832     0    42     1    12
  1.6206766064446826E-01 a       833     0    42     1    13
 -2.4201770072098308E-01 a       834     0    42     1    14
 -5.3111781642358880E-01 a       835     0    42     1    15
  6.9357164069078214E-02 a       836     0    42     1    16
 -3.7422836661855213E-01 a       837     0    42     1    17
  2.3910497382605961E-01 a       838     0    42     1    18
  1.3351708195531101E-01 a       839     0    42     1    19
  1.7554163342555446E-01 a       840     0    42     1    20
  1.0869360894665879E-01 a       841     0    43     1     1
  9.6784224715788895E-03 a       842     0    43     1     2
  3.1867147913961019E-01 a       843     0    43     1     3
  7.2752477406315602E-02 a       844     0    43     1     4
  5.0326393896113757E-02 a       845     0    43     1     5
 -8.5122612038393899E-02 a       846     0    43     1     6
 -1.4410315078693279E-02 a       847     0    43     1     7
  1.1454246846324260E-02 a       848     0    43     1     8
  2.3352511918966673E-01 a       849     0    43     1     9
 -1.0225109260139814E-01 a       850     0    43     1    10
 -1.5975663102043663E-02 a       851     0    43     1    11
  1.5958149870308108E-01 a       852     0    43     1    12
  1.9652358390565661E-02 a       853     0    43     1    13
  6.8369140096364526E-03 a       854     0    43     1    14
 -2.1349055908746833E-02 a       855     0    43     1    15
  7.2728788776669134E-02 a       856     0    43     1    16
  9.5996222574615847E-02 a       857     0    43     1    17
  3.0832031119507586E-01 a       858     0    43     1    18
 -1.6969642785198352E-01 a       859     0    43     1    19
  1.4002648962318379E-02 a       860     0    43     1    20
  7.1145191812027320E-01 a       861     0    44     1     1
  4.6759746256373143E-02 a       862     0    44     1     2
 -5.3659907141902996E-01 a       863     0    44     1     3
 -2.1035152155053613E-01 a       864     0    44     1     4
  8.6282240670333410E-02 a       865     0    44     1     5
 -2.8732315484329446E-01 a       866     0    44     1     6
 -2.6149207001744007E-01 a       867     0    44     1     7
  2.0937521647976565E-01 a       868     0    44     1     8
  9.1224558145905110E-01 a       869     0    44     1     9
  2.8584149778531476E-01 a       870     0    44     1    10
  8.1320755293938063E-01 a       871     0    44     1    11
  6.5477432860708196E-01 a       872     0    44     1    12
 -3.1236625087960151E-01 a       873     0    44     1    13
  7.9531255464741824E-01 a       874     0    44     1    14
  6.8431292396859122E-01 a       875     0    44     1    15
 -3.2699426507233004E-01 a       876     0    44     1    16
  4.5237533407366193E-01 a       877     0    44     1    17
 -3.7778014511708419E-01 a       878     0    44     1    18
 -1.9705176672240166E-01 a       879     0    44     1    19
  5.2478152797196288E-02 a       880     0    44     1    20
 -6.5928514688123230E-01 a       881     0    45     1     1
 -5.4837917606389508E-01 a       882     0    45     1     2
  1.9181270980694998E-01 a       883     0    45     1     3
  5.6465929178031393E-01 a       884     0    45     1     4
 -1.2201784183426792E-01 a       885     0    45     1     5
 -3.6320038462675913E-01 a       886     0    45     1     6
 -7.7086494752583140E-02 a       887     0    45     1     7
  1.0062220253592005E+00 a       888     0    45     1     8
 -9.2314298523928917E-02 a       889     0    45     1     9
  4.0144757947710691E-01 a       890     0    45     1    10
 -2.1086374334724198E-01 a       891     0    45     1    11
 -8.6890851640333810E-01 a       892     0    45     1    12
 -9.6741595400610991E-01 a       893     0    45     1    13
  3.3208972543838949E-01 a       894     0    45     1    14
 -3.2786284369364038E-01 a       895     0    45     1    15
  6.3842817286949349E-02 a       896     0    45     1    16
  2.4398835953000281E-01 a       897     0    45     1    17
  4.7317883925215842E-01 a       898     0    45     1    18
  3.4085537387043024E-01 a       899     0    45     1    19
 -1.6723454033360102E-01 a       900     0    45     1    20
 -2.2269193621570327E-01 a       901     0    46     1     1
  2.3178673955948619E-02 a       902     0    46     1     2
  4.5918360568801941E-02 a       903     0    46     1     3
 -1.1233075546977476E+00 a       904     0    46     1     4
  1.9268132273122537E-01 a       905     0    46     1     5
  1.1602557310443216E+00 a       906     0    46     1     6
 -3.4186520365589013E-01 a       907     0    46     1     7
  1.5939136230285977E-01 a       908     0    46     1     8
  9.0618777037859505E-02 a       909     0    46     1     9
 -4.0709791034345127E-01 a       910     0    46     1    10
 -1.0539296251140158E+00 a       911     0    46     1    11
  6.9820139744356191E-01 a       912     0    46     1    12
  4.4397718150095000E-01 a       913     0    46     1    13
  3.2104109374263411E-02 a       914     0    46     1    14
  1.6186292286740407E+00 a       915     0    46     1    15
  4.9441847228166474E-01 a       916     0    46     1    16
  9.6711775961316082E-01 a       917     0    46     1    17
 -6.8567902222364152E-01 a       918     0    46     1    18
 -1.9519271212971737E-01 a       919     0    46     1    19
 -1.5813322746415759E-01 a       920     0    46     1    20
  6.0316508591952323E-01 a       921     0    47     1     1
 -4.5159301069978031E-01 a       922     0    47     1     2
 -5.1937536070165058E-01 a       923     0    47     1     3
 -9.3027964387307216E-01 a       924     0    47     1     4
  4.5516369773675386E-01 a       925     0    47     1     5
 -4.8371720705051857E-01 a       926     0    47     1     6
  4.2811331401444280E-01 a       927     0    47     1     7
 -1.9279822796221974E-01 a       928     0    47     1     8
 -2.5485943174558195E-02 a       929     0    47     1     9
  6.6410306486103643E-01 a       930     0    47     1    10
  1.9952281997681678E-01 a       931     0    47     1    11
  7.6741485146964661E-01 a       932     0    47     1    12
  6.7434975300288080E-01 a       933     0    47     1    13
 -6.3211168325273559E-01 a       934     0    47     1    14
  6.3455477421750495E-01 a       935     0    47     1    15
 -6.7457504757464970E-01 a       936     0    47     1    16
 -7.2086136972078962E-01 a       937     0    47     1    17
  3.6422081387031652E-01 a       938     0    47     1    18
 -1.0104947205203520E-01 a       939     0    47     1    19
  4.2723173877144127E-01 a       940     0    47     1    20
  1.1778188470446282E-01 a       941     0    48     1     1
 -1.6992490738381136E-01 a       942     0    48     1     2
 -2.0694647380820788E-01 a       943     0    48     1     3
  8.1235317472805491E-01 a       944     0    48     1     4
  7.9454077052753244E-02 a       945     0    48     1     5
 -3.0251029066689011E-01 a       946     0    48     1     6
 -3.2246994574106880E-01 a       947     0    48     1     7
 -2.0297858927243972E-01 a       948     0    48     1     8
  4.8238064324657787E-01 a       949     0    48     1     9
 -4.2737633830230226E-01 a       950     0    48     1    10
  6.9030729468990482E-01 a       951     0    48     1    11
 -1.0127383229805909E-01 a       952     0    48     1    12
  9.3461567965185968E-02 a       953     0    48     1    13
 -2.6101606970472024E-01 a       954     0    48     1    14
 -5.5971553710758015E-01 a       955     0    48     1    15
  1.2298667201839404E-02 a       956     0    48     1    16
  2.3873201303384986E-01 a       957     0    48     1    17
 -1.4677602066957821E-01 a       958     0    48     1    18
 -3.0950656819602951E-01 a       959     0    48     1    19
  1.4458102744569806E-01 a       960     0    48     1    20
 -2.0087402250288811E-01 a       961     0    49     1     1
 -4.6954683798091190E-01 a       962     0    49     1     2
 -4.5296306511179198E-03 a       963     0    49     1     3
  1.6945889262003071E+00 a       964     0    49     1     4
 -3.5191188786726069E-01 a       965     0    49     1     5
 -1.5777369100055161E+00 a       966     0    49     1     6
  1.8553770662374947E-01 a       967     0    49     1     7
 -4.5397386026747649E-01 a       968     0    49     1     8
 -2.8148187740974728E-01 a       969     0    49     1     9
  8.7929822613425079E-01 a       970     0    49     1    10
 -4.6160479888610317E-01 a       971     0    49     1    11
 -3.1354637504526212E-01 a       972     0    49     1    12
 -1.1623797334658081E+00 a       973     0    49     1    13
  1.8713398336788334E-01 a       974     0    49     1    14
 -1.3091214538911768E+00 a       975     0    49     1    15
  2.8013883319631760E-01 a       976     0    49     1    16
 -2.9213740909162973E-02 a       977     0    49     1    17
  6.0879539002420380E-01 a       978     0    49     1    18
  6.4240707100520003E-02 a       979     0    49     1    19
 -2.1194931092993738E-01 a       980     0    49     1    20
  6.6057246007599213E-01 a       981     0    50     1     1
  5.5161866892469602E-01 a       982     0    50     1     2
  8.3176180888926601E-02 a       983     0    50     1     3
 -5.8855311966361357E-01 a       984     0    50     1     4
  1.3209944948023594E-01 a       985     0    50     1     5
  2.8060695472055324E+00 a       986     0    50     1     6
  5.4722722154617476E-01 a       987     0    50     1     7
  3.7329398614126590E-02 a       988     0    50     1     8
  4.1514523853584378E-03 a       989     0    50     1     9
 -8.2172270030204975E-01 a       990     0    50     1    10
  2.0113139001723315E-04 a       991     0    50     1    11
  8.4514706857744260E-02 a       992     0    50     1    12
  5.5402475546695962E-01 a       993     0    50     1    13
  4.7896164894028315E-01 a       994     0    50     1    14
  1.6292856445857591E+00 a       995     0    50     1    15
  2.0180194272181004E-01 a       996     0    50     1    16
  1.4372261087942539E+00 a       997     0    50     1    17
 -1.2720862044112877E+00 a       998     0    50     1    18
  8.0015444395260060E-01 a       999     0    50     1    19
  9.2541668595593018E-01 a      1000     0    50     1    20
  3.7809750278696452E-01 a      1001     0    51     1     1
 -9.4558083215499182E-03 a      1002     0    51     1     2
  4.6684656915868078E-01 a      1003     0    51     1     3
  1.0958443099654228E-01 a      1004     0    51     1     4
  1.7155986226189943E-01 a      1005     0    51     1     5
 -2.5541293534675413E-01 a      1006     0    51     1     6
 -1.8125990545751999E-01 a      1007     0    51     1     7
 -1.5312602524863281E-01 a      1008     0    51     1     8
 -1.5126427343098242E-01 a      1009     0    51     1     9
  5.3947828107369838E-02 a      1010     0    51     1    10
  2.7745028668565591E-01 a      1011     0    51     1    11
  4.0885327396102000E-01 a      1012     0    51     1    12
  3.5855391517464569E-01 a      1013     0    51     1    13
 -1.2173732107068636E-01 a      1014     0    51     1    14
 -6.6641396406168796E-01 a      1015     0    51     1    15
 -6.4146933047688606E-02 a      1016     0    51     1    16
 -7.1447890343084214E-02 a      1017     0    51     1    17
  4.4328548643716503E-01 a      1018     0    51     1    18
  4.6821148228999077E-01 a      1019     0    51     1    19
 -6.6832802730621602E-02 a      1020     0    51     1    20
  9.5706630912849561E-02 b      1021     1     1
 -4.7416724497175500E-01 b      1022     1     2
 -1.5447353733649480E+00 b      1023     1     3
  1.0866171200246300E+00 b      1024     1     4
  1.2899718377989815E+00 b      1025     1     5
  1.1480483970139167E-01 b      1026     1     6
 -4.2693246958789327E-01 b      1027     1     7
 -8.6125400829244247E-01 b      1028     1     8
 -5.6202887767919307E-01 b      1029     1     9
 -7.4478211337845412E-01 b      1030     1    10
 -4.1623369328444471E-01 b      1031     1    11
  7.5604386350911901E-01 b      1032     1    12
  6.2868785703166855E-02 b      1033     1    13
 -6.7103645316310234E-01 b      1034     1    14
 -7.8313639697099657E-01 b      1035     1    15
 -1.0298535789486778E+00 b      1036     1    16
 -7.0335393127202739E-01 b      1037     1    17
  9.9006602477213579E-01 b      1038     1    18
  1.5316383835602472E+00 b      1039     1    19
  7.4976124351519235E-02 b      1040     1    20
  3.0445013398574711E-01 a      1041     1     1     2     1
 -6.7805168788497794E-01 a      1042     1     1     2     2
  4.9223673388568362E-01 a      1043     1     1     2     3
  5.9088814396659184E-01 a      1044     1     1     2     4
  3.1003909263910698E-02 a      1045     1     1     2     5
  5.3792325010133479E-01 a      1046     1     1     2     6
  1.8596895031726823E-01 a      1047     1     1     2     7
  3.4775238165052416E-02 a      1048     1     1     2     8
  6.1614782108312238E-01 a      1049     1     1     2     9
 -3.7787748816798361E-01 a      1050     1     1     2    10
 -6.5245039241596900E-02 a      1051     1     1     2    11
 -9.8063231071865847E-02 a      1052     1     1     2    12
 -3.2075562106771024E-02 a      1053     1     1     2    13
 -1.2382533733279659E+00 a      1054     1     1     2    14
  1.0765937768734311E-01 a      1055     1     1     2    15
  1.4459204580778573E-01 a      1056     1     1     2    16
 -2.7037336938013945E-01 a      1057     1     1     2    17
 -6.4721686399541634E-01 a      1058     1     1     2    18
  4.8513155894872706E-01 a      1059     1     1     2    19
  6.1706559556353724E-01 a      1060     1     1     2    20
  3.3526839509573420E-01 a      1061     1     2     2     1
  4.3427653559488893E-01 a      1062     1     2     2     2
 -9.1640984871652648E-02 a      1063     1     2     2     3
  1.2565328183435243E-01 a      1064     1     2     2     4
 -1.2553011514263843E-01 a      1065     1     2     2     5
 -5.7285457027948421E-03 a      1066     1     2     2     6
  8.1750733264317565E-01 a      1067     1     2     2     7
  7.5168576245957922E-02 a      1068     1     2     2     8
  8.7117185684790399E-01 a      1069     1     2     2     9
 -1.5683050453970718E-01 a      1070     1     2     2    10
  5.9851847009939510E-04 a      1071     1     2     2    11
  3.4504977559063156E-02 a      1072     1     2     2    12
  3.1997735947210709E-01 a      1073     1     2     2    13
  8.2885271235207469E-01 a      1074     1     2     2    14
 -5.7404988102217842E-02 a      1075     1     2     2    15
 -3.1790133949983040E-01 a      1076     1     2     2    16
  2.1143206338229942E-01 a      1077     1     2     2    17
 -4.3204304185239462E-01 a      1078     1     2     2    18
  5.6735767072624621E-01 a      1079     1     2     2    19
 -3.7908015917094978E-01 a      1080     1     2     2    20
 -7.3084052160030322E-01 a      1081     1     3     2     1
  4.2666906204021393E-01 a      1082     1     3     2     2
  7.3727098349919573E-01 a      1083     1     3     2     3
 -7.0870373077012339E-01 a      1084     1     3     2     4
 -5.5289362655101448E-01 a      1085     1     3     2     5
  6.1261383745565667E-02 a      1086     1     3     2     6
 -1.3673982302350347E+00 a      1087     1     3     2     7
  7.9927976728650874E-01 a      1088     1     3     2     8
 -4.6978194749542024E-01 a      1089     1     3     2     9
 -3.7849176080929497E-01 a      1090     1     3     2    10
  1.0205060006567770E+00 a      1091     1     3     2    11
  2.0147840408168916E-01 a      1092     1     3     2    12
  7.2237556709358941E-01 a      1093     1     3     2    13
 -3.4105689883295226E-01 a      1094     1     3     2    14
  1.3258566598131069E-01 a      1095     1     3     2    15
 -7.3574376106982353E-01 a      1096     1     3     2    16
 -1.0853588358769268E+00 a      1097     1     3     2    17
  5.9635299407237630E-01 a      1098     1     3     2    18
  9.6251739309651294E-02 a      1099     1     3     2    19
  2.6676524841461585E-01 a      1100     1     3     2    20
  3.5183282821160133E-01 a      1101     1     4     2     1
 -2.1154048710855441E-01 a      1102     1     4     2     2
 -1.0761800494322056E-01 a      1103     1     4     2     3
  3.2828457591630700E-01 a      1104     1     4     2     4
  6.5719864940174921E-01 a      1105     1     4     2     5
  2.4573760864838054E-01 a      1106     1     4     2     6
 -4.4112409324274166E-01 a      1107     1     4     2     7
  4.6017265133386714E-01 a      1108     1     4     2     8
 -1.6837291022486198E-02 a      1109     1     4     2     9
  1.6356961129813230E-01 a      1110     1     4     2    10
  6.7136066931450600E-01 a      1111     1     4     2    11
  5.4734438360384030E-01 a      1112     1     4     2    12
 -3.0868853467963514E-01 a      1113     1     4     2    13
  1.5896847049417431E-01 a      1114     1     4     2    14
 -8.0091145840422295E-01 a      1115     1     4     2    15
 -1.4487067817473304E-01 a      1116     1     4     2    16
 -1.0781078723074995E-01 a      1117     1     4     2    17
 -4.2640468594244835E-01 a      1118     1     4     2    18
 -6.0810490302660825E-01 a      1119     1     4     2    19
  3.6796653648135230E-01 a      1120     1     4     2    20
 -2.0023564246826830E-01 a      1121     1     5     2     1
 -5.7422467147982692E-01 a      1122     1     5     2     2
 -4.4312308276556545E-01 a      1123     1     5     2     3
  5.3595719750054271E-01 a      1124     1     5     2     4
  1.1934499392254831E+00 a      1125     1     5     2     5
  6.6784582296452255E-01 a      1126     1     5     2     6
 -3.4422191932620444E-01 a      1127     1     5     2     7
 -6.2804894855943663E-02 a      1128     1     5     2     8
  4.7240202088913269E-01 a      1129     1     5     2     9
 -7.5956129296505226E-01 a      1130     1     5     2    10
 -2.7959248708359330E-01 a      1131     1     5     2    11
 -5.0462783391497701E-01 a      1132     1     5     2    12
 -1.0199484033375816E+00 a      1133     1     5     2    13
 -6.4353832602695990E-02 a      1134     1     5     2    14
 -6.7324924507411732E-02 a      1135     1     5     2    15
 -1.8184138165707023E-01 a      1136     1     5     2    16
  6.0812937167343672E-01 a      1137     1     5     2    17
  1.9536990520619202E-01 a      1138     1     5     2    18
  3.3594347192042845E-01 a      1139     1     5     2    19
 -1.6152325063162523E-01 a      1140     1     5     2    20
  1.2421846889263357E+00 a      1141     1     6     2     1
  3.3226032851171838E-01 a      1142     1     6     2     2
 -7.9082247362150374E-02 a      1143     1     6     2     3
  1.0419912918804501E-02 a      1144     1     6     2     4
  6.6555167949399852E-01 a      1145     1     6     2     5
  2.5611329976737623E-01 a      1146     1     6     2     6
  2.3425941678422715E-01 a      1147     1     6     2     7
  7.1633592108934951E-01 a      1148     1     6     2     8
  5.9315751908002778E-01 a      1149     1     6     2     9
 -7.5210764445545020E-01 a      1150     1     6     2    10
 -6.9016108740230819E-01 a      1151     1     6     2    11
  4.4961541610920759E-02 a      1152     1     6     2    12
 -3.1650781420291962E-01 a      1153     1     6     2    13
 -5.7209415790300122E-01 a      1154     1     6     2    14
 -4.0879899874636333E-01 a      1155     1     6     2    15
  6.7637180944377553E-02 a      1156     1     6     2    16
 -5.4952847965069473E-01 a      1157     1     6     2    17
 -2.7240978591467413E-01 a      1158     1     6     2    18
 -1.5399679496739207E-02 a      1159     1     6     2    19
 -9.8145665090644957E-03 a      1160     1     6     2    20
 -1.0450925495292218E-01 a      1161     1     7     2     1
  5.1149984465169585E-01 a      1162     1     7     2     2
  7.4180925488326555E-02 a      1163     1     7     2     3
  4.1491168902663071E-02 a      1164     1     7     2     4
 -5.5893380133388171E-01 a      1165     1     7     2     5
  8.6322781132968679E-02 a      1166     1     7     2     6
  3.5891833877102880E-01 a      1167     1     7     2     7
 -1.9014348745805490E-01 a      1168     1     7     2     8
 -2.3097620079704612E-01 a      1169     1     7     2     9
  3.2757134258356252E-01 a      1170     1     7     2    10
 -5.4664921400799510E-02 a      1171     1     7     2    11
 -3.6649692511425508E-01 a      1172     1     7     2    12
 -3.9543799577519645E-01 a      1173     1     7     2    13
 -1.5836212170037350E-01 a      1174     1     7     2    14
  1.9025318309866887E-01 a      1175     1     7     2    15
  2.1803617212403587E-01 a      1176     1     7     2    16
 -2.6488312887846803E-02 a      1177     1     7     2    17
  5.0036474817874736E-03 a      1178     1     7     2    18
  3.6793684916271036E-01 a      1179     1     7     2    19
 -4.9302091581327379E-01 a      1180     1     7     2    20
  3.9244581226469177E-01 a      1181     1     8     2     1
  3.9074047738207002E-01 a      1182     1     8     2     2
  1.8768678566788261E-01 a      1183     1     8     2     3
 -2.1366571665365517E-02 a      1184     1     8     2     4
  4.6065737486669051E-01 a      1185     1     8     2     5
  1.1622552240149558E-01 a      1186     1     8     2     6
  7.5606964452671799E-01 a      1187     1     8     2     7
  4.2410842638573021E-01 a      1188     1     8     2     8
 -7.4631416187669969E-02 a      1189     1     8     2     9
 -4.2982891830105667E-02 a      1190     1     8     2    10
 -9.7313325501746512E-02 a      1191     1     8     2    11
 -4.2294925175071235E-01 a      1192     1     8     2    12
  1.9784273547650880E-01 a      1193     1     8     2    13
  5.2536353055144214E-01 a      1194     1     8     2    14
 -5.2449662337071057E-01 a      1195     1     8     2    15
 -2.7479321399566020E-01 a      1196     1     8     2    16
  9.2320516086665927E-01 a      1197     1     8     2    17
  4.9408603860703998E-01 a      1198     1     8     2    18
  3.0543487436653582E-01 a      1199     1     8     2    19
  2.9791832536402951E-01 a      1200     1     8     2    20
 -5.9498258658277306E-02 a      1201     1     9     2     1
 -5.0815824198850201E-01 a      1202     1     9     2     2
 -5.9365784711871972E-01 a      1203     1     9     2     3
 -4.3213534745646021E-01 a      1204     1     9     2     4
  3.0143157204429338E-01 a      1205     1     9     2     5
 -2.8239293167956048E-01 a      1206     1     9     2     6
 -2.6068699504155352E-01 a      1207     1     9     2     7
 -7.4259622982610396E-01 a      1208     1     9     2     8
 -1.9672128045798033E-02 a      1209     1     9     2     9
  1.5346268532357568E-01 a      1210     1     9     2    10
 -1.0368010652118771E-01 a      1211     1     9     2    11
  4.2390622218107704E-01 a      1212     1     9     2    12
 -2.0325893196013553E-01 a      1213     1     9     2    13
 -8.3295468996284358E-02 a      1214     1     9     2    14
  2.5375086339802527E-01 a      1215     1     9     2    15
  3.2029458976900399E-01 a      1216     1     9     2    16
  1.8355169223673570E-01 a      1217     1     9     2    17
  4.0693102201989778E-01 a      1218     1     9     2    18
 -4.1815176230996659E-01 a      1219     1     9     2    19
 -5.1493226523984725E-01 a      1220     1     9     2    20
 -5.3431033887575552E-01 a      1221     1    10     2     1
  2.8755546044206259E-01 a      1222     1    10     2     2
  1.8763345811904147E-01 a      1223     1    10     2     3
  1.0002319893042459E-01 a      1224     1    10     2     4
 -6.5916157976340473E-01 a      1225     1    10     2     5
 -3.5890727730582472E-01 a      1226     1    10     2     6
 -2.6514804042239115E-01 a      1227     1    10     2     7
 -1.0870606377823330E-01 a      1228     1    10     2     8
 -2.3676028036855304E-01 a      1229     1    10     2     9
  9.3027851302662601E-01 a      1230     1    10     2    10
  3.1791889001112317E-01 a      1231     1    10     2    11
 -3.8220285637494622E-01 a      1232     1    10     2    12
  9.6809250345184755E-02 a      1233     1    10     2    13
 -5.1308715985994269E-01 a      1234     1    10     2    14
  3.1448005009749969E-01 a      1235     1    10     2    15
 -7.1153032700256635E-01 a      1236     1    10     2    16
 -1.5493809670140486E-02 a      1237     1    10     2    17
  4.0255257703681796E-02 a      1238     1    10     2    18
 -7.9391381341399292E-01 a      1239     1    10     2    19
 -9.4169405336675915E-01 a      1240     1    10     2    20
 -6.0961187949092088E-01 a      1241     1    11     2     1
  1.2478959135413163E-01 a      1242     1    11     2     2
  5.1035792064369556E-01 a      1243     1    11     2     3
  2.9293004235253300E-01 a      1244     1    11     2     4
  1.8268077165042345E-02 a      1245     1    11     2     5
  2.9954813316677759E-01 a      1246     1    11     2     6
  6.9004756510927301E-01 a      1247     1    11     2     7
  3.0883821275765533E-01 a      1248     1    11     2     8
 -6.5385015802995128E-01 a      1249     1    11     2     9
 -3.1672512062634695E-01 a      1250     1    11     2    10
 -2.9273491031623117E-01 a      1251     1    11     2    11
 -2.8429539366052864E-01 a      1252     1    11     2    12
 -3.3231498719828045E-01 a      1253     1    11     2    13
  3.0852720457499661E-01 a      1254     1    11     2    14
 -8.3644111508843788E-01 a      1255     1    11     2    15
 -2.3489522319213907E-01 a      1256     1    11     2    16
 -4.0985768968598812E-01 a      1257     1    11     2    17
  5.9280973009353644E-01 a      1258     1    11     2    18
  4.1646792198398447E-01 a      1259     1    11     2    19
 -7.3044669149068242E-01 a      1260     1    11     2    20
  2.5828479049469089E-01 a      1261     1    12     2     1
 -3.4635785921541241E-02 a      1262     1    12     2     2
  8.1436445228432863E-01 a      1263     1    12     2     3
  2.1120690051534607E-01 a      1264     1    12     2     4
 -4.6176434330760874E-01 a      1265     1    12     2     5
 -5.8490446162157317E-01 a      1266     1    12     2     6
 -9.4330122654823229E-03 a      1267     1    12     2     7
 -5.9955924708730912E-01 a      1268     1    12     2     8
  6.6445602247792446E-01 a      1269     1    12     2     9
 -3.5205696672577819E-01 a      1270     1    12     2    10
 -3.6736814705393528E-01 a      1271     1    12     2    11
 -1.6046616342873748E-01 a      1272     1    12     2    12
  2.2822914938673522E-01 a      1273     1    12     2    13
 -1.2283312500322172E+00 a      1274     1    12     2    14
 -2.9639053157918666E-02 a      1275     1    12     2    15
 -1.2648241669374280E-01 a      1276     1    12     2    16
  3.1604019791341559E-01 a      1277     1    12     2    17
  4.9506542891978278E-01 a      1278     1    12     2    18
 -7.4140778865219237E-01 a      1279     1    12     2    19
  1.7247029877458360E-02 a      1280     1    12     2    20
  1.9114316417846104E-02 a      1281     1    13     2     1
 -6.9344803557709944E-02 a      1282     1    13     2     2
 -1.0401171947698112E-01 a      1283     1    13     2     3
  8.7415871509756313E-02 a      1284     1    13     2     4
  5.2357910507623584E-01 a      1285     1    13     2     5
  7.5968071762995870E-01 a      1286     1    13     2     6
  6.7841322465411344E-02 a      1287     1    13     2     7
 -2.9093759494274792E-02 a      1288     1    13     2     8
  3.3035715044571357E-01 a      1289     1    13     2     9
  1.9256906364836479E-01 a      1290     1    13     2    10
 -7.3839513586949512E-01 a      1291     1    13     2    11
 -2.6959050222099556E-01 a      1292     1    13     2    12
 -7.4035987955629790E-01 a      1293     1    13     2    13
  6.1289720856145102E-01 a      1294     1    13     2    14
 -1.5808858014542776E-01 a      1295     1    13     2    15
 -1.0271909200936750E-03 a      1296     1    13     2    16
  2.0927644319163753E-02 a      1297     1    13     2    17
  1.2048993422943040E+00 a      1298     1    13     2    18
  7.9220100117946501E-01 a      1299     1    13     2    19
  1.4921918802528859E-02 a      1300     1    13     2    20
 -4.3876203764686111E-01 a      1301     1    14     2     1
  3.6950801487562812E-01 a      1302     1    14     2     2
 -1.0909661096797936E+00 a      1303     1    14     2     3
  2.6288276734936061E-01 a      1304     1    14     2     4
 -9.7065361853027651E-02 a      1305     1    14     2     5
  6.9527547802472778E-01 a      1306     1    14     2     6
  1.0065033091097755E-01 a      1307     1    14     2     7
  1.9749852321059586E-01 a      1308     1    14     2     8
  1.4458243235165610E-01 a      1309     1    14     2     9
 -2.5280036200293016E-01 a      1310     1    14     2    10
  7.6728695125163815E-01 a      1311     1    14     2    11
 -4.9020320514026555E-01 a      1312     1    14     2    12
 -2.3744282164743605E-01 a      1313     1    14     2    13
 -1.4358500621812753E-01 a      1314     1    14     2    14
  8.6526323484547785E-01 a      1315     1    14     2    15
  4.8140574600286490E-01 a      1316     1    14     2    16
 -3.0461720839059081E-01 a      1317     1    14     2    17
  6.3172755127843416E-01 a      1318     1    14     2    18
 -7.8423016345170918E-02 a      1319     1    14     2    19
  5.7507652454488367E-01 a      1320     1    14     2    20
  6.5938546636424500E-01 a      1321     1    15     2     1
 -6.5609493673332586E-01 a      1322     1    15     2     2
  9.0819984514845209E-01 a      1323     1    15     2     3
 -4.4677343102393191E-01 a      1324     1    15     2     4
  3.0304857513341210E-01 a      1325     1    15     2     5
  2.7896483745821171E-01 a      1326     1    15     2     6
 -6.9544207188141349E-01 a      1327     1    15     2     7
 -8.5992458647632597E-01 a      1328     1    15     2     8
 -1.4605729987813099E-01 a      1329     1    15     2     9
 -2.4303908942812424E-01 a      1330     1    15     2    10
 -8.9628588826319033E-01 a      1331     1    15     2    11
 -3.0713976636623136E-01 a      1332     1    15     2    12
  8.9782785817172722E-02 a      1333     1    15     2    13
  7.6120109187154950E-01 a      1334     1    15     2    14
 -9.2203586168267501E-02 a      1335     1    15     2    15
 -2.1493810434243038E-01 a      1336     1    15     2    16
  2.1838838936885077E-01 a      1337     1    15     2    17
 -3.9271709531988580E-01 a      1338     1    15     2    18
  5.5889654206120942E-01 a      1339     1    15     2    19
  1.8835760263986190E-01 a      1340     1    15     2    20
  5.7553378154487478E-01 a      1341     1    16     2     1
  3.3246780174390916E-01 a      1342     1    16     2     2
  2.5392222763749719E-02 a      1343     1    16     2     3
 -5.6655969837405185E-01 a      1344     1    16     2     4
  2.3411518713023610E-01 a      1345     1    16     2     5
  9.6533047096934305E-02 a      1346     1    16     2     6
  2.6763662120413236E-02 a      1347     1    16     2     7
  1.1204676847403625E+00 a      1348     1    16     2     8
  7.7019263636601137E-02 a      1349     1    16     2     9
  8.8579270444605407E-01 a      1350     1    16     2    10
  2.0499088376173752E-01 a      1351     1    16     2    11
 -5.9874831381601490E-01 a      1352     1    16     2    12
  1.5871209609626385E-01 a      1353     1    16     2    13
  3.9307795457301331E-01 a      1354     1    16     2    14
  4.6515140037534514E-01 a      1355     1    16     2    15
 -1.8937111281843125E-01 a      1356     1    16     2    16
 -8.7673664576109156E-01 a      1357     1    16     2    17
  7.4094668622996418E-01 a      1358     1    16     2    18
 -2.7051674863313108E-01 a      1359     1    16     2    19
 -2.1500944360000426E-01 a      1360     1    16     2    20
  1.9615122150415895E-01 a      1361     1    17     2     1
  5.8050578405825626E-01 a      1362     1    17     2     2
  4.4498159141714982E-01 a      1363     1    17     2     3
 -1.0528683101561438E-01 a      1364     1    17     2     4
 -7.5826002306726337E-01 a      1365     1    17     2     5
  6.8384563685487372E-03 a      1366     1    17     2     6
  2.7966019993741392E-01 a      1367     1    17     2     7
 -1.7859143903096605E-01 a      1368     1    17     2     8
 -4.5197367862283136E-02 a      1369     1    17     2     9
  7.3488482120068743E-01 a      1370     1    17     2    10
 -1.5460199586583503E-01 a      1371     1    17     2    11
 -3.0723455788909559E-01 a      1372     1    17     2    12
 -3.3539798411998062E-01 a      1373     1    17     2    13
  1.3413598848333366E-02 a      1374     1    17     2    14
  3.4745748337784660E-01 a      1375     1    17     2    15
  8.4266835513280812E-04 a      1376     1    17     2    16
  1.9385332491060334E-01 a      1377     1    17     2    17
 -2.5278468685032734E-01 a      1378     1    17     2    18
  3.4104559668730244E-01 a      1379     1    17     2    19
 -6.2738010092955609E-01 a      1380     1    17     2    20
 -9.3235694384118961E-01 a      1381     1    18     2     1
  1.1179795069730218E-01 a      1382     1    18     2     2
 -5.3467905359987666E-01 a      1383     1    18     2     3
  9.9841297799396891E-02 a      1384     1    18     2     4
 -2.5697125918639524E-01 a      1385     1    18     2     5
  4.3540456217205342E-01 a      1386     1    18     2     6
 -6.4287957924681738E-01 a      1387     1    18     2     7
 -8.8351863235541739E-01 a      1388     1    18     2     8
 -6.3526352493862781E-01 a      1389     1    18     2     9
  2.8591169917909304E-01 a      1390     1    18     2    10
  1.4541005919388705E+00 a      1391     1    18     2    11
  5.0007361640503989E-01 a      1392     1    18     2    12
  1.0011269332697827E+00 a      1393     1    18     2    13
 -5.5724508699290987E-01 a      1394     1    18     2    14
  3.9033683225841237E-01 a      1395     1    18     2    15
  3.9646246985802558E-01 a      1396     1    18     2    16
  4.4702961470501973E-01 a      1397     1    18     2    17
 -2.4452162596216270E-02 a      1398     1    18     2    18
  2.3027529400297352E-02 a      1399     1    18     2    19
 -3.5006649133122425E-01 a      1400     1    18     2    20
  2.3256615291667193E-01 a      1401     1    19     2     1
  2.1644909925417047E-01 a      1402     1    19     2     2
 -1.0628192570663362E+00 a      1403     1    19     2     3
  7.7014637747473991E-01 a      1404     1    19     2     4
 -6.8487001266040004E-01 a      1405     1    19     2     5
  1.2661257365102858E-02 a      1406     1    19     2     6
  9.2500658231135409E-03 a      1407     1    19     2     7
 -2.3125644962846262E-01 a      1408     1    19     2     8
  1.9228645222847970E-01 a      1409     1    19     2     9
  6.4580135369741076E-01 a      1410     1    19     2    10
  5.1789306651382361E-01 a      1411     1    19     2    11
  1.9433808466763433E-01 a      1412     1    19     2    12
 -1.7637606762360411E-01 a      1413     1    19     2    13
 -2.4259332024385731E-02 a      1414     1    19     2    14
  1.3107574961733501E-01 a      1415     1    19     2    15
  8.1308766915791753E-01 a      1416     1    19     2    16
 -2.6768076823334719E-01 a      1417     1    19     2    17
  3.7080063212434705E-01 a      1418     1    19     2    18
  8.3197502141447655E-01 a      1419     1    19     2    19
 -3.8255984946654492E-01 a      1420     1    19     2    20
  8.4798739779675070E-01 a      1421     1    20     2     1
  6.7816450586736388E-01 a      1422     1    20     2     2
 -6.4899759725812556E-01 a      1423     1    20     2     3
 -5.4630402283632973E-02 a      1424     1    20     2     4
 -2.3633851427471161E-01 a      1425     1    20     2     5
 -5.1257622094832977E-01 a      1426     1    20     2     6
  5.5219594848335174E-01 a      1427     1    20     2     7
 -2.0983225201862566E-02 a      1428     1    20     2     8
  5.2775387607554092E-01 a      1429     1    20     2     9
 -6.4448199725534494E-01 a      1430     1    20     2    10
 -8.0995140850245928E-01 a      1431     1    20     2    11
  5.9876417293299906E-02 a      1432     1    20     2    12
 -2.0411459994605499E-01 a      1433     1    20     2    13
 -1.0745427647225050E-01 a      1434     1    20     2    14
 -2.5427209974760911E-01 a      1435     1    20     2    15
  5.9117056984758931E-01 a      1436     1    20     2    16
 -4.8948765664533614E-02 a      1437     1    20     2    17
  6.1338157101956869E-01 a      1438     1    20     2    18
  2.1798071989994156E-01 a      1439     1    20     2    19
 -8.7605834602979094E-01 a      1440     1    20     2    20
 -5.4820563569224201E-01 b      1441     2     1
 -1.8635240844383629E+00 b      1442     2     2
 -6.4173236599249794E-01 b      1443     2     3
  1.2284796762760735E+00 b      1444     2     4
 -1.7130736818979925E-01 b      1445     2     5
 -6.3330506196559710E-01 b      1446     2     6
 -7.8356660893044938E-01 b      1447     2     7
 -9.6219044143768573E-01 b      1448     2     8
 -9.8443155596257037E-01 b      1449     2     9
 -8.2615049034837451E-01 b      1450     2    10
 -6.8967671341204617E-01 b      1451     2    11
  1.5065115521256278E+00 b      1452     2    12
 -1.4540408801324047E+00 b      1453     2    13
 -2.3025428604193268E-01 b      1454     2    14
  1.1745684562309675E-01 b      1455     2    15
  4.1296213682447330E-01 b      1456     2    16
 -5.6124923014427297E-01 b      1457     2    17
  1.0037810620249275E+00 b      1458     2    18
  1.5656870443774484E-01 b      1459     2    19
 -1.3390702914122282E-01 b      1460     2    20
 -5.0193481306114590E-02 a      1461     2     1     3     1
 -1.5139585173919263E+00 a      1462     2     2     3     1
 -2.2523242661220033E+00 a      1463     2     3     3     1
  2.2551993117211184E+00 a      1464     2     4     3     1
  1.2619216871763448E+00 a      1465     2     5     3     1
 -1.2483115379899314E+00 a      1466     2     6     3     1
 -4.0071808529002273E-01 a      1467     2     7     3     1
 -1.4946352827761689E+00 a      1468     2     8     3     1
 -1.8109887415785841E-02 a      1469     2     9     3     1
 -1.7153342647875369E+00 a      1470     2    10     3     1
  3.8386109756787357E-01 a      1471     2    11     3     1
  1.9543418352186928E+00 a      1472     2    12     3     1
 -2.9523388921406299E+00 a      1473     2    13     3     1
 -7.8133800324915093E-01 a      1474     2    14     3     1
 -4.0938003013910917E-01 a      1475     2    15     3     1
  1.1407560842751963E+00 a      1476     2    16     3     1
  7.9883969054542470E-01 a      1477     2    17     3     1
 -2.0664260019395069E-02 a      1478     2    18     3     1
  1.2871474833482215E+00 a      1479     2    19     3     1
 -1.5332899865494184E-01 a      1480     2    20     3     1
  1.2899694008259921E+00 b      1481     3     1
