################################################################################
# Neural network connection values (weights and biases).
################################################################################
# Col  Name       Description
################################################################################
# 1    connection Neural network connection value.
# 2    t          Connection type (a = weight, b = bias).
# 3    index      Index enumerating weights.
# 4    l_s        Starting point layer (end point layer for biases).
# 5    n_s        Starting point neuron in starting layer (end point neuron for biases).
# 6    l_e        End point layer.
# 7    n_e        End point neuron in end layer.
################################################################################
#                      1 2         3     4     5     6     7
#             connection t     index   l_s   n_s   l_e   n_e
############################################################
 -5.8279963195491702E-01 a         1     0     1     1     1
  6.9560200832747360E-02 a         2     0     1     1     2
 -4.3563370026841286E-01 a         3     0     1     1     3
  2.1246542706005808E-01 a         4     0     1     1     4
 -3.9897605798019958E-01 a         5     0     1     1     5
 -6.1458130043504899E-01 a         6     0     1     1     6
  1.8172772487341726E-01 a         7     0     1     1     7
  5.2583821493425630E-02 a         8     0     1     1     8
 -2.3712234907429497E-01 a         9     0     1     1     9
 -4.9962941190125471E-01 a        10     0     1     1    10
 -1.0721117514317820E-01 a        11     0     1     1    11
  4.5708148127396320E-02 a        12     0     1     1    12
 -4.7287760327881784E-01 a        13     0     1     1    13
 -3.8079393956517599E-01 a        14     0     1     1    14
 -9.1610163687042279E-02 a        15     0     1     1    15
 -1.1264326800188236E-01 a        16     0     1     1    16
 -2.6698206411122183E-01 a        17     0     1     1    17
 -6.5816365532223453E-01 a        18     0     1     1    18
  3.6863518288746205E-01 a        19     0     1     1    19
  4.8115674666715358E-01 a        20     0     1     1    20
 -5.1586177411847983E-03 a        21     0     2     1     1
  1.4345142623583007E-01 a        22     0     2     1     2
 -4.4499600042949054E-02 a        23     0     2     1     3
 -7.2001206783970442E-02 a        24     0     2     1     4
 -1.8591494453076574E-01 a        25     0     2     1     5
  1.3281828875988272E-01 a        26     0     2     1     6
  3.8224685214095895E-02 a        27     0     2     1     7
  2.1809361809973224E-01 a        28     0     2     1     8
 -2.6844203126682221E-02 a        29     0     2     1     9
 -6.9853217769913256E-01 a        30     0     2     1    10
  8.3121165954078965E-02 a        31     0     2     1    11
  6.3903226214025199E-01 a        32     0     2     1    12
 -2.7043949956342411E-01 a        33     0     2     1    13
 -2.1413646556589144E-01 a        34     0     2     1    14
 -2.3129883265516255E-01 a        35     0     2     1    15
  4.5276411998482968E-01 a        36     0     2     1    16
  2.8030459014782588E-01 a        37     0     2     1    17
 -4.9792788371755864E-01 a        38     0     2     1    18
  3.8324218601685534E-01 a        39     0     2     1    19
  9.0538329128484057E-02 a        40     0     2     1    20
 -6.2629391776483093E-02 a        41     0     3     1     1
  1.0095697680568205E-02 a        42     0     3     1     2
  1.9783098195983398E-01 a        43     0     3     1     3
  2.0604330872888757E-01 a        44     0     3     1     4
 -1.6081293045642339E-01 a        45     0     3     1     5
 -4.0799597149329636E-01 a        46     0     3     1     6
 -2.5916456834697293E-01 a        47     0     3     1     7
  3.1547277871391283E-01 a        48     0     3     1     8
 -1.3470274249932973E-01 a        49     0     3     1     9
 -2.4136971817925981E-01 a        50     0     3     1    10
  1.5095958035638629E-01 a        51     0     3     1    11
 -1.0439963994558195E-01 a        52     0     3     1    12
 -2.4983702241279240E-01 a        53     0     3     1    13
  4.4382998161922110E-01 a        54     0     3     1    14
 -2.4696368233328678E-01 a        55     0     3     1    15
  8.7640696882648597E-02 a        56     0     3     1    16
  3.1736279970345516E-01 a        57     0     3     1    17
  2.8282635772438097E-01 a        58     0     3     1    18
  3.3618134604168526E-01 a        59     0     3     1    19
 -4.2211490661265810E-01 a        60     0     3     1    20
  1.4466890220026876E-01 a        61     0     4     1     1
  1.0719759658530364E-01 a        62     0     4     1     2
 -2.7350207905528348E-02 a        63     0     4     1     3
 -2.5876373465631303E-01 a        64     0     4     1     4
  2.8190262418803186E-01 a        65     0     4     1     5
  3.2386219203094639E-02 a        66     0     4     1     6
  2.7267498128537321E-01 a        67     0     4     1     7
 -2.8204955369427687E-01 a        68     0     4     1     8
  2.4406536720265076E-02 a        69     0     4     1     9
  6.4210240737557503E-02 a        70     0     4     1    10
 -8.7167803185180484E-02 a        71     0     4     1    11
  5.9373925554751648E-02 a        72     0     4     1    12
  1.4633105533645244E-01 a        73     0     4     1    13
  5.4114913744915205E-01 a        74     0     4     1    14
  4.0588293745271009E-01 a        75     0     4     1    15
  5.2711910086473979E-01 a        76     0     4     1    16
  3.3454409497603338E-01 a        77     0     4     1    17
  5.5722428362568543E-01 a        78     0     4     1    18
 -6.2589507395880495E-01 a        79     0     4     1    19
 -4.3110494276709332E-01 a        80     0     4     1    20
  3.3406106810274332E-02 a        81     0     5     1     1
 -2.2976538343788871E-01 a        82     0     5     1     2
  3.3923767986920328E-01 a        83     0     5     1     3
 -5.4099995073607499E-01 a        84     0     5     1     4
  1.0809198212065854E+00 a        85     0     5     1     5
  2.3938753365060972E-01 a        86     0     5     1     6
 -1.3404217191864316E-04 a        87     0     5     1     7
 -2.2530971739748673E-01 a        88     0     5     1     8
  1.0621536825365537E-01 a        89     0     5     1     9
  3.9180686283400712E-01 a        90     0     5     1    10
  1.9281814238019437E-01 a        91     0     5     1    11
 -2.6250112446836532E-01 a        92     0     5     1    12
  3.0829858968825391E-01 a        93     0     5     1    13
 -1.9146249994384221E-01 a        94     0     5     1    14
 -1.5825285917655749E-01 a        95     0     5     1    15
 -4.0114107434794727E-01 a        96     0     5     1    16
 -8.8087995785559980E-01 a        97     0     5     1    17
  4.3272896331107191E-01 a        98     0     5     1    18
 -5.3921630060996018E-01 a        99     0     5     1    19
 -7.6711760985066504E-02 a       100     0     5     1    20
  7.0213586229117175E-01 a       101     0     6     1     1
 -1.0671523330297515E-01 a       102     0     6     1     2
  8.6151989278506047E-01 a       103     0     6     1     3
  1.6269136117746251E-03 a       104     0     6     1     4
  7.0215873931400163E-01 a       105     0     6     1     5
  3.4479530345069298E-01 a       106     0     6     1     6
 -1.6290319470996648E-01 a       107     0     6     1     7
 -6.6816803028493765E-01 a       108     0     6     1     8
 -2.1720537271817930E-01 a       109     0     6     1     9
  8.3799697653658900E-01 a       110     0     6     1    10
  9.3116064188067549E-01 a       111     0     6     1    11
 -8.9907231723456216E-02 a       112     0     6     1    12
  2.7428457930604888E-01 a       113     0     6     1    13
  3.9189519582124917E-02 a       114     0     6     1    14
  3.8576211496181007E-01 a       115     0     6     1    15
  5.1949594689314593E-01 a       116     0     6     1    16
 -8.8415371353024752E-01 a       117     0     6     1    17
  2.5388435544795485E-01 a       118     0     6     1    18
 -1.1455498572803371E+00 a       119     0     6     1    19
 -5.1501702010163075E-02 a       120     0     6     1    20
 -8.1752018308154040E-01 a       121     0     7     1     1
 -4.0008313092837888E-01 a       122     0     7     1     2
 -1.2084137440039766E+00 a       123     0     7     1     3
 -1.3731691187596602E+00 a       124     0     7     1     4
 -9.8806817525707946E-01 a       125     0     7     1     5
  2.3147580561628682E-02 a       126     0     7     1     6
  5.4893929311601126E-03 a       127     0     7     1     7
 -1.0928249547766816E-01 a       128     0     7     1     8
 -5.8277871189583150E-02 a       129     0     7     1     9
 -1.0801014531842510E+00 a       130     0     7     1    10
 -9.2435030481860458E-01 a       131     0     7     1    11
 -1.8804550195807213E-01 a       132     0     7     1    12
  4.8499417767900010E-02 a       133     0     7     1    13
 -1.3318209797405259E-01 a       134     0     7     1    14
  1.5951530723940008E-01 a       135     0     7     1    15
 -1.0938654758749386E-01 a       136     0     7     1    16
  9.7823006571259696E-01 a       137     0     7     1    17
 -5.4315718969137683E-01 a       138     0     7     1    18
  6.0463143017084764E-01 a       139     0     7     1    19
  2.4652765136668955E-01 a       140     0     7     1    20
  2.5815703267604911E-01 a       141     0     8     1     1
  4.3678820514633970E-01 a       142     0     8     1     2
  7.9694404062595781E-01 a       143     0     8     1     3
  3.7956299832598900E-01 a       144     0     8     1     4
 -1.0333339022878077E-02 a       145     0     8     1     5
 -1.0178367353478003E-01 a       146     0     8     1     6
  3.6750976641041327E-01 a       147     0     8     1     7
  1.2395082480787947E-01 a       148     0     8     1     8
  6.6037431706804151E-02 a       149     0     8     1     9
  1.9413145044012745E-01 a       150     0     8     1    10
  4.9421396242920251E-01 a       151     0     8     1    11
  6.0983431345213342E-02 a       152     0     8     1    12
 -2.8816222982534684E-01 a       153     0     8     1    13
  1.7301434156884954E-01 a       154     0     8     1    14
 -2.0642354251422915E-01 a       155     0     8     1    15
  3.1363435502820947E-01 a       156     0     8     1    16
 -1.3810873625833184E-01 a       157     0     8     1    17
 -3.9514324735366001E-02 a       158     0     8     1    18
  2.5754595054495035E-02 a       159     0     8     1    19
 -1.5266057251714383E-02 a       160     0     8     1    20
  1.0536356950805403E+00 a       161     0     9     1     1
 -6.8457346469780106E-02 a       162     0     9     1     2
  1.8642355057595489E-01 a       163     0     9     1     3
 -3.0904469483753788E-01 a       164     0     9     1     4
  1.0546996277151144E+00 a       165     0     9     1     5
  3.1968735045454921E-01 a       166     0     9     1     6
 -3.8719812917506630E-01 a       167     0     9     1     7
 -3.3401613754952109E-01 a       168     0     9     1     8
  5.1008050266685190E-01 a       169     0     9     1     9
 -1.0707613479371194E+00 a       170     0     9     1    10
  6.3091031324780644E-01 a       171     0     9     1    11
  1.0701672957680401E+00 a       172     0     9     1    12
  7.7853886006602768E-01 a       173     0     9     1    13
 -1.3308095979982613E+00 a       174     0     9     1    14
 -4.4797110846212279E-01 a       175     0     9     1    15
 -9.3640567049608325E-01 a       176     0     9     1    16
 -4.6887217606847925E-01 a       177     0     9     1    17
  5.1172253621394839E-02 a       178     0     9     1    18
  9.8626540884474567E-01 a       179     0     9     1    19
  2.3168848139730253E-01 a       180     0     9     1    20
 -5.5555463531640836E-01 a       181     0    10     1     1
  6.3610982725106874E-02 a       182     0    10     1     2
  3.0170072104876433E-01 a       183     0    10     1     3
  8.2206780201621055E-01 a       184     0    10     1     4
 -6.6259028749735338E-01 a       185     0    10     1     5
 -5.7735568920517344E-01 a       186     0    10     1     6
  2.1647169168137409E-01 a       187     0    10     1     7
 -2.5361334504007838E-01 a       188     0    10     1     8
 -5.5773072089804743E-01 a       189     0    10     1     9
  1.8902272504565314E+00 a       190     0    10     1    10
 -9.5380291776992976E-01 a       191     0    10     1    11
 -1.9283987513901915E+00 a       192     0    10     1    12
 -8.7643726432791613E-01 a       193     0    10     1    13
  2.5298679283630605E+00 a       194     0    10     1    14
  1.3412464476355787E-01 a       195     0    10     1    15
  1.3854657086202726E+00 a       196     0    10     1    16
  1.0781832600913446E+00 a       197     0    10     1    17
 -2.1493862898369293E-01 a       198     0    10     1    18
 -1.9342869392202413E+00 a       199     0    10     1    19
  8.2989724263704345E-01 a       200     0    10     1    20
 -1.3461670094516259E-01 a       201     0    11     1     1
  7.1449172819830445E-02 a       202     0    11     1     2
 -1.2307192557464464E+00 a       203     0    11     1     3
  4.6508059448611933E-01 a       204     0    11     1     4
 -9.0305148443292982E-01 a       205     0    11     1     5
  1.5735679556253920E-01 a       206     0    11     1     6
  8.1831224051445786E-02 a       207     0    11     1     7
 -2.3907377329926074E-01 a       208     0    11     1     8
  2.9120063706628696E-01 a       209     0    11     1     9
 -2.7764330043758917E-02 a       210     0    11     1    10
 -4.1681543954712835E-01 a       211     0    11     1    11
  1.1301740063050976E-01 a       212     0    11     1    12
  3.6938787642639903E-01 a       213     0    11     1    13
 -1.4306368198692687E+00 a       214     0    11     1    14
  2.1669900947382748E-01 a       215     0    11     1    15
  3.3586006886219308E-02 a       216     0    11     1    16
  1.4610119663332394E-01 a       217     0    11     1    17
 -4.4104413534183692E-02 a       218     0    11     1    18
  9.3373515632110093E-01 a       219     0    11     1    19
 -1.2400152283283736E+00 a       220     0    11     1    20
  2.7466290606667576E-01 a       221     0    12     1     1
  3.6056478412734932E-02 a       222     0    12     1     2
  1.5127042977303626E+00 a       223     0    12     1     3
 -1.5455530879910861E+00 a       224     0    12     1     4
  9.6803885848060012E-01 a       225     0    12     1     5
 -2.0750701644102870E-01 a       226     0    12     1     6
  6.4681186045060945E-01 a       227     0    12     1     7
  6.7005235695561571E-01 a       228     0    12     1     8
 -1.4498473184691485E-01 a       229     0    12     1     9
 -3.1763366047975655E-01 a       230     0    12     1    10
  5.7201063546194775E-01 a       231     0    12     1    11
  2.5752167078481680E-01 a       232     0    12     1    12
 -1.8963014695878866E-01 a       233     0    12     1    13
 -8.1046940714291649E-01 a       234     0    12     1    14
 -5.6517279784401346E-02 a       235     0    12     1    15
  4.9261182535839741E-02 a       236     0    12     1    16
 -1.4362181166960419E+00 a       237     0    12     1    17
 -1.1874408573326414E-01 a       238     0    12     1    18
 -1.2919116796292207E-01 a       239     0    12     1    19
  5.3877499505117077E-01 a       240     0    12     1    20
  2.5699339961865414E-01 a       241     0    13     1     1
  5.8219863953822348E-01 a       242     0    13     1     2
 -8.1084942748629665E-02 a       243     0    13     1     3
  6.4725179268485020E-02 a       244     0    13     1     4
  7.1529793887584958E-02 a       245     0    13     1     5
  1.2882240082542656E-01 a       246     0    13     1     6
 -7.8523680352573022E-01 a       247     0    13     1     7
 -3.4929356399287609E-01 a       248     0    13     1     8
 -1.6124140493444084E-01 a       249     0    13     1     9
  1.4044660543965701E-01 a       250     0    13     1    10
 -7.1742850733783869E-01 a       251     0    13     1    11
 -1.7094525788692536E-01 a       252     0    13     1    12
 -2.0962880380317309E-01 a       253     0    13     1    13
 -7.6010083377563209E-01 a       254     0    13     1    14
  3.2990118475780011E-01 a       255     0    13     1    15
  5.3214527671472930E-02 a       256     0    13     1    16
  4.1947686347709429E-01 a       257     0    13     1    17
  6.8646419104320278E-01 a       258     0    13     1    18
  4.5762484594039138E-01 a       259     0    13     1    19
 -6.8692239240136579E-02 a       260     0    13     1    20
 -8.6830500104927311E-01 a       261     0    14     1     1
 -6.4962830244685110E-01 a       262     0    14     1     2
 -6.3598297987757602E-01 a       263     0    14     1     3
 -4.4888794385782399E-01 a       264     0    14     1     4
 -3.5964683423589050E-01 a       265     0    14     1     5
  6.2918867122375419E-02 a       266     0    14     1     6
  1.3935040486527947E-01 a       267     0    14     1     7
  8.1253382735429203E-01 a       268     0    14     1     8
  1.7490603833522647E-01 a       269     0    14     1     9
 -7.3649193309663963E-01 a       270     0    14     1    10
 -4.9782372170397998E-01 a       271     0    14     1    11
  4.8679600991572619E-01 a       272     0    14     1    12
  7.8916185990544407E-01 a       273     0    14     1    13
 -1.7966004026673217E+00 a       274     0    14     1    14
  1.6974475374089101E-01 a       275     0    14     1    15
 -2.1233877841392645E-01 a       276     0    14     1    16
  7.5160382289209382E-01 a       277     0    14     1    17
 -4.7174274672795569E-01 a       278     0    14     1    18
 -2.2625908468874634E-01 a       279     0    14     1    19
 -5.3792521522921577E-01 a       280     0    14     1    20
 -2.4401464841277490E-02 a       281     0    15     1     1
  1.4585335014250728E-01 a       282     0    15     1     2
  4.4153918591549063E-01 a       283     0    15     1     3
  8.4352005714562767E-03 a       284     0    15     1     4
 -4.9080793313846349E-01 a       285     0    15     1     5
  2.4716785045903145E-01 a       286     0    15     1     6
  1.4652421763495110E-01 a       287     0    15     1     7
 -3.3606319964245418E-01 a       288     0    15     1     8
 -1.0366631231898839E-01 a       289     0    15     1     9
 -1.5038513163733161E-01 a       290     0    15     1    10
  9.2182562349068764E-01 a       291     0    15     1    11
  2.4221188959587564E-01 a       292     0    15     1    12
  2.1867630192241297E-01 a       293     0    15     1    13
  5.6608738863613960E-03 a       294     0    15     1    14
 -2.5430797981689823E-01 a       295     0    15     1    15
  2.7992484999064615E-01 a       296     0    15     1    16
 -1.4480822879566579E-01 a       297     0    15     1    17
 -3.9424882952512830E-01 a       298     0    15     1    18
 -1.7866695911058966E-01 a       299     0    15     1    19
  2.3803003961122318E-01 a       300     0    15     1    20
  5.8379824008032910E-01 a       301     0    16     1     1
  6.7777828854777511E-01 a       302     0    16     1     2
  1.0683972483042781E+00 a       303     0    16     1     3
  3.8828899376350562E-01 a       304     0    16     1     4
  3.9717800745707615E-01 a       305     0    16     1     5
  8.3614400027565081E-02 a       306     0    16     1     6
 -5.8418657050265099E-01 a       307     0    16     1     7
 -2.9759715936155084E-01 a       308     0    16     1     8
 -1.7057112368530100E-01 a       309     0    16     1     9
  7.3912405978472664E-02 a       310     0    16     1    10
  6.1950432405050126E-01 a       311     0    16     1    11
  1.8999389538423736E-01 a       312     0    16     1    12
 -2.9843615863761891E-01 a       313     0    16     1    13
 -1.9218671950954339E-01 a       314     0    16     1    14
 -3.8531427332149576E-01 a       315     0    16     1    15
  1.7491354092540859E-01 a       316     0    16     1    16
 -3.5984321758051041E-01 a       317     0    16     1    17
  7.7140821726391973E-01 a       318     0    16     1    18
  3.3477391491858487E-02 a       319     0    16     1    19
  8.2867586247580685E-02 a       320     0    16     1    20
  1.6130325710736238E-02 a       321     0    17     1     1
  2.1081596735510152E-01 a       322     0    17     1     2
 -8.4469151896419958E-01 a       323     0    17     1     3
  1.1707859285320030E+00 a       324     0    17     1     4
 -7.5050094705152803E-01 a       325     0    17     1     5
  1.8267968197733730E-01 a       326     0    17     1     6
  3.9953076142785410E-01 a       327     0    17     1     7
  4.5053300968032123E-01 a       328     0    17     1     8
  2.8845385643960636E-01 a       329     0    17     1     9
  4.3549486646107516E-01 a       330     0    17     1    10
 -4.0089775308934300E-01 a       331     0    17     1    11
  3.6704320460425299E-01 a       332     0    17     1    12
  2.0962785851374138E-01 a       333     0    17     1    13
 -2.5737720691571564E-01 a       334     0    17     1    14
  6.8511615967170147E-01 a       335     0    17     1    15
  4.0360953563150292E-01 a       336     0    17     1    16
  2.2510423073782215E-02 a       337     0    17     1    17
  2.1224945624588371E-01 a       338     0    17     1    18
  1.6283659350544244E-01 a       339     0    17     1    19
 -4.3266353936619600E-01 a       340     0    17     1    20
  9.4572427482654775E-01 a       341     0    18     1     1
  1.6255068849616472E-01 a       342     0    18     1     2
  4.0484820048800274E-01 a       343     0    18     1     3
 -5.9115302866127184E-01 a       344     0    18     1     4
  2.5962427410088290E-01 a       345     0    18     1     5
  8.3697913298013082E-01 a       346     0    18     1     6
  3.7155075715912073E-01 a       347     0    18     1     7
 -5.7421113287568515E-01 a       348     0    18     1     8
 -9.6275205108922221E-02 a       349     0    18     1     9
 -2.3047625543013692E-02 a       350     0    18     1    10
  1.9892858220668422E-01 a       351     0    18     1    11
 -2.4412503885670379E-02 a       352     0    18     1    12
 -1.4333912086105702E-01 a       353     0    18     1    13
  2.3568594328561435E-01 a       354     0    18     1    14
 -1.1570600964477382E-02 a       355     0    18     1    15
  1.3723538137119481E-01 a       356     0    18     1    16
 -7.3382441764473871E-01 a       357     0    18     1    17
  2.9818643146375184E-01 a       358     0    18     1    18
 -1.8510173859199858E-01 a       359     0    18     1    19
  5.4614150200964183E-02 a       360     0    18     1    20
 -1.1578020886871971E+00 a       361     0    19     1     1
 -2.7499092878740111E-01 a       362     0    19     1     2
 -2.3583562310699857E-01 a       363     0    19     1     3
 -3.3647014821296350E-01 a       364     0    19     1     4
  8.7213293152777260E-01 a       365     0    19     1     5
  5.0799701668263308E-01 a       366     0    19     1     6
 -2.9299078877979095E-02 a       367     0    19     1     7
 -4.5419658117727285E-01 a       368     0    19     1     8
 -2.5414945518329735E-01 a       369     0    19     1     9
  1.2883497616175313E-01 a       370     0    19     1    10
  9.0438522288547296E-01 a       371     0    19     1    11
 -3.7177239462484735E-01 a       372     0    19     1    12
  1.7001308294766124E-01 a       373     0    19     1    13
  5.4193930002516655E-01 a       374     0    19     1    14
 -7.0932994310313169E-01 a       375     0    19     1    15
  1.8316813659671580E-01 a       376     0    19     1    16
 -4.2921006841429915E-01 a       377     0    19     1    17
 -1.8595667907466334E-02 a       378     0    19     1    18
 -4.7676377541144183E-01 a       379     0    19     1    19
  1.4411820719626942E-02 a       380     0    19     1    20
  1.1815255625290813E-01 a       381     0    20     1     1
 -3.7415955400822359E-01 a       382     0    20     1     2
  2.1812210524975051E-01 a       383     0    20     1     3
 -1.6107028340521290E-01 a       384     0    20     1     4
 -7.3183445223225130E-01 a       385     0    20     1     5
 -5.7461155631763605E-01 a       386     0    20     1     6
 -5.4464582447760046E-01 a       387     0    20     1     7
  6.0508884117053263E-01 a       388     0    20     1     8
 -3.3909601270995499E-01 a       389     0    20     1     9
 -2.4938333378127123E-01 a       390     0    20     1    10
 -4.9159260021245360E-01 a       391     0    20     1    11
  5.3370233051528160E-01 a       392     0    20     1    12
 -1.8175115809292125E-02 a       393     0    20     1    13
 -2.0801300610056617E-01 a       394     0    20     1    14
  3.0195521187663993E-01 a       395     0    20     1    15
 -3.5228867938895514E-01 a       396     0    20     1    16
  4.1014921315474268E-01 a       397     0    20     1    17
 -4.4844256426218992E-01 a       398     0    20     1    18
  6.3129814543894336E-01 a       399     0    20     1    19
  9.8169286877626522E-02 a       400     0    20     1    20
 -3.6641417280207983E-01 a       401     0    21     1     1
 -1.3646329858811163E-01 a       402     0    21     1     2
 -4.3794439039375127E-01 a       403     0    21     1     3
  9.1328705308719382E-01 a       404     0    21     1     4
 -4.0347334390387629E-01 a       405     0    21     1     5
  1.5371138491260175E-01 a       406     0    21     1     6
 -5.0084210317730982E-01 a       407     0    21     1     7
 -2.5510641955806973E-01 a       408     0    21     1     8
  9.6504331312083483E-02 a       409     0    21     1     9
  5.2843428949650197E-02 a       410     0    21     1    10
 -3.2572944507405605E-01 a       411     0    21     1    11
 -5.2796952599557267E-01 a       412     0    21     1    12
  4.0437318207255257E-01 a       413     0    21     1    13
 -1.1263739362196594E-01 a       414     0    21     1    14
 -3.2784045711503540E-01 a       415     0    21     1    15
 -6.5683625221469943E-01 a       416     0    21     1    16
 -4.7544968412299188E-01 a       417     0    21     1    17
 -3.4874868694153055E-01 a       418     0    21     1    18
 -2.7088065224113744E-01 a       419     0    21     1    19
 -1.4178572479042048E-01 a       420     0    21     1    20
  1.2986218247006409E-01 a       421     0    22     1     1
 -2.5126129123909624E-01 a       422     0    22     1     2
 -9.9256934083696868E-01 a       423     0    22     1     3
  3.7183930950539856E-01 a       424     0    22     1     4
  4.4758435100341659E-01 a       425     0    22     1     5
 -3.6677401500069851E-01 a       426     0    22     1     6
 -7.0065434268214200E-01 a       427     0    22     1     7
  9.6379151046209355E-01 a       428     0    22     1     8
 -2.5054922928416930E-03 a       429     0    22     1     9
  6.6683046360465537E-01 a       430     0    22     1    10
 -7.9881484897931265E-01 a       431     0    22     1    11
 -1.8852998756314862E-01 a       432     0    22     1    12
 -5.0755561616650791E-01 a       433     0    22     1    13
 -2.6103036159006782E-01 a       434     0    22     1    14
  5.4930728709235133E-01 a       435     0    22     1    15
 -5.2027742165025415E-01 a       436     0    22     1    16
 -3.0295661970442095E-01 a       437     0    22     1    17
  2.1878022389704060E-01 a       438     0    22     1    18
  1.0867790453564105E-01 a       439     0    22     1    19
  1.9829733510517322E-01 a       440     0    22     1    20
  7.0428029547842252E-01 a       441     0    23     1     1
  5.2650422749689972E-02 a       442     0    23     1     2
  8.2741643661954745E-02 a       443     0    23     1     3
  1.3410425522971522E-01 a       444     0    23     1     4
 -4.5633689594601640E-01 a       445     0    23     1     5
  1.3747651476774883E-01 a       446     0    23     1     6
  1.7905318914148263E-01 a       447     0    23     1     7
 -3.2072019365236304E-01 a       448     0    23     1     8
 -9.6270945890376589E-02 a       449     0    23     1     9
 -1.2380188628908888E-01 a       450     0    23     1    10
  9.3291246300627850E-01 a       451     0    23     1    11
 -2.1827319550214788E-01 a       452     0    23     1    12
  7.1031369042323811E-01 a       453     0    23     1    13
  1.3994124355964010E-01 a       454     0    23     1    14
 -1.2952510121005359E-01 a       455     0    23     1    15
 -6.8849659224393877E-03 a       456     0    23     1    16
 -8.0387721696089010E-01 a       457     0    23     1    17
  1.5460561659452332E-01 a       458     0    23     1    18
 -5.4191313183195984E-02 a       459     0    23     1    19
  2.5079310587246501E-01 a       460     0    23     1    20
  1.0181606910444034E+00 a       461     0    24     1     1
 -2.8568258728896545E-01 a       462     0    24     1     2
  4.4273864621684689E-01 a       463     0    24     1     3
 -1.6718682112935387E-01 a       464     0    24     1     4
 -2.9775425906063790E-01 a       465     0    24     1     5
  7.4196195783142460E-02 a       466     0    24     1     6
  7.6777347011455818E-02 a       467     0    24     1     7
 -5.4322716870386401E-01 a       468     0    24     1     8
 -1.7747271241248413E-01 a       469     0    24     1     9
 -6.9373114670634128E-01 a       470     0    24     1    10
  4.1443115301947264E-01 a       471     0    24     1    11
 -1.6118186426107498E-01 a       472     0    24     1    12
 -3.3603987884356687E-02 a       473     0    24     1    13
 -1.8704772240662187E-01 a       474     0    24     1    14
 -2.9368452573256071E-01 a       475     0    24     1    15
 -4.0891467929546110E-01 a       476     0    24     1    16
  2.5848613570665441E-01 a       477     0    24     1    17
  1.0928444689286412E+00 a       478     0    24     1    18
 -2.6181555210421004E-01 a       479     0    24     1    19
  8.1085271627714325E-02 a       480     0    24     1    20
 -4.4181778251426501E-01 a       481     0    25     1     1
  9.3339220175274584E-03 a       482     0    25     1     2
 -5.9473827803676704E-01 a       483     0    25     1     3
  8.9496104768233675E-01 a       484     0    25     1     4
  7.2832651001720639E-01 a       485     0    25     1     5
  7.9826867295419857E-01 a       486     0    25     1     6
  6.4418050387097436E-01 a       487     0    25     1     7
  1.9816349849908443E-01 a       488     0    25     1     8
 -1.7131951446807972E-01 a       489     0    25     1     9
  5.1364066162254585E-01 a       490     0    25     1    10
  1.4837021577300247E-01 a       491     0    25     1    11
 -3.5453278696246246E-02 a       492     0    25     1    12
 -7.0434469403604413E-02 a       493     0    25     1    13
  2.8861533577995124E-01 a       494     0    25     1    14
  2.7291923812633440E-01 a       495     0    25     1    15
  7.1653023381866343E-01 a       496     0    25     1    16
 -1.5656058320249397E+00 a       497     0    25     1    17
 -1.1679944110664495E+00 a       498     0    25     1    18
  4.4372976986965562E-01 a       499     0    25     1    19
  3.2494077818388051E-01 a       500     0    25     1    20
 -5.9561400711329460E-01 a       501     0    26     1     1
  9.7212733548771663E-02 a       502     0    26     1     2
 -3.8327246774303697E-01 a       503     0    26     1     3
  1.4432528066203143E-01 a       504     0    26     1     4
  3.9832473342678287E-01 a       505     0    26     1     5
  2.6830965581904348E-01 a       506     0    26     1     6
  3.9698651721250420E-03 a       507     0    26     1     7
  6.8635980705183774E-01 a       508     0    26     1     8
  2.5605704860271622E-01 a       509     0    26     1     9
  6.3763994516774847E-01 a       510     0    26     1    10
 -5.0480303200775567E-01 a       511     0    26     1    11
  1.5684716741893559E-01 a       512     0    26     1    12
 -1.9091809654620764E-01 a       513     0    26     1    13
  3.2427192281372258E-01 a       514     0    26     1    14
  3.2317350099035846E-01 a       515     0    26     1    15
 -7.8681824797402267E-02 a       516     0    26     1    16
 -1.3524262199642118E-01 a       517     0    26     1    17
 -9.8358501440240875E-01 a       518     0    26     1    18
  1.7912097152211170E-01 a       519     0    26     1    19
 -1.2081062852147463E-01 a       520     0    26     1    20
 -4.4396384559197616E-01 a       521     0    27     1     1
 -3.4256897515334600E-01 a       522     0    27     1     2
  1.1668322377499696E+00 a       523     0    27     1     3
 -4.5616633585170863E-01 a       524     0    27     1     4
 -5.0845800477603398E-01 a       525     0    27     1     5
 -2.9620534108676722E-01 a       526     0    27     1     6
 -7.0497618336908119E-01 a       527     0    27     1     7
 -4.5192871215765812E-01 a       528     0    27     1     8
 -2.0408147164210888E-01 a       529     0    27     1     9
 -5.6721475384870579E-01 a       530     0    27     1    10
  7.3454290153936244E-02 a       531     0    27     1    11
 -5.8690585897518105E-02 a       532     0    27     1    12
 -4.0232325614060860E-01 a       533     0    27     1    13
  1.6277281431787097E-01 a       534     0    27     1    14
 -2.5650684596564921E-01 a       535     0    27     1    15
 -1.3062970453850855E+00 a       536     0    27     1    16
  1.3512044714856977E+00 a       537     0    27     1    17
  8.6764779435220929E-01 a       538     0    27     1    18
 -6.2024011660943235E-01 a       539     0    27     1    19
 -3.5574278881299981E-01 a       540     0    27     1    20
 -4.4352654928898005E-02 a       541     0    28     1     1
 -4.0097531384754515E-01 a       542     0    28     1     2
  5.4908514069396668E-02 a       543     0    28     1     3
 -2.9087175703369167E-01 a       544     0    28     1     4
  4.9366874097913661E-02 a       545     0    28     1     5
  3.6645995101506951E-01 a       546     0    28     1     6
 -5.8113747163699736E-01 a       547     0    28     1     7
  7.1558837991027746E-01 a       548     0    28     1     8
  4.2157628515726958E-01 a       549     0    28     1     9
 -2.4081834574711647E-01 a       550     0    28     1    10
  8.2025231165540669E-01 a       551     0    28     1    11
  6.1757571525435739E-01 a       552     0    28     1    12
  7.2598352209193681E-02 a       553     0    28     1    13
  1.0775064994079157E-01 a       554     0    28     1    14
 -1.2979580278156058E-01 a       555     0    28     1    15
 -2.9079549324930898E-02 a       556     0    28     1    16
  8.9442619890941315E-03 a       557     0    28     1    17
 -7.7591112664960760E-01 a       558     0    28     1    18
  1.4220252824377513E-01 a       559     0    28     1    19
  2.4457116982584454E-01 a       560     0    28     1    20
 -9.2359828066014421E-02 a       561     0    29     1     1
  3.7435776971898822E-02 a       562     0    29     1     2
  2.5330223518497069E-01 a       563     0    29     1     3
  1.3159439046115531E-01 a       564     0    29     1     4
 -3.5220349943990720E-01 a       565     0    29     1     5
  1.0344014213974030E-01 a       566     0    29     1     6
 -3.6270745231900253E-01 a       567     0    29     1     7
  3.5355516365145206E-01 a       568     0    29     1     8
 -1.1774017934274750E-01 a       569     0    29     1     9
 -1.0438304688362229E-01 a       570     0    29     1    10
 -3.3619512316800743E-01 a       571     0    29     1    11
  1.2213425994911577E-02 a       572     0    29     1    12
 -1.1538286245925808E-01 a       573     0    29     1    13
 -3.0120403802381135E-01 a       574     0    29     1    14
 -3.7539676515377915E-02 a       575     0    29     1    15
  4.1221201539707902E-01 a       576     0    29     1    16
  2.8170121778447466E-02 a       577     0    29     1    17
  2.5955259721359386E-01 a       578     0    29     1    18
 -1.3177460207672315E-01 a       579     0    29     1    19
  2.2215877756202679E-01 a       580     0    29     1    20
  6.2288741418335902E-01 a       581     0    30     1     1
 -5.1693833527176236E-01 a       582     0    30     1     2
 -2.1631148154847901E-01 a       583     0    30     1     3
 -1.2433178163977428E-01 a       584     0    30     1     4
 -1.3088501884423484E-01 a       585     0    30     1     5
 -1.0442860484217040E+00 a       586     0    30     1     6
  1.3245841678807604E-01 a       587     0    30     1     7
 -3.0710391525214620E-01 a       588     0    30     1     8
 -2.3289555749592658E-01 a       589     0    30     1     9
 -4.7324019902065012E-01 a       590     0    30     1    10
 -2.8814687557766810E-01 a       591     0    30     1    11
 -7.4477641969887642E-01 a       592     0    30     1    12
  5.5729345105293904E-01 a       593     0    30     1    13
 -1.2011000210862119E+00 a       594     0    30     1    14
  1.3848773635144518E-01 a       595     0    30     1    15
 -3.3960112025393302E-01 a       596     0    30     1    16
 -5.9810365746941563E-01 a       597     0    30     1    17
 -2.1660861748657187E-01 a       598     0    30     1    18
 -3.0912199677342178E-01 a       599     0    30     1    19
 -8.4561286755621565E-02 a       600     0    30     1    20
  5.0924711618768853E-02 a       601     0    31     1     1
  2.2323144152392133E-01 a       602     0    31     1     2
 -4.4891269574868597E-01 a       603     0    31     1     3
  1.8418528837124723E-01 a       604     0    31     1     4
  7.5241139779543458E-03 a       605     0    31     1     5
 -7.6902236406182889E-01 a       606     0    31     1     6
  3.7600323627581422E-01 a       607     0    31     1     7
  5.1521184645870888E-01 a       608     0    31     1     8
 -3.8890407073911470E-01 a       609     0    31     1     9
 -1.3891830711099201E-01 a       610     0    31     1    10
 -5.5588645782642709E-01 a       611     0    31     1    11
 -9.4303638493885722E-01 a       612     0    31     1    12
  1.1567333544138024E-02 a       613     0    31     1    13
 -6.0098063829858817E-01 a       614     0    31     1    14
  5.0569867799729062E-01 a       615     0    31     1    15
  2.4068088887953190E-01 a       616     0    31     1    16
 -9.9279486420213517E-02 a       617     0    31     1    17
  3.1592247074863739E-01 a       618     0    31     1    18
 -1.6355235871885027E-01 a       619     0    31     1    19
 -4.5472642978687661E-01 a       620     0    31     1    20
  1.8268496180424129E-01 a       621     0    32     1     1
  9.3553098408389668E-01 a       622     0    32     1     2
  7.4017032699051499E-01 a       623     0    32     1     3
 -6.7413386557235822E-01 a       624     0    32     1     4
 -9.4861562316982645E-02 a       625     0    32     1     5
 -2.6366423261684763E-01 a       626     0    32     1     6
 -6.8463958167707867E-02 a       627     0    32     1     7
  1.0283666873950534E-01 a       628     0    32     1     8
 -2.8479683669121220E-01 a       629     0    32     1     9
  5.2101034635401922E-01 a       630     0    32     1    10
 -1.5234937668913218E-01 a       631     0    32     1    11
  3.3870988985312622E-01 a       632     0    32     1    12
 -1.1524468486394905E-01 a       633     0    32     1    13
 -1.5839097303487040E-01 a       634     0    32     1    14
 -3.0331359405955684E-02 a       635     0    32     1    15
  3.8533533335142561E-01 a       636     0    32     1    16
  5.4941409228436400E-01 a       637     0    32     1    17
  8.1624510639026526E-01 a       638     0    32     1    18
  8.5613006505939493E-01 a       639     0    32     1    19
  2.2882470417958684E-01 a       640     0    32     1    20
 -6.7053557000014352E-01 a       641     0    33     1     1
  2.1260557111949033E-02 a       642     0    33     1     2
 -1.8481586464313066E-01 a       643     0    33     1     3
  5.0765048393219070E-01 a       644     0    33     1     4
  2.2114574925094571E-01 a       645     0    33     1     5
  5.9205907082840858E-01 a       646     0    33     1     6
 -1.1628393295904070E-01 a       647     0    33     1     7
 -5.5875835010828834E-01 a       648     0    33     1     8
 -2.2786076708133501E-01 a       649     0    33     1     9
 -5.0286727212167248E-01 a       650     0    33     1    10
 -5.1049225725176228E-01 a       651     0    33     1    11
 -2.5244377314898236E-01 a       652     0    33     1    12
 -1.3170464065253989E-01 a       653     0    33     1    13
 -6.3070834571235590E-01 a       654     0    33     1    14
  2.6854405318621866E-01 a       655     0    33     1    15
 -3.4814709360229845E-02 a       656     0    33     1    16
 -6.1141117992915894E-01 a       657     0    33     1    17
  1.1310177520515874E+00 a       658     0    33     1    18
  2.1635225284007308E-02 a       659     0    33     1    19
  6.0244778687230216E-01 a       660     0    33     1    20
  1.6378471700492600E-01 a       661     0    34     1     1
 -8.9863865020902947E-02 a       662     0    34     1     2
  5.6627748161917117E-02 a       663     0    34     1     3
 -2.0055818179664051E-01 a       664     0    34     1     4
 -3.5447194089975695E-02 a       665     0    34     1     5
  6.5268191038029069E-02 a       666     0    34     1     6
  3.2531795092593865E-02 a       667     0    34     1     7
  3.6933840687293240E-01 a       668     0    34     1     8
  2.1276092860124135E-01 a       669     0    34     1     9
  5.5516356151032772E-02 a       670     0    34     1    10
  4.2914580479301639E-01 a       671     0    34     1    11
 -2.3533184609412877E-01 a       672     0    34     1    12
 -4.9207750475220452E-01 a       673     0    34     1    13
  6.4565096024589885E-01 a       674     0    34     1    14
 -9.4503212195823999E-02 a       675     0    34     1    15
 -2.5407122058010129E-01 a       676     0    34     1    16
  3.6431281353014905E-01 a       677     0    34     1    17
 -7.5925585029011355E-01 a       678     0    34     1    18
  2.4462654379503790E-01 a       679     0    34     1    19
  1.7525644754291705E-02 a       680     0    34     1    20
 -5.1482361760704043E-01 a       681     0    35     1     1
 -6.0756603722510871E-01 a       682     0    35     1     2
 -4.9238459759111464E-01 a       683     0    35     1     3
 -5.4696973515299607E-01 a       684     0    35     1     4
 -2.6196283089770550E-01 a       685     0    35     1     5
 -8.1933646370661373E-01 a       686     0    35     1     6
  1.8779236811813874E-02 a       687     0    35     1     7
  3.3495200732912556E-01 a       688     0    35     1     8
  2.6947777618290270E-01 a       689     0    35     1     9
  8.4635883552680402E-01 a       690     0    35     1    10
  7.8469993572401608E-01 a       691     0    35     1    11
 -5.9401973885321013E-01 a       692     0    35     1    12
  6.7191208432536997E-01 a       693     0    35     1    13
  7.7191108893615779E-01 a       694     0    35     1    14
 -3.3945160556092896E-01 a       695     0    35     1    15
 -6.3095268315678932E-01 a       696     0    35     1    16
 -2.9092041699264720E-01 a       697     0    35     1    17
 -3.9111671069988353E-03 a       698     0    35     1    18
 -1.8764344557808241E-01 a       699     0    35     1    19
 -4.4478387588151086E-01 a       700     0    35     1    20
  2.3477216763133518E-01 a       701     0    36     1     1
  3.2134847848340864E-01 a       702     0    36     1     2
  1.3680673238434654E-01 a       703     0    36     1     3
  2.9222421109659791E-01 a       704     0    36     1     4
 -6.2302923458157321E-02 a       705     0    36     1     5
 -3.0585631545379435E-02 a       706     0    36     1     6
 -2.6852967386022025E-01 a       707     0    36     1     7
  8.3608679431982760E-02 a       708     0    36     1     8
 -7.4226788828385015E-01 a       709     0    36     1     9
 -5.8418987023660207E-01 a       710     0    36     1    10
 -9.1039867152292120E-02 a       711     0    36     1    11
  3.6310722172087945E-01 a       712     0    36     1    12
 -1.9292799270921751E-01 a       713     0    36     1    13
  5.4616093148935556E-02 a       714     0    36     1    14
  1.2137375619804332E-01 a       715     0    36     1    15
  2.9036904897516547E-01 a       716     0    36     1    16
  1.7409664586037202E-01 a       717     0    36     1    17
  1.1696524236308770E-01 a       718     0    36     1    18
  2.3807812223347538E-01 a       719     0    36     1    19
 -2.0860301558884481E-01 a       720     0    36     1    20
  3.3834419761280143E-01 a       721     0    37     1     1
  2.8945328975940932E-01 a       722     0    37     1     2
 -5.7970157012669232E-01 a       723     0    37     1     3
 -1.2546148360570031E-01 a       724     0    37     1     4
 -3.0437379974085682E-01 a       725     0    37     1     5
 -3.5478602077390786E-02 a       726     0    37     1     6
  2.5588103127575862E-01 a       727     0    37     1     7
  3.9073839924607306E-01 a       728     0    37     1     8
  2.3235178098630169E-01 a       729     0    37     1     9
 -1.4372164561730272E-01 a       730     0    37     1    10
  6.0446253859307575E-01 a       731     0    37     1    11
  7.2613105726473948E-01 a       732     0    37     1    12
  1.4173859862218466E-01 a       733     0    37     1    13
  5.5704479510487759E-01 a       734     0    37     1    14
  1.4629439743241554E-01 a       735     0    37     1    15
 -1.5530042819911666E-01 a       736     0    37     1    16
  3.4566435381128524E-01 a       737     0    37     1    17
 -6.3316269468357422E-01 a       738     0    37     1    18
 -6.4036701471732932E-02 a       739     0    37     1    19
 -3.7499429947877844E-01 a       740     0    37     1    20
 -4.4881276176868767E-01 a       741     0    38     1     1
 -7.8997186913045025E-01 a       742     0    38     1     2
  2.9540654516781656E-01 a       743     0    38     1     3
  3.4613934021259507E-01 a       744     0    38     1     4
  3.3742967843836913E-01 a       745     0    38     1     5
  1.7050228811025900E-01 a       746     0    38     1     6
 -2.6488385428171679E-01 a       747     0    38     1     7
 -3.3822412798531365E-01 a       748     0    38     1     8
  7.0401854074819592E-01 a       749     0    38     1     9
 -8.3368724117528093E-03 a       750     0    38     1    10
 -4.3613556717355811E-02 a       751     0    38     1    11
 -2.5377257173924367E-01 a       752     0    38     1    12
 -4.7040352911058442E-01 a       753     0    38     1    13
  1.3936982990032154E+00 a       754     0    38     1    14
 -2.5391378568115480E-01 a       755     0    38     1    15
  1.6396507556791060E-01 a       756     0    38     1    16
 -2.2640918063628138E-01 a       757     0    38     1    17
  3.0448862966211236E-02 a       758     0    38     1    18
 -3.1764463221219191E-01 a       759     0    38     1    19
  4.5137559543524136E-01 a       760     0    38     1    20
  4.9055956746475554E-01 a       761     0    39     1     1
 -8.4496474139334865E-01 a       762     0    39     1     2
  3.6876029367360791E-01 a       763     0    39     1     3
  2.4392091758654122E-01 a       764     0    39     1     4
 -7.7630499633808481E-01 a       765     0    39     1     5
  1.7283174827261653E-02 a       766     0    39     1     6
 -4.7665680891396828E-01 a       767     0    39     1     7
 -2.8766342872178008E-01 a       768     0    39     1     8
  7.2253093575328123E-02 a       769     0    39     1     9
 -1.5208195963754079E-01 a       770     0    39     1    10
 -7.4483522379882161E-01 a       771     0    39     1    11
 -1.5108560617806965E+00 a       772     0    39     1    12
 -5.8998559181146415E-01 a       773     0    39     1    13
  6.1939007886132336E-01 a       774     0    39     1    14
  6.8472984963870376E-01 a       775     0    39     1    15
 -7.3005640168244956E-01 a       776     0    39     1    16
 -5.7979079443427117E-01 a       777     0    39     1    17
 -5.1219513492450064E-01 a       778     0    39     1    18
 -5.2362129965417681E-01 a       779     0    39     1    19
 -2.5050186363376709E-01 a       780     0    39     1    20
 -8.8697373269095958E-01 a       781     0    40     1     1
  3.8548147562812646E-01 a       782     0    40     1     2
  4.1309199058328822E-01 a       783     0    40     1     3
  7.5450483232031385E-01 a       784     0    40     1     4
  1.3453966300300118E+00 a       785     0    40     1     5
 -5.6348403470838371E-01 a       786     0    40     1     6
 -2.1928418948398695E-02 a       787     0    40     1     7
  2.2041400961131380E-01 a       788     0    40     1     8
 -4.7922910459850765E-01 a       789     0    40     1     9
  1.2083568369746538E+00 a       790     0    40     1    10
  3.9663816032396554E-01 a       791     0    40     1    11
  6.5854910841301939E-01 a       792     0    40     1    12
 -6.3506532201708110E-01 a       793     0    40     1    13
  8.5899093235392099E-01 a       794     0    40     1    14
 -1.1892181972900584E+00 a       795     0    40     1    15
 -5.1798072210296697E-01 a       796     0    40     1    16
  1.0678425574228592E+00 a       797     0    40     1    17
  7.0412788669064208E-01 a       798     0    40     1    18
  5.8686658317978913E-01 a       799     0    40     1    19
 -1.0734000908564627E+00 a       800     0    40     1    20
 -4.4285522437289182E-01 a       801     0    41     1     1
 -7.0383074278069013E-01 a       802     0    41     1     2
  6.9820380111762781E-01 a       803     0    41     1     3
 -6.3653706223848316E-01 a       804     0    41     1     4
  1.9879829791073303E-01 a       805     0    41     1     5
 -4.1910091020594165E-01 a       806     0    41     1     6
  5.1767709760752158E-02 a       807     0    41     1     7
  1.5354194048659756E-01 a       808     0    41     1     8
 -2.8752038853578171E-01 a       809     0    41     1     9
  1.1312528251907494E+00 a       810     0    41     1    10
 -2.3866632438960669E-01 a       811     0    41     1    11
 -4.6172290510206909E-01 a       812     0    41     1    12
  1.1576099292978830E+00 a       813     0    41     1    13
 -4.6792595839397355E-01 a       814     0    41     1    14
  2.8380341356222755E-01 a       815     0    41     1    15
  4.5533240842791634E-01 a       816     0    41     1    16
 -4.4293368021593296E-02 a       817     0    41     1    17
  2.9387761282808772E-01 a       818     0    41     1    18
 -1.0953953993197445E+00 a       819     0    41     1    19
 -1.5281880818152119E-03 a       820     0    41     1    20
  1.0177300978552897E+00 a       821     0    42     1     1
  6.9050174338868109E-01 a       822     0    42     1     2
  3.0974874544015968E-01 a       823     0    42     1     3
  2.8425378670165702E-02 a       824     0    42     1     4
  3.7723199382539258E-01 a       825     0    42     1     5
  3.1431647685448716E-01 a       826     0    42     1     6
  1.1792197493357477E-02 a       827     0    42     1     7
  1.2240966023849806E-01 a       828     0    42     1     8
  1.5295631515053812E-01 a       829     0    42     1     9
 -3.0282712783151650E-01 a       830     0    42     1    10
  8.8705084399277678E-01 a       831     0    42     1    11
  6.8130449931078696E-01 a       832     0    42     1    12
 -1.6502978800943255E-01 a       833     0    42     1    13
  7.6983271476855908E-01 a       834     0    42     1    14
  2.9059835833437292E-01 a       835     0    42     1    15
  3.1047518600113322E-01 a       836     0    42     1    16
  3.5662442046291581E-01 a       837     0    42     1    17
 -1.1186882973570480E+00 a       838     0    42     1    18
 -1.0484134419819659E-01 a       839     0    42     1    19
  2.9043639847985825E-01 a       840     0    42     1    20
 -6.1337678479063396E-01 a       841     0    43     1     1
 -5.4939370362972373E-01 a       842     0    43     1     2
 -1.3335247402347303E+00 a       843     0    43     1     3
 -1.1763652865538927E+00 a       844     0    43     1     4
 -2.5983389531830509E-01 a       845     0    43     1     5
 -5.2779142343944541E-01 a       846     0    43     1     6
 -6.5761431171634743E-02 a       847     0    43     1     7
 -3.2997913697252440E-01 a       848     0    43     1     8
 -5.3999061833414290E-02 a       849     0    43     1     9
 -4.3064351243547055E-01 a       850     0    43     1    10
 -1.5820837595957915E+00 a       851     0    43     1    11
 -2.7132113233258631E-01 a       852     0    43     1    12
  1.0551165335006082E-01 a       853     0    43     1    13
  7.4486780792324170E-01 a       854     0    43     1    14
  1.3887222386874945E-01 a       855     0    43     1    15
 -4.8306970294286483E-01 a       856     0    43     1    16
 -2.2081462483371991E-01 a       857     0    43     1    17
 -1.8423029250047349E-01 a       858     0    43     1    18
 -1.2944769237219395E-01 a       859     0    43     1    19
  1.4060115717350463E+00 a       860     0    43     1    20
  5.1455052320727490E-01 a       861     0    44     1     1
  7.0630689256609724E-01 a       862     0    44     1     2
 -6.2908171112267097E-01 a       863     0    44     1     3
  4.4811729922173199E-01 a       864     0    44     1     4
 -3.2591590623611305E-02 a       865     0    44     1     5
  8.5137895400552721E-01 a       866     0    44     1     6
  5.9834836691134563E-01 a       867     0    44     1     7
 -5.2952216307611343E-02 a       868     0    44     1     8
  5.2126805255096842E-01 a       869     0    44     1     9
 -9.0197787932739903E-01 a       870     0    44     1    10
  6.0618264196621985E-01 a       871     0    44     1    11
  5.2863408568209802E-01 a       872     0    44     1    12
 -2.4391565876124235E-01 a       873     0    44     1    13
 -1.6700182671328812E-01 a       874     0    44     1    14
  7.6540403178640901E-02 a       875     0    44     1    15
 -1.2032217221462389E-01 a       876     0    44     1    16
 -2.9430385664726294E-01 a       877     0    44     1    17
  2.8775045046947151E-01 a       878     0    44     1    18
  3.4653392518563203E-01 a       879     0    44     1    19
 -1.9107871417448957E-01 a       880     0    44     1    20
 -5.2300061882296425E-02 a       881     0    45     1     1
  6.5076392215833578E-01 a       882     0    45     1     2
 -1.0064819788178150E+00 a       883     0    45     1     3
  7.9425748048923162E-01 a       884     0    45     1     4
  4.9413269576580160E-01 a       885     0    45     1     5
  7.8506201355472205E-01 a       886     0    45     1     6
 -7.0108964419377390E-02 a       887     0    45     1     7
  7.6849852115794626E-01 a       888     0    45     1     8
  3.5542535996003079E-02 a       889     0    45     1     9
  1.5732565084164887E-01 a       890     0    45     1    10
 -1.4401526961101536E+00 a       891     0    45     1    11
 -7.3093808394834370E-02 a       892     0    45     1    12
 -4.5510924037741590E-01 a       893     0    45     1    13
  4.7003350865158589E-01 a       894     0    45     1    14
  5.8754854691987143E-02 a       895     0    45     1    15
  6.8360246733738173E-01 a       896     0    45     1    16
  5.0322673021699571E-01 a       897     0    45     1    17
  6.6721820429410017E-01 a       898     0    45     1    18
  1.6746754556987753E-01 a       899     0    45     1    19
 -2.7189456781120336E-01 a       900     0    45     1    20
 -4.4675819862417704E-01 a       901     0    46     1     1
  5.9813524222643522E-02 a       902     0    46     1     2
  5.9785271874930879E-01 a       903     0    46     1     3
 -4.9063935090705951E-01 a       904     0    46     1     4
 -6.1042603330626632E-01 a       905     0    46     1     5
 -5.4632941158679349E-01 a       906     0    46     1     6
  6.8526888431121064E-02 a       907     0    46     1     7
 -9.9266564558852111E-01 a       908     0    46     1     8
 -4.9990659310226071E-01 a       909     0    46     1     9
 -2.2110943296522134E-01 a       910     0    46     1    10
  6.9871087185838754E-01 a       911     0    46     1    11
  5.5947019579286250E-01 a       912     0    46     1    12
  4.0157628985717181E-01 a       913     0    46     1    13
 -6.9433215094073708E-01 a       914     0    46     1    14
 -3.1021836579259676E-01 a       915     0    46     1    15
  2.8663836352396721E-01 a       916     0    46     1    16
 -1.1933793814457913E-01 a       917     0    46     1    17
  4.3252023488952740E-01 a       918     0    46     1    18
  3.6663196024153882E-01 a       919     0    46     1    19
 -3.6390978454705403E-02 a       920     0    46     1    20
  7.7107885751903538E-01 b       921     1     1
  6.8364634922882450E-01 b       922     1     2
 -1.1026431795969480E+00 b       923     1     3
  1.7379630581782651E-01 b       924     1     4
  1.0065522478912812E+00 b       925     1     5
 -1.1518800478934175E+00 b       926     1     6
 -1.3887737883673239E+00 b       927     1     7
  2.5779342739423849E-01 b       928     1     8
  9.1889869071471930E-01 b       929     1     9
 -3.0974433959430497E-01 b       930     1    10
 -7.8363251386359878E-01 b       931     1    11
 -1.2683041180910368E+00 b       932     1    12
 -4.7644194515506777E-01 b       933     1    13
 -1.0975563827161134E+00 b       934     1    14
 -3.5604780415958853E-01 b       935     1    15
  9.9475577496617207E-01 b       936     1    16
 -1.3252929930985236E+00 b       937     1    17
  4.7361386600140232E-01 b       938     1    18
 -6.2507734488896705E-01 b       939     1    19
  5.3009192781265579E-01 b       940     1    20
  5.2926226131258769E-01 a       941     1     1     2     1
 -1.2697805034007995E-01 a       942     1     1     2     2
 -2.8965475104251370E-01 a       943     1     1     2     3
  8.9339456701124295E-02 a       944     1     1     2     4
 -3.8527532608759983E-02 a       945     1     1     2     5
  2.8390271262149314E-01 a       946     1     1     2     6
  3.0387948035997292E-01 a       947     1     1     2     7
 -9.1995918300648294E-01 a       948     1     1     2     8
 -3.2338347010147461E-01 a       949     1     1     2     9
 -7.6350860855952352E-01 a       950     1     1     2    10
  4.8125411063226819E-02 a       951     1     1     2    11
 -6.0214956900334782E-01 a       952     1     1     2    12
  4.3590323243576007E-02 a       953     1     1     2    13
  6.2421364817730607E-01 a       954     1     1     2    14
 -1.2453309218091256E-01 a       955     1     1     2    15
 -4.8569247843319280E-01 a       956     1     1     2    16
 -1.4324904594803775E-01 a       957     1     1     2    17
  2.0212764459851423E-01 a       958     1     1     2    18
  6.6543698051431521E-01 a       959     1     1     2    19
  2.2364077072639615E-01 a       960     1     1     2    20
  9.9717651550117470E-01 a       961     1     2     2     1
  9.2547178070622915E-01 a       962     1     2     2     2
 -3.3909961229158320E-01 a       963     1     2     2     3
  6.2962663571934330E-01 a       964     1     2     2     4
 -3.8186468029833920E-01 a       965     1     2     2     5
 -7.0578075286444342E-01 a       966     1     2     2     6
  4.1338886184231616E-01 a       967     1     2     2     7
  8.1509025959983261E-01 a       968     1     2     2     8
 -8.1347500688659768E-01 a       969     1     2     2     9
 -1.3946072665803760E-01 a       970     1     2     2    10
  2.5016418824980807E-01 a       971     1     2     2    11
  1.6451342906155111E-01 a       972     1     2     2    12
 -5.5468786347781518E-01 a       973     1     2     2    13
  2.4897776605174321E-01 a       974     1     2     2    14
  3.2441736628420964E-01 a       975     1     2     2    15
  2.2355206392676394E-01 a       976     1     2     2    16
 -1.9480471977266214E-01 a       977     1     2     2    17
  4.2801357648698013E-01 a       978     1     2     2    18
  5.6823819381718467E-02 a       979     1     2     2    19
 -4.2740550556567569E-01 a       980     1     2     2    20
 -2.6093732187074536E-01 a       981     1     3     2     1
 -1.8466566020136302E-01 a       982     1     3     2     2
 -1.6857438723725685E-01 a       983     1     3     2     3
  7.1225450049479921E-01 a       984     1     3     2     4
 -4.6381697781619796E-01 a       985     1     3     2     5
  1.3081555796360142E-01 a       986     1     3     2     6
  8.1516794859175556E-01 a       987     1     3     2     7
 -2.6997595695298521E-01 a       988     1     3     2     8
  3.4618881980214461E-01 a       989     1     3     2     9
  5.1571219897505627E-01 a       990     1     3     2    10
 -5.6946165462004206E-01 a       991     1     3     2    11
 -2.9927498434472077E-01 a       992     1     3     2    12
 -3.6151158963403002E-01 a       993     1     3     2    13
 -6.9049541348876631E-01 a       994     1     3     2    14
  4.3445872399981572E-01 a       995     1     3     2    15
 -5.4381796704470065E-01 a       996     1     3     2    16
  1.7956136932599098E-01 a       997     1     3     2    17
  3.4821987760786910E-01 a       998     1     3     2    18
 -1.3365635361254777E+00 a       999     1     3     2    19
 -1.1131148144732601E+00 a      1000     1     3     2    20
 -4.1631903034407880E-01 a      1001     1     4     2     1
 -2.6084841248793785E-02 a      1002     1     4     2     2
  9.3956381480167134E-02 a      1003     1     4     2     3
  5.4671883793414644E-01 a      1004     1     4     2     4
  1.3793690097353012E-01 a      1005     1     4     2     5
 -3.7469177059104253E-01 a      1006     1     4     2     6
 -8.5468506105848119E-01 a      1007     1     4     2     7
  3.9413401588617492E-01 a      1008     1     4     2     8
  6.1916008559108671E-01 a      1009     1     4     2     9
 -8.6022257441749350E-01 a      1010     1     4     2    10
 -6.9765845119498815E-01 a      1011     1     4     2    11
 -3.3041614255022206E-01 a      1012     1     4     2    12
 -2.9042301052760483E-01 a      1013     1     4     2    13
  5.0082516717434844E-01 a      1014     1     4     2    14
 -1.6048540445811552E-01 a      1015     1     4     2    15
 -1.0898625537574730E-01 a      1016     1     4     2    16
  5.5722326457300453E-01 a      1017     1     4     2    17
  3.8121318961020428E-01 a      1018     1     4     2    18
  6.6697764808963367E-01 a      1019     1     4     2    19
  9.5761248700921467E-02 a      1020     1     4     2    20
 -6.6982331151747690E-02 a      1021     1     5     2     1
 -7.0787944099315614E-01 a      1022     1     5     2     2
  1.6600186315554366E-01 a      1023     1     5     2     3
  9.4278726058105139E-02 a      1024     1     5     2     4
  1.0409247184153723E+00 a      1025     1     5     2     5
  3.3244027945380189E-01 a      1026     1     5     2     6
  7.8459047097705104E-01 a      1027     1     5     2     7
 -1.7531929410710664E-01 a      1028     1     5     2     8
 -1.2588524020060601E+00 a      1029     1     5     2     9
  8.3548731922671371E-02 a      1030     1     5     2    10
  6.5274698254257990E-01 a      1031     1     5     2    11
 -3.5588439342481504E-01 a      1032     1     5     2    12
  3.8917704819574500E-01 a      1033     1     5     2    13
 -2.4702290425866300E-01 a      1034     1     5     2    14
  9.1129981003021776E-02 a      1035     1     5     2    15
  2.4236361006906020E-03 a      1036     1     5     2    16
 -6.5340826898752993E-03 a      1037     1     5     2    17
  5.1628510486234058E-01 a      1038     1     5     2    18
 -2.1991796948026892E+00 a      1039     1     5     2    19
 -1.0054794674734511E+00 a      1040     1     5     2    20
 -2.8485303899570963E-01 a      1041     1     6     2     1
 -3.8686495638973967E-01 a      1042     1     6     2     2
 -5.5355961077577798E-01 a      1043     1     6     2     3
 -2.7780639384237991E-02 a      1044     1     6     2     4
 -2.4540920398554003E-01 a      1045     1     6     2     5
  6.6953179216974534E-01 a      1046     1     6     2     6
 -2.0647478751935960E-01 a      1047     1     6     2     7
 -3.0158031677872077E-01 a      1048     1     6     2     8
  1.0647118448121304E+00 a      1049     1     6     2     9
 -8.9469057366362542E-02 a      1050     1     6     2    10
  6.9014932809770402E-01 a      1051     1     6     2    11
  5.1486732956164058E-03 a      1052     1     6     2    12
 -2.4638820278712126E-01 a      1053     1     6     2    13
 -4.2191315484933741E-03 a      1054     1     6     2    14
  6.4237999889474440E-01 a      1055     1     6     2    15
 -5.7618005982699012E-02 a      1056     1     6     2    16
  3.9374108350796644E-01 a      1057     1     6     2    17
  7.0106187335904790E-01 a      1058     1     6     2    18
 -6.8169416287565537E-02 a      1059     1     6     2    19
  1.3081742427097393E-01 a      1060     1     6     2    20
 -2.3724896038533019E-02 a      1061     1     7     2     1
  3.9608411153867706E-01 a      1062     1     7     2     2
 -5.7582384931937258E-01 a      1063     1     7     2     3
  3.0673917118305638E-02 a      1064     1     7     2     4
  9.1478926022306883E-01 a      1065     1     7     2     5
 -4.9826264575243762E-01 a      1066     1     7     2     6
  5.0417355781223916E-01 a      1067     1     7     2     7
  3.9159634844106761E-01 a      1068     1     7     2     8
 -5.6054977082166524E-01 a      1069     1     7     2     9
  4.5415627155262961E-01 a      1070     1     7     2    10
  2.3763609508169864E-01 a      1071     1     7     2    11
  2.4657726204320801E-01 a      1072     1     7     2    12
 -4.2619918813361696E-01 a      1073     1     7     2    13
 -1.8157457445138250E-01 a      1074     1     7     2    14
  2.2992726655653264E-01 a      1075     1     7     2    15
  5.5155865172108232E-01 a      1076     1     7     2    16
  4.2326021278499620E-01 a      1077     1     7     2    17
 -1.3115790824007229E-01 a      1078     1     7     2    18
 -6.2945477551224571E-01 a      1079     1     7     2    19
 -6.1118526037853349E-01 a      1080     1     7     2    20
 -1.2266391321758663E-01 a      1081     1     8     2     1
 -8.7947021748063392E-01 a      1082     1     8     2     2
 -4.4153986451193106E-01 a      1083     1     8     2     3
  7.6941657307581290E-01 a      1084     1     8     2     4
 -1.6024609582021954E-01 a      1085     1     8     2     5
 -4.8012304965061881E-01 a      1086     1     8     2     6
 -9.3422698118841807E-01 a      1087     1     8     2     7
  1.0473224421202625E-01 a      1088     1     8     2     8
  3.9545765283221446E-01 a      1089     1     8     2     9
 -2.6034455178685945E-01 a      1090     1     8     2    10
  2.1814630448355415E-01 a      1091     1     8     2    11
  2.1815685574756363E-01 a      1092     1     8     2    12
 -2.0444385230583151E-01 a      1093     1     8     2    13
  1.6426837290940180E-01 a      1094     1     8     2    14
 -3.9646322670227013E-01 a      1095     1     8     2    15
 -4.1024515372427167E-01 a      1096     1     8     2    16
  3.8194190786482862E-01 a      1097     1     8     2    17
  6.2983563118436947E-01 a      1098     1     8     2    18
 -1.2523113298739003E-01 a      1099     1     8     2    19
  4.6031949655725357E-01 a      1100     1     8     2    20
 -1.0267361146149863E+00 a      1101     1     9     2     1
 -1.6037872683617047E-01 a      1102     1     9     2     2
 -5.7422408447586004E-02 a      1103     1     9     2     3
 -1.2077003288484768E-01 a      1104     1     9     2     4
  1.7184722181417425E-01 a      1105     1     9     2     5
  2.8895855768007245E-01 a      1106     1     9     2     6
 -5.4824409790366824E-01 a      1107     1     9     2     7
 -6.0666898121078361E-01 a      1108     1     9     2     8
  4.7345988656376331E-01 a      1109     1     9     2     9
  9.1643051010714446E-02 a      1110     1     9     2    10
 -6.1050389607033018E-02 a      1111     1     9     2    11
 -1.2168838664614391E-01 a      1112     1     9     2    12
  7.3318138277229450E-01 a      1113     1     9     2    13
  3.3401733556915425E-01 a      1114     1     9     2    14
 -5.5983035439045892E-01 a      1115     1     9     2    15
 -2.1034179442960971E-01 a      1116     1     9     2    16
  9.5063516135643633E-01 a      1117     1     9     2    17
  1.8347524847651234E-01 a      1118     1     9     2    18
 -2.0309479936944422E-01 a      1119     1     9     2    19
  2.7325108754304384E-01 a      1120     1     9     2    20
  2.0689402296021409E-01 a      1121     1    10     2     1
  3.2763324714146080E-01 a      1122     1    10     2     2
  2.7919593214618722E-02 a      1123     1    10     2     3
  5.4439822372532254E-01 a      1124     1    10     2     4
 -2.7739234734232654E-01 a      1125     1    10     2     5
 -8.1104073773349072E-01 a      1126     1    10     2     6
 -8.3329197497905294E-01 a      1127     1    10     2     7
  1.5257732066538472E+00 a      1128     1    10     2     8
  3.1705242034646691E-01 a      1129     1    10     2     9
 -5.1712414614833679E-01 a      1130     1    10     2    10
  5.2784513475522499E-01 a      1131     1    10     2    11
  5.7996975130562856E-01 a      1132     1    10     2    12
  1.0620492485426070E-01 a      1133     1    10     2    13
  3.3747595329104332E-02 a      1134     1    10     2    14
 -8.8015542379549483E-01 a      1135     1    10     2    15
 -1.6855722723173353E-01 a      1136     1    10     2    16
 -3.4440967163865172E-01 a      1137     1    10     2    17
 -7.4737875351950561E-02 a      1138     1    10     2    18
  5.7136958102003810E-01 a      1139     1    10     2    19
 -1.0723722181913322E+00 a      1140     1    10     2    20
  6.9793155536698820E-02 a      1141     1    11     2     1
  3.1576611055995152E-01 a      1142     1    11     2     2
  1.2055681428181610E-01 a      1143     1    11     2     3
 -1.4209515707559822E-01 a      1144     1    11     2     4
  1.2825983914748149E+00 a      1145     1    11     2     5
  2.7324356899870916E-01 a      1146     1    11     2     6
  2.5796136592252666E-01 a      1147     1    11     2     7
  6.4576400323337368E-01 a      1148     1    11     2     8
  6.4734479969256908E-01 a      1149     1    11     2     9
  2.9828155844738219E-01 a      1150     1    11     2    10
 -7.7122120467013544E-01 a      1151     1    11     2    11
  3.3496994985588552E-01 a      1152     1    11     2    12
 -3.5263297235308844E-01 a      1153     1    11     2    13
 -1.9733327572107873E-01 a      1154     1    11     2    14
  2.3316142074738075E-01 a      1155     1    11     2    15
  7.8173493510908743E-01 a      1156     1    11     2    16
 -5.5699856932216851E-01 a      1157     1    11     2    17
 -3.0778083891947605E-01 a      1158     1    11     2    18
 -1.7001110778402815E+00 a      1159     1    11     2    19
 -1.0624069807132539E+00 a      1160     1    11     2    20
 -3.5000360901847577E-01 a      1161     1    12     2     1
 -2.5787169449329655E-01 a      1162     1    12     2     2
  2.2441434317977030E-01 a      1163     1    12     2     3
 -1.2539078607383613E-02 a      1164     1    12     2     4
  6.0617275573693363E-01 a      1165     1    12     2     5
  3.5702794312748565E-01 a      1166     1    12     2     6
  5.6984480238269464E-01 a      1167     1    12     2     7
 -4.8786358387252049E-01 a      1168     1    12     2     8
  6.2366471805814205E-01 a      1169     1    12     2     9
  1.9533879147322425E-01 a      1170     1    12     2    10
  6.9448100002280189E-01 a      1171     1    12     2    11
  6.0124655030507868E-01 a      1172     1    12     2    12
 -2.0882765896184072E-01 a      1173     1    12     2    13
  9.8531559851566464E-01 a      1174     1    12     2    14
  4.5459050449184818E-01 a      1175     1    12     2    15
 -9.7596687624751322E-01 a      1176     1    12     2    16
 -1.5341605503780975E-01 a      1177     1    12     2    17
 -1.3639631005638969E-01 a      1178     1    12     2    18
 -9.9342562812947943E-01 a      1179     1    12     2    19
 -7.7610201027050157E-02 a      1180     1    12     2    20
 -4.0220896842372800E-01 a      1181     1    13     2     1
  3.8986052750878919E-01 a      1182     1    13     2     2
  4.8214507805065204E-01 a      1183     1    13     2     3
 -3.2224111009023687E-01 a      1184     1    13     2     4
 -5.9689140357497054E-02 a      1185     1    13     2     5
 -3.9487877428939616E-01 a      1186     1    13     2     6
 -3.2775719070355064E-01 a      1187     1    13     2     7
  5.0005747456532336E-02 a      1188     1    13     2     8
  2.8485084393036053E-01 a      1189     1    13     2     9
 -5.8709038447924877E-01 a      1190     1    13     2    10
 -5.9256877297696653E-01 a      1191     1    13     2    11
 -3.7237315013265021E-01 a      1192     1    13     2    12
 -5.8282223806244637E-01 a      1193     1    13     2    13
  2.0982795233289361E-01 a      1194     1    13     2    14
  1.7745938260011740E-01 a      1195     1    13     2    15
  4.3786557446856494E-01 a      1196     1    13     2    16
 -9.9782625236728195E-01 a      1197     1    13     2    17
 -3.5428891395334383E-01 a      1198     1    13     2    18
 -2.6248821945448447E-01 a      1199     1    13     2    19
  1.9288259302206340E-01 a      1200     1    13     2    20
 -2.8505033645125061E-01 a      1201     1    14     2     1
  1.8561713331608340E-01 a      1202     1    14     2     2
 -1.8781139163144717E-01 a      1203     1    14     2     3
 -4.2782591304452805E-02 a      1204     1    14     2     4
 -1.1430984715985415E+00 a      1205     1    14     2     5
 -4.6974062480883993E-01 a      1206     1    14     2     6
 -1.0940583576620297E+00 a      1207     1    14     2     7
 -1.2583486061685473E-01 a      1208     1    14     2     8
  5.3576759179314626E-01 a      1209     1    14     2     9
 -1.0742075683873971E+00 a      1210     1    14     2    10
  8.4128928385051471E-01 a      1211     1    14     2    11
 -2.0480101133367980E-02 a      1212     1    14     2    12
 -4.0136398252032252E-01 a      1213     1    14     2    13
 -4.1742411526871320E-01 a      1214     1    14     2    14
 -2.2496288601111039E-01 a      1215     1    14     2    15
 -3.4397766280077752E-01 a      1216     1    14     2    16
 -3.4507447661849483E-03 a      1217     1    14     2    17
  1.2563876422134221E-01 a      1218     1    14     2    18
  1.0413274478871761E+00 a      1219     1    14     2    19
  3.3106047578363174E-01 a      1220     1    14     2    20
 -4.5548491641872885E-01 a      1221     1    15     2     1
  5.7282530397207665E-01 a      1222     1    15     2     2
  4.3190677392117999E-01 a      1223     1    15     2     3
 -5.3545405967124393E-01 a      1224     1    15     2     4
  4.7781343377241048E-01 a      1225     1    15     2     5
 -3.9892216685305759E-01 a      1226     1    15     2     6
 -3.2330667001647995E-01 a      1227     1    15     2     7
  1.3457287996948675E-01 a      1228     1    15     2     8
 -2.7143305331803164E-01 a      1229     1    15     2     9
 -8.7104505594448467E-01 a      1230     1    15     2    10
  1.2160224634864070E-01 a      1231     1    15     2    11
 -5.1821109705014567E-01 a      1232     1    15     2    12
  3.4350605347787985E-02 a      1233     1    15     2    13
 -6.6713463855493971E-01 a      1234     1    15     2    14
 -1.0566515781568788E+00 a      1235     1    15     2    15
 -3.3151923959607371E-01 a      1236     1    15     2    16
  4.8702925265176655E-01 a      1237     1    15     2    17
 -2.7250668354882368E-01 a      1238     1    15     2    18
  2.9445125578804876E-01 a      1239     1    15     2    19
  9.2951253038729564E-01 a      1240     1    15     2    20
 -4.8726806287322266E-01 a      1241     1    16     2     1
  7.7099636752253042E-01 a      1242     1    16     2     2
  1.4138873381769079E-01 a      1243     1    16     2     3
 -6.7791594844606984E-01 a      1244     1    16     2     4
 -9.0038194023892626E-01 a      1245     1    16     2     5
 -1.0819353949115142E+00 a      1246     1    16     2     6
  6.0488899997019910E-02 a      1247     1    16     2     7
  1.0599959880626295E-01 a      1248     1    16     2     8
  2.4112273210191276E-01 a      1249     1    16     2     9
 -4.4115453790399793E-02 a      1250     1    16     2    10
  6.5546737710127465E-02 a      1251     1    16     2    11
  1.0516169220175113E-01 a      1252     1    16     2    12
  5.3619263046054422E-01 a      1253     1    16     2    13
 -2.3595819803908413E-01 a      1254     1    16     2    14
 -1.2710343028060189E-01 a      1255     1    16     2    15
  6.6676577149959870E-01 a      1256     1    16     2    16
 -9.1892175131186127E-01 a      1257     1    16     2    17
 -3.1159031266535183E-02 a      1258     1    16     2    18
 -7.8318830197598693E-02 a      1259     1    16     2    19
 -9.9282818669529838E-01 a      1260     1    16     2    20
 -6.6492529434084047E-01 a      1261     1    17     2     1
 -6.4886207804691912E-02 a      1262     1    17     2     2
 -3.5418473501386917E-02 a      1263     1    17     2     3
  3.9858935175419774E-01 a      1264     1    17     2     4
 -1.0224753821902273E+00 a      1265     1    17     2     5
  7.1496239362005543E-01 a      1266     1    17     2     6
 -1.4654656662742402E-01 a      1267     1    17     2     7
 -6.4387223103627170E-02 a      1268     1    17     2     8
 -1.5420009625640796E-01 a      1269     1    17     2     9
 -5.8548000537231568E-02 a      1270     1    17     2    10
 -1.3567665726806124E+00 a      1271     1    17     2    11
  3.5901809780945615E-01 a      1272     1    17     2    12
 -3.4309683068445840E-01 a      1273     1    17     2    13
 -8.7711285423408475E-02 a      1274     1    17     2    14
 -8.5492064564759340E-01 a      1275     1    17     2    15
  4.9613146765474687E-02 a      1276     1    17     2    16
 -1.1304445708751212E-01 a      1277     1    17     2    17
  5.0481075322827508E-02 a      1278     1    17     2    18
 -2.8946974884566690E-01 a      1279     1    17     2    19
 -3.2266859748276455E-01 a      1280     1    17     2    20
  1.0868910972053973E-01 a      1281     1    18     2     1
 -6.4019270352173596E-01 a      1282     1    18     2     2
 -2.8945129628600891E-01 a      1283     1    18     2     3
 -3.0228043194929521E-01 a      1284     1    18     2     4
  2.6408884407578270E-01 a      1285     1    18     2     5
  2.0564651128297887E-01 a      1286     1    18     2     6
 -3.7853050300334645E-01 a      1287     1    18     2     7
  1.4078294925524385E-03 a      1288     1    18     2     8
 -3.6939082757720287E-01 a      1289     1    18     2     9
  1.5281383312127247E-02 a      1290     1    18     2    10
 -2.1726445897826595E-02 a      1291     1    18     2    11
 -1.8008608570750054E-01 a      1292     1    18     2    12
 -3.7528143964406502E-01 a      1293     1    18     2    13
 -4.7953585659150408E-02 a      1294     1    18     2    14
 -9.5951419927211590E-01 a      1295     1    18     2    15
  4.6888135720584417E-01 a      1296     1    18     2    16
  4.8786574331361121E-01 a      1297     1    18     2    17
  3.9340898870510854E-01 a      1298     1    18     2    18
 -4.2370637716232235E-01 a      1299     1    18     2    19
 -4.1883894324623616E-01 a      1300     1    18     2    20
 -7.1574499656273854E-02 a      1301     1    19     2     1
 -7.1224790701203122E-01 a      1302     1    19     2     2
 -3.6033380500793638E-01 a      1303     1    19     2     3
 -8.8119610597991294E-01 a      1304     1    19     2     4
  6.7289198847871035E-01 a      1305     1    19     2     5
 -1.0226183073756692E+00 a      1306     1    19     2     6
 -4.9030321228707714E-02 a      1307     1    19     2     7
  5.4323702153368270E-01 a      1308     1    19     2     8
 -1.3582844109694125E+00 a      1309     1    19     2     9
  4.8609646927831079E-01 a      1310     1    19     2    10
  1.4168463986207722E-01 a      1311     1    19     2    11
  2.7495831740418852E-01 a      1312     1    19     2    12
  5.0590578428989330E-01 a      1313     1    19     2    13
  5.8267331617283771E-02 a      1314     1    19     2    14
 -2.5901247909851033E-01 a      1315     1    19     2    15
  5.8517072201935261E-01 a      1316     1    19     2    16
  4.4545899912894399E-01 a      1317     1    19     2    17
 -1.8169575516185005E-01 a      1318     1    19     2    18
 -6.2847040907802199E-01 a      1319     1    19     2    19
  1.3306454220191546E+00 a      1320     1    19     2    20
  1.1958526845873636E-01 a      1321     1    20     2     1
 -1.1974380543951559E-01 a      1322     1    20     2     2
 -5.6993823768595508E-01 a      1323     1    20     2     3
  6.4593692198859987E-01 a      1324     1    20     2     4
  1.1889236939634608E-01 a      1325     1    20     2     5
 -1.6809434367705212E-02 a      1326     1    20     2     6
 -5.6455215111922841E-01 a      1327     1    20     2     7
 -2.5715707151457090E-01 a      1328     1    20     2     8
  2.4273977910776426E-01 a      1329     1    20     2     9
 -1.0967819260199088E+00 a      1330     1    20     2    10
  4.9661993882503103E-01 a      1331     1    20     2    11
 -2.3961123556366509E-01 a      1332     1    20     2    12
  1.7371815334368271E-01 a      1333     1    20     2    13
 -3.4186777839957161E-02 a      1334     1    20     2    14
 -1.9347699519873421E-01 a      1335     1    20     2    15
 -6.3481761837309658E-01 a      1336     1    20     2    16
 -1.7130661947062450E-01 a      1337     1    20     2    17
 -2.6611727053514000E-01 a      1338     1    20     2    18
 -7.0203737312424814E-03 a      1339     1    20     2    19
 -1.8054763297123633E-01 a      1340     1    20     2    20
  3.6036441444951384E-01 b      1341     2     1
 -1.7341365895304695E-01 b      1342     2     2
 -1.4712467168433687E+00 b      1343     2     3
  1.3215070706184666E+00 b      1344     2     4
  5.1615832726756339E-01 b      1345     2     5
  2.0027491342415238E+00 b      1346     2     6
  1.1556841935654578E+00 b      1347     2     7
 -9.2566237117129047E-01 b      1348     2     8
 -3.3937514664583113E-01 b      1349     2     9
 -1.1995350148540940E+00 b      1350     2    10
 -1.0602426238028839E+00 b      1351     2    11
 -9.5236631090388713E-01 b      1352     2    12
  6.0600339331988218E-01 b      1353     2    13
  1.2655360008947989E+00 b      1354     2    14
  8.6125645516831528E-01 b      1355     2    15
  1.2895932908068566E+00 b      1356     2    16
  1.1910510242447668E-01 b      1357     2    17
 -9.2242016194982290E-01 b      1358     2    18
 -1.1061179407943138E+00 b      1359     2    19
 -1.1836092620942658E-01 b      1360     2    20
  9.8953920238018356E-01 a      1361     2     1     3     1
  3.6908242759895427E-01 a      1362     2     2     3     1
 -1.4444834815025773E+00 a      1363     2     3     3     1
  1.1970015117773951E+00 a      1364     2     4     3     1
 -5.0905367239416976E-01 a      1365     2     5     3     1
  9.7607255942256277E-01 a      1366     2     6     3     1
 -5.0125738211832094E-01 a      1367     2     7     3     1
 -6.1405367484402529E-01 a      1368     2     8     3     1
 -1.0119149144352544E+00 a      1369     2     9     3     1
 -1.2380996265695199E+00 a      1370     2    10     3     1
 -2.9696611353870084E-01 a      1371     2    11     3     1
 -1.7825458528276736E-01 a      1372     2    12     3     1
  7.3296075492582291E-01 a      1373     2    13     3     1
  5.8146187167603069E-01 a      1374     2    14     3     1
  1.6140698941884041E-01 a      1375     2    15     3     1
  1.1749834900881779E+00 a      1376     2    16     3     1
  2.0519716050945355E-01 a      1377     2    17     3     1
 -1.1031803348764244E+00 a      1378     2    18     3     1
 -5.3737488649036980E-01 a      1379     2    19     3     1
  8.2350068955149736E-02 a      1380     2    20     3     1
  1.6280414327848189E+00 b      1381     3     1
