################################################################################
# Neural network connection values (weights and biases).
################################################################################
# Col  Name       Description
################################################################################
# 1    connection Neural network connection value.
# 2    t          Connection type (a = weight, b = bias).
# 3    index      Index enumerating weights.
# 4    l_s        Starting point layer (end point layer for biases).
# 5    n_s        Starting point neuron in starting layer (end point neuron for biases).
# 6    l_e        End point layer.
# 7    n_e        End point neuron in end layer.
################################################################################
#                      1 2         3     4     5     6     7
#             connection t     index   l_s   n_s   l_e   n_e
############################################################
 -6.6450725563158919E-01 a         1     0     1     1     1
 -2.0432113260896845E-01 a         2     0     1     1     2
  5.9409813468436073E-02 a         3     0     1     1     3
 -1.5736339526416107E-02 a         4     0     1     1     4
 -2.3195491756118231E-01 a         5     0     1     1     5
 -2.2557333530100246E-01 a         6     0     1     1     6
 -1.5022224194549719E-01 a         7     0     1     1     7
 -2.6104266676105653E-01 a         8     0     1     1     8
  9.9504467570867509E-03 a         9     0     1     1     9
  4.1779500747840093E-01 a        10     0     1     1    10
  6.1316444637614327E-02 a        11     0     1     1    11
 -7.2721949659119017E-02 a        12     0     1     1    12
  7.6963539995515168E-02 a        13     0     1     1    13
 -6.0425633634875264E-01 a        14     0     1     1    14
  1.8417482703371710E-02 a        15     0     1     1    15
  4.3974784265814731E-01 a        16     0     1     1    16
  4.5264011475359266E-02 a        17     0     1     1    17
 -1.5382055174997517E-01 a        18     0     1     1    18
 -1.1838841586991360E-01 a        19     0     1     1    19
 -2.8090970625387524E-01 a        20     0     1     1    20
 -4.1602969644829130E-01 a        21     0     2     1     1
  2.1721502827719658E-01 a        22     0     2     1     2
  7.3451180404405736E-02 a        23     0     2     1     3
 -1.6256662985560830E-01 a        24     0     2     1     4
 -2.9549215762643206E-02 a        25     0     2     1     5
 -2.9659081916242686E-01 a        26     0     2     1     6
  2.2719836484604372E-01 a        27     0     2     1     7
 -9.4334040623428234E-02 a        28     0     2     1     8
 -1.4014364105506161E-01 a        29     0     2     1     9
  1.6258877035819624E-01 a        30     0     2     1    10
  8.2555092159922294E-02 a        31     0     2     1    11
 -2.6407603442123107E-01 a        32     0     2     1    12
 -3.2438886426729352E-01 a        33     0     2     1    13
  7.2209962075194464E-02 a        34     0     2     1    14
 -5.0304122490986292E-01 a        35     0     2     1    15
  3.9595423326586976E-01 a        36     0     2     1    16
  3.9530469938431129E-01 a        37     0     2     1    17
  2.0827245555509852E-01 a        38     0     2     1    18
 -4.8972458398756291E-01 a        39     0     2     1    19
  1.7001750027246817E-01 a        40     0     2     1    20
 -1.5887820282831816E-01 a        41     0     3     1     1
  2.6661121175593883E-02 a        42     0     3     1     2
 -4.3694392126725413E-02 a        43     0     3     1     3
 -1.7080922417889771E-01 a        44     0     3     1     4
  1.3846207076978201E-01 a        45     0     3     1     5
  5.9572722746485361E-02 a        46     0     3     1     6
 -1.4567740153812447E-01 a        47     0     3     1     7
  5.9083102721855130E-02 a        48     0     3     1     8
  4.5897148608455660E-02 a        49     0     3     1     9
  5.8581046249630975E-01 a        50     0     3     1    10
 -1.7279103472221491E-01 a        51     0     3     1    11
  4.5405551698438451E-01 a        52     0     3     1    12
  3.0548193607699164E-01 a        53     0     3     1    13
 -8.4194484354737420E-02 a        54     0     3     1    14
 -3.5717263626166715E-02 a        55     0     3     1    15
 -3.2906133058762177E-01 a        56     0     3     1    16
  6.1341960903225545E-01 a        57     0     3     1    17
  2.6566535409615283E-01 a        58     0     3     1    18
  8.8170875727101930E-02 a        59     0     3     1    19
 -1.3713521382119717E-02 a        60     0     3     1    20
  1.4944242320571777E-01 a        61     0     4     1     1
 -6.4152631299016341E-02 a        62     0     4     1     2
  2.5041748092561586E-02 a        63     0     4     1     3
 -2.8491405523894597E-01 a        64     0     4     1     4
  3.4201567752465002E-02 a        65     0     4     1     5
  2.3099046470911350E-01 a        66     0     4     1     6
 -1.9892033443278967E-01 a        67     0     4     1     7
  4.1850081886521950E-01 a        68     0     4     1     8
 -2.5437424338930339E-02 a        69     0     4     1     9
  6.3086062505300106E-02 a        70     0     4     1    10
  1.2951279613754392E-02 a        71     0     4     1    11
 -1.4172249758788658E-01 a        72     0     4     1    12
 -3.4055575226282425E-01 a        73     0     4     1    13
  3.8991344357249119E-01 a        74     0     4     1    14
 -1.9464954556574482E-01 a        75     0     4     1    15
 -2.7305092398959790E-01 a        76     0     4     1    16
  3.0691228951557409E-01 a        77     0     4     1    17
  1.5101224382438944E-01 a        78     0     4     1    18
  1.2481022470572511E-01 a        79     0     4     1    19
  2.2909688064845130E-01 a        80     0     4     1    20
  7.6410462403336488E-01 a        81     0     5     1     1
 -2.5592165423687589E-02 a        82     0     5     1     2
 -1.1180196019999433E-01 a        83     0     5     1     3
  3.2472634161322705E-01 a        84     0     5     1     4
  6.7514141323424193E-01 a        85     0     5     1     5
 -1.3983523103161327E-01 a        86     0     5     1     6
  4.6788700648458137E-01 a        87     0     5     1     7
 -7.8733632985673230E-01 a        88     0     5     1     8
  7.3447424692033447E-01 a        89     0     5     1     9
  1.6415664068093166E-01 a        90     0     5     1    10
  4.0644580787846225E-02 a        91     0     5     1    11
 -6.3008605513820065E-02 a        92     0     5     1    12
  4.6772843687467019E-01 a        93     0     5     1    13
  1.8480619650916567E-02 a        94     0     5     1    14
  4.0837781204784146E-01 a        95     0     5     1    15
 -1.7467240490828151E-01 a        96     0     5     1    16
 -5.5603661977617391E-01 a        97     0     5     1    17
 -4.9275063133604008E-01 a        98     0     5     1    18
  3.3776873153423498E-01 a        99     0     5     1    19
 -3.3156653019893643E-02 a       100     0     5     1    20
  1.1526504122453498E+00 a       101     0     6     1     1
  5.2758485040241154E-01 a       102     0     6     1     2
 -4.3381230241757512E-01 a       103     0     6     1     3
  3.4025655531559157E-01 a       104     0     6     1     4
  3.9525890721046669E-01 a       105     0     6     1     5
  7.9504908857646650E-01 a       106     0     6     1     6
  2.8966117454640384E-02 a       107     0     6     1     7
 -1.1608177218229090E+00 a       108     0     6     1     8
  7.3395515980190174E-01 a       109     0     6     1     9
  1.8767679206515353E-01 a       110     0     6     1    10
 -4.9716315674654071E-01 a       111     0     6     1    11
  9.7033236943694201E-02 a       112     0     6     1    12
  5.0183938490064317E-01 a       113     0     6     1    13
  2.3942406792344179E-01 a       114     0     6     1    14
  4.4207149313727429E-03 a       115     0     6     1    15
 -5.0906639559011502E-01 a       116     0     6     1    16
 -2.7306853954358057E-01 a       117     0     6     1    17
 -7.9730037117577557E-01 a       118     0     6     1    18
  6.3938443501877840E-01 a       119     0     6     1    19
  5.7866699338634375E-01 a       120     0     6     1    20
 -7.7075388539336120E-01 a       121     0     7     1     1
 -5.6723335850102208E-01 a       122     0     7     1     2
 -6.7127618889372159E-02 a       123     0     7     1     3
 -2.6064849411691172E-02 a       124     0     7     1     4
 -4.8431919571251508E-01 a       125     0     7     1     5
 -6.6653815639541092E-01 a       126     0     7     1     6
 -3.8631994402188324E-01 a       127     0     7     1     7
  1.7270340884315514E+00 a       128     0     7     1     8
 -1.0184246136773678E+00 a       129     0     7     1     9
 -2.8934646582963147E-01 a       130     0     7     1    10
 -9.6400663396689470E-02 a       131     0     7     1    11
  2.4446404597294455E-01 a       132     0     7     1    12
  2.1732597459492328E-01 a       133     0     7     1    13
 -2.7267580735601531E-02 a       134     0     7     1    14
 -3.3918122677755358E-01 a       135     0     7     1    15
  1.5830880467113909E-02 a       136     0     7     1    16
  5.0825881894301916E-01 a       137     0     7     1    17
  3.7630398016358613E-01 a       138     0     7     1    18
 -5.1683191961559904E-01 a       139     0     7     1    19
 -1.2502110699125442E+00 a       140     0     7     1    20
 -2.8630745506024674E-01 a       141     0     8     1     1
 -3.6431089557228333E-03 a       142     0     8     1     2
 -1.2020471973035302E-03 a       143     0     8     1     3
 -6.7594573477159825E-01 a       144     0     8     1     4
 -2.0885801992564618E-01 a       145     0     8     1     5
  1.9255884098232506E-01 a       146     0     8     1     6
  2.5141132419289253E-01 a       147     0     8     1     7
 -4.8922227961373504E-01 a       148     0     8     1     8
 -5.3668598126109371E-02 a       149     0     8     1     9
 -1.4804863505818866E-01 a       150     0     8     1    10
 -2.4514979751826690E-01 a       151     0     8     1    11
 -4.8023739251124041E-02 a       152     0     8     1    12
 -8.3062746703668533E-02 a       153     0     8     1    13
 -1.3287410464288660E-01 a       154     0     8     1    14
  2.9374448438646616E-01 a       155     0     8     1    15
 -2.2747718663372429E-01 a       156     0     8     1    16
  8.9564786319159539E-02 a       157     0     8     1    17
  4.9163528397595485E-01 a       158     0     8     1    18
 -1.0306543757268827E-01 a       159     0     8     1    19
  3.5400830543645911E-01 a       160     0     8     1    20
  5.6190898346920015E-01 a       161     0     9     1     1
 -3.3881334906870626E-02 a       162     0     9     1     2
 -6.3769588846069969E-01 a       163     0     9     1     3
  3.0779304445034100E-01 a       164     0     9     1     4
  4.5445756684305916E-01 a       165     0     9     1     5
 -9.0481228157518534E-01 a       166     0     9     1     6
  2.4548764629392114E-01 a       167     0     9     1     7
 -2.2959153642813268E+00 a       168     0     9     1     8
 -7.0613333362543695E-01 a       169     0     9     1     9
  7.0035725022090500E-01 a       170     0     9     1    10
 -1.1552536414804995E+00 a       171     0     9     1    11
  1.7905635394436464E-01 a       172     0     9     1    12
 -1.7892416465862798E-01 a       173     0     9     1    13
 -1.3859322911124011E-01 a       174     0     9     1    14
 -5.4189893078149176E-01 a       175     0     9     1    15
  2.7755930173889021E-01 a       176     0     9     1    16
  8.7791875558274690E-01 a       177     0     9     1    17
  1.2180302096023481E-01 a       178     0     9     1    18
 -4.6809767291183230E-01 a       179     0     9     1    19
 -5.0420959785091124E-01 a       180     0     9     1    20
  2.4851549874532869E-01 a       181     0    10     1     1
  3.9166208354784726E-01 a       182     0    10     1     2
  2.1784946921399159E-01 a       183     0    10     1     3
  2.4132864959003264E-01 a       184     0    10     1     4
 -8.4428914502815167E-01 a       185     0    10     1     5
  1.1232065132166125E+00 a       186     0    10     1     6
 -8.8953303171648301E-01 a       187     0    10     1     7
  2.3241214311133147E+00 a       188     0    10     1     8
 -5.8856296652505857E-01 a       189     0    10     1     9
  9.3516615194795871E-01 a       190     0    10     1    10
  1.3676946855338263E+00 a       191     0    10     1    11
  4.9117003183359017E-03 a       192     0    10     1    12
  5.3403549806580941E-01 a       193     0    10     1    13
 -1.0114862110853911E+00 a       194     0    10     1    14
  2.2882958218833946E-01 a       195     0    10     1    15
 -8.3336616835023136E-02 a       196     0    10     1    16
 -1.7609939369046206E+00 a       197     0    10     1    17
 -4.9708307173489125E-01 a       198     0    10     1    18
  3.4793246269772726E-01 a       199     0    10     1    19
  3.9135577718743153E-01 a       200     0    10     1    20
 -6.7478977991906686E-01 a       201     0    11     1     1
 -5.3653090693822625E-01 a       202     0    11     1     2
  4.4773821830084694E-02 a       203     0    11     1     3
  1.5015435064582600E-01 a       204     0    11     1     4
  4.3684193060623883E-01 a       205     0    11     1     5
 -2.4174813400358683E-01 a       206     0    11     1     6
  2.3869698089644248E-01 a       207     0    11     1     7
  7.8630464035177450E-01 a       208     0    11     1     8
 -1.3367673652129367E-01 a       209     0    11     1     9
 -6.1808831149754562E-01 a       210     0    11     1    10
  5.9544085071713981E-01 a       211     0    11     1    11
  5.7551219506210047E-02 a       212     0    11     1    12
 -9.9333485669886090E-02 a       213     0    11     1    13
  8.5181435942096795E-01 a       214     0    11     1    14
 -1.6330866705747291E-01 a       215     0    11     1    15
 -1.9610229300594359E-01 a       216     0    11     1    16
  1.1713466391827767E+00 a       217     0    11     1    17
  1.5274313414141030E-01 a       218     0    11     1    18
 -7.4835637585468129E-01 a       219     0    11     1    19
 -3.1083882521924681E-02 a       220     0    11     1    20
 -8.8167629487303154E-02 a       221     0    12     1     1
  3.9128959995682155E-01 a       222     0    12     1     2
  9.3105203233958045E-02 a       223     0    12     1     3
 -3.3440642771305984E-01 a       224     0    12     1     4
  5.9562736124650217E-01 a       225     0    12     1     5
  4.9721432382052694E-01 a       226     0    12     1     6
  1.4073601303085764E-01 a       227     0    12     1     7
 -1.6485103249723807E+00 a       228     0    12     1     8
  2.9228832288540052E-01 a       229     0    12     1     9
 -4.3782172944100300E-01 a       230     0    12     1    10
 -1.0999194152969312E+00 a       231     0    12     1    11
 -9.5036085104363255E-01 a       232     0    12     1    12
  6.0950411773264190E-01 a       233     0    12     1    13
 -1.9224841307380844E-01 a       234     0    12     1    14
  3.5838541329970036E-01 a       235     0    12     1    15
 -4.1495910048434897E-01 a       236     0    12     1    16
 -3.0910004658055173E-01 a       237     0    12     1    17
  2.9683811293915191E-01 a       238     0    12     1    18
  5.3572225897010006E-01 a       239     0    12     1    19
  3.2004103865422612E-01 a       240     0    12     1    20
 -5.1040647658762783E-01 a       241     0    13     1     1
  1.0625858429317252E-01 a       242     0    13     1     2
  4.7862928614436057E-01 a       243     0    13     1     3
 -2.3359370463990192E-01 a       244     0    13     1     4
  1.2408696124058104E-02 a       245     0    13     1     5
 -2.3893248169739240E-01 a       246     0    13     1     6
  4.8443990732049130E-01 a       247     0    13     1     7
 -9.1357681653820383E-02 a       248     0    13     1     8
 -1.3450007810093939E-01 a       249     0    13     1     9
 -8.4423755772232401E-01 a       250     0    13     1    10
  9.1565970381603967E-02 a       251     0    13     1    11
  5.2484041846588614E-01 a       252     0    13     1    12
 -4.7120297594438049E-01 a       253     0    13     1    13
  7.3264083799830504E-01 a       254     0    13     1    14
 -1.1462465946013957E-01 a       255     0    13     1    15
 -2.1498013844635050E-01 a       256     0    13     1    16
 -2.8422742039393621E-02 a       257     0    13     1    17
 -1.7778379264726116E-01 a       258     0    13     1    18
 -3.1637660549548352E-01 a       259     0    13     1    19
 -3.3893477920741755E-01 a       260     0    13     1    20
  1.7679893724088341E-01 a       261     0    14     1     1
 -5.1760474765159670E-01 a       262     0    14     1     2
  1.6930797736075279E-01 a       263     0    14     1     3
  3.8899456564269153E-01 a       264     0    14     1     4
  5.0854674373006326E-01 a       265     0    14     1     5
 -4.0256645950710844E-02 a       266     0    14     1     6
 -2.0600499229278127E-01 a       267     0    14     1     7
  2.3008824845377238E-01 a       268     0    14     1     8
  7.5148910501159061E-01 a       269     0    14     1     9
 -3.3366916088109128E-01 a       270     0    14     1    10
 -4.0740972900362543E-01 a       271     0    14     1    11
  1.1511402502828963E-01 a       272     0    14     1    12
  3.5695391481112204E-01 a       273     0    14     1    13
  2.0846737533192469E-01 a       274     0    14     1    14
 -2.0028455731756323E-01 a       275     0    14     1    15
  2.8251724491302688E-01 a       276     0    14     1    16
  1.2095015084062142E+00 a       277     0    14     1    17
  6.4941830277776480E-01 a       278     0    14     1    18
 -4.0208680416257475E-01 a       279     0    14     1    19
 -6.5283009723719587E-02 a       280     0    14     1    20
 -1.6357847278397819E-01 a       281     0    15     1     1
 -1.1353610676498949E-01 a       282     0    15     1     2
  4.8450123745449808E-01 a       283     0    15     1     3
 -4.5549953432336088E-01 a       284     0    15     1     4
  2.3560181446139189E-01 a       285     0    15     1     5
 -4.3312432604567486E-01 a       286     0    15     1     6
 -6.2150956017911496E-01 a       287     0    15     1     7
  4.7169347152398472E-01 a       288     0    15     1     8
  9.4294484342509519E-02 a       289     0    15     1     9
  3.9913259698949805E-01 a       290     0    15     1    10
 -1.2264420000508631E+00 a       291     0    15     1    11
 -3.1148160224801841E-02 a       292     0    15     1    12
  3.5544777780809094E-04 a       293     0    15     1    13
 -3.1382485278541872E-01 a       294     0    15     1    14
  3.8908132177321525E-01 a       295     0    15     1    15
 -1.7258962903905345E-01 a       296     0    15     1    16
  8.0376059848544318E-02 a       297     0    15     1    17
 -8.6947188645475348E-01 a       298     0    15     1    18
  1.7232773843153626E-01 a       299     0    15     1    19
 -2.4507700083401515E-01 a       300     0    15     1    20
 -2.7528573796057892E-01 a       301     0    16     1     1
  3.6678628323567958E-01 a       302     0    16     1     2
 -5.4486924127417902E-01 a       303     0    16     1     3
  1.3513682576536351E-01 a       304     0    16     1     4
 -3.9953817954746373E-01 a       305     0    16     1     5
 -3.0699212678013432E-01 a       306     0    16     1     6
  4.1923043382496405E-01 a       307     0    16     1     7
 -1.2216065916630112E+00 a       308     0    16     1     8
  4.0279450718031753E-02 a       309     0    16     1     9
  1.0476745346650516E-01 a       310     0    16     1    10
 -1.0546051657993896E-01 a       311     0    16     1    11
  5.3896340496751172E-01 a       312     0    16     1    12
 -8.0499040833617708E-01 a       313     0    16     1    13
 -6.6337881874526064E-02 a       314     0    16     1    14
 -1.4716723771401050E-01 a       315     0    16     1    15
 -4.6629863741279970E-01 a       316     0    16     1    16
 -7.6954203287015910E-01 a       317     0    16     1    17
  2.0178990868458840E-01 a       318     0    16     1    18
 -9.3194003334080400E-02 a       319     0    16     1    19
 -3.0677987752525632E-01 a       320     0    16     1    20
 -5.2067054210616789E-02 a       321     0    17     1     1
 -3.5915500118109694E-01 a       322     0    17     1     2
  3.3262045304990268E-01 a       323     0    17     1     3
 -6.5106012261066633E-03 a       324     0    17     1     4
  5.9145566896154156E-01 a       325     0    17     1     5
  9.3048384590751820E-02 a       326     0    17     1     6
 -3.0574437150798439E-01 a       327     0    17     1     7
  1.1816725302967219E+00 a       328     0    17     1     8
 -4.3926903854041875E-02 a       329     0    17     1     9
  2.7081654115587411E-01 a       330     0    17     1    10
  1.6365467920041108E+00 a       331     0    17     1    11
 -2.2273398875007541E-01 a       332     0    17     1    12
 -2.2677017274423722E-01 a       333     0    17     1    13
 -2.3332962956129485E-03 a       334     0    17     1    14
  9.7983861613936962E-02 a       335     0    17     1    15
  1.0297831261397851E-01 a       336     0    17     1    16
  4.1696883114180672E-01 a       337     0    17     1    17
  1.4376650089665208E-01 a       338     0    17     1    18
 -6.3238485350866447E-01 a       339     0    17     1    19
 -3.3990594392949941E-01 a       340     0    17     1    20
  1.7963591560507727E-01 a       341     0    18     1     1
  4.6736668557178102E-01 a       342     0    18     1     2
  4.4674825633099313E-01 a       343     0    18     1     3
 -3.6603001988308731E-01 a       344     0    18     1     4
 -8.5692000277997032E-02 a       345     0    18     1     5
 -4.8965963278837660E-01 a       346     0    18     1     6
 -3.4376086862210137E-01 a       347     0    18     1     7
 -1.2941133181384579E+00 a       348     0    18     1     8
  6.6306507042723936E-02 a       349     0    18     1     9
 -2.5746874575710921E-01 a       350     0    18     1    10
 -5.6424041035741712E-01 a       351     0    18     1    11
  2.1061884218348753E-01 a       352     0    18     1    12
 -3.9150122815115174E-01 a       353     0    18     1    13
 -2.5979981140789743E-01 a       354     0    18     1    14
  5.2469093793450550E-01 a       355     0    18     1    15
  6.3791325965877818E-02 a       356     0    18     1    16
 -5.7227048387503621E-01 a       357     0    18     1    17
  5.2854724333712511E-01 a       358     0    18     1    18
  1.0142465364664850E-01 a       359     0    18     1    19
 -7.7933274803154484E-01 a       360     0    18     1    20
  6.2438830662458700E-01 a       361     0    19     1     1
 -4.3192107523147472E-01 a       362     0    19     1     2
 -2.6025161070514413E-01 a       363     0    19     1     3
  4.8655470948447616E-01 a       364     0    19     1     4
  8.5130882522197870E-03 a       365     0    19     1     5
 -6.4437159954184320E-01 a       366     0    19     1     6
  2.4555409324907373E-01 a       367     0    19     1     7
 -6.2880897036550099E-01 a       368     0    19     1     8
 -7.5781877487805616E-01 a       369     0    19     1     9
 -2.8294320020633201E-01 a       370     0    19     1    10
  1.9352034609341412E-01 a       371     0    19     1    11
  9.3909491211496471E-02 a       372     0    19     1    12
 -3.2206909972582098E-01 a       373     0    19     1    13
  5.1494811814625585E-01 a       374     0    19     1    14
 -3.0525925525367537E-01 a       375     0    19     1    15
 -7.0997468250160778E-01 a       376     0    19     1    16
 -4.8789349994426613E-02 a       377     0    19     1    17
 -3.0059543268168304E-01 a       378     0    19     1    18
  1.1825000196686100E-01 a       379     0    19     1    19
  5.5141593262922695E-01 a       380     0    19     1    20
 -5.0209339385889484E-01 a       381     0    20     1     1
 -7.8808498109148417E-01 a       382     0    20     1     2
  1.9077574822150331E-01 a       383     0    20     1     3
  2.0671697991200474E-01 a       384     0    20     1     4
 -2.3335600376470114E-01 a       385     0    20     1     5
 -4.8450715051118398E-01 a       386     0    20     1     6
  5.5300417238783295E-01 a       387     0    20     1     7
  7.2415563609985900E-01 a       388     0    20     1     8
 -1.6402622430266084E-01 a       389     0    20     1     9
  1.5652747817729885E-02 a       390     0    20     1    10
 -6.4771082493276302E-02 a       391     0    20     1    11
  6.8284111679723494E-02 a       392     0    20     1    12
 -1.8972642782596933E-02 a       393     0    20     1    13
 -1.6086305167975917E-02 a       394     0    20     1    14
  5.7682674547533741E-01 a       395     0    20     1    15
 -2.6771497403071931E-01 a       396     0    20     1    16
  1.5734534826455793E-01 a       397     0    20     1    17
  1.1303624745177279E+00 a       398     0    20     1    18
 -3.0774933158958534E-01 a       399     0    20     1    19
 -1.5428233398928565E-01 a       400     0    20     1    20
  4.1334432143905120E-01 a       401     0    21     1     1
 -1.8493656354709465E-01 a       402     0    21     1     2
  1.4650824315005057E-01 a       403     0    21     1     3
  2.3581094247640544E-01 a       404     0    21     1     4
 -2.1155771200945830E-01 a       405     0    21     1     5
  1.1184483635610545E+00 a       406     0    21     1     6
  6.4245253942906022E-01 a       407     0    21     1     7
  4.5125881498180059E-01 a       408     0    21     1     8
  3.6983991550427220E-01 a       409     0    21     1     9
 -3.7928124940515651E-01 a       410     0    21     1    10
 -1.6135658569137620E-01 a       411     0    21     1    11
  4.5709640356460840E-01 a       412     0    21     1    12
 -6.7644498801398523E-01 a       413     0    21     1    13
  1.8350240239036986E-01 a       414     0    21     1    14
 -1.9839897855757421E-01 a       415     0    21     1    15
 -1.0522100240270564E-01 a       416     0    21     1    16
 -4.3767386433886801E-01 a       417     0    21     1    17
  3.5190377744011653E-01 a       418     0    21     1    18
 -1.5444223650341021E-01 a       419     0    21     1    19
 -6.0947769835859318E-02 a       420     0    21     1    20
  5.6783171416590630E-02 a       421     0    22     1     1
 -2.2854079590840315E-01 a       422     0    22     1     2
  3.7250404118845826E-01 a       423     0    22     1     3
  1.3046782413517738E-01 a       424     0    22     1     4
  2.8554874013863740E-01 a       425     0    22     1     5
 -3.1127011856574749E-01 a       426     0    22     1     6
 -4.3811169829802717E-02 a       427     0    22     1     7
 -3.8457937852692928E-02 a       428     0    22     1     8
 -7.9182796469306121E-02 a       429     0    22     1     9
  2.7231471113570249E-01 a       430     0    22     1    10
  3.8435307915342254E-01 a       431     0    22     1    11
 -7.9359695193578217E-02 a       432     0    22     1    12
  1.4636740860543768E-01 a       433     0    22     1    13
  1.5760451216749025E-01 a       434     0    22     1    14
  1.4473737968904496E-01 a       435     0    22     1    15
  5.4148202466651985E-01 a       436     0    22     1    16
 -6.0434146404870359E-01 a       437     0    22     1    17
 -5.2785982381407293E-01 a       438     0    22     1    18
 -1.9155651202721483E-01 a       439     0    22     1    19
 -5.8646547780506708E-01 a       440     0    22     1    20
  2.5457539970699644E-01 a       441     0    23     1     1
  9.5303819996026706E-01 a       442     0    23     1     2
  9.5832656436473151E-02 a       443     0    23     1     3
 -1.8132325790572248E-01 a       444     0    23     1     4
 -7.8805576166491326E-03 a       445     0    23     1     5
  1.7989498225755737E-01 a       446     0    23     1     6
 -2.6774984015642866E-01 a       447     0    23     1     7
 -9.0455153912341199E-02 a       448     0    23     1     8
  4.3064516192754876E-01 a       449     0    23     1     9
 -9.5201160380540256E-03 a       450     0    23     1    10
 -1.6357518588475395E-01 a       451     0    23     1    11
 -4.7533555368252288E-02 a       452     0    23     1    12
  6.7976255430320737E-02 a       453     0    23     1    13
 -5.1258896454063663E-01 a       454     0    23     1    14
  9.9651396270517542E-02 a       455     0    23     1    15
  2.7435248799449580E-01 a       456     0    23     1    16
  1.1162423597561204E-01 a       457     0    23     1    17
 -7.1243592291215940E-01 a       458     0    23     1    18
  7.1426430521268250E-02 a       459     0    23     1    19
  9.6182024345783712E-02 a       460     0    23     1    20
  4.6416624785809973E-01 a       461     0    24     1     1
  6.9759383649782514E-01 a       462     0    24     1     2
  2.2927736987142242E-01 a       463     0    24     1     3
 -5.2339536278164778E-01 a       464     0    24     1     4
  8.9543796007956148E-03 a       465     0    24     1     5
  3.0714023362736076E-01 a       466     0    24     1     6
 -9.7893877599737689E-01 a       467     0    24     1     7
  2.5823768676814757E-01 a       468     0    24     1     8
 -7.5447545071823052E-01 a       469     0    24     1     9
  2.3799018122979165E-01 a       470     0    24     1    10
 -1.5621535490125024E-01 a       471     0    24     1    11
  6.5659654591085326E-01 a       472     0    24     1    12
 -1.5104932402740320E-01 a       473     0    24     1    13
  4.2337732102535847E-01 a       474     0    24     1    14
 -2.5875990119861447E-01 a       475     0    24     1    15
  5.2505850988221622E-02 a       476     0    24     1    16
  4.9024161953973350E-01 a       477     0    24     1    17
 -3.3901676593074148E-01 a       478     0    24     1    18
  2.9585333250422108E-01 a       479     0    24     1    19
 -6.6940610145881196E-01 a       480     0    24     1    20
 -1.9035399416493304E-01 a       481     0    25     1     1
  1.2216111188527115E-01 a       482     0    25     1     2
 -2.2566964148532997E-01 a       483     0    25     1     3
  9.7470151122082271E-01 a       484     0    25     1     4
  3.0162762977825991E-01 a       485     0    25     1     5
  5.2729785124911799E-01 a       486     0    25     1     6
  7.8473953308645805E-01 a       487     0    25     1     7
 -2.9583788900360192E-01 a       488     0    25     1     8
  5.2506248056057492E-01 a       489     0    25     1     9
  6.1648773343493590E-01 a       490     0    25     1    10
  6.8064099716884507E-01 a       491     0    25     1    11
 -1.4505538989646098E+00 a       492     0    25     1    12
 -3.3957386410347862E-01 a       493     0    25     1    13
 -9.6006986655514404E-01 a       494     0    25     1    14
  8.1690765882827610E-01 a       495     0    25     1    15
 -2.7526600895479869E-01 a       496     0    25     1    16
 -6.0925405626089246E-01 a       497     0    25     1    17
 -2.9242913731941617E-01 a       498     0    25     1    18
 -1.3880644428294617E-01 a       499     0    25     1    19
  1.1756921110542626E+00 a       500     0    25     1    20
 -2.6216241589544009E-01 a       501     0    26     1     1
 -2.6100907703960396E-01 a       502     0    26     1     2
 -4.4363123473890698E-01 a       503     0    26     1     3
  3.0765590327414133E-01 a       504     0    26     1     4
  1.3183903755939055E-01 a       505     0    26     1     5
 -5.4396878313317451E-02 a       506     0    26     1     6
  2.0306334828824193E-01 a       507     0    26     1     7
 -1.5692175118111060E-01 a       508     0    26     1     8
  5.5163144416505117E-01 a       509     0    26     1     9
  9.2930497630532238E-02 a       510     0    26     1    10
  5.3959930593464767E-01 a       511     0    26     1    11
 -6.2204783972468958E-01 a       512     0    26     1    12
 -8.2338675539855286E-02 a       513     0    26     1    13
 -1.2946503251273774E-02 a       514     0    26     1    14
  3.0536774949879048E-01 a       515     0    26     1    15
 -6.0409733982109033E-02 a       516     0    26     1    16
 -6.7539883127803491E-01 a       517     0    26     1    17
  7.9589925099915804E-02 a       518     0    26     1    18
 -3.9339165830492122E-02 a       519     0    26     1    19
  1.3830325197746376E-01 a       520     0    26     1    20
  5.6253414920813638E-01 a       521     0    27     1     1
 -1.6782369852577542E-01 a       522     0    27     1     2
  8.3184021368741798E-02 a       523     0    27     1     3
 -1.1625374485018636E-01 a       524     0    27     1     4
 -1.8084862930949946E-01 a       525     0    27     1     5
 -2.7635725373398373E-01 a       526     0    27     1     6
 -4.7346442476179951E-01 a       527     0    27     1     7
  3.3723709679427588E-01 a       528     0    27     1     8
 -4.8671296431459199E-01 a       529     0    27     1     9
 -6.7567974739829095E-01 a       530     0    27     1    10
 -6.5291776575613347E-01 a       531     0    27     1    11
  1.0121013373865198E+00 a       532     0    27     1    12
  4.0279329422162147E-01 a       533     0    27     1    13
  9.4119845584197304E-01 a       534     0    27     1    14
 -7.7223312317437076E-01 a       535     0    27     1    15
  5.6541143411957609E-02 a       536     0    27     1    16
  3.6648995660650219E-01 a       537     0    27     1    17
  4.5534440573834256E-01 a       538     0    27     1    18
  1.1726468022237078E-01 a       539     0    27     1    19
 -4.4933010848627214E-01 a       540     0    27     1    20
 -2.6853425017654209E-01 a       541     0    28     1     1
  3.7297150579446658E-01 a       542     0    28     1     2
  2.4660684406617508E-01 a       543     0    28     1     3
 -1.0603923933237779E-01 a       544     0    28     1     4
 -1.3413165585745767E-03 a       545     0    28     1     5
 -1.6320176965652858E-01 a       546     0    28     1     6
  2.7646036263644597E-01 a       547     0    28     1     7
 -4.0402970780297776E-01 a       548     0    28     1     8
 -3.4644002443936378E-01 a       549     0    28     1     9
 -8.7438056697263580E-02 a       550     0    28     1    10
 -4.3349398989653509E-01 a       551     0    28     1    11
 -7.1159837193995168E-01 a       552     0    28     1    12
  1.5840582426385239E-01 a       553     0    28     1    13
  2.1394434329083575E-01 a       554     0    28     1    14
  8.8851618662877954E-02 a       555     0    28     1    15
  1.6156947924482212E-01 a       556     0    28     1    16
 -2.6338220872053164E-01 a       557     0    28     1    17
  5.6664887881959902E-01 a       558     0    28     1    18
  2.9169098905671292E-01 a       559     0    28     1    19
  1.0490683025346946E-01 a       560     0    28     1    20
 -2.1836927579577450E-01 a       561     0    29     1     1
  1.4894786928502776E-01 a       562     0    29     1     2
  3.5148184295991447E-01 a       563     0    29     1     3
 -1.8149553802636904E-02 a       564     0    29     1     4
  5.9861613084225919E-02 a       565     0    29     1     5
  1.1208460637049018E-01 a       566     0    29     1     6
  1.7240629775867605E-01 a       567     0    29     1     7
  7.3020371272290038E-02 a       568     0    29     1     8
 -3.0068937699100506E-01 a       569     0    29     1     9
 -1.7559242409112652E-01 a       570     0    29     1    10
  2.6015300956275267E-01 a       571     0    29     1    11
 -2.8421619828377631E-01 a       572     0    29     1    12
  2.4889624251545373E-01 a       573     0    29     1    13
  2.6894770617339270E-01 a       574     0    29     1    14
 -1.3109098338602021E-01 a       575     0    29     1    15
  1.1597074517495337E-01 a       576     0    29     1    16
  2.7535722198522222E-01 a       577     0    29     1    17
  3.0672830730821588E-01 a       578     0    29     1    18
 -4.8839063518523274E-01 a       579     0    29     1    19
 -3.7821693802587658E-01 a       580     0    29     1    20
 -4.4259744298712450E-01 a       581     0    30     1     1
 -1.8319884133347422E-01 a       582     0    30     1     2
  8.2378864126940940E-02 a       583     0    30     1     3
  3.8748720885783260E-02 a       584     0    30     1     4
  7.9976431929472624E-02 a       585     0    30     1     5
  6.1401048117722334E-01 a       586     0    30     1     6
 -3.0409904391920699E-02 a       587     0    30     1     7
  1.8606852420248854E-01 a       588     0    30     1     8
  3.3590870338427586E-02 a       589     0    30     1     9
  4.4000071560996834E-01 a       590     0    30     1    10
 -3.3727132433812396E-01 a       591     0    30     1    11
  7.9052113235020788E-02 a       592     0    30     1    12
 -7.8949826535992848E-02 a       593     0    30     1    13
 -2.0282902029872568E-01 a       594     0    30     1    14
 -1.8717235654553119E-01 a       595     0    30     1    15
  2.5846750542501240E-01 a       596     0    30     1    16
  3.1475873334562193E-01 a       597     0    30     1    17
  2.5702542968647213E-01 a       598     0    30     1    18
 -2.6194075554447516E-01 a       599     0    30     1    19
  1.2840252453862402E-01 a       600     0    30     1    20
 -6.9872838705350104E-01 a       601     0    31     1     1
 -2.3772655234606263E-01 a       602     0    31     1     2
  3.0249921790540957E-01 a       603     0    31     1     3
  4.4693780842970793E-01 a       604     0    31     1     4
 -2.7119586706102372E-01 a       605     0    31     1     5
  8.6984394769486562E-01 a       606     0    31     1     6
  6.4914081752957903E-02 a       607     0    31     1     7
  9.7940453222019025E-02 a       608     0    31     1     8
 -2.1992154131176851E-02 a       609     0    31     1     9
  3.4826350219067173E-02 a       610     0    31     1    10
  2.9844065801598513E-01 a       611     0    31     1    11
  2.8336969063703660E-01 a       612     0    31     1    12
  7.4558516967775643E-02 a       613     0    31     1    13
 -5.7023506819346570E-01 a       614     0    31     1    14
 -3.5995498734532855E-01 a       615     0    31     1    15
  7.3870832092739577E-02 a       616     0    31     1    16
  9.6323741590354325E-02 a       617     0    31     1    17
  3.1941311026365238E-01 a       618     0    31     1    18
 -1.1048872206429226E+00 a       619     0    31     1    19
  3.1837521237007804E-01 a       620     0    31     1    20
 -4.9404908318701035E-01 a       621     0    32     1     1
  2.0239390343553759E-01 a       622     0    32     1     2
 -1.1264294516514446E-01 a       623     0    32     1     3
 -7.3641686327867395E-01 a       624     0    32     1     4
  2.7962515927861359E-01 a       625     0    32     1     5
 -2.9430440319326207E-01 a       626     0    32     1     6
 -1.9784473013100459E-01 a       627     0    32     1     7
 -4.4086955392743771E-01 a       628     0    32     1     8
 -4.5111148833549597E-01 a       629     0    32     1     9
  5.6147376790959302E-01 a       630     0    32     1    10
  1.2195253397864404E-01 a       631     0    32     1    11
  5.2009449339072367E-01 a       632     0    32     1    12
  6.6145266130722602E-01 a       633     0    32     1    13
 -6.8371342090882053E-02 a       634     0    32     1    14
  1.1678884021461992E-01 a       635     0    32     1    15
 -1.1195212187839367E-01 a       636     0    32     1    16
  4.9387391028904014E-02 a       637     0    32     1    17
 -2.1215579579810034E-01 a       638     0    32     1    18
 -2.2879237046496401E-01 a       639     0    32     1    19
 -7.0612218467200416E-01 a       640     0    32     1    20
  2.5923082964246284E-02 a       641     0    33     1     1
  1.0957985056616488E+00 a       642     0    33     1     2
 -3.2986684079907569E-01 a       643     0    33     1     3
 -3.2938668597517573E-01 a       644     0    33     1     4
  4.7287613368623288E-01 a       645     0    33     1     5
  5.9602349180456271E-01 a       646     0    33     1     6
 -4.7801947395544851E-02 a       647     0    33     1     7
 -3.9672000626466003E-01 a       648     0    33     1     8
 -5.7302447123600031E-01 a       649     0    33     1     9
 -8.5037651112078880E-02 a       650     0    33     1    10
  3.7266045113467416E-01 a       651     0    33     1    11
 -2.1304263167881064E-02 a       652     0    33     1    12
  1.2707051287638893E-01 a       653     0    33     1    13
  1.4895922256697283E-01 a       654     0    33     1    14
 -2.4239494014016855E-01 a       655     0    33     1    15
  5.0123623387974214E-01 a       656     0    33     1    16
 -2.7524988803088535E-01 a       657     0    33     1    17
 -5.5008958706869426E-01 a       658     0    33     1    18
 -6.6663170755474355E-01 a       659     0    33     1    19
  1.2138479492792038E+00 a       660     0    33     1    20
  3.4030806627736476E-01 a       661     0    34     1     1
 -4.1129586517459521E-01 a       662     0    34     1     2
  2.1958635876392107E-01 a       663     0    34     1     3
  1.0376106974498467E-01 a       664     0    34     1     4
 -4.8591334058390989E-01 a       665     0    34     1     5
 -1.9852072257164219E-01 a       666     0    34     1     6
  2.3078711546871930E-01 a       667     0    34     1     7
  2.9431561669286976E-01 a       668     0    34     1     8
 -1.1384548771840869E-01 a       669     0    34     1     9
 -3.1039173336841025E-01 a       670     0    34     1    10
 -8.3529376863434160E-02 a       671     0    34     1    11
 -1.6958869986155503E-01 a       672     0    34     1    12
 -3.0618315249249861E-01 a       673     0    34     1    13
 -6.2068328789259934E-02 a       674     0    34     1    14
  7.5510237345596448E-02 a       675     0    34     1    15
  6.8087688750550534E-03 a       676     0    34     1    16
 -3.6840639872213354E-01 a       677     0    34     1    17
  9.7483519625643583E-02 a       678     0    34     1    18
  7.7512947389434350E-01 a       679     0    34     1    19
 -5.0293721975433392E-01 a       680     0    34     1    20
 -2.4510725377047182E-01 a       681     0    35     1     1
 -6.5591052667158589E-01 a       682     0    35     1     2
 -1.4036322010429725E+00 a       683     0    35     1     3
  8.7697784742427165E-01 a       684     0    35     1     4
 -5.9159834255616461E-01 a       685     0    35     1     5
  1.1040604496475281E+00 a       686     0    35     1     6
 -3.2236671348085211E-01 a       687     0    35     1     7
  2.4993908461993214E-01 a       688     0    35     1     8
  3.2586263207206628E-01 a       689     0    35     1     9
  7.3009300301164171E-01 a       690     0    35     1    10
 -1.9705118774827013E-01 a       691     0    35     1    11
  3.2535879219347996E-01 a       692     0    35     1    12
  1.2154707268156235E+00 a       693     0    35     1    13
  1.2739961275721517E-01 a       694     0    35     1    14
  2.5448627536547791E-01 a       695     0    35     1    15
  1.4531985925403504E-01 a       696     0    35     1    16
  2.5095645579851650E-01 a       697     0    35     1    17
  1.6734293841228773E-01 a       698     0    35     1    18
  6.6479964639377775E-01 a       699     0    35     1    19
  9.6012166787170072E-01 a       700     0    35     1    20
 -4.7610053619234782E-01 a       701     0    36     1     1
  2.4449484089490360E-02 a       702     0    36     1     2
  5.9128595916144944E-01 a       703     0    36     1     3
 -6.1475623086694764E-01 a       704     0    36     1     4
  1.6719919867361360E-01 a       705     0    36     1     5
 -3.8518666633592324E-01 a       706     0    36     1     6
  2.4092568683084706E-01 a       707     0    36     1     7
  6.9295812700803830E-02 a       708     0    36     1     8
  3.8963192605900532E-01 a       709     0    36     1     9
 -2.0768672748257194E-01 a       710     0    36     1    10
  5.6291408087291855E-02 a       711     0    36     1    11
  1.9783842649940686E-01 a       712     0    36     1    12
 -5.0854371970921963E-01 a       713     0    36     1    13
  6.7001575130711782E-02 a       714     0    36     1    14
 -1.9248067794582924E-01 a       715     0    36     1    15
  2.2572492139088277E-01 a       716     0    36     1    16
 -1.3201981811062337E-02 a       717     0    36     1    17
  1.9993833743791112E-01 a       718     0    36     1    18
 -9.6382340139020264E-02 a       719     0    36     1    19
 -5.5418660713367052E-01 a       720     0    36     1    20
  3.2392366467137790E-01 a       721     0    37     1     1
 -6.8141229719584340E-01 a       722     0    37     1     2
  4.3329384470129478E-01 a       723     0    37     1     3
  2.8922052466088483E-01 a       724     0    37     1     4
 -1.8226817132531761E-01 a       725     0    37     1     5
 -5.3696221745937245E-01 a       726     0    37     1     6
  4.5614015198794872E-03 a       727     0    37     1     7
  3.4983650723911097E-01 a       728     0    37     1     8
  3.5223665156836353E-01 a       729     0    37     1     9
 -6.5754341282130466E-02 a       730     0    37     1    10
 -1.5871621292846538E-01 a       731     0    37     1    11
 -6.0608938654998805E-03 a       732     0    37     1    12
 -2.3574885934404111E-01 a       733     0    37     1    13
 -1.4074640544687098E-01 a       734     0    37     1    14
  1.4151457851925647E-01 a       735     0    37     1    15
 -1.6386779148835592E-01 a       736     0    37     1    16
  1.3688098179303526E-01 a       737     0    37     1    17
  1.8239186141573402E-01 a       738     0    37     1    18
  7.5005579777749842E-01 a       739     0    37     1    19
 -7.8742074065798029E-01 a       740     0    37     1    20
  1.4496172489273027E+00 a       741     0    38     1     1
  8.0859298072893238E-01 a       742     0    38     1     2
 -1.2184746095254466E+00 a       743     0    38     1     3
  1.1016241908897963E-01 a       744     0    38     1     4
 -4.1240130472605920E-02 a       745     0    38     1     5
 -1.1378480505608456E-01 a       746     0    38     1     6
 -2.3181269887794684E-01 a       747     0    38     1     7
 -6.0910257714016924E-02 a       748     0    38     1     8
 -3.6130314615854614E-01 a       749     0    38     1     9
  5.5192653257094060E-01 a       750     0    38     1    10
  2.9730863627091758E-01 a       751     0    38     1    11
 -2.7991855222408463E-01 a       752     0    38     1    12
  3.4425871991521934E-01 a       753     0    38     1    13
  3.3157463990376523E-01 a       754     0    38     1    14
  2.0539364116465636E-01 a       755     0    38     1    15
  5.5132362131130958E-02 a       756     0    38     1    16
  6.1153093967106380E-02 a       757     0    38     1    17
 -6.9279032902528126E-01 a       758     0    38     1    18
 -3.8687028219573077E-01 a       759     0    38     1    19
  3.6752139857830368E-01 a       760     0    38     1    20
 -6.5881033804822867E-02 a       761     0    39     1     1
 -3.0514742428941860E-01 a       762     0    39     1     2
  1.2093311308128120E-01 a       763     0    39     1     3
 -9.1318975803776001E-02 a       764     0    39     1     4
 -4.0566565950751798E-01 a       765     0    39     1     5
  1.4791507153853953E+00 a       766     0    39     1     6
 -4.9228122411543679E-01 a       767     0    39     1     7
  6.1248504353205724E-01 a       768     0    39     1     8
 -2.6237746185713490E-01 a       769     0    39     1     9
 -5.3902566833011811E-01 a       770     0    39     1    10
  1.6129671679499058E-01 a       771     0    39     1    11
 -1.3039526453738975E-01 a       772     0    39     1    12
 -6.8867126658131106E-01 a       773     0    39     1    13
 -1.1395045716863465E-01 a       774     0    39     1    14
 -8.1221672682907320E-01 a       775     0    39     1    15
 -2.7337956189628632E-01 a       776     0    39     1    16
 -2.1588000543252350E-01 a       777     0    39     1    17
  6.6006411994084002E-01 a       778     0    39     1    18
 -7.7602868705732386E-01 a       779     0    39     1    19
  4.2204612349359810E-01 a       780     0    39     1    20
  3.9409659159794275E-01 a       781     0    40     1     1
  1.3385300566199434E+00 a       782     0    40     1     2
 -8.4119323747445029E-01 a       783     0    40     1     3
  5.3585208617203994E-01 a       784     0    40     1     4
 -8.4130227845819971E-01 a       785     0    40     1     5
  6.5031410071393014E-01 a       786     0    40     1     6
  7.7397604052931601E-01 a       787     0    40     1     7
 -1.1143471795233959E+00 a       788     0    40     1     8
  6.1535019116358691E-01 a       789     0    40     1     9
  9.6756067027154360E-03 a       790     0    40     1    10
  1.0058120002552278E+00 a       791     0    40     1    11
  3.8225702513650234E-01 a       792     0    40     1    12
 -4.3312242762986536E-01 a       793     0    40     1    13
 -1.3713144045958903E+00 a       794     0    40     1    14
 -3.1321312857964534E-01 a       795     0    40     1    15
 -4.3244641697686809E-01 a       796     0    40     1    16
 -2.0916761779166773E-01 a       797     0    40     1    17
 -1.5022180774889777E+00 a       798     0    40     1    18
  1.6794287232353641E-01 a       799     0    40     1    19
  8.0022830340742712E-01 a       800     0    40     1    20
  1.2005231157523675E+00 a       801     0    41     1     1
 -6.4330878736423647E-01 a       802     0    41     1     2
  4.7895292117274263E-01 a       803     0    41     1     3
  1.1765963269905448E+00 a       804     0    41     1     4
  5.3513579219978302E-01 a       805     0    41     1     5
  6.5130862633402831E-01 a       806     0    41     1     6
 -5.7080409208077654E-01 a       807     0    41     1     7
  1.6482980087404070E-01 a       808     0    41     1     8
  5.2894363149975199E-01 a       809     0    41     1     9
 -2.6711149138045753E-01 a       810     0    41     1    10
 -2.5222825497286111E-01 a       811     0    41     1    11
 -5.0221606859084533E-01 a       812     0    41     1    12
  1.5059067279121439E+00 a       813     0    41     1    13
  9.1043578577728623E-01 a       814     0    41     1    14
  5.4332664609373627E-01 a       815     0    41     1    15
 -6.2495930488655338E-01 a       816     0    41     1    16
  5.6759125227742091E-01 a       817     0    41     1    17
 -5.9432873768325296E-02 a       818     0    41     1    18
  3.8610853084492730E-01 a       819     0    41     1    19
  2.2803604523315879E-01 a       820     0    41     1    20
  2.2511386885202780E-01 a       821     0    42     1     1
 -5.8392628430527127E-01 a       822     0    42     1     2
  4.5464445366771154E-02 a       823     0    42     1     3
 -3.5040100900073728E-01 a       824     0    42     1     4
  2.3111011874744458E-01 a       825     0    42     1     5
 -3.2772304210798192E-01 a       826     0    42     1     6
 -2.4945627396186981E-01 a       827     0    42     1     7
 -1.5553885027759759E-01 a       828     0    42     1     8
 -3.3753922307063655E-03 a       829     0    42     1     9
 -3.4919881642329675E-01 a       830     0    42     1    10
 -4.8401859368679984E-01 a       831     0    42     1    11
 -7.6469916933902671E-01 a       832     0    42     1    12
 -6.5512200371235207E-01 a       833     0    42     1    13
 -4.1125324567355931E-01 a       834     0    42     1    14
 -3.9107118622591350E-02 a       835     0    42     1    15
  4.4025359201743131E-01 a       836     0    42     1    16
 -6.8509325001617594E-01 a       837     0    42     1    17
  2.0532707200451961E-01 a       838     0    42     1    18
  8.0385428158062500E-01 a       839     0    42     1    19
 -7.2084722589894412E-01 a       840     0    42     1    20
 -1.2580219047644983E+00 a       841     0    43     1     1
  2.8523026493491127E-01 a       842     0    43     1     2
  1.1383569861080928E-01 a       843     0    43     1     3
 -1.3857972354322967E+00 a       844     0    43     1     4
  5.7566242717278848E-01 a       845     0    43     1     5
 -9.8647411953009012E-01 a       846     0    43     1     6
  4.4041495203002323E-01 a       847     0    43     1     7
  2.1293939498499888E+00 a       848     0    43     1     8
  9.5971038688818922E-01 a       849     0    43     1     9
  7.7680550475438237E-01 a       850     0    43     1    10
 -9.6507427293092331E-03 a       851     0    43     1    11
  5.2455838123585052E-01 a       852     0    43     1    12
  4.4106923659329172E-01 a       853     0    43     1    13
  3.2209856070071136E-01 a       854     0    43     1    14
 -1.0871698472634493E-02 a       855     0    43     1    15
  1.1172698566836046E+00 a       856     0    43     1    16
 -7.8770985534912885E-01 a       857     0    43     1    17
 -1.1148132601909559E-01 a       858     0    43     1    18
  2.6038836447919383E-01 a       859     0    43     1    19
  2.6038490173818324E-01 a       860     0    43     1    20
  4.6997130866119785E-02 a       861     0    44     1     1
  4.6092624842637614E-01 a       862     0    44     1     2
 -4.2650542530162394E-01 a       863     0    44     1     3
 -2.6327842490101067E-01 a       864     0    44     1     4
 -3.0613210897051518E-01 a       865     0    44     1     5
 -3.7691560600717194E-01 a       866     0    44     1     6
 -1.4264393039156581E-01 a       867     0    44     1     7
 -7.8481497812889955E-01 a       868     0    44     1     8
 -7.3516944433743581E-01 a       869     0    44     1     9
  1.8405044091442313E-01 a       870     0    44     1    10
  8.8537650985734642E-02 a       871     0    44     1    11
  1.7039015508074573E-01 a       872     0    44     1    12
 -8.3186935828725439E-01 a       873     0    44     1    13
  7.1061588298954839E-04 a       874     0    44     1    14
 -2.4851897639138570E-01 a       875     0    44     1    15
  1.5860921150364765E-01 a       876     0    44     1    16
  1.4527398114911072E-01 a       877     0    44     1    17
 -2.9921337162398670E-01 a       878     0    44     1    18
 -1.4778049403583043E-01 a       879     0    44     1    19
 -1.5332296024931757E-01 a       880     0    44     1    20
 -3.7453667622115927E-01 a       881     0    45     1     1
 -5.0948199060383881E-01 a       882     0    45     1     2
 -2.8590233277120275E-01 a       883     0    45     1     3
 -2.3573353395652780E-01 a       884     0    45     1     4
  2.2830795115826219E-01 a       885     0    45     1     5
 -3.8307967580737956E-01 a       886     0    45     1     6
 -2.0573739211276668E-01 a       887     0    45     1     7
  5.2923366591894228E-01 a       888     0    45     1     8
 -1.1163105036366726E-01 a       889     0    45     1     9
 -6.0677002738030406E-01 a       890     0    45     1    10
  4.9707857600322081E-01 a       891     0    45     1    11
  2.7432977059467312E-01 a       892     0    45     1    12
  6.4489105373920297E-01 a       893     0    45     1    13
  1.6372429483819170E-01 a       894     0    45     1    14
  3.2868057086226221E-01 a       895     0    45     1    15
  5.1242587797090822E-01 a       896     0    45     1    16
  2.1993358117737241E-01 a       897     0    45     1    17
 -9.0101598394021348E-02 a       898     0    45     1    18
  5.6247170699481312E-02 a       899     0    45     1    19
 -8.0416230196497324E-02 a       900     0    45     1    20
 -3.6321528404622055E-01 a       901     0    46     1     1
 -6.2843599684555640E-01 a       902     0    46     1     2
 -6.8216327038102178E-03 a       903     0    46     1     3
 -5.3548551734775551E-01 a       904     0    46     1     4
  2.3583237847129629E-01 a       905     0    46     1     5
 -7.3951600099845982E-01 a       906     0    46     1     6
 -8.3220699795135602E-03 a       907     0    46     1     7
 -6.1519023196621925E-01 a       908     0    46     1     8
 -1.6401065576218163E-01 a       909     0    46     1     9
 -1.7614413282421215E-01 a       910     0    46     1    10
 -9.1582915302614565E-01 a       911     0    46     1    11
  3.0181593524697231E-01 a       912     0    46     1    12
  4.6638210653475004E-01 a       913     0    46     1    13
  3.8455075470420419E-01 a       914     0    46     1    14
 -2.0722656147029678E-01 a       915     0    46     1    15
 -4.3627393726439601E-01 a       916     0    46     1    16
  5.6847499303602156E-01 a       917     0    46     1    17
  1.6316604572737339E-01 a       918     0    46     1    18
  1.4990223361739016E-01 a       919     0    46     1    19
 -2.4346728487638716E-01 a       920     0    46     1    20
  9.8673304988756172E-01 b       921     1     1
 -1.6461235466016097E-01 b       922     1     2
 -1.4403187283442147E+00 b       923     1     3
 -1.1264550815952750E+00 b       924     1     4
 -6.3366915047030326E-01 b       925     1     5
  1.3837190099604555E+00 b       926     1     6
 -7.9592395473940958E-01 b       927     1     7
 -9.5774519473247799E-01 b       928     1     8
 -1.6491043447373581E+00 b       929     1     9
  1.5708455183020360E+00 b       930     1    10
 -2.6760002836252456E-01 b       931     1    11
  9.9417524866529550E-01 b       932     1    12
 -7.6394626696877543E-01 b       933     1    13
  1.2674096164203581E+00 b       934     1    14
 -1.1457870897873226E+00 b       935     1    15
 -9.7796453082700285E-01 b       936     1    16
  4.0298372248356173E-01 b       937     1    17
  5.7608861147060286E-01 b       938     1    18
  1.7282441322630498E-01 b       939     1    19
 -6.6885334581791611E-01 b       940     1    20
  5.3986166457979101E-01 a       941     1     1     2     1
 -1.9910537528249905E-01 a       942     1     1     2     2
 -8.9350133424306810E-02 a       943     1     1     2     3
 -8.0053539849729416E-01 a       944     1     1     2     4
 -2.5962163481078809E-01 a       945     1     1     2     5
  8.2639225770605340E-02 a       946     1     1     2     6
 -1.2816946606744403E-01 a       947     1     1     2     7
 -4.5487834365759605E-01 a       948     1     1     2     8
  5.0172308864790993E-01 a       949     1     1     2     9
  3.9100282376035017E-01 a       950     1     1     2    10
  5.2433008582369565E-02 a       951     1     1     2    11
 -4.1043371129967365E-01 a       952     1     1     2    12
 -7.5675879543954949E-01 a       953     1     1     2    13
 -2.5680100675165735E-01 a       954     1     1     2    14
  3.5699810322414688E-01 a       955     1     1     2    15
  9.9304429250680670E-02 a       956     1     1     2    16
  4.3227019465030503E-01 a       957     1     1     2    17
  4.1869576661906860E-01 a       958     1     1     2    18
  6.3027705530027101E-01 a       959     1     1     2    19
  5.2874215856052587E-01 a       960     1     1     2    20
 -8.8180253687703006E-02 a       961     1     2     2     1
 -8.4349771658159556E-01 a       962     1     2     2     2
 -6.2594150869112541E-01 a       963     1     2     2     3
  6.1852275872540941E-01 a       964     1     2     2     4
  2.8770771002039591E-01 a       965     1     2     2     5
 -5.1276042260538300E-02 a       966     1     2     2     6
 -6.8420838401708128E-01 a       967     1     2     2     7
  2.9985148363678688E-01 a       968     1     2     2     8
 -4.1684465604015608E-01 a       969     1     2     2     9
 -7.8903313275676679E-01 a       970     1     2     2    10
  3.3920720745106697E-01 a       971     1     2     2    11
 -3.5182356689298228E-01 a       972     1     2     2    12
 -1.5324539877684831E-01 a       973     1     2     2    13
 -3.8236661097739916E-01 a       974     1     2     2    14
 -6.7495577167036691E-01 a       975     1     2     2    15
 -1.0539323485680090E-01 a       976     1     2     2    16
  7.5417925597053415E-01 a       977     1     2     2    17
  9.6576571192663907E-01 a       978     1     2     2    18
  8.2027122844176836E-01 a       979     1     2     2    19
 -5.6595521369458446E-01 a       980     1     2     2    20
  2.0219624136688638E-01 a       981     1     3     2     1
  4.1860520151238215E-02 a       982     1     3     2     2
 -1.1918018534245951E+00 a       983     1     3     2     3
 -6.8260292772643905E-01 a       984     1     3     2     4
  6.8782316888822792E-01 a       985     1     3     2     5
 -3.1756999702599881E-01 a       986     1     3     2     6
  7.2045821706802182E-01 a       987     1     3     2     7
 -3.7814258396753997E-01 a       988     1     3     2     8
 -1.0187600041504328E+00 a       989     1     3     2     9
  5.2083864532582402E-01 a       990     1     3     2    10
 -4.8561742853414624E-01 a       991     1     3     2    11
  3.7102542578479664E-01 a       992     1     3     2    12
  8.6414079198727928E-02 a       993     1     3     2    13
 -7.7554522757965605E-01 a       994     1     3     2    14
 -1.9109973468911828E-01 a       995     1     3     2    15
 -4.7671619094275336E-01 a       996     1     3     2    16
  5.2471479318728309E-01 a       997     1     3     2    17
  2.4553670600168198E-01 a       998     1     3     2    18
 -8.1433761283099404E-01 a       999     1     3     2    19
 -1.4845137502818970E-01 a      1000     1     3     2    20
 -3.4186030825185404E-01 a      1001     1     4     2     1
  6.0657922203811748E-02 a      1002     1     4     2     2
 -3.1651705863983448E-01 a      1003     1     4     2     3
  1.5691718566658830E-01 a      1004     1     4     2     4
  1.0557101555942858E+00 a      1005     1     4     2     5
 -3.0539039764143910E-01 a      1006     1     4     2     6
  1.5936260148710391E+00 a      1007     1     4     2     7
  4.6290610734944808E-03 a      1008     1     4     2     8
 -4.8721774831813264E-01 a      1009     1     4     2     9
  1.3114611106156366E+00 a      1010     1     4     2    10
  3.6147306470831964E-01 a      1011     1     4     2    11
  1.4933119327650679E-01 a      1012     1     4     2    12
  9.4589942315552261E-02 a      1013     1     4     2    13
 -3.7729490745107530E-01 a      1014     1     4     2    14
 -2.6796021270028125E-01 a      1015     1     4     2    15
  9.4405888290417142E-02 a      1016     1     4     2    16
 -6.7017397600791090E-02 a      1017     1     4     2    17
 -1.1073726180820756E-01 a      1018     1     4     2    18
 -6.3770953025944466E-01 a      1019     1     4     2    19
  4.4166670581081441E-01 a      1020     1     4     2    20
 -4.3895690794054659E-01 a      1021     1     5     2     1
  4.5434747333487263E-01 a      1022     1     5     2     2
 -6.7968676022141974E-02 a      1023     1     5     2     3
 -2.7572125379562190E-01 a      1024     1     5     2     4
 -7.9655307061274239E-01 a      1025     1     5     2     5
  5.1494944188914860E-01 a      1026     1     5     2     6
  3.5657787010709713E-01 a      1027     1     5     2     7
 -6.5302459054060003E-01 a      1028     1     5     2     8
  2.7169837058781870E-01 a      1029     1     5     2     9
  5.1068750904931581E-01 a      1030     1     5     2    10
 -7.1260766042706858E-01 a      1031     1     5     2    11
 -2.6167569670474800E-01 a      1032     1     5     2    12
  2.4974959375855665E-01 a      1033     1     5     2    13
  1.6454729326215864E-01 a      1034     1     5     2    14
 -3.3909519833151408E-01 a      1035     1     5     2    15
 -4.0835615082423338E-01 a      1036     1     5     2    16
 -8.2526949819130602E-01 a      1037     1     5     2    17
 -4.4010690099897010E-01 a      1038     1     5     2    18
  1.8031296032302152E-01 a      1039     1     5     2    19
  3.0730818687991746E-01 a      1040     1     5     2    20
 -2.8648992140676072E-01 a      1041     1     6     2     1
  3.3638620988824919E-01 a      1042     1     6     2     2
 -1.2504618588376898E-01 a      1043     1     6     2     3
  5.5075071990577218E-01 a      1044     1     6     2     4
  1.4653249579710548E+00 a      1045     1     6     2     5
  2.1834729550010792E-01 a      1046     1     6     2     6
 -2.1354722536726545E-01 a      1047     1     6     2     7
  4.4503436609704705E-01 a      1048     1     6     2     8
  4.6034324677935452E-02 a      1049     1     6     2     9
  1.0424143758703803E+00 a      1050     1     6     2    10
 -6.5382471390070820E-02 a      1051     1     6     2    11
  4.6047549329117110E-01 a      1052     1     6     2    12
 -1.1204034766756098E-01 a      1053     1     6     2    13
 -3.9206090319200854E-01 a      1054     1     6     2    14
  8.5786724272315718E-01 a      1055     1     6     2    15
 -1.7807593346574119E-01 a      1056     1     6     2    16
 -2.5450883688098402E-01 a      1057     1     6     2    17
 -4.9605164621163705E-01 a      1058     1     6     2    18
 -4.8769446250663762E-01 a      1059     1     6     2    19
 -1.0334497219118086E+00 a      1060     1     6     2    20
 -8.7114225196573458E-01 a      1061     1     7     2     1
 -1.3056562376572996E-02 a      1062     1     7     2     2
 -1.0210073676213112E-01 a      1063     1     7     2     3
 -6.0290227379753414E-01 a      1064     1     7     2     4
 -4.5165532378901291E-01 a      1065     1     7     2     5
 -8.0143616208621149E-01 a      1066     1     7     2     6
 -5.7749366321103675E-02 a      1067     1     7     2     7
 -4.4481879480985925E-01 a      1068     1     7     2     8
  3.2013505188355668E-01 a      1069     1     7     2     9
  8.5959982582224037E-01 a      1070     1     7     2    10
 -8.9551078382701554E-01 a      1071     1     7     2    11
  5.1851789141536031E-01 a      1072     1     7     2    12
 -1.2567839738789338E-01 a      1073     1     7     2    13
  4.5264362903403099E-01 a      1074     1     7     2    14
 -2.6466341037661278E-01 a      1075     1     7     2    15
  3.8092265064204822E-01 a      1076     1     7     2    16
  3.2675648659792261E-01 a      1077     1     7     2    17
  3.8887732246414974E-01 a      1078     1     7     2    18
  9.1120319477162193E-01 a      1079     1     7     2    19
 -6.2631255777117145E-01 a      1080     1     7     2    20
  8.6629220768670601E-01 a      1081     1     8     2     1
 -1.1709633509958413E+00 a      1082     1     8     2     2
 -1.0639066832532748E-03 a      1083     1     8     2     3
  2.0797723164395632E-01 a      1084     1     8     2     4
  1.4088467647516001E+00 a      1085     1     8     2     5
  1.6591810068720245E-01 a      1086     1     8     2     6
 -4.9859669092637354E-01 a      1087     1     8     2     7
 -1.8053741515549834E-01 a      1088     1     8     2     8
  2.7478123468022431E-01 a      1089     1     8     2     9
  9.7591446965799455E-01 a      1090     1     8     2    10
  2.0543728377515161E-01 a      1091     1     8     2    11
 -8.7941002038943861E-01 a      1092     1     8     2    12
 -3.4851333023846609E-01 a      1093     1     8     2    13
 -7.1570467994974418E-01 a      1094     1     8     2    14
 -2.5887796452486611E-01 a      1095     1     8     2    15
  1.3143918696734683E-01 a      1096     1     8     2    16
 -9.0129631369130991E-01 a      1097     1     8     2    17
 -1.1396579817209287E+00 a      1098     1     8     2    18
  2.1518854630028564E-01 a      1099     1     8     2    19
 -7.1518304438078872E-01 a      1100     1     8     2    20
 -6.9240537267344004E-01 a      1101     1     9     2     1
  6.1887625249510836E-01 a      1102     1     9     2     2
  1.0792553174285882E-01 a      1103     1     9     2     3
 -7.0814611814821848E-01 a      1104     1     9     2     4
  2.6498852193281752E-01 a      1105     1     9     2     5
  2.8010430422638610E-01 a      1106     1     9     2     6
 -2.1678042331400890E-01 a      1107     1     9     2     7
 -5.9890043369210033E-01 a      1108     1     9     2     8
  1.3616014949478714E-01 a      1109     1     9     2     9
 -2.1831630737393162E-01 a      1110     1     9     2    10
 -6.5639451250602088E-01 a      1111     1     9     2    11
 -1.2297267058306049E+00 a      1112     1     9     2    12
  2.5493207268877194E-01 a      1113     1     9     2    13
  8.6044104690559997E-01 a      1114     1     9     2    14
  2.8267029129646737E-01 a      1115     1     9     2    15
  4.6508642756421574E-02 a      1116     1     9     2    16
  7.3680908454729188E-01 a      1117     1     9     2    17
 -2.8420652918804351E-01 a      1118     1     9     2    18
  6.6329935242737492E-01 a      1119     1     9     2    19
 -3.4012989117839892E-01 a      1120     1     9     2    20
  1.5135347412652278E-01 a      1121     1    10     2     1
 -2.1100862418515720E-01 a      1122     1    10     2     2
  1.0252793524599773E+00 a      1123     1    10     2     3
  5.9385317290877804E-01 a      1124     1    10     2     4
 -6.8238746559922195E-02 a      1125     1    10     2     5
  3.2126231645866776E-01 a      1126     1    10     2     6
  1.1779497869696472E-01 a      1127     1    10     2     7
  2.4824108118062535E-01 a      1128     1    10     2     8
 -1.4561678334769479E-01 a      1129     1    10     2     9
  1.6611659427276645E-01 a      1130     1    10     2    10
  2.1918021296740001E-01 a      1131     1    10     2    11
 -2.2030048786527529E-01 a      1132     1    10     2    12
 -8.8485587275540456E-01 a      1133     1    10     2    13
  5.5781110138741508E-01 a      1134     1    10     2    14
 -9.2548453199407343E-01 a      1135     1    10     2    15
  3.5840407339783292E-01 a      1136     1    10     2    16
 -8.6068292326898910E-01 a      1137     1    10     2    17
 -6.3714352235161387E-01 a      1138     1    10     2    18
 -5.3824578777805099E-01 a      1139     1    10     2    19
 -1.0459068795754791E+00 a      1140     1    10     2    20
 -4.3210897377224228E-01 a      1141     1    11     2     1
  6.4379969258725733E-01 a      1142     1    11     2     2
  1.0959183284349601E+00 a      1143     1    11     2     3
 -4.4999374357956889E-01 a      1144     1    11     2     4
  7.9698189192806279E-01 a      1145     1    11     2     5
  5.1775861035747517E-01 a      1146     1    11     2     6
 -1.5277296755728997E-01 a      1147     1    11     2     7
  6.9567586432942446E-02 a      1148     1    11     2     8
 -3.2420045090313593E-01 a      1149     1    11     2     9
 -2.3949437093053286E-01 a      1150     1    11     2    10
  9.4324609627586251E-02 a      1151     1    11     2    11
  7.9053104308460964E-02 a      1152     1    11     2    12
 -2.2787467776242123E-01 a      1153     1    11     2    13
  6.1785678618825424E-01 a      1154     1    11     2    14
 -4.3368328112895449E-01 a      1155     1    11     2    15
  2.2361233587215346E-01 a      1156     1    11     2    16
 -5.4249217640200109E-01 a      1157     1    11     2    17
  4.9768054950866031E-01 a      1158     1    11     2    18
  4.7211429850859532E-01 a      1159     1    11     2    19
 -6.1805297006022408E-01 a      1160     1    11     2    20
  4.7282483476589532E-01 a      1161     1    12     2     1
  2.8251641605036839E-03 a      1162     1    12     2     2
  4.6345368926113933E-01 a      1163     1    12     2     3
  8.0630499788369514E-01 a      1164     1    12     2     4
  1.0582756172637100E+00 a      1165     1    12     2     5
  1.6843171476130450E-01 a      1166     1    12     2     6
 -8.5702338743227113E-01 a      1167     1    12     2     7
  3.1831874189098452E-01 a      1168     1    12     2     8
  5.1442664750387612E-02 a      1169     1    12     2     9
 -8.7391463615797582E-02 a      1170     1    12     2    10
  7.6833412664672363E-01 a      1171     1    12     2    11
  1.5976188256165208E-01 a      1172     1    12     2    12
  6.5119044271078808E-01 a      1173     1    12     2    13
 -1.0933588391778944E-01 a      1174     1    12     2    14
  7.1872026457911087E-01 a      1175     1    12     2    15
  5.5072174863178081E-01 a      1176     1    12     2    16
  8.3197455989492319E-01 a      1177     1    12     2    17
  5.2485059135628724E-02 a      1178     1    12     2    18
  4.3230022331342216E-01 a      1179     1    12     2    19
 -1.3304099933109774E+00 a      1180     1    12     2    20
  5.0956584826550144E-01 a      1181     1    13     2     1
 -3.3239049209427463E-01 a      1182     1    13     2     2
  3.3508469546478842E-01 a      1183     1    13     2     3
  6.7278981545093319E-01 a      1184     1    13     2     4
  1.4762461568648433E-01 a      1185     1    13     2     5
  9.2097705840725075E-02 a      1186     1    13     2     6
 -1.1106136024314988E+00 a      1187     1    13     2     7
  2.1522365522735290E-01 a      1188     1    13     2     8
  5.7122733126589098E-01 a      1189     1    13     2     9
 -1.1086242321940811E+00 a      1190     1    13     2    10
 -2.5781110317705769E-01 a      1191     1    13     2    11
  1.0728659170290938E-01 a      1192     1    13     2    12
  9.8814676951240951E-02 a      1193     1    13     2    13
  2.0511522420744213E-01 a      1194     1    13     2    14
  2.0308347630587847E-01 a      1195     1    13     2    15
  2.4844321036387243E-01 a      1196     1    13     2    16
  7.5585159125410550E-01 a      1197     1    13     2    17
  1.0881413999958008E-01 a      1198     1    13     2    18
  3.0947602780876465E-01 a      1199     1    13     2    19
 -3.9904100534117032E-01 a      1200     1    13     2    20
 -2.9958902169966489E-01 a      1201     1    14     2     1
 -6.5511042109794315E-01 a      1202     1    14     2     2
 -7.6699393024697138E-01 a      1203     1    14     2     3
 -2.2966354555286431E-01 a      1204     1    14     2     4
  7.5286342492540748E-01 a      1205     1    14     2     5
 -5.5031756135655241E-01 a      1206     1    14     2     6
  8.1233441998049694E-01 a      1207     1    14     2     7
  5.1880193820351939E-01 a      1208     1    14     2     8
 -2.4713076801273726E-01 a      1209     1    14     2     9
  1.8946737159977134E-01 a      1210     1    14     2    10
  3.1456790010916791E-01 a      1211     1    14     2    11
  7.3988368665053067E-02 a      1212     1    14     2    12
  4.5873222590194759E-02 a      1213     1    14     2    13
 -7.5979128593469070E-01 a      1214     1    14     2    14
 -1.4534840554352876E-01 a      1215     1    14     2    15
  1.6477074400775227E-01 a      1216     1    14     2    16
 -6.4686147191606536E-01 a      1217     1    14     2    17
 -2.6162403862967171E-01 a      1218     1    14     2    18
 -1.5587802468586681E-01 a      1219     1    14     2    19
 -1.6819021078435889E-01 a      1220     1    14     2    20
 -9.3256427730731262E-01 a      1221     1    15     2     1
 -1.0679590483387441E-01 a      1222     1    15     2     2
  3.8824074246681872E-01 a      1223     1    15     2     3
 -1.7486958018750592E-01 a      1224     1    15     2     4
 -3.8735511977623871E-01 a      1225     1    15     2     5
 -7.7138371938363115E-01 a      1226     1    15     2     6
 -1.9177986774249942E-01 a      1227     1    15     2     7
  9.4989009228823848E-02 a      1228     1    15     2     8
 -2.0317257176040084E-02 a      1229     1    15     2     9
  4.1054086919327210E-01 a      1230     1    15     2    10
  2.9427256916744856E-02 a      1231     1    15     2    11
  8.5119190097204533E-01 a      1232     1    15     2    12
  3.5969253798136447E-01 a      1233     1    15     2    13
  8.6000656584291613E-01 a      1234     1    15     2    14
 -3.9746077948120850E-01 a      1235     1    15     2    15
  5.4127095778964762E-01 a      1236     1    15     2    16
  1.0163440069320477E+00 a      1237     1    15     2    17
  3.3788503884910226E-01 a      1238     1    15     2    18
 -1.9590359091294018E-01 a      1239     1    15     2    19
 -7.6555223590904731E-01 a      1240     1    15     2    20
 -2.4429593851424744E-01 a      1241     1    16     2     1
  2.0291818615120807E-01 a      1242     1    16     2     2
 -3.9073962700036297E-01 a      1243     1    16     2     3
  3.0405273593404963E-01 a      1244     1    16     2     4
  4.6819427031139677E-01 a      1245     1    16     2     5
  1.1216510645686585E-01 a      1246     1    16     2     6
 -3.8260967003417606E-02 a      1247     1    16     2     7
  6.5422424699864801E-01 a      1248     1    16     2     8
 -1.0830914141757471E-01 a      1249     1    16     2     9
  3.5180032876090578E-01 a      1250     1    16     2    10
 -4.7039892635037944E-01 a      1251     1    16     2    11
  3.8813190457093572E-01 a      1252     1    16     2    12
  3.7404640555248683E-03 a      1253     1    16     2    13
  1.4936913152495010E-01 a      1254     1    16     2    14
 -2.8421466130766133E-02 a      1255     1    16     2    15
  9.2062964993872576E-01 a      1256     1    16     2    16
  2.3576371374067723E-01 a      1257     1    16     2    17
  1.0915356906973010E-02 a      1258     1    16     2    18
 -6.1022464816087474E-02 a      1259     1    16     2    19
  1.3016688295535128E+00 a      1260     1    16     2    20
  2.0491883386741333E-01 a      1261     1    17     2     1
  4.3080766055311071E-01 a      1262     1    17     2     2
  3.0987321746993124E-01 a      1263     1    17     2     3
 -6.5310908435644643E-01 a      1264     1    17     2     4
 -4.1949538144204901E-01 a      1265     1    17     2     5
  6.2705298778651677E-02 a      1266     1    17     2     6
  4.0218031161545181E-01 a      1267     1    17     2     7
 -3.3332847939974103E-01 a      1268     1    17     2     8
 -1.7733634709878643E-01 a      1269     1    17     2     9
 -7.4739730643037949E-01 a      1270     1    17     2    10
 -4.6984160594822383E-01 a      1271     1    17     2    11
  5.3357364056607326E-01 a      1272     1    17     2    12
 -4.1307636639595630E-01 a      1273     1    17     2    13
 -4.6137343923808294E-01 a      1274     1    17     2    14
 -8.4585956078031410E-01 a      1275     1    17     2    15
  7.7742914533165774E-01 a      1276     1    17     2    16
  3.6770268677183399E-01 a      1277     1    17     2    17
  1.6832311186171664E-01 a      1278     1    17     2    18
  5.9032864841137317E-02 a      1279     1    17     2    19
  7.9107900638034045E-01 a      1280     1    17     2    20
 -1.1947725499145236E+00 a      1281     1    18     2     1
 -1.7692276764456882E-01 a      1282     1    18     2     2
 -1.6699167976181570E-01 a      1283     1    18     2     3
  1.7702601316345437E-01 a      1284     1    18     2     4
 -4.7238437541930967E-01 a      1285     1    18     2     5
  5.2373228978990471E-01 a      1286     1    18     2     6
 -3.8117898673904516E-01 a      1287     1    18     2     7
 -1.3896593679701558E-01 a      1288     1    18     2     8
  7.3618152825012861E-01 a      1289     1    18     2     9
 -3.6885150294780322E-01 a      1290     1    18     2    10
  2.6453406819768815E-01 a      1291     1    18     2    11
 -1.6461435000610769E-01 a      1292     1    18     2    12
 -2.6778682817904947E-01 a      1293     1    18     2    13
  4.4622968688017867E-01 a      1294     1    18     2    14
 -5.0261710071914922E-01 a      1295     1    18     2    15
  9.3737679548607400E-01 a      1296     1    18     2    16
  3.2271184099091998E-01 a      1297     1    18     2    17
  9.1796646942542148E-01 a      1298     1    18     2    18
  8.1110630468099221E-01 a      1299     1    18     2    19
  3.0626179136558107E-01 a      1300     1    18     2    20
 -4.2113259983095686E-01 a      1301     1    19     2     1
 -2.9634402413236038E-01 a      1302     1    19     2     2
 -4.5466872312255113E-01 a      1303     1    19     2     3
  4.1912724794530026E-01 a      1304     1    19     2     4
 -6.2865208234796899E-01 a      1305     1    19     2     5
 -2.5251910321639356E-03 a      1306     1    19     2     6
 -3.4943737072822623E-01 a      1307     1    19     2     7
  2.2881255787348817E-01 a      1308     1    19     2     8
 -1.1595974199696125E-01 a      1309     1    19     2     9
 -7.1091146990827705E-02 a      1310     1    19     2    10
  1.8621557956158832E-01 a      1311     1    19     2    11
  2.4216442577848113E-01 a      1312     1    19     2    12
 -7.3996502704033684E-01 a      1313     1    19     2    13
  4.8809411183070986E-02 a      1314     1    19     2    14
  2.4010726130438556E-01 a      1315     1    19     2    15
  6.7446446322836140E-02 a      1316     1    19     2    16
 -7.4800027253066703E-01 a      1317     1    19     2    17
  1.0187525290224372E-01 a      1318     1    19     2    18
  1.5042995682654720E-01 a      1319     1    19     2    19
  1.2212190044856168E+00 a      1320     1    19     2    20
 -5.6624357797228941E-01 a      1321     1    20     2     1
  4.5296905922368425E-01 a      1322     1    20     2     2
  3.5575601791965838E-01 a      1323     1    20     2     3
  4.0692860921842466E-01 a      1324     1    20     2     4
 -4.6971026279588762E-01 a      1325     1    20     2     5
 -3.0227101757984282E-01 a      1326     1    20     2     6
 -4.1030287688852912E-01 a      1327     1    20     2     7
 -4.0824307640751811E-01 a      1328     1    20     2     8
  3.2385641466744564E-01 a      1329     1    20     2     9
 -5.4225332586850639E-01 a      1330     1    20     2    10
  1.6742042303901958E-01 a      1331     1    20     2    11
  2.0647514159547439E-01 a      1332     1    20     2    12
 -4.6664700045872240E-02 a      1333     1    20     2    13
  3.8447131865842760E-01 a      1334     1    20     2    14
 -2.7620739161574642E-01 a      1335     1    20     2    15
  4.6555680192433885E-01 a      1336     1    20     2    16
 -6.3158502762294855E-01 a      1337     1    20     2    17
 -3.3889198519584396E-01 a      1338     1    20     2    18
 -5.0459123242467496E-01 a      1339     1    20     2    19
 -8.3972524435598550E-01 a      1340     1    20     2    20
  5.8205429060207758E-01 b      1341     2     1
 -9.2606335552356867E-01 b      1342     2     2
  1.0548055109139975E+00 b      1343     2     3
  1.1004914461072273E+00 b      1344     2     4
  8.3007541956289865E-01 b      1345     2     5
 -7.0365503194491918E-01 b      1346     2     6
  8.8831043470940729E-01 b      1347     2     7
  1.3530349246609406E+00 b      1348     2     8
  1.7445560417659931E+00 b      1349     2     9
  1.1346320771567757E+00 b      1350     2    10
  4.5977549672122159E-01 b      1351     2    11
  1.0516138560771295E+00 b      1352     2    12
  1.0624230795439809E+00 b      1353     2    13
  6.8249156975814140E-01 b      1354     2    14
  5.7989164161957973E-01 b      1355     2    15
 -6.1550073630833028E-02 b      1356     2    16
  1.2311151085620859E+00 b      1357     2    17
 -1.4659530822290023E-01 b      1358     2    18
 -8.2846316562371361E-02 b      1359     2    19
  9.4146485012049030E-01 b      1360     2    20
  1.5592451457193308E+00 a      1361     2     1     3     1
 -1.8650162705230708E+00 a      1362     2     2     3     1
  1.1666264986376260E+00 a      1363     2     3     3     1
  1.9758437397203303E+00 a      1364     2     4     3     1
 -5.4525379708750610E-01 a      1365     2     5     3     1
 -7.0688183532534891E-03 a      1366     2     6     3     1
 -1.0995037463550598E-01 a      1367     2     7     3     1
  1.2120633116216895E+00 a      1368     2     8     3     1
  1.4370869360864047E+00 a      1369     2     9     3     1
  1.3185770928529170E-01 a      1370     2    10     3     1
  1.3153227178657227E+00 a      1371     2    11     3     1
  1.1420499668431432E+00 a      1372     2    12     3     1
 -1.0855457709428361E-01 a      1373     2    13     3     1
 -1.1069271868961426E+00 a      1374     2    14     3     1
  8.0313406938926324E-01 a      1375     2    15     3     1
 -4.2171641403418135E-02 a      1376     2    16     3     1
  1.3399927574640952E-01 a      1377     2    17     3     1
 -7.3442906743874048E-01 a      1378     2    18     3     1
  2.1739697441430605E-01 a      1379     2    19     3     1
 -2.5061587695428827E-01 a      1380     2    20     3     1
  2.1833815076632161E+00 b      1381     3     1
