################################################################################
# Neural network connection values (weights and biases).
################################################################################
# Col  Name       Description
################################################################################
# 1    connection Neural network connection value.
# 2    t          Connection type (a = weight, b = bias).
# 3    index      Index enumerating weights.
# 4    l_s        Starting point layer (end point layer for biases).
# 5    n_s        Starting point neuron in starting layer (end point neuron for biases).
# 6    l_e        End point layer.
# 7    n_e        End point neuron in end layer.
################################################################################
#                      1 2         3     4     5     6     7
#             connection t     index   l_s   n_s   l_e   n_e
############################################################
  3.7982184626732857E-01 a         1     0     1     1     1
  1.4922125826890886E-01 a         2     0     1     1     2
  2.0863339552052046E-01 a         3     0     1     1     3
  2.4827847945653359E-01 a         4     0     1     1     4
 -4.1709870486377552E-02 a         5     0     1     1     5
  5.0274457805786121E-01 a         6     0     1     1     6
  3.2634836766326232E-02 a         7     0     1     1     7
  3.2363505593112844E-02 a         8     0     1     1     8
 -9.3822127118809509E-02 a         9     0     1     1     9
 -1.6784998494739234E-01 a        10     0     1     1    10
 -1.6189381347720413E-01 a        11     0     1     1    11
 -8.7294357463634009E-01 a        12     0     1     1    12
 -3.3978526352263044E-01 a        13     0     1     1    13
  9.2992318560758735E-02 a        14     0     1     1    14
  2.1552412008900276E-01 a        15     0     1     1    15
 -6.4315233031605434E-01 a        16     0     1     1    16
 -1.2426846733825421E-01 a        17     0     1     1    17
  7.3311514567875402E-01 a        18     0     1     1    18
  3.3625830838171056E-02 a        19     0     1     1    19
 -4.2047032536869050E-01 a        20     0     1     1    20
  8.6216587310243425E-02 a        21     0     2     1     1
  1.1648970891810262E-01 a        22     0     2     1     2
 -1.0605393087751701E-01 a        23     0     2     1     3
  2.4430931357449608E-02 a        24     0     2     1     4
 -2.3285036069863599E-01 a        25     0     2     1     5
  5.9358608068726992E-01 a        26     0     2     1     6
  2.9104577157865857E-01 a        27     0     2     1     7
  1.2479449704691550E-01 a        28     0     2     1     8
  1.1542841726968951E-01 a        29     0     2     1     9
  2.9806270644172572E-01 a        30     0     2     1    10
 -2.8213501488773807E-01 a        31     0     2     1    11
 -2.3415264866435595E-02 a        32     0     2     1    12
  1.1492803938509581E-01 a        33     0     2     1    13
 -1.0607895032750739E-01 a        34     0     2     1    14
 -1.8346388748549688E-01 a        35     0     2     1    15
  2.5406853291897319E-01 a        36     0     2     1    16
 -1.3404213263630191E-01 a        37     0     2     1    17
  2.4666562580117071E-01 a        38     0     2     1    18
 -4.7147046672722376E-01 a        39     0     2     1    19
  6.5952151760739333E-02 a        40     0     2     1    20
 -2.6670835402185378E-01 a        41     0     3     1     1
  2.1866330348664129E-01 a        42     0     3     1     2
 -3.7030102570127878E-02 a        43     0     3     1     3
 -2.7465253647833582E-01 a        44     0     3     1     4
  2.3361165063876765E-01 a        45     0     3     1     5
 -1.2352670049823243E-01 a        46     0     3     1     6
 -2.9318434576314584E-01 a        47     0     3     1     7
 -1.6870961989257427E-01 a        48     0     3     1     8
 -3.8620751936551534E-01 a        49     0     3     1     9
  3.8791516835882073E-01 a        50     0     3     1    10
 -3.0366814129800962E-01 a        51     0     3     1    11
 -1.7067833767669907E-01 a        52     0     3     1    12
  2.2215869288725990E-02 a        53     0     3     1    13
 -3.2916562230140989E-01 a        54     0     3     1    14
 -2.4776732826082723E-01 a        55     0     3     1    15
  1.5284908996705035E-01 a        56     0     3     1    16
  7.9608728726942163E-02 a        57     0     3     1    17
 -8.1456632674197324E-02 a        58     0     3     1    18
 -3.9849309711854225E-01 a        59     0     3     1    19
 -7.8663231693837765E-02 a        60     0     3     1    20
 -5.1602431533225956E-01 a        61     0     4     1     1
  2.0934085697956176E-01 a        62     0     4     1     2
 -1.5687860692283501E-01 a        63     0     4     1     3
 -9.5583212280615920E-02 a        64     0     4     1     4
  1.7159217468865873E-01 a        65     0     4     1     5
  1.5289752919593195E-02 a        66     0     4     1     6
 -2.2906744511295477E-01 a        67     0     4     1     7
 -3.6133560520140984E-01 a        68     0     4     1     8
 -4.7723218951695484E-01 a        69     0     4     1     9
  1.1956228963242990E-01 a        70     0     4     1    10
 -1.5160520674243619E-01 a        71     0     4     1    11
  1.1177614193865204E-01 a        72     0     4     1    12
  5.6521334552191294E-01 a        73     0     4     1    13
 -3.0086186504703050E-01 a        74     0     4     1    14
 -2.2796830828269773E-01 a        75     0     4     1    15
  3.0422066861506497E-01 a        76     0     4     1    16
  1.1004915061552856E-01 a        77     0     4     1    17
 -3.5972975227800336E-01 a        78     0     4     1    18
  9.5478246816288206E-02 a        79     0     4     1    19
  7.6667688652619892E-01 a        80     0     4     1    20
 -2.6624826195277651E-01 a        81     0     5     1     1
 -6.7754224772880275E-02 a        82     0     5     1     2
 -3.8088239811826996E-01 a        83     0     5     1     3
  4.4196302937956672E-01 a        84     0     5     1     4
 -6.1071975312214477E-01 a        85     0     5     1     5
 -8.1249638039571759E-01 a        86     0     5     1     6
  1.4610951862555147E-01 a        87     0     5     1     7
 -1.5329238017750532E-01 a        88     0     5     1     8
  9.3219956554658367E-02 a        89     0     5     1     9
 -4.3348784216380504E-01 a        90     0     5     1    10
 -3.5329606533533155E-02 a        91     0     5     1    11
  3.2640920754452840E-01 a        92     0     5     1    12
 -3.1833901746473486E-01 a        93     0     5     1    13
  8.4165168422950409E-01 a        94     0     5     1    14
  5.4060900297068920E-02 a        95     0     5     1    15
 -1.0289487771506928E-01 a        96     0     5     1    16
  1.2710435969139267E-01 a        97     0     5     1    17
 -5.3101843915647884E-01 a        98     0     5     1    18
  3.5849040545446770E-01 a        99     0     5     1    19
  1.4717453906009434E-01 a       100     0     5     1    20
  5.9071752210426924E-02 a       101     0     6     1     1
  4.6851279854800021E-01 a       102     0     6     1     2
  1.9982092855022790E-01 a       103     0     6     1     3
  4.7320854339599228E-01 a       104     0     6     1     4
  1.9965630309229468E-01 a       105     0     6     1     5
 -7.6331055595001485E-01 a       106     0     6     1     6
 -5.4882735683210937E-01 a       107     0     6     1     7
 -2.7871397112221613E-01 a       108     0     6     1     8
  7.2830635370269958E-02 a       109     0     6     1     9
 -5.7488260506880118E-01 a       110     0     6     1    10
  2.5472968941931923E-01 a       111     0     6     1    11
  7.1690728765354661E-01 a       112     0     6     1    12
 -4.3943941822192401E-01 a       113     0     6     1    13
 -3.5246772844058272E-01 a       114     0     6     1    14
  2.3422507059843092E-01 a       115     0     6     1    15
 -4.2356710624787847E-01 a       116     0     6     1    16
 -1.0899035772945954E-01 a       117     0     6     1    17
 -1.2099195842622110E+00 a       118     0     6     1    18
  3.0642977482886635E-01 a       119     0     6     1    19
  6.6759485995756784E-01 a       120     0     6     1    20
  2.9290786342910097E-01 a       121     0     7     1     1
 -9.1625734576804518E-01 a       122     0     7     1     2
 -6.1106577474950974E-01 a       123     0     7     1     3
  1.7005027115720364E-01 a       124     0     7     1     4
  1.7179456350690003E-01 a       125     0     7     1     5
  1.8433191649634376E-01 a       126     0     7     1     6
  5.5240610988222016E-01 a       127     0     7     1     7
  3.8372684803240076E-01 a       128     0     7     1     8
  8.5221706321674351E-01 a       129     0     7     1     9
  3.0025283668770475E-01 a       130     0     7     1    10
  1.9350139578771222E-01 a       131     0     7     1    11
 -4.0389458140036494E-01 a       132     0     7     1    12
 -4.2355794222977200E-01 a       133     0     7     1    13
  1.1131463942226747E+00 a       134     0     7     1    14
 -2.3373335891582769E-01 a       135     0     7     1    15
  3.4054540429385655E-01 a       136     0     7     1    16
  5.1849136883391167E-01 a       137     0     7     1    17
  4.4521418470043883E-01 a       138     0     7     1    18
  2.7944850816597776E-02 a       139     0     7     1    19
 -1.8356811022515557E-01 a       140     0     7     1    20
 -2.9290967171612053E-01 a       141     0     8     1     1
  3.8287238912656818E-01 a       142     0     8     1     2
  1.3882081535675139E-01 a       143     0     8     1     3
  4.3822417670912484E-01 a       144     0     8     1     4
  6.7766537964061249E-02 a       145     0     8     1     5
  1.4748369496036434E-01 a       146     0     8     1     6
 -1.9352793080493663E-01 a       147     0     8     1     7
 -3.9141613222709470E-01 a       148     0     8     1     8
 -3.0912892142676884E-01 a       149     0     8     1     9
  1.3164759175368504E-01 a       150     0     8     1    10
  1.1957420643149849E-01 a       151     0     8     1    11
  1.3973145288289765E-01 a       152     0     8     1    12
  6.3762772318121463E-01 a       153     0     8     1    13
 -3.7580979816918453E-01 a       154     0     8     1    14
 -2.0642097733087886E-01 a       155     0     8     1    15
  1.5373659407988999E-01 a       156     0     8     1    16
 -5.6310504674002015E-01 a       157     0     8     1    17
  7.7801111779401466E-02 a       158     0     8     1    18
 -2.9869373011762107E-01 a       159     0     8     1    19
  6.3190672765636147E-01 a       160     0     8     1    20
 -6.8379392058133953E-02 a       161     0     9     1     1
 -1.0805393950731722E-02 a       162     0     9     1     2
 -3.0056967985331412E-01 a       163     0     9     1     3
 -2.7717354110776771E-01 a       164     0     9     1     4
 -8.6709817821828392E-02 a       165     0     9     1     5
  1.7772938014592313E-01 a       166     0     9     1     6
 -1.2418409633921348E-01 a       167     0     9     1     7
 -8.2300903518151461E-02 a       168     0     9     1     8
 -6.8986781351740112E-01 a       169     0     9     1     9
  4.4248840311995406E-02 a       170     0     9     1    10
  4.2085364529086866E-01 a       171     0     9     1    11
  1.1218991131341956E-01 a       172     0     9     1    12
 -9.7617175337261566E-02 a       173     0     9     1    13
  1.4799304423975315E-01 a       174     0     9     1    14
  1.2478459135006513E-01 a       175     0     9     1    15
  2.4089120163291819E-01 a       176     0     9     1    16
 -1.9098365532032879E-01 a       177     0     9     1    17
  7.1140724355916738E-03 a       178     0     9     1    18
  1.0445513583771845E-01 a       179     0     9     1    19
  1.0114017172647044E-02 a       180     0     9     1    20
  1.3939409385918256E-01 a       181     0    10     1     1
  9.2405540571560918E-02 a       182     0    10     1     2
  2.3419326189538858E-02 a       183     0    10     1     3
  1.3796166923650058E-01 a       184     0    10     1     4
  3.1324248494708901E-01 a       185     0    10     1     5
 -1.8204546902972127E-01 a       186     0    10     1     6
 -7.4640722941309344E-03 a       187     0    10     1     7
 -1.2804272892626467E-01 a       188     0    10     1     8
 -4.7029278220261449E-02 a       189     0    10     1     9
  8.1898938450090927E-02 a       190     0    10     1    10
  3.2672110834750023E-02 a       191     0    10     1    11
 -1.2840155142534926E-02 a       192     0    10     1    12
  3.2312382641719450E-01 a       193     0    10     1    13
 -7.2477912943569631E-02 a       194     0    10     1    14
  1.0748638517293796E-01 a       195     0    10     1    15
  4.0783373594003434E-02 a       196     0    10     1    16
  1.0257585679482421E-01 a       197     0    10     1    17
 -4.4464427358009727E-02 a       198     0    10     1    18
 -1.0022918150048804E-01 a       199     0    10     1    19
  1.4373565400239185E-01 a       200     0    10     1    20
 -1.3349674224033053E-01 a       201     0    11     1     1
 -5.1095156200654324E-01 a       202     0    11     1     2
  1.3805219592663387E-01 a       203     0    11     1     3
  3.0011727123123366E-01 a       204     0    11     1     4
 -2.0811841612470891E-01 a       205     0    11     1     5
 -2.2983910217238543E-01 a       206     0    11     1     6
  2.1540492444416556E-01 a       207     0    11     1     7
  2.0325814796526959E-01 a       208     0    11     1     8
 -1.2373791262869992E-01 a       209     0    11     1     9
  2.1895182675497352E-01 a       210     0    11     1    10
  1.6988020862067535E-01 a       211     0    11     1    11
  3.7669379383176016E-01 a       212     0    11     1    12
 -1.1909566461984890E-01 a       213     0    11     1    13
  2.3240623363376514E-01 a       214     0    11     1    14
  4.3873830736724448E-03 a       215     0    11     1    15
  1.9437702584702087E-02 a       216     0    11     1    16
  9.0540798074932927E-02 a       217     0    11     1    17
  1.0697322551882828E-01 a       218     0    11     1    18
  1.0641048980905678E-01 a       219     0    11     1    19
  2.6138081625915122E-01 a       220     0    11     1    20
 -3.6846518290630043E-01 a       221     0    12     1     1
  1.1221425117777747E-01 a       222     0    12     1     2
  4.3857905393268171E-01 a       223     0    12     1     3
  1.5909430533264135E-01 a       224     0    12     1     4
 -3.9954034662673066E-01 a       225     0    12     1     5
  3.4227642795791619E-01 a       226     0    12     1     6
  1.1434780357057892E-01 a       227     0    12     1     7
 -2.8034111374028231E-01 a       228     0    12     1     8
  4.7224118223696793E-01 a       229     0    12     1     9
 -2.2300227197933137E-01 a       230     0    12     1    10
 -5.7984544789519898E-01 a       231     0    12     1    11
  3.7261691288842991E-02 a       232     0    12     1    12
  3.5309850123431158E-01 a       233     0    12     1    13
  3.1599487074228452E-02 a       234     0    12     1    14
 -6.2526180529830955E-01 a       235     0    12     1    15
 -3.6020417594240506E-01 a       236     0    12     1    16
  9.2073256952866597E-02 a       237     0    12     1    17
  6.8253056877998694E-02 a       238     0    12     1    18
 -7.1470765406430575E-02 a       239     0    12     1    19
 -6.2349875699500512E-02 a       240     0    12     1    20
 -4.0474067406117092E-01 a       241     0    13     1     1
 -6.9267376305005790E-01 a       242     0    13     1     2
  5.1204308125935005E-01 a       243     0    13     1     3
  4.4830484148469563E-01 a       244     0    13     1     4
  6.5885966002308616E-02 a       245     0    13     1     5
 -3.5565791816229303E-01 a       246     0    13     1     6
 -6.9052827496828464E-02 a       247     0    13     1     7
 -2.5027333529976720E-01 a       248     0    13     1     8
 -1.8507425081140455E-01 a       249     0    13     1     9
  1.6271843662102289E-01 a       250     0    13     1    10
  2.3201245513984367E-01 a       251     0    13     1    11
 -2.5007122259386916E-01 a       252     0    13     1    12
 -6.8006527986525761E-02 a       253     0    13     1    13
  3.7524353389078519E-01 a       254     0    13     1    14
  4.5076372843584916E-01 a       255     0    13     1    15
  1.8032255848999049E-01 a       256     0    13     1    16
  4.7159146639237086E-02 a       257     0    13     1    17
  2.0590391759434393E-01 a       258     0    13     1    18
  2.1091052840795108E-01 a       259     0    13     1    19
 -2.8525971774985548E-01 a       260     0    13     1    20
  4.4662083988638718E-02 a       261     0    14     1     1
  3.4568304331217031E-01 a       262     0    14     1     2
 -6.9565964151703874E-01 a       263     0    14     1     3
 -6.2583915675375273E-02 a       264     0    14     1     4
  1.8881072421066591E-01 a       265     0    14     1     5
  8.0702961477841645E-02 a       266     0    14     1     6
  3.0864764344539525E-01 a       267     0    14     1     7
  7.6660353444527374E-02 a       268     0    14     1     8
 -6.3612765527224946E-02 a       269     0    14     1     9
 -2.9316856202855641E-02 a       270     0    14     1    10
 -1.3241536268718737E-01 a       271     0    14     1    11
  1.5951524397331426E-01 a       272     0    14     1    12
  4.7812324908236548E-01 a       273     0    14     1    13
 -2.8411476935556762E-01 a       274     0    14     1    14
 -1.6403963874928304E-01 a       275     0    14     1    15
  5.3016286071983238E-03 a       276     0    14     1    16
  5.1134620560268274E-01 a       277     0    14     1    17
  1.0476190378797240E-02 a       278     0    14     1    18
  1.1664167197529988E-01 a       279     0    14     1    19
 -7.0645951308136001E-02 a       280     0    14     1    20
  4.1121564759506118E-01 a       281     0    15     1     1
  5.3854327264070467E-01 a       282     0    15     1     2
 -3.1024082701150635E-01 a       283     0    15     1     3
 -2.0696191291278435E-01 a       284     0    15     1     4
  2.1929348264022411E-01 a       285     0    15     1     5
 -1.7717174306854721E-02 a       286     0    15     1     6
 -2.3396370551389040E-01 a       287     0    15     1     7
 -2.9154818648971979E-02 a       288     0    15     1     8
 -1.6079412016180913E-01 a       289     0    15     1     9
  2.0790114524156172E-02 a       290     0    15     1    10
  1.1744817313597729E-01 a       291     0    15     1    11
  2.1222447253795199E-01 a       292     0    15     1    12
  1.9488349494921436E-01 a       293     0    15     1    13
 -2.1045410432799139E-01 a       294     0    15     1    14
 -2.4778067657476879E-01 a       295     0    15     1    15
 -1.2322955844443022E-01 a       296     0    15     1    16
 -4.5526057782272672E-01 a       297     0    15     1    17
 -8.8458487897925500E-02 a       298     0    15     1    18
 -2.8893177706170109E-01 a       299     0    15     1    19
  2.6104777790042624E-02 a       300     0    15     1    20
 -3.4772996778730642E-01 a       301     0    16     1     1
 -1.6266689815332744E+00 a       302     0    16     1     2
 -5.1909935731680190E-01 a       303     0    16     1     3
 -9.2069726734545154E-01 a       304     0    16     1     4
 -5.2578735198382331E-01 a       305     0    16     1     5
 -1.2309639111352473E+00 a       306     0    16     1     6
 -4.6322091083231537E-01 a       307     0    16     1     7
  4.8611315584063491E-01 a       308     0    16     1     8
  8.2811990717406148E-01 a       309     0    16     1     9
 -1.3944741675298272E-01 a       310     0    16     1    10
  2.2373389363968024E-01 a       311     0    16     1    11
  2.4794558764204430E-02 a       312     0    16     1    12
 -1.9342845841641215E-01 a       313     0    16     1    13
 -7.6276977648984268E-01 a       314     0    16     1    14
  5.0297375486455265E-01 a       315     0    16     1    15
 -4.7212748664050974E-01 a       316     0    16     1    16
  1.1794429057668148E-02 a       317     0    16     1    17
  1.4047637292794303E-02 a       318     0    16     1    18
  4.6685939355139300E-01 a       319     0    16     1    19
  7.6951156061773007E-01 a       320     0    16     1    20
  6.0771105366344036E-01 a       321     0    17     1     1
  1.3600946416079756E+00 a       322     0    17     1     2
 -2.8372153054735405E-01 a       323     0    17     1     3
  2.4709462829817014E-01 a       324     0    17     1     4
 -5.2575094974173585E-02 a       325     0    17     1     5
  7.2106084195153763E-01 a       326     0    17     1     6
 -6.5934414633284158E-02 a       327     0    17     1     7
 -6.7863099425033258E-01 a       328     0    17     1     8
 -4.1657667613373545E-01 a       329     0    17     1     9
 -9.8666558354764691E-02 a       330     0    17     1    10
 -4.3795183031246993E-01 a       331     0    17     1    11
 -7.1618677067413095E-01 a       332     0    17     1    12
 -2.5883819051404816E-01 a       333     0    17     1    13
  3.0046092300856403E-01 a       334     0    17     1    14
 -5.8577199981912763E-02 a       335     0    17     1    15
  8.5724002170387434E-02 a       336     0    17     1    16
  2.2932873005739474E-01 a       337     0    17     1    17
  3.7004418537869765E-01 a       338     0    17     1    18
 -2.6200001790668997E-01 a       339     0    17     1    19
 -1.1183062233280283E+00 a       340     0    17     1    20
 -5.8847470447268602E-01 a       341     0    18     1     1
  2.2253518705239747E-01 a       342     0    18     1     2
 -2.9585005300161945E-02 a       343     0    18     1     3
 -2.2582262497217450E-02 a       344     0    18     1     4
  8.0566610128643323E-01 a       345     0    18     1     5
 -1.9428518691698840E-01 a       346     0    18     1     6
 -4.3036603294360720E-01 a       347     0    18     1     7
 -9.6490328964463957E-04 a       348     0    18     1     8
  6.8879380889050754E-02 a       349     0    18     1     9
 -1.1974140479936964E-01 a       350     0    18     1    10
  8.9501897830585353E-01 a       351     0    18     1    11
  8.2117525011746739E-01 a       352     0    18     1    12
 -3.4600592394195101E-01 a       353     0    18     1    13
  1.1055997741784094E-03 a       354     0    18     1    14
 -7.0494996064798587E-01 a       355     0    18     1    15
 -1.2214947433906774E-01 a       356     0    18     1    16
  5.8355017608795079E-02 a       357     0    18     1    17
 -2.8911940599718589E-01 a       358     0    18     1    18
  4.9025788628627015E-01 a       359     0    18     1    19
  3.6695856803652838E-02 a       360     0    18     1    20
 -2.1800997860752291E-01 a       361     0    19     1     1
 -6.0081710836463331E-01 a       362     0    19     1     2
  5.4629234138729421E-01 a       363     0    19     1     3
  1.6541779360448447E-01 a       364     0    19     1     4
  4.1516764686858609E-03 a       365     0    19     1     5
 -9.3471014225653001E-02 a       366     0    19     1     6
  8.3292240434816245E-01 a       367     0    19     1     7
  3.7966092028693688E-01 a       368     0    19     1     8
 -1.5149397716425458E-01 a       369     0    19     1     9
 -6.7665765612008197E-02 a       370     0    19     1    10
 -2.0798421417177793E-01 a       371     0    19     1    11
 -9.8956290816359732E-02 a       372     0    19     1    12
  6.7133112536595163E-01 a       373     0    19     1    13
  2.8928060159576330E-01 a       374     0    19     1    14
  4.6933813678091441E-01 a       375     0    19     1    15
  5.7789059193115078E-01 a       376     0    19     1    16
 -5.4828469750820141E-01 a       377     0    19     1    17
 -5.0278272726975792E-01 a       378     0    19     1    18
 -5.0278239436523775E-01 a       379     0    19     1    19
  6.0028094644559893E-01 a       380     0    19     1    20
  1.6024372769786091E-01 a       381     0    20     1     1
  8.4870855397524236E-01 a       382     0    20     1     2
  1.7712755343263850E-01 a       383     0    20     1     3
  6.9480460947954381E-01 a       384     0    20     1     4
 -1.0155876078911137E-01 a       385     0    20     1     5
  5.1656779966956867E-01 a       386     0    20     1     6
  1.5374691640144134E-01 a       387     0    20     1     7
 -5.3015796076786276E-02 a       388     0    20     1     8
 -5.0113989565058215E-01 a       389     0    20     1     9
 -5.2705791367145344E-02 a       390     0    20     1    10
 -1.4095281422581121E-01 a       391     0    20     1    11
  4.1155404908975957E-01 a       392     0    20     1    12
  2.3075811417002146E-01 a       393     0    20     1    13
  4.4220312815237151E-01 a       394     0    20     1    14
 -2.7257065946969566E-01 a       395     0    20     1    15
 -2.4369083899213256E-01 a       396     0    20     1    16
  5.3122298003256097E-01 a       397     0    20     1    17
  3.3470011365185176E-01 a       398     0    20     1    18
  1.5836885141010490E-01 a       399     0    20     1    19
 -1.0090619881051194E-01 a       400     0    20     1    20
  2.9070034494644220E-01 a       401     0    21     1     1
 -5.9201119393974733E-01 a       402     0    21     1     2
  9.5725610251416474E-02 a       403     0    21     1     3
 -1.7711687872800164E-01 a       404     0    21     1     4
 -5.5275298439686656E-02 a       405     0    21     1     5
 -1.5928388535661553E-01 a       406     0    21     1     6
  2.2885685064690922E-02 a       407     0    21     1     7
  2.2638730142383737E-01 a       408     0    21     1     8
  8.6212308518603648E-02 a       409     0    21     1     9
  5.3716263551765853E-01 a       410     0    21     1    10
  3.3151897140989695E-01 a       411     0    21     1    11
  4.1083357021726369E-01 a       412     0    21     1    12
  1.0143957627755032E-01 a       413     0    21     1    13
  8.4051449273861559E-02 a       414     0    21     1    14
  2.1351810103667457E-01 a       415     0    21     1    15
 -1.1263604882140534E-01 a       416     0    21     1    16
 -3.8585119242191929E-01 a       417     0    21     1    17
  1.4618309293223730E-01 a       418     0    21     1    18
 -2.0636240632645361E-01 a       419     0    21     1    19
 -1.1755874478897971E-01 a       420     0    21     1    20
 -2.1123297592176283E-02 a       421     0    22     1     1
 -6.1717999141032531E-01 a       422     0    22     1     2
  1.8963680311602515E-01 a       423     0    22     1     3
 -3.5092657416101312E-02 a       424     0    22     1     4
  2.1299717451592187E-01 a       425     0    22     1     5
 -3.3695911916350942E-02 a       426     0    22     1     6
 -2.0763559079939151E-01 a       427     0    22     1     7
  7.7974199670054867E-02 a       428     0    22     1     8
 -5.4328130347093095E-01 a       429     0    22     1     9
  2.4250525182946320E-01 a       430     0    22     1    10
 -2.6956980606082226E-01 a       431     0    22     1    11
 -6.9346864404408326E-01 a       432     0    22     1    12
  1.8056860788528439E-01 a       433     0    22     1    13
  1.8325234636435495E-01 a       434     0    22     1    14
  7.3835603386950854E-01 a       435     0    22     1    15
 -1.0742255770837948E-02 a       436     0    22     1    16
  8.9172598392360299E-03 a       437     0    22     1    17
 -4.4487123227512504E-01 a       438     0    22     1    18
 -6.7109975300053282E-01 a       439     0    22     1    19
  6.0082570333413785E-02 a       440     0    22     1    20
  3.5728107356672273E-01 a       441     0    23     1     1
  1.0612402621543677E+00 a       442     0    23     1     2
 -1.0458663046730596E-01 a       443     0    23     1     3
 -7.2169622926551935E-02 a       444     0    23     1     4
 -2.4656524996344417E-01 a       445     0    23     1     5
  5.9162327400958548E-01 a       446     0    23     1     6
  1.7526384631458333E-01 a       447     0    23     1     7
 -4.4441747840831552E-01 a       448     0    23     1     8
  6.2443858972442678E-01 a       449     0    23     1     9
 -5.0835795100606951E-01 a       450     0    23     1    10
 -6.7416376151547330E-01 a       451     0    23     1    11
 -4.0392422152116486E-01 a       452     0    23     1    12
 -3.0875044518212602E-01 a       453     0    23     1    13
 -5.9704959968095050E-02 a       454     0    23     1    14
 -1.0021803281627613E+00 a       455     0    23     1    15
 -2.9741256986559012E-01 a       456     0    23     1    16
  2.6427776991590485E-01 a       457     0    23     1    17
  3.8694595958718953E-01 a       458     0    23     1    18
  1.6144583573609999E+00 a       459     0    23     1    19
 -6.3044883192732348E-01 a       460     0    23     1    20
 -1.3794730935341235E-01 a       461     0    24     1     1
 -7.7384869542281151E-03 a       462     0    24     1     2
  2.4566339783102445E-01 a       463     0    24     1     3
  1.0732948551237834E-01 a       464     0    24     1     4
 -2.4278715085169178E-01 a       465     0    24     1     5
 -2.8459947097437227E-01 a       466     0    24     1     6
 -3.8075247483819491E-01 a       467     0    24     1     7
  1.5667375957524757E-01 a       468     0    24     1     8
 -3.2560584281205607E-01 a       469     0    24     1     9
  4.5760503304036776E-02 a       470     0    24     1    10
 -2.4861192936817347E-01 a       471     0    24     1    11
  2.8547922822401334E-01 a       472     0    24     1    12
 -4.2521468692476971E-01 a       473     0    24     1    13
 -1.7649827127688000E-01 a       474     0    24     1    14
  5.8275420035926906E-01 a       475     0    24     1    15
 -6.2670855991657071E-01 a       476     0    24     1    16
  3.8431340599784952E-01 a       477     0    24     1    17
 -3.7964965409310415E-02 a       478     0    24     1    18
 -2.8802090735794622E-01 a       479     0    24     1    19
  4.8140592933440439E-02 a       480     0    24     1    20
  4.7830115239452714E-01 a       481     0    25     1     1
  5.6268603988961341E-01 a       482     0    25     1     2
  5.9064651098669130E-01 a       483     0    25     1     3
 -2.1696686797619824E-01 a       484     0    25     1     4
  1.5371987296920112E-01 a       485     0    25     1     5
 -9.2631080496169291E-02 a       486     0    25     1     6
 -2.5849115930646310E-01 a       487     0    25     1     7
  1.2969955505469968E-01 a       488     0    25     1     8
 -1.1743626163634199E-01 a       489     0    25     1     9
  2.5317368294470322E-01 a       490     0    25     1    10
  9.7022298815396701E-02 a       491     0    25     1    11
  9.1867858592500962E-01 a       492     0    25     1    12
  4.4922567429148352E-01 a       493     0    25     1    13
 -9.5606710316868493E-01 a       494     0    25     1    14
  9.2879687276363665E-01 a       495     0    25     1    15
 -5.1305959289223257E-01 a       496     0    25     1    16
 -7.7004715354122066E-02 a       497     0    25     1    17
 -3.3771316134131441E-01 a       498     0    25     1    18
 -2.3974080073971613E-01 a       499     0    25     1    19
 -9.8420731843930342E-01 a       500     0    25     1    20
 -6.9167229414843559E-02 a       501     0    26     1     1
  1.9038199667109387E-01 a       502     0    26     1     2
 -6.2376729386978169E-01 a       503     0    26     1     3
 -9.9970986439416898E-01 a       504     0    26     1     4
  2.0152101544915571E-01 a       505     0    26     1     5
 -1.5676362273600628E-01 a       506     0    26     1     6
 -7.0805580201199114E-01 a       507     0    26     1     7
  9.4134712026263404E-02 a       508     0    26     1     8
 -3.9369918868563336E-01 a       509     0    26     1     9
  2.6157809614942829E-01 a       510     0    26     1    10
 -3.8485431559627287E-01 a       511     0    26     1    11
 -2.1188332322180464E-01 a       512     0    26     1    12
 -1.4942141324938377E-01 a       513     0    26     1    13
 -2.8292357864646878E-01 a       514     0    26     1    14
  1.9281973159711480E-01 a       515     0    26     1    15
 -1.3569742718581698E-01 a       516     0    26     1    16
  1.3904342749202065E-02 a       517     0    26     1    17
 -3.3677472658767232E-01 a       518     0    26     1    18
 -5.6732723687867481E-01 a       519     0    26     1    19
  2.3466801842247598E-01 a       520     0    26     1    20
 -3.6554082263594573E-01 a       521     0    27     1     1
  8.1340324225233374E-01 a       522     0    27     1     2
 -2.2015896773654220E-01 a       523     0    27     1     3
  1.0813373069523367E-01 a       524     0    27     1     4
 -7.5245389127643197E-02 a       525     0    27     1     5
  1.0083322911680016E-01 a       526     0    27     1     6
  1.3835731330974976E+00 a       527     0    27     1     7
 -7.2928407293590111E-02 a       528     0    27     1     8
 -1.9282693095271397E-01 a       529     0    27     1     9
 -7.9477091365697028E-01 a       530     0    27     1    10
 -2.8285770283788653E-01 a       531     0    27     1    11
 -5.0852907951751081E-01 a       532     0    27     1    12
 -1.8905173609428977E-02 a       533     0    27     1    13
  2.2232596786021971E-01 a       534     0    27     1    14
 -2.7796277760575938E-01 a       535     0    27     1    15
  5.0730180942328518E-01 a       536     0    27     1    16
 -4.1524872600150142E-01 a       537     0    27     1    17
 -4.0073750874574182E-01 a       538     0    27     1    18
  5.1993475414082091E-01 a       539     0    27     1    19
 -3.5727478670468943E-01 a       540     0    27     1    20
 -5.1547627429579752E-02 a       541     0    28     1     1
 -3.8661746659234476E-02 a       542     0    28     1     2
  3.3344603479428464E-01 a       543     0    28     1     3
  2.6195207390502484E-01 a       544     0    28     1     4
 -6.0185553437382515E-02 a       545     0    28     1     5
 -1.5135045850037232E-01 a       546     0    28     1     6
  3.8229022120199824E-01 a       547     0    28     1     7
 -3.6102706769643783E-01 a       548     0    28     1     8
 -7.9984453319297058E-03 a       549     0    28     1     9
 -2.5699260885237396E-01 a       550     0    28     1    10
  2.9783066434643563E-01 a       551     0    28     1    11
 -2.0843431998786183E-01 a       552     0    28     1    12
  4.7600034996375287E-02 a       553     0    28     1    13
 -3.5858317101304014E-02 a       554     0    28     1    14
  1.2960210935846379E-02 a       555     0    28     1    15
  2.6955195416857147E-01 a       556     0    28     1    16
 -1.9148474916092974E-02 a       557     0    28     1    17
 -3.5433878754556386E-01 a       558     0    28     1    18
 -1.8636360094328541E-01 a       559     0    28     1    19
  2.5676390103197355E-01 a       560     0    28     1    20
 -3.5345745967550868E-01 a       561     0    29     1     1
 -8.6129928279873913E-01 a       562     0    29     1     2
 -3.9598064021944956E-01 a       563     0    29     1     3
 -3.9179770961844712E-01 a       564     0    29     1     4
 -1.9743038392172787E-03 a       565     0    29     1     5
  7.0047291345148709E-03 a       566     0    29     1     6
  1.5808024623192374E-01 a       567     0    29     1     7
  4.7408975448131918E-01 a       568     0    29     1     8
  5.8183759952148351E-01 a       569     0    29     1     9
  2.2453577095952562E-01 a       570     0    29     1    10
  1.3194822838380418E-01 a       571     0    29     1    11
 -5.8177352108434532E-01 a       572     0    29     1    12
  1.2715062228623081E-01 a       573     0    29     1    13
  2.3265058339335640E-01 a       574     0    29     1    14
 -6.9502295203734688E-01 a       575     0    29     1    15
  2.7468050224642981E-01 a       576     0    29     1    16
  1.1494194959544561E+00 a       577     0    29     1    17
 -2.2048697155533505E-02 a       578     0    29     1    18
  3.3792596477062431E-01 a       579     0    29     1    19
 -4.6213840994479077E-01 a       580     0    29     1    20
  3.5592890087932977E-01 a       581     0    30     1     1
 -1.2699109161573996E-02 a       582     0    30     1     2
  4.7613617882681336E-01 a       583     0    30     1     3
 -3.8221159967093687E-02 a       584     0    30     1     4
 -8.5959070535604989E-02 a       585     0    30     1     5
  2.7210377960831245E-01 a       586     0    30     1     6
 -9.5327922576599486E-02 a       587     0    30     1     7
  4.0807175872846363E-01 a       588     0    30     1     8
 -3.3993189546252628E-01 a       589     0    30     1     9
 -9.9556039166277782E-02 a       590     0    30     1    10
 -2.4540563667931858E-01 a       591     0    30     1    11
 -1.1246839910868531E-01 a       592     0    30     1    12
 -4.1789181004066911E-01 a       593     0    30     1    13
 -6.5624216481455860E-02 a       594     0    30     1    14
  6.2366252914361220E-01 a       595     0    30     1    15
 -2.1362175439169531E-01 a       596     0    30     1    16
 -2.2923818061974369E-01 a       597     0    30     1    17
  3.9522613087210068E-01 a       598     0    30     1    18
 -1.4115900552463312E-01 a       599     0    30     1    19
 -1.3824990101420567E-01 a       600     0    30     1    20
  4.0756444608576364E-01 a       601     0    31     1     1
 -4.5953875647538678E-01 a       602     0    31     1     2
  3.0693756542090089E-01 a       603     0    31     1     3
  2.6977754721210578E-01 a       604     0    31     1     4
  6.6632571633377435E-02 a       605     0    31     1     5
 -2.1671346261895283E-01 a       606     0    31     1     6
  1.7421238437366274E-02 a       607     0    31     1     7
 -2.2185930512359539E-01 a       608     0    31     1     8
 -4.1461085785770874E-01 a       609     0    31     1     9
 -1.3964775567240240E-01 a       610     0    31     1    10
  3.5401469675377378E-01 a       611     0    31     1    11
 -2.5865133579984410E-02 a       612     0    31     1    12
 -5.0515134053885036E-01 a       613     0    31     1    13
  2.8229553445315830E-01 a       614     0    31     1    14
  4.2129590306017417E-01 a       615     0    31     1    15
 -1.6395233991513788E-01 a       616     0    31     1    16
  7.5205725729835901E-02 a       617     0    31     1    17
  1.5863303306681470E-01 a       618     0    31     1    18
  6.7076677991861733E-02 a       619     0    31     1    19
 -1.7583852124067487E-01 a       620     0    31     1    20
  8.8131027102659187E-02 a       621     0    32     1     1
  1.1006946249180616E-01 a       622     0    32     1     2
 -2.2617688974536310E-01 a       623     0    32     1     3
  2.5769214766861216E-02 a       624     0    32     1     4
 -7.2244051191297856E-02 a       625     0    32     1     5
 -2.1897506955708854E-01 a       626     0    32     1     6
  1.2109259109274302E-02 a       627     0    32     1     7
 -1.9343278102600564E-01 a       628     0    32     1     8
 -6.6858084136285501E-01 a       629     0    32     1     9
 -9.5551812133708031E-02 a       630     0    32     1    10
  1.9749298642940830E-01 a       631     0    32     1    11
 -1.1218563349835311E-02 a       632     0    32     1    12
 -6.7442036404907701E-02 a       633     0    32     1    13
  2.5663613976775940E-01 a       634     0    32     1    14
 -1.5648572808835412E-01 a       635     0    32     1    15
 -1.3012419718755228E-01 a       636     0    32     1    16
 -5.8870973710052166E-01 a       637     0    32     1    17
 -1.0872795431095537E-01 a       638     0    32     1    18
  9.6909192976945294E-02 a       639     0    32     1    19
 -4.4385829685465256E-01 a       640     0    32     1    20
 -6.1428539535645044E-01 a       641     0    33     1     1
 -3.1645592008805012E-01 a       642     0    33     1     2
  1.5779843357299458E-01 a       643     0    33     1     3
 -2.6689323960478978E-01 a       644     0    33     1     4
 -5.5581346029873624E-01 a       645     0    33     1     5
 -1.5923472718088208E-01 a       646     0    33     1     6
 -3.3839424673612872E-01 a       647     0    33     1     7
  4.1287861317685542E-01 a       648     0    33     1     8
  4.6702752075803849E-01 a       649     0    33     1     9
  6.1778311530696912E-02 a       650     0    33     1    10
  3.8552903090336160E-01 a       651     0    33     1    11
 -1.9031530608374239E-01 a       652     0    33     1    12
  1.0819411063330356E-01 a       653     0    33     1    13
 -7.1258510024213773E-01 a       654     0    33     1    14
 -2.1632663221089996E-01 a       655     0    33     1    15
  6.5353602552117890E-02 a       656     0    33     1    16
  2.3080836993078432E-02 a       657     0    33     1    17
  7.7065041123093592E-02 a       658     0    33     1    18
  2.5095285065507350E-01 a       659     0    33     1    19
  6.2891037077638656E-01 a       660     0    33     1    20
  2.2354001958882838E-01 a       661     0    34     1     1
  2.4667682808059563E-01 a       662     0    34     1     2
  1.1730369858548027E-02 a       663     0    34     1     3
 -2.5910484897906205E-01 a       664     0    34     1     4
  2.6432184686302762E-01 a       665     0    34     1     5
 -8.6617978830494838E-02 a       666     0    34     1     6
 -3.8557231630548239E-01 a       667     0    34     1     7
  2.2415438435529428E-01 a       668     0    34     1     8
 -8.5914579739748065E-01 a       669     0    34     1     9
  1.6341510082409166E-01 a       670     0    34     1    10
  2.6630900963876880E-01 a       671     0    34     1    11
  1.6239777171999750E-01 a       672     0    34     1    12
  7.6772245077798595E-01 a       673     0    34     1    13
 -2.4835597993591606E-02 a       674     0    34     1    14
 -5.5031119745068779E-01 a       675     0    34     1    15
  3.7342424876833902E-01 a       676     0    34     1    16
 -1.5476792927079588E-01 a       677     0    34     1    17
 -3.4981222050493199E-01 a       678     0    34     1    18
 -1.5865079842259666E-01 a       679     0    34     1    19
 -1.1821085205304015E-01 a       680     0    34     1    20
 -6.1426473710351026E-01 a       681     0    35     1     1
  5.1334839535950000E-02 a       682     0    35     1     2
 -6.9023741295168928E-01 a       683     0    35     1     3
  5.3356915672846950E-02 a       684     0    35     1     4
 -4.0466499446503039E-02 a       685     0    35     1     5
  4.0809665976564713E-01 a       686     0    35     1     6
  7.7173405044882049E-01 a       687     0    35     1     7
 -3.6755762898618327E-01 a       688     0    35     1     8
 -8.1434077407301214E-02 a       689     0    35     1     9
  2.1036100946399536E-01 a       690     0    35     1    10
  3.7162844077439494E-01 a       691     0    35     1    11
 -1.5994302317035911E-01 a       692     0    35     1    12
 -7.3195459325317791E-01 a       693     0    35     1    13
  1.8511974928955885E-01 a       694     0    35     1    14
  5.9799074442213629E-01 a       695     0    35     1    15
 -1.1808530214328342E-01 a       696     0    35     1    16
  3.2541961004819042E-01 a       697     0    35     1    17
  9.5418479243462015E-02 a       698     0    35     1    18
 -1.7882225064377225E-01 a       699     0    35     1    19
  7.8748493643012918E-01 a       700     0    35     1    20
  3.1902459302558545E-01 a       701     0    36     1     1
 -4.7609581312050293E-02 a       702     0    36     1     2
  6.2540330162498037E-01 a       703     0    36     1     3
  6.1217910263216535E-01 a       704     0    36     1     4
 -2.7094461131698644E-01 a       705     0    36     1     5
  6.2302634480204488E-01 a       706     0    36     1     6
 -2.1983252189882885E-02 a       707     0    36     1     7
 -9.4579485854293388E-01 a       708     0    36     1     8
  1.1816213355906642E-02 a       709     0    36     1     9
  3.9799122672779041E-01 a       710     0    36     1    10
 -1.5130189468118338E+00 a       711     0    36     1    11
 -5.4082133000487942E-01 a       712     0    36     1    12
 -3.6939867077195004E-01 a       713     0    36     1    13
  1.8747340158947226E-01 a       714     0    36     1    14
 -4.5862819929374063E-02 a       715     0    36     1    15
 -3.5457380822362800E-01 a       716     0    36     1    16
  1.1678978011746934E+00 a       717     0    36     1    17
  1.6365794260479469E-01 a       718     0    36     1    18
 -1.4418127454304880E-01 a       719     0    36     1    19
  1.8756915153292703E-01 a       720     0    36     1    20
 -2.2782838130927522E-02 a       721     0    37     1     1
  9.9328377792261691E-01 a       722     0    37     1     2
 -9.0871846782816609E-02 a       723     0    37     1     3
  2.4676656196977095E-01 a       724     0    37     1     4
 -2.3890395908949266E-01 a       725     0    37     1     5
  6.9983949980106797E-01 a       726     0    37     1     6
  2.6590985432835568E-01 a       727     0    37     1     7
 -7.5584775181090880E-01 a       728     0    37     1     8
  4.3668347126723384E-01 a       729     0    37     1     9
 -3.3890359068818610E-01 a       730     0    37     1    10
  1.8830437793608218E-01 a       731     0    37     1    11
 -1.7591852323068244E-01 a       732     0    37     1    12
  3.8485973732915568E-01 a       733     0    37     1    13
  5.8688337083124265E-02 a       734     0    37     1    14
  8.2875582817991816E-02 a       735     0    37     1    15
  2.3705907813971527E-02 a       736     0    37     1    16
  7.3761647815874176E-01 a       737     0    37     1    17
  3.1557689153778073E-01 a       738     0    37     1    18
  7.4059926201093096E-01 a       739     0    37     1    19
 -2.6732035253862280E-01 a       740     0    37     1    20
  7.9732265007710623E-01 a       741     0    38     1     1
 -3.3731859818973448E-02 a       742     0    38     1     2
  3.4091554047119521E-01 a       743     0    38     1     3
  4.6346398856726800E-01 a       744     0    38     1     4
 -1.4738219807469996E-01 a       745     0    38     1     5
  1.0452701408696151E-01 a       746     0    38     1     6
 -5.2462448539960860E-01 a       747     0    38     1     7
  5.7391164431750319E-01 a       748     0    38     1     8
  8.0075386211679367E-01 a       749     0    38     1     9
  1.4616090103250759E-01 a       750     0    38     1    10
 -2.6449915240901622E-01 a       751     0    38     1    11
  4.8300855099987056E-01 a       752     0    38     1    12
  1.4817127359091473E-01 a       753     0    38     1    13
  3.7016429545680879E-02 a       754     0    38     1    14
 -1.0088924196035394E-01 a       755     0    38     1    15
 -6.6250847837418803E-02 a       756     0    38     1    16
  1.2584870856486061E-02 a       757     0    38     1    17
  4.0701690101642068E-01 a       758     0    38     1    18
 -6.2813983702115472E-01 a       759     0    38     1    19
 -4.2355125769271018E-01 a       760     0    38     1    20
 -4.0824798254674954E-01 a       761     0    39     1     1
  1.4049060122924744E+00 a       762     0    39     1     2
 -3.0772673740345285E-01 a       763     0    39     1     3
 -5.2012621743483034E-02 a       764     0    39     1     4
  2.2810303788071007E-01 a       765     0    39     1     5
  7.8600986006343354E-01 a       766     0    39     1     6
  2.9571056858016520E-01 a       767     0    39     1     7
 -4.5297647586590656E-01 a       768     0    39     1     8
  6.4926892005473713E-01 a       769     0    39     1     9
 -2.6241607081893004E-01 a       770     0    39     1    10
  7.1801577192324650E-01 a       771     0    39     1    11
  5.4638522761605246E-01 a       772     0    39     1    12
  3.9624424302635430E-01 a       773     0    39     1    13
 -4.7815716283331422E-02 a       774     0    39     1    14
  1.3787249752993175E-01 a       775     0    39     1    15
 -2.7877979116433094E-01 a       776     0    39     1    16
  1.3871389501113451E-01 a       777     0    39     1    17
  4.8553697474972085E-01 a       778     0    39     1    18
  3.6585934482205984E-01 a       779     0    39     1    19
 -4.0572466461681900E-01 a       780     0    39     1    20
  3.1476038871050083E-01 a       781     0    40     1     1
 -1.4327227635031188E+00 a       782     0    40     1     2
 -5.6674279085470503E-01 a       783     0    40     1     3
 -3.2223459776012209E-01 a       784     0    40     1     4
 -4.0337631674375074E-01 a       785     0    40     1     5
 -2.6103462566589869E-01 a       786     0    40     1     6
  1.8770105713222277E-01 a       787     0    40     1     7
  1.2094048783226603E+00 a       788     0    40     1     8
  5.7670480233732446E-01 a       789     0    40     1     9
  2.4921671397081910E-01 a       790     0    40     1    10
  2.8012736074923950E-01 a       791     0    40     1    11
 -1.5482565249044164E-02 a       792     0    40     1    12
 -1.1398261104270120E+00 a       793     0    40     1    13
  8.8915568648424953E-02 a       794     0    40     1    14
  2.6359631565602443E-01 a       795     0    40     1    15
  6.9834348630852605E-01 a       796     0    40     1    16
  2.7418985403597499E-02 a       797     0    40     1    17
  4.3266795775929773E-01 a       798     0    40     1    18
 -1.3109099285059428E-01 a       799     0    40     1    19
  1.8605461736057941E-01 a       800     0    40     1    20
 -1.0417708837963512E-01 a       801     0    41     1     1
  2.1230766865530218E-01 a       802     0    41     1     2
  1.4783806917006487E-01 a       803     0    41     1     3
  1.4882265215865182E-02 a       804     0    41     1     4
  1.1537779138674048E-01 a       805     0    41     1     5
 -1.7350268350588569E-01 a       806     0    41     1     6
 -2.8493996101610725E-01 a       807     0    41     1     7
 -6.2344989088732417E-01 a       808     0    41     1     8
 -7.7022241356099835E-02 a       809     0    41     1     9
 -5.2615027248017511E-03 a       810     0    41     1    10
 -2.6491472382411357E-01 a       811     0    41     1    11
 -9.2005644739715911E-02 a       812     0    41     1    12
  2.2365351495431129E-01 a       813     0    41     1    13
  4.3838929376251307E-03 a       814     0    41     1    14
 -5.7732578193278587E-02 a       815     0    41     1    15
 -1.0788985218887427E-01 a       816     0    41     1    16
  2.1892165343282918E-01 a       817     0    41     1    17
 -5.8698052242911719E-02 a       818     0    41     1    18
  4.8911066749179910E-01 a       819     0    41     1    19
  1.7408047758654430E-01 a       820     0    41     1    20
  2.6574081081290424E-01 a       821     0    42     1     1
  3.3107544285717466E-01 a       822     0    42     1     2
  5.2033558536348956E-01 a       823     0    42     1     3
  6.9768684604405870E-02 a       824     0    42     1     4
  4.4485795406826621E-03 a       825     0    42     1     5
  1.2345924349900501E-01 a       826     0    42     1     6
 -2.1746410913927178E-02 a       827     0    42     1     7
 -3.2230242098772316E-02 a       828     0    42     1     8
  2.8758832240373911E-01 a       829     0    42     1     9
  1.3707967241276556E-01 a       830     0    42     1    10
 -1.6828578871518493E-01 a       831     0    42     1    11
 -1.0405365014299962E-01 a       832     0    42     1    12
 -1.6761726621984860E-01 a       833     0    42     1    13
  1.8888634101892987E-01 a       834     0    42     1    14
 -6.3104967413418547E-02 a       835     0    42     1    15
  4.3925660205740014E-02 a       836     0    42     1    16
  3.5527037051357672E-02 a       837     0    42     1    17
  1.2750392049970663E-01 a       838     0    42     1    18
 -4.9571661147553452E-02 a       839     0    42     1    19
 -2.5398140742266118E-01 a       840     0    42     1    20
 -9.7777256082795611E-02 a       841     0    43     1     1
  5.0117133046851524E-02 a       842     0    43     1     2
  8.3427632305286908E-02 a       843     0    43     1     3
  6.4545296228943019E-02 a       844     0    43     1     4
  1.7694350580574672E-01 a       845     0    43     1     5
  6.3912493342525148E-02 a       846     0    43     1     6
  5.8146344583953430E-02 a       847     0    43     1     7
 -1.2331486876859564E-01 a       848     0    43     1     8
 -8.8316628106509101E-02 a       849     0    43     1     9
 -3.4176134979868968E-02 a       850     0    43     1    10
 -1.3476367410075327E-01 a       851     0    43     1    11
  5.2657927782694236E-02 a       852     0    43     1    12
 -2.3965107887067189E-01 a       853     0    43     1    13
  2.4864730219478834E-01 a       854     0    43     1    14
  1.2159108111640738E-02 a       855     0    43     1    15
  2.1660387996245695E-01 a       856     0    43     1    16
 -1.2554894204199901E-01 a       857     0    43     1    17
 -4.4679427520588608E-02 a       858     0    43     1    18
 -4.8091965734080110E-02 a       859     0    43     1    19
 -9.6023820899412887E-02 a       860     0    43     1    20
 -1.4116988507291742E-01 a       861     0    44     1     1
 -5.9647898670969901E-01 a       862     0    44     1     2
 -9.5075575149741465E-01 a       863     0    44     1     3
  4.0124911204556041E-01 a       864     0    44     1     4
 -2.7750219864271786E-01 a       865     0    44     1     5
 -2.1426453536023720E-02 a       866     0    44     1     6
  6.5924072738417083E-01 a       867     0    44     1     7
  3.3402990408915943E-02 a       868     0    44     1     8
 -1.4618334295790028E-01 a       869     0    44     1     9
 -6.6856577176484544E-01 a       870     0    44     1    10
  4.5943990168397564E-01 a       871     0    44     1    11
  2.7448654974640707E-01 a       872     0    44     1    12
  2.0222916690814913E-01 a       873     0    44     1    13
 -9.3596498939158534E-01 a       874     0    44     1    14
 -2.1747522392694033E-01 a       875     0    44     1    15
 -2.3728378172150569E-01 a       876     0    44     1    16
  4.5522466978275650E-01 a       877     0    44     1    17
 -2.2460075100454835E-01 a       878     0    44     1    18
 -1.8030989139080067E-01 a       879     0    44     1    19
  2.2301284801017329E-01 a       880     0    44     1    20
 -7.6825654399013246E-02 a       881     0    45     1     1
  7.1265156353001824E-01 a       882     0    45     1     2
 -5.7383260041094153E-01 a       883     0    45     1     3
 -4.5217053186169964E-01 a       884     0    45     1     4
  2.0582312601724079E-01 a       885     0    45     1     5
 -4.1160468629124047E-01 a       886     0    45     1     6
  1.8926992833605946E-01 a       887     0    45     1     7
 -3.5553419502827158E-02 a       888     0    45     1     8
  1.1760897489678335E+00 a       889     0    45     1     9
  2.1323770249623900E-01 a       890     0    45     1    10
  4.9120174200763217E-01 a       891     0    45     1    11
 -4.6878546632831142E-01 a       892     0    45     1    12
  1.8842910279779668E-01 a       893     0    45     1    13
 -5.0954797223723769E-01 a       894     0    45     1    14
  1.1901428803166453E-01 a       895     0    45     1    15
  3.5244661731248156E-01 a       896     0    45     1    16
 -9.2541876600580730E-01 a       897     0    45     1    17
  2.9466522878185503E-01 a       898     0    45     1    18
  4.8056030875697564E-01 a       899     0    45     1    19
  1.9781481277868992E-02 a       900     0    45     1    20
 -3.9480782496103189E-01 a       901     0    46     1     1
 -2.5961735873028009E+00 a       902     0    46     1     2
 -5.1941291007402790E-01 a       903     0    46     1     3
 -1.0200303540551368E-01 a       904     0    46     1     4
  3.3689938818577991E-01 a       905     0    46     1     5
 -8.3378522309283387E-01 a       906     0    46     1     6
 -1.1912091070953430E-01 a       907     0    46     1     7
  1.2304048217255097E+00 a       908     0    46     1     8
 -1.0654645482363181E+00 a       909     0    46     1     9
  1.1582730051263679E-01 a       910     0    46     1    10
  7.8526539969439657E-01 a       911     0    46     1    11
  3.4924432285847157E-01 a       912     0    46     1    12
 -2.1261632027613564E-01 a       913     0    46     1    13
  1.5524483988866217E-01 a       914     0    46     1    14
  6.1840893513424500E-01 a       915     0    46     1    15
 -4.9567014555883621E-01 a       916     0    46     1    16
  5.7424378585028735E-01 a       917     0    46     1    17
 -7.8847641058824869E-01 a       918     0    46     1    18
 -8.3343585130638154E-01 a       919     0    46     1    19
 -2.6290862261134962E-01 a       920     0    46     1    20
 -4.9202614308032427E-01 a       921     0    47     1     1
  3.2970538348449041E-01 a       922     0    47     1     2
  4.8997233321879252E-01 a       923     0    47     1     3
 -3.7958158878592668E-01 a       924     0    47     1     4
 -6.2380600019433341E-01 a       925     0    47     1     5
 -7.5604501831931703E-01 a       926     0    47     1     6
 -8.0640602153594276E-01 a       927     0    47     1     7
  2.8542668556322026E-01 a       928     0    47     1     8
 -7.9871363044658461E-01 a       929     0    47     1     9
  2.6129230640266682E-01 a       930     0    47     1    10
 -4.5221884050953504E-01 a       931     0    47     1    11
  7.2258062487529057E-02 a       932     0    47     1    12
 -4.7939802225235151E-01 a       933     0    47     1    13
  1.1740975552986940E-01 a       934     0    47     1    14
 -7.0365647545624732E-01 a       935     0    47     1    15
 -8.5587314718636148E-02 a       936     0    47     1    16
  1.2149780090363158E-01 a       937     0    47     1    17
 -3.6077755200675282E-01 a       938     0    47     1    18
 -3.6850309641589801E-01 a       939     0    47     1    19
 -6.9627094618970639E-02 a       940     0    47     1    20
 -2.5857530694638603E-01 a       941     0    48     1     1
  5.4962861567316978E-01 a       942     0    48     1     2
  5.3736967860318161E-02 a       943     0    48     1     3
 -1.9903051092813720E-02 a       944     0    48     1     4
  8.8889462554202908E-02 a       945     0    48     1     5
  7.9150802782459029E-01 a       946     0    48     1     6
 -2.8920512270590665E-01 a       947     0    48     1     7
 -3.6683579290597451E-01 a       948     0    48     1     8
 -1.6521932950746762E-01 a       949     0    48     1     9
  2.7700068515550075E-01 a       950     0    48     1    10
  1.7012306175522005E-03 a       951     0    48     1    11
 -1.5823041222131304E-01 a       952     0    48     1    12
  1.6197485470861239E-01 a       953     0    48     1    13
 -4.6096713108988663E-01 a       954     0    48     1    14
  2.8559355998928898E-01 a       955     0    48     1    15
  5.3677998948781969E-01 a       956     0    48     1    16
 -4.7951582643306517E-01 a       957     0    48     1    17
  5.6536175334426042E-01 a       958     0    48     1    18
  6.6593648320064664E-03 a       959     0    48     1    19
  7.5825500457502892E-01 a       960     0    48     1    20
  1.4445064434663366E-01 a       961     0    49     1     1
  1.8123209532012658E+00 a       962     0    49     1     2
 -9.4460107509061775E-01 a       963     0    49     1     3
 -3.9151304514697248E-02 a       964     0    49     1     4
  5.0163380657900325E-01 a       965     0    49     1     5
  3.3208754111173433E-01 a       966     0    49     1     6
  1.5816146052494906E+00 a       967     0    49     1     7
 -1.0287373094944017E+00 a       968     0    49     1     8
  4.8210078486378338E-01 a       969     0    49     1     9
 -7.5764233080996146E-01 a       970     0    49     1    10
  1.8365939518687441E-01 a       971     0    49     1    11
  4.3568340008709633E-01 a       972     0    49     1    12
 -7.3543174574376161E-02 a       973     0    49     1    13
  3.6483342689379272E-01 a       974     0    49     1    14
 -9.1491682649914263E-01 a       975     0    49     1    15
  7.4480318898295761E-01 a       976     0    49     1    16
 -4.0370508392163967E-01 a       977     0    49     1    17
  2.3772669011332559E-01 a       978     0    49     1    18
  1.5708711172999157E-01 a       979     0    49     1    19
 -4.7714427630931888E-01 a       980     0    49     1    20
  3.3728241240001772E-01 a       981     0    50     1     1
 -2.9862576576424069E+00 a       982     0    50     1     2
  1.9057317410925538E+00 a       983     0    50     1     3
  6.7861821652280085E-01 a       984     0    50     1     4
  3.2693104058593986E-01 a       985     0    50     1     5
 -9.1334832034813518E-01 a       986     0    50     1     6
 -1.2255911956873908E+00 a       987     0    50     1     7
  2.0921236638372025E+00 a       988     0    50     1     8
  6.1397643401601487E-01 a       989     0    50     1     9
 -1.5690583839949029E-01 a       990     0    50     1    10
 -8.7742712157676150E-02 a       991     0    50     1    11
 -5.4621156136019422E-01 a       992     0    50     1    12
  3.1512937208820113E-01 a       993     0    50     1    13
 -2.1410923712317834E-01 a       994     0    50     1    14
  5.6109821868456533E-01 a       995     0    50     1    15
 -1.0477671605364027E-02 a       996     0    50     1    16
 -7.7532872017047005E-01 a       997     0    50     1    17
 -8.3330872203635520E-01 a       998     0    50     1    18
 -2.4277685735386405E-03 a       999     0    50     1    19
  5.7207579278489884E-01 a      1000     0    50     1    20
  1.3725193571361469E-01 a      1001     0    51     1     1
  3.8330670110622178E-01 a      1002     0    51     1     2
 -3.8971218233121954E-02 a      1003     0    51     1     3
  1.2255703448050892E-01 a      1004     0    51     1     4
 -1.5344940328670365E-01 a      1005     0    51     1     5
  3.3457745492072621E-01 a      1006     0    51     1     6
 -2.9670576322892045E-01 a      1007     0    51     1     7
  1.1394738660361501E-03 a      1008     0    51     1     8
  5.7339531597306848E-01 a      1009     0    51     1     9
  9.1289326284642217E-02 a      1010     0    51     1    10
 -5.0861186590512586E-01 a      1011     0    51     1    11
 -4.8908508032217635E-02 a      1012     0    51     1    12
  9.9442624290395618E-02 a      1013     0    51     1    13
 -1.7671125671953217E-01 a      1014     0    51     1    14
 -3.9152393912072142E-01 a      1015     0    51     1    15
 -3.0306361793004149E-02 a      1016     0    51     1    16
  2.0962435517516631E-01 a      1017     0    51     1    17
  9.8082359753868836E-02 a      1018     0    51     1    18
  4.9344871455503161E-02 a      1019     0    51     1    19
  2.3994219490729937E-01 a      1020     0    51     1    20
  2.8167875009870097E-01 b      1021     1     1
 -8.8626324746071539E-01 b      1022     1     2
 -3.1065985232835008E-01 b      1023     1     3
  9.7784413423995697E-01 b      1024     1     4
 -8.3776825644162334E-01 b      1025     1     5
 -8.2990269020596141E-01 b      1026     1     6
 -1.1865771805192726E+00 b      1027     1     7
 -1.1428142824105578E+00 b      1028     1     8
  8.6166116242814983E-01 b      1029     1     9
 -1.2924726412252778E+00 b      1030     1    10
  2.2025077844425928E-01 b      1031     1    11
  1.3249634846691363E+00 b      1032     1    12
  5.3987989108914398E-02 b      1033     1    13
 -8.1539896888683439E-01 b      1034     1    14
  8.7376814316440021E-01 b      1035     1    15
 -1.5451168381571967E-01 b      1036     1    16
  1.0247710366761618E+00 b      1037     1    17
 -8.4080707403576294E-01 b      1038     1    18
 -8.8117204536563087E-01 b      1039     1    19
 -1.1834832369795854E+00 b      1040     1    20
  4.6617563038963461E-01 a      1041     1     1     2     1
 -1.4229015313768448E-01 a      1042     1     1     2     2
  1.5582780390966497E-03 a      1043     1     1     2     3
 -7.6943567608964947E-01 a      1044     1     1     2     4
 -1.2772484626720185E-01 a      1045     1     1     2     5
  3.9931054372934438E-01 a      1046     1     1     2     6
 -4.9241440846552575E-01 a      1047     1     1     2     7
 -1.6801410249314189E-01 a      1048     1     1     2     8
  1.4487393024433445E-01 a      1049     1     1     2     9
 -2.0403368538012129E-01 a      1050     1     1     2    10
 -3.6453811494423188E-01 a      1051     1     1     2    11
 -7.7775473118245364E-01 a      1052     1     1     2    12
  5.9953461706705025E-01 a      1053     1     1     2    13
 -2.4316395955328690E-01 a      1054     1     1     2    14
 -1.1210560845151705E-02 a      1055     1     1     2    15
  3.3873930576201361E-01 a      1056     1     1     2    16
 -1.2726696916752291E-02 a      1057     1     1     2    17
  8.8326624286565059E-01 a      1058     1     1     2    18
  4.2461794095472549E-01 a      1059     1     1     2    19
 -5.8246761824141491E-01 a      1060     1     1     2    20
 -3.2879858202785173E-01 a      1061     1     2     2     1
  4.7102980895479407E-01 a      1062     1     2     2     2
  3.6617243441407799E-01 a      1063     1     2     2     3
 -7.1965453078195116E-02 a      1064     1     2     2     4
 -5.8116707721690541E-01 a      1065     1     2     2     5
  6.5391134302677256E-01 a      1066     1     2     2     6
  2.8612039529824601E-01 a      1067     1     2     2     7
 -6.0140233957710332E-01 a      1068     1     2     2     8
  8.3704371307515357E-01 a      1069     1     2     2     9
 -4.5072338206548862E-01 a      1070     1     2     2    10
 -5.4967639382775124E-01 a      1071     1     2     2    11
  1.4864824153314263E-01 a      1072     1     2     2    12
  5.4010632177058865E-03 a      1073     1     2     2    13
 -1.9499980066568295E-01 a      1074     1     2     2    14
  6.8116247193554902E-01 a      1075     1     2     2    15
 -4.4135474465924035E-01 a      1076     1     2     2    16
 -4.0947769628151565E-01 a      1077     1     2     2    17
  3.3125187119029337E-01 a      1078     1     2     2    18
  5.0908696102814892E-02 a      1079     1     2     2    19
  5.1221038754339598E-01 a      1080     1     2     2    20
 -1.6846263305437917E-01 a      1081     1     3     2     1
  5.6721647774921891E-01 a      1082     1     3     2     2
  2.7979101397325384E-01 a      1083     1     3     2     3
 -3.3778104347362455E-02 a      1084     1     3     2     4
 -9.4282394228238997E-01 a      1085     1     3     2     5
 -6.3507878494558079E-01 a      1086     1     3     2     6
 -2.5806501391610814E-01 a      1087     1     3     2     7
  3.4624074065866389E-01 a      1088     1     3     2     8
 -7.1433180970940802E-01 a      1089     1     3     2     9
  1.0705777623117330E-01 a      1090     1     3     2    10
 -6.2095089938080739E-01 a      1091     1     3     2    11
  1.3589662727049992E-01 a      1092     1     3     2    12
 -3.5574945450358220E-01 a      1093     1     3     2    13
  2.6237629168933757E-01 a      1094     1     3     2    14
  1.6835086247478312E-01 a      1095     1     3     2    15
  5.3857156881253965E-01 a      1096     1     3     2    16
 -1.0908357114236913E+00 a      1097     1     3     2    17
 -2.4095390638343553E-01 a      1098     1     3     2    18
  1.9150509178055800E-01 a      1099     1     3     2    19
 -1.2552372884192770E-01 a      1100     1     3     2    20
 -6.5667700876106172E-01 a      1101     1     4     2     1
 -5.6081729504256250E-01 a      1102     1     4     2     2
 -4.0518491431495346E-01 a      1103     1     4     2     3
  5.1148203996552277E-01 a      1104     1     4     2     4
 -1.0450092695714824E-01 a      1105     1     4     2     5
 -5.4418363258023250E-01 a      1106     1     4     2     6
 -3.6912515037583321E-01 a      1107     1     4     2     7
 -2.3624104482458663E-01 a      1108     1     4     2     8
  5.4746257678302013E-01 a      1109     1     4     2     9
 -7.6496107706342020E-01 a      1110     1     4     2    10
 -1.0791186771809016E+00 a      1111     1     4     2    11
  4.4506728067495904E-01 a      1112     1     4     2    12
 -6.6142678150222245E-01 a      1113     1     4     2    13
 -1.6658700888784872E-01 a      1114     1     4     2    14
 -4.9336187778518065E-01 a      1115     1     4     2    15
  2.7473869584709482E-01 a      1116     1     4     2    16
 -4.6826006063096159E-01 a      1117     1     4     2    17
  3.8226774176507416E-01 a      1118     1     4     2    18
 -5.5388566918152704E-01 a      1119     1     4     2    19
  2.2070511516073046E-01 a      1120     1     4     2    20
 -6.9481454036335610E-01 a      1121     1     5     2     1
  9.0388271853910496E-01 a      1122     1     5     2     2
 -1.2778149856720095E-01 a      1123     1     5     2     3
  1.1842857177113705E-01 a      1124     1     5     2     4
  1.7770988000468430E-01 a      1125     1     5     2     5
 -2.0335043148892568E-01 a      1126     1     5     2     6
  2.9874623163067376E-01 a      1127     1     5     2     7
  5.7647541370629329E-01 a      1128     1     5     2     8
 -7.7626350923940379E-02 a      1129     1     5     2     9
 -7.8228313200250990E-02 a      1130     1     5     2    10
  8.8075871332245415E-01 a      1131     1     5     2    11
 -3.0468074955535501E-01 a      1132     1     5     2    12
 -2.3578608159909942E-01 a      1133     1     5     2    13
 -4.6445776857037185E-01 a      1134     1     5     2    14
  2.4952027732721480E-01 a      1135     1     5     2    15
 -1.9581504036423319E-01 a      1136     1     5     2    16
 -1.2684801046939869E-02 a      1137     1     5     2    17
  3.0307144195666352E-01 a      1138     1     5     2    18
  6.7082470337033440E-01 a      1139     1     5     2    19
  3.7684531691990247E-01 a      1140     1     5     2    20
 -4.5722064189670225E-01 a      1141     1     6     2     1
  8.0913759936560969E-01 a      1142     1     6     2     2
 -1.4732713706349090E-01 a      1143     1     6     2     3
  7.9432968620609934E-01 a      1144     1     6     2     4
  2.4332599920629139E-01 a      1145     1     6     2     5
 -3.0543769589340986E-01 a      1146     1     6     2     6
  2.2793686073275832E-01 a      1147     1     6     2     7
 -1.4689685196671259E-01 a      1148     1     6     2     8
 -4.9964000457253738E-01 a      1149     1     6     2     9
  7.4865825820369603E-01 a      1150     1     6     2    10
 -5.1863682769992736E-01 a      1151     1     6     2    11
 -3.9988149311514198E-01 a      1152     1     6     2    12
 -8.6881892121523682E-02 a      1153     1     6     2    13
  6.7293246525358941E-01 a      1154     1     6     2    14
 -1.9453644375877415E-02 a      1155     1     6     2    15
  8.9673611190049551E-01 a      1156     1     6     2    16
  3.8628685472935442E-01 a      1157     1     6     2    17
 -6.8044157060504873E-01 a      1158     1     6     2    18
  3.5504491339414057E-01 a      1159     1     6     2    19
  6.6701908907450258E-02 a      1160     1     6     2    20
  1.7387305206664930E-01 a      1161     1     7     2     1
 -1.4920814835445342E-01 a      1162     1     7     2     2
 -2.1876046916743866E-01 a      1163     1     7     2     3
  6.5995591403613307E-01 a      1164     1     7     2     4
 -4.3612797855690477E-01 a      1165     1     7     2     5
  4.1135100934462315E-01 a      1166     1     7     2     6
  7.3021179963381877E-01 a      1167     1     7     2     7
  3.6451975866195342E-02 a      1168     1     7     2     8
  6.3157109013613044E-02 a      1169     1     7     2     9
  3.0970084359148264E-01 a      1170     1     7     2    10
  7.3121542224899516E-01 a      1171     1     7     2    11
  3.3285040461458920E-01 a      1172     1     7     2    12
 -1.5067441498278214E-01 a      1173     1     7     2    13
 -8.2335205980486603E-01 a      1174     1     7     2    14
  6.1028581914692870E-01 a      1175     1     7     2    15
 -1.5564902819822916E-02 a      1176     1     7     2    16
  3.9877686928194545E-01 a      1177     1     7     2    17
  6.6073187176561654E-01 a      1178     1     7     2    18
 -1.4855869509038630E-01 a      1179     1     7     2    19
 -8.4127371296701531E-02 a      1180     1     7     2    20
  5.1482205833789674E-01 a      1181     1     8     2     1
  5.6233401351220313E-01 a      1182     1     8     2     2
  1.1287997186346566E-01 a      1183     1     8     2     3
  7.5271190721244208E-01 a      1184     1     8     2     4
 -5.2619221580120978E-01 a      1185     1     8     2     5
  3.3447130812795661E-01 a      1186     1     8     2     6
  2.1110930843525094E-01 a      1187     1     8     2     7
 -1.0717342263457734E-01 a      1188     1     8     2     8
  1.5048596507164186E-01 a      1189     1     8     2     9
 -4.4959095942125776E-01 a      1190     1     8     2    10
 -1.5683439721940282E-01 a      1191     1     8     2    11
 -5.6599285439478531E-01 a      1192     1     8     2    12
 -3.7418146294184482E-02 a      1193     1     8     2    13
 -8.1912140387846566E-01 a      1194     1     8     2    14
 -4.7074075240193421E-02 a      1195     1     8     2    15
  8.2110450689804193E-01 a      1196     1     8     2    16
 -1.2944996022424891E+00 a      1197     1     8     2    17
 -3.7056918132243200E-01 a      1198     1     8     2    18
  5.8066169765029631E-02 a      1199     1     8     2    19
  4.4159826473880226E-01 a      1200     1     8     2    20
  3.3928095916158191E-01 a      1201     1     9     2     1
  1.7338437740446802E-01 a      1202     1     9     2     2
 -6.4739436617876744E-01 a      1203     1     9     2     3
 -5.3942870422497499E-03 a      1204     1     9     2     4
  5.6360077236239747E-01 a      1205     1     9     2     5
  3.4339349349391639E-02 a      1206     1     9     2     6
 -7.5643763266324204E-01 a      1207     1     9     2     7
 -9.0129609491573948E-02 a      1208     1     9     2     8
  5.7755834983186805E-03 a      1209     1     9     2     9
 -2.1890282160710658E-01 a      1210     1     9     2    10
 -4.5131572711010109E-01 a      1211     1     9     2    11
 -2.7466108733370526E-01 a      1212     1     9     2    12
  1.8301816871567783E-01 a      1213     1     9     2    13
  2.2535135068308129E-01 a      1214     1     9     2    14
  6.8810359173487690E-01 a      1215     1     9     2    15
 -2.6368686483838660E-01 a      1216     1     9     2    16
  1.1774050277205053E+00 a      1217     1     9     2    17
 -3.8494761646086817E-01 a      1218     1     9     2    18
 -7.8549407746159716E-01 a      1219     1     9     2    19
 -2.9614760243887850E-01 a      1220     1     9     2    20
 -8.4678569424673678E-01 a      1221     1    10     2     1
 -3.6156797828249221E-01 a      1222     1    10     2     2
 -5.9361295503928169E-01 a      1223     1    10     2     3
 -3.8058747944793631E-01 a      1224     1    10     2     4
 -4.4179016239533214E-01 a      1225     1    10     2     5
  4.2211489713062844E-01 a      1226     1    10     2     6
  4.5618050955186457E-01 a      1227     1    10     2     7
  5.8916633774045002E-01 a      1228     1    10     2     8
  4.9418421760270659E-01 a      1229     1    10     2     9
 -2.2147572684593775E-02 a      1230     1    10     2    10
  7.5868734547448435E-01 a      1231     1    10     2    11
 -3.6440148158410790E-01 a      1232     1    10     2    12
  7.5994110301096096E-01 a      1233     1    10     2    13
  6.4221217293297939E-01 a      1234     1    10     2    14
  7.4373605486552941E-01 a      1235     1    10     2    15
  5.7348562246810131E-01 a      1236     1    10     2    16
 -5.8795835927641815E-01 a      1237     1    10     2    17
 -6.3392230578156195E-01 a      1238     1    10     2    18
  2.0065762512549698E-02 a      1239     1    10     2    19
  7.0308571949595577E-01 a      1240     1    10     2    20
 -1.8096460985383095E-01 a      1241     1    11     2     1
  1.4095443966554833E-01 a      1242     1    11     2     2
 -6.1308362932236937E-01 a      1243     1    11     2     3
  2.5588463351531826E-01 a      1244     1    11     2     4
 -1.6690684653822016E-03 a      1245     1    11     2     5
  1.1432743535786605E-01 a      1246     1    11     2     6
 -1.5146909801167687E+00 a      1247     1    11     2     7
 -1.2733317256488591E-01 a      1248     1    11     2     8
 -3.3916901991186543E-01 a      1249     1    11     2     9
  4.0053490096943528E-01 a      1250     1    11     2    10
  9.8510572168088850E-01 a      1251     1    11     2    11
  2.1647835460644160E-01 a      1252     1    11     2    12
 -5.9260247973249047E-01 a      1253     1    11     2    13
  4.7315053018572639E-01 a      1254     1    11     2    14
  1.7341375564461783E-01 a      1255     1    11     2    15
  7.4365108509997391E-01 a      1256     1    11     2    16
  2.5785778960997602E-01 a      1257     1    11     2    17
  9.2979987885314697E-02 a      1258     1    11     2    18
  1.2409150655493675E-01 a      1259     1    11     2    19
 -5.6119737569707429E-01 a      1260     1    11     2    20
 -6.9919978141656092E-01 a      1261     1    12     2     1
 -9.4439555088564442E-02 a      1262     1    12     2     2
 -3.1609402506284613E-02 a      1263     1    12     2     3
 -6.6032400463058596E-02 a      1264     1    12     2     4
 -5.2133645753792301E-01 a      1265     1    12     2     5
  8.8068449543512173E-01 a      1266     1    12     2     6
 -6.0094180457633088E-02 a      1267     1    12     2     7
 -9.3750682298962840E-01 a      1268     1    12     2     8
  2.7626644814703566E-01 a      1269     1    12     2     9
  1.0234990862754031E-01 a      1270     1    12     2    10
  1.1063500110191536E-01 a      1271     1    12     2    11
  6.3992269036670135E-01 a      1272     1    12     2    12
 -6.4938126582758304E-01 a      1273     1    12     2    13
 -2.2662100470615607E-01 a      1274     1    12     2    14
 -6.6543535230121256E-02 a      1275     1    12     2    15
 -1.9842361802046815E-01 a      1276     1    12     2    16
 -5.4485674406640083E-01 a      1277     1    12     2    17
  8.4549589896834143E-01 a      1278     1    12     2    18
  5.3552237669809677E-01 a      1279     1    12     2    19
 -4.2857243828144825E-01 a      1280     1    12     2    20
  1.7596077780874531E-01 a      1281     1    13     2     1
 -1.1827934340938981E-01 a      1282     1    13     2     2
 -5.3478680154313885E-01 a      1283     1    13     2     3
 -3.0410221423924588E-01 a      1284     1    13     2     4
 -3.2759324123739797E-01 a      1285     1    13     2     5
  2.9452223473665162E-01 a      1286     1    13     2     6
 -8.1326485223090800E-02 a      1287     1    13     2     7
  2.5173875241766142E-01 a      1288     1    13     2     8
 -5.4937068194609928E-01 a      1289     1    13     2     9
 -6.2191251804481973E-01 a      1290     1    13     2    10
  8.1575238236885272E-01 a      1291     1    13     2    11
  9.6577976917611386E-02 a      1292     1    13     2    12
 -5.5688879445854134E-01 a      1293     1    13     2    13
  1.9668074278131537E-01 a      1294     1    13     2    14
 -3.1538764147934584E-01 a      1295     1    13     2    15
 -3.7564235091923456E-02 a      1296     1    13     2    16
  1.4055145759085594E+00 a      1297     1    13     2    17
 -6.3420495102554808E-01 a      1298     1    13     2    18
 -9.4831829514238949E-02 a      1299     1    13     2    19
 -5.3352839468505897E-01 a      1300     1    13     2    20
 -1.2839797769881989E-01 a      1301     1    14     2     1
  9.4278849612580329E-01 a      1302     1    14     2     2
 -1.0896367870712098E-01 a      1303     1    14     2     3
  3.9806882847900432E-01 a      1304     1    14     2     4
  3.0746575484387839E-01 a      1305     1    14     2     5
  8.4232233659249103E-02 a      1306     1    14     2     6
 -6.6148683802227726E-01 a      1307     1    14     2     7
 -5.6163102788653407E-01 a      1308     1    14     2     8
  4.5783494942329167E-01 a      1309     1    14     2     9
  5.1507590766679012E-01 a      1310     1    14     2    10
  4.8945087646924657E-01 a      1311     1    14     2    11
 -3.9122188184634525E-02 a      1312     1    14     2    12
  6.2821437287576706E-02 a      1313     1    14     2    13
  8.0488104054700027E-02 a      1314     1    14     2    14
  6.1464077263380335E-01 a      1315     1    14     2    15
  8.7934247747117844E-01 a      1316     1    14     2    16
 -1.7326155439449090E-01 a      1317     1    14     2    17
  7.4727959054215601E-02 a      1318     1    14     2    18
  2.5812636887732160E-01 a      1319     1    14     2    19
 -4.9124957322549248E-02 a      1320     1    14     2    20
 -3.5318676193296573E-02 a      1321     1    15     2     1
  2.7089624034111411E-02 a      1322     1    15     2     2
  3.8875683636219766E-01 a      1323     1    15     2     3
 -8.9850770861990426E-01 a      1324     1    15     2     4
  5.7251839610476737E-02 a      1325     1    15     2     5
  2.1361735418407238E-01 a      1326     1    15     2     6
 -3.4472016269055966E-01 a      1327     1    15     2     7
 -5.8788496778074550E-01 a      1328     1    15     2     8
  3.4245559535828063E-01 a      1329     1    15     2     9
 -2.2719411230536327E-01 a      1330     1    15     2    10
  5.5746550642130110E-01 a      1331     1    15     2    11
 -3.2646406991889004E-01 a      1332     1    15     2    12
  8.3658045965039374E-01 a      1333     1    15     2    13
  3.6854587001474270E-01 a      1334     1    15     2    14
 -7.9498335879586968E-01 a      1335     1    15     2    15
  3.6315098370717347E-01 a      1336     1    15     2    16
  9.8196573050209082E-02 a      1337     1    15     2    17
  3.4144093194027825E-01 a      1338     1    15     2    18
 -1.7055137488042996E-01 a      1339     1    15     2    19
 -2.8741502789888562E-01 a      1340     1    15     2    20
  1.6318598034808360E-01 a      1341     1    16     2     1
 -5.8565356256844892E-01 a      1342     1    16     2     2
  6.2391005454207893E-02 a      1343     1    16     2     3
 -1.2347489168587539E-01 a      1344     1    16     2     4
 -1.8717441499980222E-01 a      1345     1    16     2     5
  1.6667043588924466E-01 a      1346     1    16     2     6
 -7.2639018371468778E-01 a      1347     1    16     2     7
  5.0221937306019548E-01 a      1348     1    16     2     8
 -1.6543729225543362E-02 a      1349     1    16     2     9
  1.4397268156867229E-02 a      1350     1    16     2    10
 -3.0842403426311060E-01 a      1351     1    16     2    11
  5.9985242409061534E-01 a      1352     1    16     2    12
 -1.0082591179874055E-02 a      1353     1    16     2    13
 -2.5284171356926821E-01 a      1354     1    16     2    14
  4.2178712494557780E-01 a      1355     1    16     2    15
  4.8702537850950323E-01 a      1356     1    16     2    16
 -2.4875503166658586E-01 a      1357     1    16     2    17
  7.1285487581970841E-01 a      1358     1    16     2    18
  1.7444754831831003E-01 a      1359     1    16     2    19
 -5.3633855238045514E-01 a      1360     1    16     2    20
 -1.8582989664568933E-01 a      1361     1    17     2     1
  9.0798972511969819E-02 a      1362     1    17     2     2
 -1.3279850127687570E-01 a      1363     1    17     2     3
  3.2642812055173126E-01 a      1364     1    17     2     4
  7.3407002262164867E-01 a      1365     1    17     2     5
  6.6734582885297739E-02 a      1366     1    17     2     6
  7.3016606426048847E-01 a      1367     1    17     2     7
  2.7861618615139611E-01 a      1368     1    17     2     8
  1.7850238534652846E-01 a      1369     1    17     2     9
 -1.3115697194503692E-01 a      1370     1    17     2    10
 -2.8108043569666852E-01 a      1371     1    17     2    11
  3.5165680867039828E-01 a      1372     1    17     2    12
 -3.3449637092879803E-01 a      1373     1    17     2    13
 -6.3027547469725309E-01 a      1374     1    17     2    14
 -7.4382611285642297E-01 a      1375     1    17     2    15
  4.6223862279430988E-01 a      1376     1    17     2    16
  1.0727915455763355E+00 a      1377     1    17     2    17
  3.6489617432069843E-01 a      1378     1    17     2    18
  5.2584910283647379E-01 a      1379     1    17     2    19
 -6.8351620507656918E-01 a      1380     1    17     2    20
  2.0550269878992164E-01 a      1381     1    18     2     1
 -1.6918479067462053E-01 a      1382     1    18     2     2
 -2.9603685147424769E-01 a      1383     1    18     2     3
  2.3005327166216455E-01 a      1384     1    18     2     4
  8.5243804676959911E-01 a      1385     1    18     2     5
 -1.7266786113383967E-01 a      1386     1    18     2     6
 -3.8725802239579793E-01 a      1387     1    18     2     7
 -1.2946175379203059E-01 a      1388     1    18     2     8
 -5.5523906454674768E-02 a      1389     1    18     2     9
 -2.8031862166544946E-01 a      1390     1    18     2    10
  3.6404630164318758E-01 a      1391     1    18     2    11
 -1.8915755911838233E-01 a      1392     1    18     2    12
  2.0653868043586970E-01 a      1393     1    18     2    13
 -3.1280322255011522E-01 a      1394     1    18     2    14
 -5.9785796327403196E-01 a      1395     1    18     2    15
 -9.6001948433958664E-02 a      1396     1    18     2    16
  7.4796422543392346E-02 a      1397     1    18     2    17
  5.2821970739523028E-01 a      1398     1    18     2    18
 -4.0159134415106001E-01 a      1399     1    18     2    19
  3.8428767820792792E-01 a      1400     1    18     2    20
  2.1742491301490478E-03 a      1401     1    19     2     1
 -6.6206408535129524E-01 a      1402     1    19     2     2
 -1.6607739579933994E-01 a      1403     1    19     2     3
 -1.9074637322560048E-01 a      1404     1    19     2     4
  3.5765374307749603E-01 a      1405     1    19     2     5
  6.0660285446738449E-01 a      1406     1    19     2     6
  2.9503197215086602E-01 a      1407     1    19     2     7
 -3.2364528917424651E-01 a      1408     1    19     2     8
 -5.4170981820544896E-02 a      1409     1    19     2     9
 -2.4736327086985269E-01 a      1410     1    19     2    10
 -6.3289516330464879E-01 a      1411     1    19     2    11
 -6.7481893158078765E-01 a      1412     1    19     2    12
  4.2854675052859448E-01 a      1413     1    19     2    13
 -5.6307965623964984E-01 a      1414     1    19     2    14
 -4.0426175402147330E-01 a      1415     1    19     2    15
  1.8776198936694458E-01 a      1416     1    19     2    16
  1.2455770086059856E-01 a      1417     1    19     2    17
  1.4201773749453606E-01 a      1418     1    19     2    18
  5.8544630920955198E-01 a      1419     1    19     2    19
 -8.0131648101109593E-02 a      1420     1    19     2    20
 -2.0951232010797044E-01 a      1421     1    20     2     1
 -1.9468004657116253E-01 a      1422     1    20     2     2
 -2.9000022221664052E-02 a      1423     1    20     2     3
 -3.7464231582419755E-01 a      1424     1    20     2     4
 -1.2212137959527211E-01 a      1425     1    20     2     5
  3.2856477278096802E-01 a      1426     1    20     2     6
  5.1424905383866182E-01 a      1427     1    20     2     7
 -7.7246506374382728E-01 a      1428     1    20     2     8
  4.8230934673882431E-01 a      1429     1    20     2     9
 -5.4854559956224647E-01 a      1430     1    20     2    10
  3.4591696190806021E-01 a      1431     1    20     2    11
 -5.9433814068125801E-01 a      1432     1    20     2    12
  1.3240374846049222E-01 a      1433     1    20     2    13
 -4.3796922977051872E-02 a      1434     1    20     2    14
 -5.8199438659272196E-01 a      1435     1    20     2    15
  7.8162383538852687E-02 a      1436     1    20     2    16
  6.5908103757521075E-01 a      1437     1    20     2    17
  5.2706069832533375E-01 a      1438     1    20     2    18
  3.3282732029457140E-01 a      1439     1    20     2    19
  2.5372978117789680E-01 a      1440     1    20     2    20
  1.2540803778482488E+00 b      1441     2     1
  1.4814710295885483E+00 b      1442     2     2
  9.4536409355564388E-01 b      1443     2     3
 -1.5275119846557883E+00 b      1444     2     4
  1.1123457710963540E+00 b      1445     2     5
 -1.5108582084413085E+00 b      1446     2     6
  1.0559475122077413E+00 b      1447     2     7
 -2.3283010589145109E-01 b      1448     2     8
 -2.1216041145940657E-02 b      1449     2     9
 -8.0211506157959966E-01 b      1450     2    10
 -1.4578166496490339E+00 b      1451     2    11
  9.1232236328154881E-01 b      1452     2    12
 -9.6310777162050520E-01 b      1453     2    13
  5.0404364372545578E-02 b      1454     2    14
  4.8737750255973933E-01 b      1455     2    15
 -1.6695379785537803E+00 b      1456     2    16
 -1.5294330513555594E+00 b      1457     2    17
  9.9049937120301756E-01 b      1458     2    18
 -1.5816960352175147E+00 b      1459     2    19
 -1.1562833348441468E+00 b      1460     2    20
  1.0202871169783734E+00 a      1461     2     1     3     1
  4.9048468501056930E-02 a      1462     2     2     3     1
  7.6737004268517284E-01 a      1463     2     3     3     1
 -2.3367826026606355E+00 a      1464     2     4     3     1
  1.2280714923843496E+00 a      1465     2     5     3     1
 -1.2515114948083896E+00 a      1466     2     6     3     1
  1.2993027681335298E-01 a      1467     2     7     3     1
 -1.5782231573029764E+00 a      1468     2     8     3     1
 -3.0098892330074989E-01 a      1469     2     9     3     1
 -1.0155167141249917E+00 a      1470     2    10     3     1
 -2.5863662213278618E+00 a      1471     2    11     3     1
  2.3075636417295966E+00 a      1472     2    12     3     1
 -1.6730914657477371E+00 a      1473     2    13     3     1
  7.4399597342579948E-01 a      1474     2    14     3     1
 -7.0976622597686134E-01 a      1475     2    15     3     1
 -1.5335351460638229E+00 a      1476     2    16     3     1
 -2.8698677938484957E-01 a      1477     2    17     3     1
  1.1129157496230846E+00 a      1478     2    18     3     1
 -1.8573266329226166E+00 a      1479     2    19     3     1
 -2.5415882361436184E+00 a      1480     2    20     3     1
  1.1504090434429726E+00 b      1481     3     1
