################################################################################
# Neural network connection values (weights and biases).
################################################################################
# Col  Name       Description
################################################################################
# 1    connection Neural network connection value.
# 2    t          Connection type (a = weight, b = bias).
# 3    index      Index enumerating weights.
# 4    l_s        Starting point layer (end point layer for biases).
# 5    n_s        Starting point neuron in starting layer (end point neuron for biases).
# 6    l_e        End point layer.
# 7    n_e        End point neuron in end layer.
################################################################################
#                      1 2         3     4     5     6     7
#             connection t     index   l_s   n_s   l_e   n_e
############################################################
 -4.5471024386479147E-01 a         1     0     1     1     1
 -2.3990673761041714E-01 a         2     0     1     1     2
  4.6523895005881699E-01 a         3     0     1     1     3
  5.2546379785707420E-02 a         4     0     1     1     4
  7.7653438548711040E-01 a         5     0     1     1     5
  7.0287895630023245E-01 a         6     0     1     1     6
 -2.0915013315039918E-01 a         7     0     1     1     7
 -1.0917185067964087E-01 a         8     0     1     1     8
 -6.7408640288952659E-01 a         9     0     1     1     9
 -7.5253082003080629E-01 a        10     0     1     1    10
 -3.3534577808665772E-01 a        11     0     1     1    11
 -1.8663166291838768E-01 a        12     0     1     1    12
  4.2230155694715016E-01 a        13     0     1     1    13
 -5.1782154076195996E-01 a        14     0     1     1    14
  5.4774645860795668E-02 a        15     0     1     1    15
 -4.3483873882659829E-01 a        16     0     1     1    16
 -3.9463892645499227E-01 a        17     0     1     1    17
 -6.1466888095709482E-01 a        18     0     1     1    18
  4.0032690586055675E-01 a        19     0     1     1    19
 -4.4544203189544884E-02 a        20     0     1     1    20
 -1.7035384023647890E-01 a        21     0     2     1     1
 -5.6558899629497464E-02 a        22     0     2     1     2
  2.0379248766771485E-01 a        23     0     2     1     3
  3.4218699194216817E-01 a        24     0     2     1     4
  3.6008509966646657E-01 a        25     0     2     1     5
  7.0786179122203952E-01 a        26     0     2     1     6
 -1.5995310020979922E-01 a        27     0     2     1     7
  8.8346603340794402E-02 a        28     0     2     1     8
 -2.4308017490725514E-01 a        29     0     2     1     9
 -2.5859363596317714E-01 a        30     0     2     1    10
 -2.6947194076511627E-01 a        31     0     2     1    11
  1.1928401983282435E-02 a        32     0     2     1    12
  2.7138664555516480E-02 a        33     0     2     1    13
 -1.8705196474083807E-01 a        34     0     2     1    14
 -9.8279128154569809E-03 a        35     0     2     1    15
 -4.2370951802172396E-01 a        36     0     2     1    16
  1.5989251760693476E-02 a        37     0     2     1    17
 -4.4670972265758224E-01 a        38     0     2     1    18
 -1.5652252625189936E-01 a        39     0     2     1    19
 -1.1250322832774472E-01 a        40     0     2     1    20
  2.2141547528894437E-01 a        41     0     3     1     1
  8.4385439529996845E-02 a        42     0     3     1     2
  2.9094258897464181E-01 a        43     0     3     1     3
  8.3154204824795352E-02 a        44     0     3     1     4
  1.9873881540158433E-01 a        45     0     3     1     5
  6.3931075341241539E-02 a        46     0     3     1     6
  2.2273077676677602E-02 a        47     0     3     1     7
  7.1587429899725741E-01 a        48     0     3     1     8
  2.2459230580183376E-01 a        49     0     3     1     9
  1.5987800740179112E-02 a        50     0     3     1    10
 -2.3108486966445671E-01 a        51     0     3     1    11
 -1.6735817776987175E-01 a        52     0     3     1    12
 -1.7495104888534857E-01 a        53     0     3     1    13
 -3.1745346462149199E-01 a        54     0     3     1    14
 -2.5297509518294720E-01 a        55     0     3     1    15
 -8.2113785733945122E-02 a        56     0     3     1    16
  4.9300583607759701E-01 a        57     0     3     1    17
 -3.7913411970445565E-02 a        58     0     3     1    18
  2.3712832477334533E-01 a        59     0     3     1    19
 -1.0666324258017222E-01 a        60     0     3     1    20
  3.4843871702009060E-01 a        61     0     4     1     1
  1.8808976221593968E-01 a        62     0     4     1     2
 -5.8335849455773747E-01 a        63     0     4     1     3
  1.3048353398169271E-01 a        64     0     4     1     4
 -3.0942664532869757E-01 a        65     0     4     1     5
  2.9994442672308069E-01 a        66     0     4     1     6
  3.9201393968636228E-01 a        67     0     4     1     7
 -4.9713164756714320E-02 a        68     0     4     1     8
  3.0463150649852344E-01 a        69     0     4     1     9
  6.7305564192781053E-01 a        70     0     4     1    10
  1.3976409843835177E-02 a        71     0     4     1    11
  2.4496536446128120E-01 a        72     0     4     1    12
 -6.5934521229644050E-01 a        73     0     4     1    13
  1.8097222348252467E-01 a        74     0     4     1    14
 -5.7407256846260489E-02 a        75     0     4     1    15
  5.9391545693075931E-01 a        76     0     4     1    16
  3.3652937017955825E-01 a        77     0     4     1    17
  2.5345152984804153E-01 a        78     0     4     1    18
 -3.5333607285583951E-01 a        79     0     4     1    19
 -2.0970191583116221E-01 a        80     0     4     1    20
  2.0853039168379668E-02 a        81     0     5     1     1
  3.8724762654899200E-02 a        82     0     5     1     2
  4.1113385957042531E-02 a        83     0     5     1     3
  6.3968604452230030E-02 a        84     0     5     1     4
 -3.1179870344578448E-01 a        85     0     5     1     5
 -8.6021558736516113E-01 a        86     0     5     1     6
  4.7639528781147367E-01 a        87     0     5     1     7
 -5.8401060428532248E-01 a        88     0     5     1     8
  1.4233947506427583E-01 a        89     0     5     1     9
  4.8169315259622911E-02 a        90     0     5     1    10
  8.7851413476606174E-02 a        91     0     5     1    11
  1.6573698851236979E-01 a        92     0     5     1    12
  8.3726325420772429E-01 a        93     0     5     1    13
  2.7631828200256714E-01 a        94     0     5     1    14
 -1.2531937975895444E-01 a        95     0     5     1    15
  3.3181647390812363E-01 a        96     0     5     1    16
 -8.9753423403846289E-02 a        97     0     5     1    17
  2.9140455873920801E-01 a        98     0     5     1    18
 -7.5100683729009965E-01 a        99     0     5     1    19
  3.6100269089318909E-01 a       100     0     5     1    20
  1.5834789462610976E-01 a       101     0     6     1     1
 -5.9054337805011758E-01 a       102     0     6     1     2
 -4.9536962374887483E-01 a       103     0     6     1     3
  1.9665729092182099E-01 a       104     0     6     1     4
 -1.0309524788075126E+00 a       105     0     6     1     5
 -8.9415155030534832E-01 a       106     0     6     1     6
  5.3187044596047306E-01 a       107     0     6     1     7
 -1.0230963440080736E+00 a       108     0     6     1     8
  7.6145430756774080E-01 a       109     0     6     1     9
  4.2008528744112650E-01 a       110     0     6     1    10
 -1.2321895763223227E-01 a       111     0     6     1    11
 -3.1111349918271169E-01 a       112     0     6     1    12
  1.2738443669905469E-01 a       113     0     6     1    13
  1.7407124250898312E-01 a       114     0     6     1    14
 -4.7262623126648490E-01 a       115     0     6     1    15
  3.3544205628392654E-01 a       116     0     6     1    16
  6.2312189289332476E-01 a       117     0     6     1    17
  3.4187465340426637E-01 a       118     0     6     1    18
 -4.7884569029411261E-01 a       119     0     6     1    19
  1.2637997830924952E-01 a       120     0     6     1    20
  2.4504866517118370E-01 a       121     0     7     1     1
  5.5371697926750552E-01 a       122     0     7     1     2
 -1.0496668805665416E-01 a       123     0     7     1     3
  4.0140398626642332E-01 a       124     0     7     1     4
  2.3300632111051725E-01 a       125     0     7     1     5
  6.4085616832426873E-01 a       126     0     7     1     6
  2.8473708359078254E-01 a       127     0     7     1     7
  1.9550070085912860E-01 a       128     0     7     1     8
 -9.9469274025512278E-01 a       129     0     7     1     9
 -1.3935440241655034E-01 a       130     0     7     1    10
 -6.7319250243727091E-01 a       131     0     7     1    11
 -1.3859411980470285E-01 a       132     0     7     1    12
 -2.0107998807294392E+00 a       133     0     7     1    13
  2.6594791113369115E-01 a       134     0     7     1    14
  8.9359890408548848E-01 a       135     0     7     1    15
 -7.7448345062966428E-01 a       136     0     7     1    16
 -9.1076202391836458E-01 a       137     0     7     1    17
 -5.3038999632215866E-01 a       138     0     7     1    18
  1.8942423526525892E-01 a       139     0     7     1    19
 -9.5427785205730786E-01 a       140     0     7     1    20
 -3.5605136399799736E-01 a       141     0     8     1     1
 -2.0758572875419415E-01 a       142     0     8     1     2
  9.2110484741131454E-02 a       143     0     8     1     3
 -1.1892193415111493E-01 a       144     0     8     1     4
 -2.7938275762406355E-02 a       145     0     8     1     5
  3.8304332475927107E-02 a       146     0     8     1     6
 -3.5917655817100674E-01 a       147     0     8     1     7
 -3.0907640828642436E-02 a       148     0     8     1     8
  4.6600121058698429E-01 a       149     0     8     1     9
  3.2813352444096178E-01 a       150     0     8     1    10
  9.2450013302449119E-02 a       151     0     8     1    11
 -2.1028005325380880E-01 a       152     0     8     1    12
  5.4795728041477454E-01 a       153     0     8     1    13
  7.9264698735611525E-02 a       154     0     8     1    14
 -3.5047675509744103E-01 a       155     0     8     1    15
 -1.8162344634430261E-01 a       156     0     8     1    16
  2.8766767910897562E-01 a       157     0     8     1    17
  3.3991718562226431E-01 a       158     0     8     1    18
  4.2837948579678986E-01 a       159     0     8     1    19
  2.5783458575823320E-01 a       160     0     8     1    20
  6.6564384436773016E-01 a       161     0     9     1     1
 -9.0635197858500749E-01 a       162     0     9     1     2
  5.1093789782557042E-01 a       163     0     9     1     3
 -1.4502510365023513E+00 a       164     0     9     1     4
 -2.5275246746910002E-01 a       165     0     9     1     5
  7.6151428151931455E-01 a       166     0     9     1     6
  5.0526151692418098E-01 a       167     0     9     1     7
 -1.2461596862563686E+00 a       168     0     9     1     8
  2.6753134331320955E-01 a       169     0     9     1     9
 -3.4525304518848227E-01 a       170     0     9     1    10
  6.6641062518465521E-01 a       171     0     9     1    11
 -3.3857847944902686E-01 a       172     0     9     1    12
 -9.5034516979699779E-01 a       173     0     9     1    13
  5.3302046567562045E-01 a       174     0     9     1    14
  2.8723854805703652E-01 a       175     0     9     1    15
 -3.3758448067444080E-01 a       176     0     9     1    16
  9.9976607943189832E-01 a       177     0     9     1    17
  3.1835819443930374E-01 a       178     0     9     1    18
 -3.8284492495842853E-01 a       179     0     9     1    19
  4.5246398070911159E-02 a       180     0     9     1    20
 -3.2578346360249155E-01 a       181     0    10     1     1
  7.1422871041700675E-01 a       182     0    10     1     2
 -8.2514248564455994E-01 a       183     0    10     1     3
  2.8769304614793425E+00 a       184     0    10     1     4
 -9.4211137554726931E-02 a       185     0    10     1     5
 -9.7688124343790506E-01 a       186     0    10     1     6
 -5.7315811276365181E-01 a       187     0    10     1     7
  1.1961505292682018E+00 a       188     0    10     1     8
 -1.5038660153274627E-01 a       189     0    10     1     9
 -1.5610382170891537E-01 a       190     0    10     1    10
 -4.3090090793748131E-01 a       191     0    10     1    11
  3.1154212301627682E-01 a       192     0    10     1    12
  9.5938399271246488E-01 a       193     0    10     1    13
 -3.5922496971502760E-01 a       194     0    10     1    14
 -7.0343645589347648E-01 a       195     0    10     1    15
  1.0563506753978864E+00 a       196     0    10     1    16
 -1.5268642909827210E+00 a       197     0    10     1    17
 -8.2502153220555174E-01 a       198     0    10     1    18
  5.4513686910790793E-01 a       199     0    10     1    19
 -2.6149368179170446E-01 a       200     0    10     1    20
 -1.3249336131352971E-01 a       201     0    11     1     1
  6.2124327847311256E-01 a       202     0    11     1     2
 -1.2610564213160497E-01 a       203     0    11     1     3
 -2.7680706315254239E-01 a       204     0    11     1     4
  8.7636387206186384E-01 a       205     0    11     1     5
  1.1577045313324559E-01 a       206     0    11     1     6
 -1.3915870299608281E-02 a       207     0    11     1     7
  3.2456975554946044E-01 a       208     0    11     1     8
  1.3288584246196244E-01 a       209     0    11     1     9
 -6.9296127808112662E-01 a       210     0    11     1    10
  3.4884257954663767E-02 a       211     0    11     1    11
  8.1587542322833317E-01 a       212     0    11     1    12
 -4.1170861162043509E-01 a       213     0    11     1    13
 -1.0057704757029746E-01 a       214     0    11     1    14
  1.0367658192117604E+00 a       215     0    11     1    15
 -9.3231812222890020E-01 a       216     0    11     1    16
 -6.5366022387000056E-01 a       217     0    11     1    17
  5.6849590027280461E-01 a       218     0    11     1    18
 -3.8996173798686296E-01 a       219     0    11     1    19
  9.2670169579536998E-01 a       220     0    11     1    20
  1.9555029930204054E-01 a       221     0    12     1     1
 -9.7048240236100469E-01 a       222     0    12     1     2
 -2.1658619005712077E-02 a       223     0    12     1     3
 -5.8252357092071128E-01 a       224     0    12     1     4
 -6.4830795232436789E-01 a       225     0    12     1     5
 -3.0610458693514536E-01 a       226     0    12     1     6
 -5.0349998158302656E-01 a       227     0    12     1     7
 -9.1129889968173394E-01 a       228     0    12     1     8
 -6.0437902899521924E-02 a       229     0    12     1     9
  1.0840335089654538E+00 a       230     0    12     1    10
  7.9279000873792044E-03 a       231     0    12     1    11
 -1.0426195734124120E+00 a       232     0    12     1    12
  3.7065208306503455E-01 a       233     0    12     1    13
  4.9114057524271498E-01 a       234     0    12     1    14
 -1.8633461041471361E-01 a       235     0    12     1    15
 -2.6344996901903300E-01 a       236     0    12     1    16
  7.1609832190865164E-01 a       237     0    12     1    17
 -8.1012571746471329E-01 a       238     0    12     1    18
  1.2220432729300598E-01 a       239     0    12     1    19
 -9.3799064873720905E-01 a       240     0    12     1    20
  1.1841276059207399E-01 a       241     0    13     1     1
 -7.0409737195763947E-02 a       242     0    13     1     2
  2.6046866222792775E-01 a       243     0    13     1     3
  5.6999070681034505E-02 a       244     0    13     1     4
 -1.0983608797953788E-01 a       245     0    13     1     5
  1.7388680884389564E-03 a       246     0    13     1     6
 -6.4772004679105946E-02 a       247     0    13     1     7
 -1.3203163896095357E-01 a       248     0    13     1     8
 -1.5086844371586131E-01 a       249     0    13     1     9
  8.9646644265336375E-02 a       250     0    13     1    10
  9.4044066116361139E-02 a       251     0    13     1    11
 -2.0842188000870693E-01 a       252     0    13     1    12
 -9.7304640810000564E-02 a       253     0    13     1    13
 -1.1617536436324541E-01 a       254     0    13     1    14
 -2.9297164477374704E-01 a       255     0    13     1    15
 -1.0536345892685951E-01 a       256     0    13     1    16
 -6.1949266630071931E-01 a       257     0    13     1    17
  7.5490704378724172E-01 a       258     0    13     1    18
 -2.0405992306570947E-02 a       259     0    13     1    19
  3.7517888686703932E-01 a       260     0    13     1    20
  9.2585694166823829E-02 a       261     0    14     1     1
  2.4671580877554425E-01 a       262     0    14     1     2
  9.2204865651294377E-02 a       263     0    14     1     3
 -3.7236999912103513E-01 a       264     0    14     1     4
  6.0864655068665652E-01 a       265     0    14     1     5
  1.3685177297043352E-01 a       266     0    14     1     6
 -1.9455027842869374E-01 a       267     0    14     1     7
  3.1004344251534427E-01 a       268     0    14     1     8
  5.3164016623053048E-02 a       269     0    14     1     9
  1.0763687014786936E+00 a       270     0    14     1    10
 -6.0828930827534855E-01 a       271     0    14     1    11
  1.1316015672996838E+00 a       272     0    14     1    12
 -3.7294479567372966E-02 a       273     0    14     1    13
  4.8370274861388846E-01 a       274     0    14     1    14
  2.1158210614597622E-01 a       275     0    14     1    15
 -3.2923138514136702E-01 a       276     0    14     1    16
  8.2001976713371294E-01 a       277     0    14     1    17
  8.2784868428280492E-02 a       278     0    14     1    18
 -3.9608481620749203E-01 a       279     0    14     1    19
  4.5498338820918494E-01 a       280     0    14     1    20
 -3.2930778161334717E-01 a       281     0    15     1     1
  6.4121996264051317E-01 a       282     0    15     1     2
 -7.6237316856129222E-01 a       283     0    15     1     3
  3.5820692706235829E-01 a       284     0    15     1     4
  7.2630823238982595E-02 a       285     0    15     1     5
 -4.9562058417134063E-02 a       286     0    15     1     6
  4.4095093074980732E-02 a       287     0    15     1     7
 -6.0573883554187691E-01 a       288     0    15     1     8
 -1.1371718395638496E-01 a       289     0    15     1     9
  2.8823625641671502E-01 a       290     0    15     1    10
 -1.0857999421959666E-01 a       291     0    15     1    11
 -6.4329740593683760E-01 a       292     0    15     1    12
 -3.5565074789658552E-01 a       293     0    15     1    13
 -4.4861142256230579E-01 a       294     0    15     1    14
  3.8130498868770894E-02 a       295     0    15     1    15
 -1.4266186851208687E-01 a       296     0    15     1    16
  1.4573096838710625E-01 a       297     0    15     1    17
 -4.5860996582898460E-02 a       298     0    15     1    18
  6.1474587343408404E-01 a       299     0    15     1    19
 -2.5873621182692763E-01 a       300     0    15     1    20
  3.1056481668757524E-01 a       301     0    16     1     1
 -8.8284752396323851E-01 a       302     0    16     1     2
  5.4904245094298948E-02 a       303     0    16     1     3
 -2.9747835915379162E-03 a       304     0    16     1     4
 -2.0562499348574911E-01 a       305     0    16     1     5
  4.1280041880319512E-01 a       306     0    16     1     6
  3.9214232196750548E-01 a       307     0    16     1     7
 -3.1157470259287634E-01 a       308     0    16     1     8
 -3.1972314392606817E-02 a       309     0    16     1     9
  2.5237887584566465E-01 a       310     0    16     1    10
 -7.3695546878687915E-02 a       311     0    16     1    11
  1.1589504513443158E-01 a       312     0    16     1    12
  1.1272326559640086E-01 a       313     0    16     1    13
  4.6555507300040089E-01 a       314     0    16     1    14
  5.6127292275887045E-02 a       315     0    16     1    15
 -1.4495263033450512E-01 a       316     0    16     1    16
 -2.9302254788047707E-02 a       317     0    16     1    17
  5.5667745781027914E-02 a       318     0    16     1    18
  3.7358424222890024E-01 a       319     0    16     1    19
 -2.0997379634115559E-01 a       320     0    16     1    20
  5.6394660035776012E-01 a       321     0    17     1     1
  6.7371442762848988E-01 a       322     0    17     1     2
  7.2649548443230483E-01 a       323     0    17     1     3
  1.8165946290090737E-01 a       324     0    17     1     4
  9.6887941042384873E-01 a       325     0    17     1     5
 -1.7733521869325017E-01 a       326     0    17     1     6
 -2.8122684043054447E-01 a       327     0    17     1     7
  3.4389292758146089E-01 a       328     0    17     1     8
  6.6701575870831933E-02 a       329     0    17     1     9
 -1.6629055887386948E-01 a       330     0    17     1    10
  2.8031748934001416E-01 a       331     0    17     1    11
  6.6850144897932384E-01 a       332     0    17     1    12
  4.7362303053169380E-01 a       333     0    17     1    13
 -5.2148913358427851E-01 a       334     0    17     1    14
 -2.5085134236074808E-01 a       335     0    17     1    15
  8.5120699053429106E-03 a       336     0    17     1    16
 -1.3072031040725672E-03 a       337     0    17     1    17
  2.8842309668986910E-01 a       338     0    17     1    18
 -1.1974328844908427E-01 a       339     0    17     1    19
  6.5737591391853856E-01 a       340     0    17     1    20
  3.5706268703935251E-01 a       341     0    18     1     1
 -9.1417468632361476E-01 a       342     0    18     1     2
 -3.9657971539054371E-01 a       343     0    18     1     3
  1.2149279239809795E-01 a       344     0    18     1     4
 -1.9549806993693741E-01 a       345     0    18     1     5
 -1.0491354317067197E-01 a       346     0    18     1     6
 -2.6169442029861084E-01 a       347     0    18     1     7
 -2.0529246282999888E-01 a       348     0    18     1     8
  5.5808980195339963E-01 a       349     0    18     1     9
 -1.7848801865936259E-01 a       350     0    18     1    10
  1.7855218890458091E-01 a       351     0    18     1    11
 -9.2947232097014121E-01 a       352     0    18     1    12
 -1.4320520360077496E-01 a       353     0    18     1    13
  2.1192121974193837E-01 a       354     0    18     1    14
 -7.0256765645786501E-01 a       355     0    18     1    15
 -2.4606112656058210E-01 a       356     0    18     1    16
  1.6637325890658938E-01 a       357     0    18     1    17
 -5.1740070084656742E-01 a       358     0    18     1    18
 -2.2388899903236603E-01 a       359     0    18     1    19
  5.3862651140380309E-02 a       360     0    18     1    20
 -9.0780363174817580E-01 a       361     0    19     1     1
  2.1417619919179842E-02 a       362     0    19     1     2
  4.4511038605863154E-02 a       363     0    19     1     3
 -3.5092937022029524E-01 a       364     0    19     1     4
 -1.6367292908346658E+00 a       365     0    19     1     5
 -1.4867339572442861E-01 a       366     0    19     1     6
 -9.1324542643487744E-02 a       367     0    19     1     7
  7.6392001482832206E-01 a       368     0    19     1     8
  1.2414399093261504E-01 a       369     0    19     1     9
  1.2706982947685469E-01 a       370     0    19     1    10
 -1.8283862103950610E-01 a       371     0    19     1    11
  1.3992447339538056E-01 a       372     0    19     1    12
 -4.7427023934284424E-01 a       373     0    19     1    13
 -9.5621406303884116E-01 a       374     0    19     1    14
  3.0226825388030021E-01 a       375     0    19     1    15
  1.5943638051803533E-02 a       376     0    19     1    16
  7.6967239585979830E-01 a       377     0    19     1    17
  2.3284227869370044E-01 a       378     0    19     1    18
 -3.4474199534652217E-01 a       379     0    19     1    19
 -5.3443199440535702E-02 a       380     0    19     1    20
 -8.2904047243540085E-02 a       381     0    20     1     1
 -2.8689126021608685E-01 a       382     0    20     1     2
  5.1451938854204859E-01 a       383     0    20     1     3
 -1.2020677736476901E-01 a       384     0    20     1     4
  1.4948280074891915E-01 a       385     0    20     1     5
 -1.5777648790499155E-01 a       386     0    20     1     6
  9.7175055277918521E-01 a       387     0    20     1     7
  2.1887882564079639E-01 a       388     0    20     1     8
 -1.9544955476892398E-01 a       389     0    20     1     9
 -1.2204590137346216E-01 a       390     0    20     1    10
  2.7272518138661800E-01 a       391     0    20     1    11
  4.0870665235110415E-01 a       392     0    20     1    12
  3.1575572385093070E-01 a       393     0    20     1    13
  5.6050255311179542E-01 a       394     0    20     1    14
  5.1633924874138581E-01 a       395     0    20     1    15
 -4.8697667626528629E-01 a       396     0    20     1    16
 -2.2181859211452745E-01 a       397     0    20     1    17
 -2.0165858152541122E-01 a       398     0    20     1    18
  1.2629009907868962E+00 a       399     0    20     1    19
 -3.8503112105295401E-01 a       400     0    20     1    20
  4.8927677493593974E-01 a       401     0    21     1     1
  1.8520248971932579E-01 a       402     0    21     1     2
 -9.1274765680439185E-01 a       403     0    21     1     3
 -7.9675697875964624E-01 a       404     0    21     1     4
 -2.2880624361311788E-02 a       405     0    21     1     5
 -1.2416901640886815E+00 a       406     0    21     1     6
 -3.0286467092457625E-01 a       407     0    21     1     7
  6.2029307841226622E-01 a       408     0    21     1     8
 -4.5206233133710644E-01 a       409     0    21     1     9
 -8.6949719723735830E-01 a       410     0    21     1    10
 -8.6156970266875174E-02 a       411     0    21     1    11
  2.5619046788433547E-01 a       412     0    21     1    12
 -1.0738677350846910E-01 a       413     0    21     1    13
 -1.5388302328842790E-01 a       414     0    21     1    14
 -2.6111238253362407E-01 a       415     0    21     1    15
  7.3703376005532950E-01 a       416     0    21     1    16
  9.1654830815475971E-02 a       417     0    21     1    17
 -2.3819927224518145E-01 a       418     0    21     1    18
  8.0484450554932130E-01 a       419     0    21     1    19
  5.4766327363809186E-01 a       420     0    21     1    20
 -5.0067665178753745E-02 a       421     0    22     1     1
 -1.1715306794774277E-01 a       422     0    22     1     2
  2.2884148477042845E-01 a       423     0    22     1     3
 -2.7609062849750621E-01 a       424     0    22     1     4
 -2.7121003065165661E-01 a       425     0    22     1     5
 -2.9592416457077025E-01 a       426     0    22     1     6
  1.4258510767540786E-01 a       427     0    22     1     7
  1.7880533227487755E-01 a       428     0    22     1     8
 -3.6724460894741279E-01 a       429     0    22     1     9
 -7.8223477781582962E-01 a       430     0    22     1    10
  6.3549538184899834E-01 a       431     0    22     1    11
  4.3156563089899669E-01 a       432     0    22     1    12
  8.4715626321060333E-01 a       433     0    22     1    13
 -4.1043008348943993E-01 a       434     0    22     1    14
  2.8754676821982894E-01 a       435     0    22     1    15
  1.0580809446624387E-01 a       436     0    22     1    16
 -9.2837965228027153E-01 a       437     0    22     1    17
  1.2263238669366171E-01 a       438     0    22     1    18
 -6.3426200493295426E-01 a       439     0    22     1    19
  1.7122166743604206E-01 a       440     0    22     1    20
  2.1473954513118659E-01 a       441     0    23     1     1
  2.3459027046616002E-01 a       442     0    23     1     2
  2.1621242466831400E-01 a       443     0    23     1     3
 -9.4610416771146524E-02 a       444     0    23     1     4
 -5.3683022259152691E-01 a       445     0    23     1     5
 -7.2858892200072933E-01 a       446     0    23     1     6
  4.2398500846004583E-01 a       447     0    23     1     7
 -4.2757295314778782E-01 a       448     0    23     1     8
  5.3613182209345256E-01 a       449     0    23     1     9
  1.2189761526984302E-01 a       450     0    23     1    10
  7.7822169697570109E-01 a       451     0    23     1    11
 -1.0837592915164719E-01 a       452     0    23     1    12
 -4.5165154161253207E-01 a       453     0    23     1    13
  7.7713795305668298E-02 a       454     0    23     1    14
 -3.8574127479806508E-01 a       455     0    23     1    15
 -3.8835531788601163E-01 a       456     0    23     1    16
  1.5124480628355300E-01 a       457     0    23     1    17
 -3.3942726811809243E-01 a       458     0    23     1    18
  2.6645871404813593E-01 a       459     0    23     1    19
  5.0717989754024750E-02 a       460     0    23     1    20
  6.4750826364698455E-01 a       461     0    24     1     1
 -1.8820870347332172E-01 a       462     0    24     1     2
  4.2369485692778638E-02 a       463     0    24     1     3
  1.8531592095671229E-01 a       464     0    24     1     4
 -3.3930310065025138E-01 a       465     0    24     1     5
 -2.8780093475956808E-01 a       466     0    24     1     6
  6.8741024549161145E-01 a       467     0    24     1     7
 -8.1732268572980174E-02 a       468     0    24     1     8
  3.4434681659419808E-01 a       469     0    24     1     9
  4.2647470027034712E-01 a       470     0    24     1    10
  1.2705412990262127E-01 a       471     0    24     1    11
 -5.1012720118878130E-01 a       472     0    24     1    12
 -1.0356748111966381E+00 a       473     0    24     1    13
  3.9557601005147275E-01 a       474     0    24     1    14
 -3.6504470686000862E-01 a       475     0    24     1    15
 -3.4649579797915064E-01 a       476     0    24     1    16
  3.6913422581253819E-01 a       477     0    24     1    17
  9.1733732242954641E-02 a       478     0    24     1    18
  2.3439259712223726E-01 a       479     0    24     1    19
  1.5795864793906070E-01 a       480     0    24     1    20
 -8.5560970741522213E-01 a       481     0    25     1     1
  7.8499446934304595E-01 a       482     0    25     1     2
  3.2982453807369505E-01 a       483     0    25     1     3
  2.9805725853658610E-01 a       484     0    25     1     4
  1.5930239721045381E-01 a       485     0    25     1     5
 -1.1880314000478562E+00 a       486     0    25     1     6
 -1.0159380390047661E+00 a       487     0    25     1     7
 -1.0452948789747402E-01 a       488     0    25     1     8
 -5.9837630859019719E-01 a       489     0    25     1     9
 -2.5455339048707831E-01 a       490     0    25     1    10
  6.9257353714767644E-01 a       491     0    25     1    11
  5.7318329697484249E-01 a       492     0    25     1    12
  1.3267853692305767E+00 a       493     0    25     1    13
 -8.1988938621910812E-01 a       494     0    25     1    14
 -1.2581692447718434E-01 a       495     0    25     1    15
 -4.7695007586765481E-01 a       496     0    25     1    16
  3.6088889712708558E-02 a       497     0    25     1    17
 -4.8485419470236657E-02 a       498     0    25     1    18
 -2.6476928235384090E-01 a       499     0    25     1    19
  1.2549508110968369E-01 a       500     0    25     1    20
 -2.0940222852165755E-01 a       501     0    26     1     1
  1.2528491445892870E-01 a       502     0    26     1     2
 -6.5199376198427028E-02 a       503     0    26     1     3
 -1.3496848803587538E-01 a       504     0    26     1     4
  3.6688026305458854E-01 a       505     0    26     1     5
  3.6935541165789143E-01 a       506     0    26     1     6
 -4.3549121387903827E-01 a       507     0    26     1     7
  1.5388887943174465E-01 a       508     0    26     1     8
 -1.6714911065613561E-01 a       509     0    26     1     9
 -1.3452665207661035E-01 a       510     0    26     1    10
  3.4191986082963845E-02 a       511     0    26     1    11
  5.1656699846586873E-01 a       512     0    26     1    12
  8.2723233850163957E-01 a       513     0    26     1    13
 -6.4357689126391782E-01 a       514     0    26     1    14
  1.2960484769925418E-01 a       515     0    26     1    15
  5.9358829507944300E-01 a       516     0    26     1    16
 -7.1081309958881206E-02 a       517     0    26     1    17
 -7.3959116044883449E-02 a       518     0    26     1    18
 -5.3530170113717845E-01 a       519     0    26     1    19
  2.2349862006684065E-01 a       520     0    26     1    20
  1.7500710081357429E-01 a       521     0    27     1     1
 -7.3189570443094809E-01 a       522     0    27     1     2
 -8.0953720061999856E-01 a       523     0    27     1     3
 -1.5837484018003919E-01 a       524     0    27     1     4
  3.2026604820919742E-02 a       525     0    27     1     5
  9.5199389434439685E-01 a       526     0    27     1     6
  9.7760869608871898E-02 a       527     0    27     1     7
  4.5251834618466109E-02 a       528     0    27     1     8
 -4.5800993977152482E-01 a       529     0    27     1     9
  1.3236264714848471E+00 a       530     0    27     1    10
 -1.2036317385805997E+00 a       531     0    27     1    11
 -2.5290752516033327E-01 a       532     0    27     1    12
 -1.0812326130434773E+00 a       533     0    27     1    13
  7.4921814367955447E-02 a       534     0    27     1    14
 -5.8100744359909184E-01 a       535     0    27     1    15
  1.1381752552481597E+00 a       536     0    27     1    16
  4.8600382046775809E-01 a       537     0    27     1    17
 -2.2110376510111346E-01 a       538     0    27     1    18
 -2.1764565296203151E-01 a       539     0    27     1    19
  4.5551240580687002E-01 a       540     0    27     1    20
  4.4111374921249391E-01 a       541     0    28     1     1
 -1.0440085442545771E-01 a       542     0    28     1     2
 -4.8183119503095667E-01 a       543     0    28     1     3
 -5.7580137592674452E-01 a       544     0    28     1     4
  5.5664722301355640E-01 a       545     0    28     1     5
  1.1206289196866658E-01 a       546     0    28     1     6
  2.2444109444339988E-01 a       547     0    28     1     7
 -1.4912025301346554E-01 a       548     0    28     1     8
  5.9667394049006550E-01 a       549     0    28     1     9
  1.9934932902587016E-01 a       550     0    28     1    10
  3.3487942057560072E-01 a       551     0    28     1    11
  1.6667149617111912E-01 a       552     0    28     1    12
  4.2908398021886551E-01 a       553     0    28     1    13
  1.3788318250979079E-01 a       554     0    28     1    14
  5.4071082412533811E-01 a       555     0    28     1    15
 -4.8349929028526882E-02 a       556     0    28     1    16
  2.1586398693114425E-01 a       557     0    28     1    17
 -2.9064618499551853E-01 a       558     0    28     1    18
  2.4821895964333779E-01 a       559     0    28     1    19
 -6.1005406971654819E-01 a       560     0    28     1    20
  1.6141267131950837E-01 a       561     0    29     1     1
 -5.3947965124578980E-02 a       562     0    29     1     2
  4.3035596663418868E-01 a       563     0    29     1     3
  2.2777265833973201E-01 a       564     0    29     1     4
  3.7061549434930169E-01 a       565     0    29     1     5
 -2.2338665749613733E-02 a       566     0    29     1     6
  2.1560280858801184E-01 a       567     0    29     1     7
  2.0900870116748776E-01 a       568     0    29     1     8
  2.3970584204294043E-01 a       569     0    29     1     9
  3.6024851702019228E-01 a       570     0    29     1    10
  2.0535858450364525E-01 a       571     0    29     1    11
  2.8826529462611622E-03 a       572     0    29     1    12
  4.2204061323645153E-01 a       573     0    29     1    13
 -2.7295651465158294E-01 a       574     0    29     1    14
  1.3492419523929735E-02 a       575     0    29     1    15
 -3.1349289015094556E-01 a       576     0    29     1    16
 -1.7359933262367960E-01 a       577     0    29     1    17
  2.5478121942156218E-01 a       578     0    29     1    18
  2.0547827847166225E-01 a       579     0    29     1    19
 -1.6465056486112087E-01 a       580     0    29     1    20
 -4.6009773879127819E-01 a       581     0    30     1     1
 -3.6951290977962636E-01 a       582     0    30     1     2
  1.9878847633290224E-02 a       583     0    30     1     3
 -6.4127777890952442E-01 a       584     0    30     1     4
  1.4584463125072075E-01 a       585     0    30     1     5
 -4.8018571230202062E-01 a       586     0    30     1     6
 -8.2349466477443778E-01 a       587     0    30     1     7
 -3.1552854619837417E-01 a       588     0    30     1     8
 -6.6498120019914106E-02 a       589     0    30     1     9
 -8.1235471423549099E-01 a       590     0    30     1    10
 -6.3702468375576116E-01 a       591     0    30     1    11
  2.8677565470629666E-02 a       592     0    30     1    12
 -1.0883204883403506E+00 a       593     0    30     1    13
 -3.1338467454922631E-01 a       594     0    30     1    14
 -2.5136599057604070E-01 a       595     0    30     1    15
 -9.2123844165074853E-02 a       596     0    30     1    16
 -1.0174661344321061E+00 a       597     0    30     1    17
  1.0847657409822661E-01 a       598     0    30     1    18
  2.7013374887015057E-01 a       599     0    30     1    19
  4.0603975701891609E-01 a       600     0    30     1    20
  3.9898375153427179E-01 a       601     0    31     1     1
  2.7526436526545007E-02 a       602     0    31     1     2
  2.3509077633281172E-01 a       603     0    31     1     3
  2.4418654547313204E-01 a       604     0    31     1     4
  4.0746400457834941E-01 a       605     0    31     1     5
 -2.4388820796282232E-01 a       606     0    31     1     6
 -7.1199679231896029E-01 a       607     0    31     1     7
  5.3174417886834091E-01 a       608     0    31     1     8
  5.0548998848053306E-02 a       609     0    31     1     9
 -2.5075610709453072E-01 a       610     0    31     1    10
 -7.0928591052396539E-01 a       611     0    31     1    11
  7.2911558897929962E-01 a       612     0    31     1    12
 -1.0573354148259430E-01 a       613     0    31     1    13
 -4.3697007338257371E-01 a       614     0    31     1    14
 -2.6116235008678695E-01 a       615     0    31     1    15
  8.5559138959169265E-02 a       616     0    31     1    16
 -2.4980978314897201E-01 a       617     0    31     1    17
  8.8393250455563593E-02 a       618     0    31     1    18
  2.3134916184029328E-01 a       619     0    31     1    19
  1.6247349265108754E-01 a       620     0    31     1    20
  3.1655398407953805E-01 a       621     0    32     1     1
  1.0998101372783017E-01 a       622     0    32     1     2
  5.3104774718493730E-01 a       623     0    32     1     3
  2.5106432422079167E-01 a       624     0    32     1     4
  2.7791901173711769E-01 a       625     0    32     1     5
  7.6539072543062803E-01 a       626     0    32     1     6
  2.0578043632033777E-01 a       627     0    32     1     7
 -2.5931758456516968E-01 a       628     0    32     1     8
  4.0004373514044067E-02 a       629     0    32     1     9
  6.4668243914731549E-01 a       630     0    32     1    10
  1.0861455746203677E-01 a       631     0    32     1    11
 -4.3877286911630925E-01 a       632     0    32     1    12
  4.4083749561085050E-01 a       633     0    32     1    13
  5.1150646519443188E-01 a       634     0    32     1    14
  2.8432572109193183E-01 a       635     0    32     1    15
 -4.8069371982205328E-01 a       636     0    32     1    16
  2.2869215464071790E-01 a       637     0    32     1    17
  5.7208534825070367E-01 a       638     0    32     1    18
 -3.2031416045289557E-01 a       639     0    32     1    19
 -2.2549775727721572E-02 a       640     0    32     1    20
 -1.0990649337091557E-01 a       641     0    33     1     1
 -1.9206996445593424E-01 a       642     0    33     1     2
 -7.1801843152995695E-03 a       643     0    33     1     3
 -5.7892048204433266E-01 a       644     0    33     1     4
 -7.7121763380426478E-01 a       645     0    33     1     5
 -9.7642102096657890E-01 a       646     0    33     1     6
 -1.3040587556314243E-01 a       647     0    33     1     7
  6.9641135211529903E-01 a       648     0    33     1     8
 -1.0872961339142964E+00 a       649     0    33     1     9
  6.4956148848759865E-01 a       650     0    33     1    10
 -9.9652056527684371E-02 a       651     0    33     1    11
  3.9383572088130515E-02 a       652     0    33     1    12
 -5.3546026726247420E-01 a       653     0    33     1    13
 -6.8248582798032653E-01 a       654     0    33     1    14
 -1.8014599965608077E-01 a       655     0    33     1    15
  8.4343088788440490E-02 a       656     0    33     1    16
 -7.3139018580605064E-01 a       657     0    33     1    17
 -2.9403628129608339E-01 a       658     0    33     1    18
 -6.1337970489129578E-01 a       659     0    33     1    19
 -1.3835002409189306E-01 a       660     0    33     1    20
 -2.2860620477237251E-01 a       661     0    34     1     1
  8.5557629798519511E-02 a       662     0    34     1     2
 -1.5333509739536258E-01 a       663     0    34     1     3
 -4.2655016400009832E-01 a       664     0    34     1     4
  5.6936163219098856E-01 a       665     0    34     1     5
  4.8795074425363533E-01 a       666     0    34     1     6
 -1.3686594754832612E-01 a       667     0    34     1     7
  1.3319663429550624E-01 a       668     0    34     1     8
  3.4031514080784520E-01 a       669     0    34     1     9
 -8.3607608644955622E-01 a       670     0    34     1    10
  2.7183567823909315E-02 a       671     0    34     1    11
 -3.0570562399649942E-01 a       672     0    34     1    12
  3.1017522867156224E-02 a       673     0    34     1    13
 -2.5223634042557963E-01 a       674     0    34     1    14
  3.1635706001558656E-01 a       675     0    34     1    15
  7.9030115517769361E-01 a       676     0    34     1    16
  6.0543961791810874E-01 a       677     0    34     1    17
 -2.6457477499002846E-01 a       678     0    34     1    18
 -4.6530632967683214E-02 a       679     0    34     1    19
 -4.2355827039024657E-02 a       680     0    34     1    20
  3.6140873750819996E-01 a       681     0    35     1     1
  9.0829854778877606E-01 a       682     0    35     1     2
  2.5690332110501674E-01 a       683     0    35     1     3
 -5.1314391257726422E-01 a       684     0    35     1     4
 -2.3230903454138535E-01 a       685     0    35     1     5
 -1.7380370119027438E-01 a       686     0    35     1     6
  7.0453665397325127E-01 a       687     0    35     1     7
  9.4078511056631314E-02 a       688     0    35     1     8
  3.3813758241672537E-01 a       689     0    35     1     9
  3.5902586053194319E-01 a       690     0    35     1    10
 -7.0521818480008924E-01 a       691     0    35     1    11
 -8.6645376847973132E-02 a       692     0    35     1    12
  3.0845797589207447E-01 a       693     0    35     1    13
 -7.6892205592889984E-01 a       694     0    35     1    14
 -9.4821642154407373E-02 a       695     0    35     1    15
  4.5330765794595679E-01 a       696     0    35     1    16
  5.0026330259450236E-01 a       697     0    35     1    17
 -1.0305530098366175E-01 a       698     0    35     1    18
  3.1939807454768698E-01 a       699     0    35     1    19
  7.0437184755016502E-01 a       700     0    35     1    20
 -1.4192030523380147E-01 a       701     0    36     1     1
 -3.4773145312850762E-01 a       702     0    36     1     2
  4.7863179054507148E-02 a       703     0    36     1     3
 -1.0849947491549427E-03 a       704     0    36     1     4
  3.9536403699560690E-01 a       705     0    36     1     5
  3.3165383025032408E-01 a       706     0    36     1     6
 -4.1710845260632184E-01 a       707     0    36     1     7
  9.0383672592425870E-02 a       708     0    36     1     8
 -1.5988294656794905E-01 a       709     0    36     1     9
 -1.1385891030883245E-01 a       710     0    36     1    10
 -6.7443389081160085E-02 a       711     0    36     1    11
  7.2661118366424957E-02 a       712     0    36     1    12
 -8.1795384887885639E-02 a       713     0    36     1    13
  1.1618639047910231E-01 a       714     0    36     1    14
 -9.7610468438821707E-02 a       715     0    36     1    15
 -1.8257653760202569E-01 a       716     0    36     1    16
 -2.3120441895659136E-01 a       717     0    36     1    17
  1.4369953550667025E-01 a       718     0    36     1    18
 -4.3515226462400504E-02 a       719     0    36     1    19
 -1.4552600377125574E-01 a       720     0    36     1    20
  8.6394742261666574E-02 a       721     0    37     1     1
  3.8743782387619541E-01 a       722     0    37     1     2
  7.5940332991889514E-02 a       723     0    37     1     3
 -4.9694612822562878E-02 a       724     0    37     1     4
  3.9110056119887482E-01 a       725     0    37     1     5
  5.9040008927709164E-01 a       726     0    37     1     6
  4.9092738966763472E-01 a       727     0    37     1     7
 -2.6910090523229258E-01 a       728     0    37     1     8
  1.0636097257303416E+00 a       729     0    37     1     9
 -6.2937130288890542E-01 a       730     0    37     1    10
  3.2712089559071439E-01 a       731     0    37     1    11
 -7.8394707050237308E-02 a       732     0    37     1    12
  3.1110026859537820E-01 a       733     0    37     1    13
  1.1350096258090440E-01 a       734     0    37     1    14
  2.1047899758947047E-01 a       735     0    37     1    15
 -7.7261306028205093E-02 a       736     0    37     1    16
  7.3012275832014462E-01 a       737     0    37     1    17
  3.0643214874281011E-01 a       738     0    37     1    18
  3.6284610938364403E-01 a       739     0    37     1    19
  3.0896061512301138E-02 a       740     0    37     1    20
 -5.5286617179395947E-01 a       741     0    38     1     1
 -3.0025737819045212E-01 a       742     0    38     1     2
 -9.1531856813669307E-02 a       743     0    38     1     3
  8.9909623534796590E-01 a       744     0    38     1     4
 -7.9545889529665903E-01 a       745     0    38     1     5
 -4.1899248678864492E-01 a       746     0    38     1     6
  4.1473103083602580E-01 a       747     0    38     1     7
  6.0231857921180146E-02 a       748     0    38     1     8
 -7.4728205526420555E-01 a       749     0    38     1     9
 -4.3424410099276867E-01 a       750     0    38     1    10
  3.3346064301074407E-01 a       751     0    38     1    11
  7.5276357502698857E-02 a       752     0    38     1    12
 -1.3653677871833575E-01 a       753     0    38     1    13
  1.6659701674353358E-01 a       754     0    38     1    14
  2.0664034609507748E-01 a       755     0    38     1    15
  5.0347670540378742E-01 a       756     0    38     1    16
 -7.6017801531347837E-02 a       757     0    38     1    17
 -6.3869033304171796E-01 a       758     0    38     1    18
 -2.7663858440466042E-02 a       759     0    38     1    19
 -7.9407641237235704E-01 a       760     0    38     1    20
  8.6716743165803495E-02 a       761     0    39     1     1
 -5.2830488706601131E-01 a       762     0    39     1     2
 -6.8378497418688344E-01 a       763     0    39     1     3
  3.6675469527921489E-01 a       764     0    39     1     4
  5.5006273894901292E-01 a       765     0    39     1     5
 -8.4851964532649926E-01 a       766     0    39     1     6
 -5.3543589374631773E-01 a       767     0    39     1     7
  2.5406587922646262E-01 a       768     0    39     1     8
  3.3882854754290653E-01 a       769     0    39     1     9
  4.6328014252550936E-01 a       770     0    39     1    10
 -6.8320495851615681E-01 a       771     0    39     1    11
 -5.0043381165487311E-01 a       772     0    39     1    12
  8.2242373539563318E-02 a       773     0    39     1    13
  2.5447381694805357E-02 a       774     0    39     1    14
 -2.1777683977029083E-01 a       775     0    39     1    15
  9.3765705762627272E-02 a       776     0    39     1    16
 -5.8684257399915285E-01 a       777     0    39     1    17
 -1.8469094060787622E-01 a       778     0    39     1    18
  8.4658207420952070E-01 a       779     0    39     1    19
  4.9336942790030569E-01 a       780     0    39     1    20
  7.8985614848265134E-02 a       781     0    40     1     1
 -1.7591575140637034E-01 a       782     0    40     1     2
  3.1578939873106820E-01 a       783     0    40     1     3
 -1.1961799106512197E-02 a       784     0    40     1     4
 -1.5169512312899647E+00 a       785     0    40     1     5
  1.5184948281161958E+00 a       786     0    40     1     6
  4.4156629801861400E-02 a       787     0    40     1     7
  3.9599311427932482E-01 a       788     0    40     1     8
 -1.3633745060473841E+00 a       789     0    40     1     9
  8.3731481431687782E-01 a       790     0    40     1    10
 -6.6044687055113926E-01 a       791     0    40     1    11
  7.1466716412364406E-01 a       792     0    40     1    12
  1.3394993366508297E+00 a       793     0    40     1    13
 -1.1800734434635021E-01 a       794     0    40     1    14
  3.0831111257325128E-02 a       795     0    40     1    15
  1.6479386061660026E+00 a       796     0    40     1    16
  9.0902558492735064E-01 a       797     0    40     1    17
  7.6288118873017022E-02 a       798     0    40     1    18
 -6.9198534524749111E-01 a       799     0    40     1    19
  1.0013724825889567E+00 a       800     0    40     1    20
  2.5797918581402055E-02 a       801     0    41     1     1
  3.6194316925527809E-01 a       802     0    41     1     2
 -3.1666689506005063E-01 a       803     0    41     1     3
  1.0337194011721005E+00 a       804     0    41     1     4
  2.7188069764355221E-03 a       805     0    41     1     5
 -5.1760130166408158E-01 a       806     0    41     1     6
 -4.8039769358985362E-01 a       807     0    41     1     7
 -8.4504099290429169E-01 a       808     0    41     1     8
  5.9648728704504528E-01 a       809     0    41     1     9
  5.7134900816093726E-01 a       810     0    41     1    10
 -5.8640745192324994E-01 a       811     0    41     1    11
  4.8220435845535309E-01 a       812     0    41     1    12
  2.1505604561152789E-01 a       813     0    41     1    13
  3.6292286227744708E-01 a       814     0    41     1    14
 -3.4870102092334804E-01 a       815     0    41     1    15
 -1.0664879061657320E+00 a       816     0    41     1    16
 -3.6187038000863625E-01 a       817     0    41     1    17
  6.3271726750274704E-01 a       818     0    41     1    18
 -5.1715216778609385E-01 a       819     0    41     1    19
 -5.1422097941027900E-01 a       820     0    41     1    20
 -1.7250810316775747E-03 a       821     0    42     1     1
  1.2819709222458064E-01 a       822     0    42     1     2
 -2.5722148160464048E-01 a       823     0    42     1     3
 -3.0283467903846739E-01 a       824     0    42     1     4
 -7.6836288709763589E-01 a       825     0    42     1     5
  6.3146506582878004E-01 a       826     0    42     1     6
 -3.1974531851533211E-01 a       827     0    42     1     7
 -3.9730013402384945E-01 a       828     0    42     1     8
  3.7425532870151146E-01 a       829     0    42     1     9
 -6.0655038379068438E-01 a       830     0    42     1    10
  7.3181474136420743E-01 a       831     0    42     1    11
 -5.4844834907741190E-02 a       832     0    42     1    12
  1.5699876813270182E-02 a       833     0    42     1    13
  9.7913801049329885E-01 a       834     0    42     1    14
 -3.4530973519458713E-01 a       835     0    42     1    15
 -8.0286573684808060E-01 a       836     0    42     1    16
  2.8236339110694875E-01 a       837     0    42     1    17
  8.1676883355580834E-02 a       838     0    42     1    18
 -1.9884920640603623E-01 a       839     0    42     1    19
 -2.8346381459981496E-01 a       840     0    42     1    20
 -4.5043645971974522E-01 a       841     0    43     1     1
  9.2381984481819446E-01 a       842     0    43     1     2
 -9.8727857816911152E-02 a       843     0    43     1     3
  2.0547720938165132E-01 a       844     0    43     1     4
  7.3259567339895182E-01 a       845     0    43     1     5
 -1.3923333224301171E+00 a       846     0    43     1     6
  1.1595322776869690E+00 a       847     0    43     1     7
 -4.1974713934717744E-02 a       848     0    43     1     8
 -1.3222970825704383E+00 a       849     0    43     1     9
 -1.4219211580343931E+00 a       850     0    43     1    10
  2.2688877486499121E-01 a       851     0    43     1    11
 -3.8951682894247364E-01 a       852     0    43     1    12
 -1.0657764629944895E+00 a       853     0    43     1    13
 -1.5103213172959956E-01 a       854     0    43     1    14
 -2.5422759457711375E-01 a       855     0    43     1    15
 -8.0080840643437190E-01 a       856     0    43     1    16
 -1.3427873567618400E+00 a       857     0    43     1    17
  1.4584208476775828E-01 a       858     0    43     1    18
 -6.8041123439212670E-01 a       859     0    43     1    19
 -1.3673769436664118E+00 a       860     0    43     1    20
  2.3939169876242153E-01 a       861     0    44     1     1
 -1.3089975557860456E-01 a       862     0    44     1     2
  4.5823384534973416E-01 a       863     0    44     1     3
 -6.2242466725806889E-01 a       864     0    44     1     4
 -2.3017897213200636E-01 a       865     0    44     1     5
  2.2612130821749368E-01 a       866     0    44     1     6
  4.0035112221346592E-01 a       867     0    44     1     7
  1.2313868350565998E-01 a       868     0    44     1     8
  1.6052079507169248E-01 a       869     0    44     1     9
  4.3156532372598705E-01 a       870     0    44     1    10
  6.7160008827990259E-01 a       871     0    44     1    11
 -1.0011289661080651E-01 a       872     0    44     1    12
 -3.5900565210643037E-01 a       873     0    44     1    13
 -2.7836471809278729E-01 a       874     0    44     1    14
  1.6764170736537265E-01 a       875     0    44     1    15
  4.6767264002987413E-01 a       876     0    44     1    16
  7.1353576001107766E-01 a       877     0    44     1    17
 -7.9491570094676034E-01 a       878     0    44     1    18
  2.2041375840290492E-01 a       879     0    44     1    19
  7.0919071699067671E-01 a       880     0    44     1    20
  7.8216482583713345E-02 a       881     0    45     1     1
  2.3343255830168791E-01 a       882     0    45     1     2
  6.8540927133600194E-01 a       883     0    45     1     3
  4.5646939569106409E-01 a       884     0    45     1     4
  7.8355302541302363E-01 a       885     0    45     1     5
 -3.4852151102624396E-01 a       886     0    45     1     6
 -6.2671636687336704E-02 a       887     0    45     1     7
  1.0704726989127269E+00 a       888     0    45     1     8
 -6.4530712685296468E-03 a       889     0    45     1     9
 -4.9445965230723463E-02 a       890     0    45     1    10
  8.0326395654801330E-01 a       891     0    45     1    11
 -6.2044867202690215E-02 a       892     0    45     1    12
  1.7925852751697691E-01 a       893     0    45     1    13
  9.4696670903103838E-02 a       894     0    45     1    14
  1.3862958324821037E-01 a       895     0    45     1    15
  1.8133928830972268E-01 a       896     0    45     1    16
 -2.8243947195482405E-01 a       897     0    45     1    17
  1.7402818803050923E-01 a       898     0    45     1    18
 -3.8741315828321532E-01 a       899     0    45     1    19
 -1.0765174084673336E-01 a       900     0    45     1    20
 -5.7953436611035421E-02 a       901     0    46     1     1
 -2.2450512498558689E-01 a       902     0    46     1     2
 -5.2491139352759908E-01 a       903     0    46     1     3
 -8.4891873376011798E-02 a       904     0    46     1     4
 -1.9908405407021500E-02 a       905     0    46     1     5
  1.7531981487423587E-01 a       906     0    46     1     6
 -1.4131516997885785E-01 a       907     0    46     1     7
 -8.3083703406129283E-01 a       908     0    46     1     8
 -2.1081635438307733E-01 a       909     0    46     1     9
  7.8340061023079999E-02 a       910     0    46     1    10
 -5.9381893012540155E-01 a       911     0    46     1    11
 -6.5264353213850301E-01 a       912     0    46     1    12
 -3.7686322894515273E-01 a       913     0    46     1    13
  2.7316199482396736E-01 a       914     0    46     1    14
  4.4359300304360078E-01 a       915     0    46     1    15
 -4.6791870011337078E-01 a       916     0    46     1    16
 -2.1340065531058200E-01 a       917     0    46     1    17
 -1.6072328116759238E-01 a       918     0    46     1    18
  3.1998915820433244E-01 a       919     0    46     1    19
 -1.3238826726209554E-01 a       920     0    46     1    20
  7.5373011686385338E-01 b       921     1     1
 -4.4342804845522105E-01 b       922     1     2
 -3.0211266926280023E-01 b       923     1     3
  1.0553179919049875E+00 b       924     1     4
 -8.5360928433819150E-01 b       925     1     5
 -1.1411681109812637E+00 b       926     1     6
  1.2270246194051881E+00 b       927     1     7
 -4.5332853762642167E-01 b       928     1     8
  9.7386163488808997E-01 b       929     1     9
 -8.2071954488704923E-01 b       930     1    10
 -5.0686141609934669E-02 b       931     1    11
 -4.7286759335982692E-01 b       932     1    12
 -9.0717863488410644E-01 b       933     1    13
 -1.0328917510026525E+00 b       934     1    14
  1.3105332132732026E+00 b       935     1    15
 -1.0797590498137031E+00 b       936     1    16
 -1.0210918107662841E+00 b       937     1    17
 -1.3494049746376457E+00 b       938     1    18
 -6.2453196415047618E-01 b       939     1    19
 -1.0431903995302512E+00 b       940     1    20
  2.1131073210506571E-01 a       941     1     1     2     1
  3.9976468529837045E-01 a       942     1     1     2     2
  1.1006233209933002E-01 a       943     1     1     2     3
 -1.1261356846822183E-01 a       944     1     1     2     4
  3.8682258931453894E-01 a       945     1     1     2     5
  2.7945583661670026E-01 a       946     1     1     2     6
 -2.9862418758918186E-01 a       947     1     1     2     7
  7.9444189936454718E-02 a       948     1     1     2     8
 -2.2459109472473993E-01 a       949     1     1     2     9
 -2.9957138352175983E-01 a       950     1     1     2    10
  1.8265590254888964E-01 a       951     1     1     2    11
 -3.4054051286455062E-01 a       952     1     1     2    12
  5.8065114255109329E-01 a       953     1     1     2    13
  2.1864250865403898E-01 a       954     1     1     2    14
 -3.2116264915076481E-01 a       955     1     1     2    15
  5.6953667587496004E-01 a       956     1     1     2    16
  4.2724082340580932E-01 a       957     1     1     2    17
 -5.2132732552556384E-02 a       958     1     1     2    18
  4.0205760227587461E-01 a       959     1     1     2    19
 -6.5172727769308669E-01 a       960     1     1     2    20
  9.6836062470771844E-01 a       961     1     2     2     1
 -9.8671452869256729E-02 a       962     1     2     2     2
  2.7075168146986833E-01 a       963     1     2     2     3
 -4.1217813280331661E-01 a       964     1     2     2     4
  1.2934738533227244E-01 a       965     1     2     2     5
 -1.2236038658828923E+00 a       966     1     2     2     6
  7.5538510411473314E-01 a       967     1     2     2     7
  1.2048908854218015E-02 a       968     1     2     2     8
  7.4442761107908550E-01 a       969     1     2     2     9
  3.1176050452020383E-02 a       970     1     2     2    10
 -2.4177478939636068E-01 a       971     1     2     2    11
  2.0640454088751806E-01 a       972     1     2     2    12
 -3.3134818488075077E-02 a       973     1     2     2    13
  4.8984464894380292E-01 a       974     1     2     2    14
  8.9616913925593533E-01 a       975     1     2     2    15
 -2.2828484126106244E-01 a       976     1     2     2    16
  4.5657320964524223E-01 a       977     1     2     2    17
 -1.6272175015886670E-01 a       978     1     2     2    18
  4.7008718196023716E-02 a       979     1     2     2    19
 -8.6867069835358635E-01 a       980     1     2     2    20
 -4.7953416885709776E-01 a       981     1     3     2     1
 -3.4159906078227886E-01 a       982     1     3     2     2
  7.6230527248560531E-01 a       983     1     3     2     3
 -1.5683062263748407E-01 a       984     1     3     2     4
  3.1754358353741324E-01 a       985     1     3     2     5
 -1.2072615514346631E-01 a       986     1     3     2     6
 -1.2682427429385468E+00 a       987     1     3     2     7
  3.8016543832807059E-01 a       988     1     3     2     8
  2.8642626803849747E-01 a       989     1     3     2     9
  4.1289400274003957E-01 a       990     1     3     2    10
  7.8908506762226172E-01 a       991     1     3     2    11
 -4.6357814117631080E-01 a       992     1     3     2    12
 -8.8543564488701806E-02 a       993     1     3     2    13
  4.9689356599472295E-01 a       994     1     3     2    14
 -2.4849302716285984E-01 a       995     1     3     2    15
 -5.0059608567249281E-01 a       996     1     3     2    16
  8.9095922361762669E-01 a       997     1     3     2    17
 -2.1746738291634257E-02 a       998     1     3     2    18
 -3.7081914617685563E-01 a       999     1     3     2    19
  9.0423029720668935E-01 a      1000     1     3     2    20
  5.9098886787973301E-02 a      1001     1     4     2     1
  6.1971478433758798E-01 a      1002     1     4     2     2
 -4.5299537718576915E-01 a      1003     1     4     2     3
  1.1141914715579626E-02 a      1004     1     4     2     4
  8.9816259808646226E-01 a      1005     1     4     2     5
  1.3524998584188627E-01 a      1006     1     4     2     6
 -1.7365260669001439E-01 a      1007     1     4     2     7
 -1.2430240746789480E-02 a      1008     1     4     2     8
  5.4619137599346179E-01 a      1009     1     4     2     9
  8.3382204294662532E-01 a      1010     1     4     2    10
  6.2680050979504875E-01 a      1011     1     4     2    11
  3.1714092013212031E-01 a      1012     1     4     2    12
  6.6979398294934142E-02 a      1013     1     4     2    13
 -9.4684382333733785E-01 a      1014     1     4     2    14
  1.0933925000889655E+00 a      1015     1     4     2    15
 -3.3372775761033685E-01 a      1016     1     4     2    16
  9.8031492549504229E-01 a      1017     1     4     2    17
 -5.1091301207780582E-01 a      1018     1     4     2    18
  8.3151515378532034E-02 a      1019     1     4     2    19
  5.4878127212034784E-02 a      1020     1     4     2    20
  1.0034118709200868E+00 a      1021     1     5     2     1
 -1.7984365871943344E-03 a      1022     1     5     2     2
  4.0163447851391143E-01 a      1023     1     5     2     3
 -3.1240088376448960E-01 a      1024     1     5     2     4
  1.7559459949298831E-01 a      1025     1     5     2     5
  2.1154812087547495E-01 a      1026     1     5     2     6
 -1.2712560083884625E-01 a      1027     1     5     2     7
  1.0121456202350801E-01 a      1028     1     5     2     8
  2.4085775859903022E-01 a      1029     1     5     2     9
 -8.3071435709083430E-01 a      1030     1     5     2    10
  3.6332844804581588E-01 a      1031     1     5     2    11
 -1.7140498024890377E-01 a      1032     1     5     2    12
 -4.1981098776258369E-01 a      1033     1     5     2    13
 -1.7915752964000664E+00 a      1034     1     5     2    14
  1.1096117848213998E+00 a      1035     1     5     2    15
 -9.7348918015805308E-01 a      1036     1     5     2    16
  3.7693285723218994E-01 a      1037     1     5     2    17
  3.3212051089803757E-01 a      1038     1     5     2    18
  2.7276785610533577E-01 a      1039     1     5     2    19
  7.3085410018685251E-02 a      1040     1     5     2    20
  4.1098973934342048E-01 a      1041     1     6     2     1
 -6.3607194464567829E-01 a      1042     1     6     2     2
 -3.3223806244612830E-01 a      1043     1     6     2     3
 -4.8183186129704864E-01 a      1044     1     6     2     4
  2.5092468367272230E-01 a      1045     1     6     2     5
  1.6449772209453917E-02 a      1046     1     6     2     6
  3.7695520119782105E-01 a      1047     1     6     2     7
 -3.5494558115153024E-01 a      1048     1     6     2     8
 -1.8130925951581096E+00 a      1049     1     6     2     9
 -2.8043996263153081E-02 a      1050     1     6     2    10
  3.9979546303953617E-01 a      1051     1     6     2    11
 -1.0078112156101376E-01 a      1052     1     6     2    12
 -6.0499187618155081E-01 a      1053     1     6     2    13
  2.6439579653685941E-01 a      1054     1     6     2    14
  2.2834997054187667E-01 a      1055     1     6     2    15
  1.0347885158201790E-01 a      1056     1     6     2    16
  8.9703689985842083E-01 a      1057     1     6     2    17
 -5.0431928287016514E-01 a      1058     1     6     2    18
 -3.4139995494320002E-01 a      1059     1     6     2    19
  2.5075666056223261E-01 a      1060     1     6     2    20
 -2.9765474129632796E-01 a      1061     1     7     2     1
  3.2967371025233327E-01 a      1062     1     7     2     2
 -8.2319816689610992E-01 a      1063     1     7     2     3
 -1.5513183767750449E-01 a      1064     1     7     2     4
 -3.2820292151969149E-01 a      1065     1     7     2     5
  8.3834699490818032E-01 a      1066     1     7     2     6
 -1.2596189320857026E-01 a      1067     1     7     2     7
 -4.0656371857916290E-01 a      1068     1     7     2     8
  1.3584715831598144E+00 a      1069     1     7     2     9
 -4.6471599372551087E-01 a      1070     1     7     2    10
  4.4549984447491947E-01 a      1071     1     7     2    11
 -2.9440629745925817E-01 a      1072     1     7     2    12
  1.5817323170866457E-01 a      1073     1     7     2    13
  2.5561059512635514E-02 a      1074     1     7     2    14
  1.1000266034484043E+00 a      1075     1     7     2    15
  8.5920047101971458E-02 a      1076     1     7     2    16
  4.9936409289506795E-02 a      1077     1     7     2    17
 -3.3923581747322329E-01 a      1078     1     7     2    18
 -3.5290470724073703E-01 a      1079     1     7     2    19
  3.7381804449861261E-01 a      1080     1     7     2    20
  1.8962283021264548E-01 a      1081     1     8     2     1
 -4.1751533387581602E-01 a      1082     1     8     2     2
  4.7096459195158695E-02 a      1083     1     8     2     3
 -4.5931658069045578E-01 a      1084     1     8     2     4
  4.9317042022234481E-01 a      1085     1     8     2     5
  1.7452946261552099E-01 a      1086     1     8     2     6
  6.2334476940637373E-01 a      1087     1     8     2     7
  2.9872706836485657E-01 a      1088     1     8     2     8
  5.5394428373921945E-01 a      1089     1     8     2     9
  1.1228441621337104E+00 a      1090     1     8     2    10
  1.8700999944172017E-01 a      1091     1     8     2    11
 -5.8149455069438838E-01 a      1092     1     8     2    12
 -5.4086056793304182E-01 a      1093     1     8     2    13
 -1.2434310032147904E-01 a      1094     1     8     2    14
  7.5730992968652810E-01 a      1095     1     8     2    15
  1.9412148182642991E-01 a      1096     1     8     2    16
 -4.0386359675617323E-01 a      1097     1     8     2    17
  3.0870533730719368E-01 a      1098     1     8     2    18
  5.4964371365450859E-01 a      1099     1     8     2    19
  7.1722090612106060E-01 a      1100     1     8     2    20
 -1.2278645965392662E-01 a      1101     1     9     2     1
 -4.8763704995340806E-01 a      1102     1     9     2     2
 -4.7194280876046074E-01 a      1103     1     9     2     3
  3.7389723626719906E-01 a      1104     1     9     2     4
 -4.7887815883071638E-01 a      1105     1     9     2     5
 -2.0496688425666515E-01 a      1106     1     9     2     6
  2.3279057417452756E-01 a      1107     1     9     2     7
  5.4698304627982486E-01 a      1108     1     9     2     8
  1.8993904039992185E-01 a      1109     1     9     2     9
  4.3920604941432867E-01 a      1110     1     9     2    10
  3.1463170905956489E-01 a      1111     1     9     2    11
  3.7101429787664186E-01 a      1112     1     9     2    12
  5.2536735860435646E-01 a      1113     1     9     2    13
 -3.8293555308522476E-01 a      1114     1     9     2    14
 -2.8048771322199006E-01 a      1115     1     9     2    15
  6.3242575121333455E-01 a      1116     1     9     2    16
 -2.3346854263013589E-01 a      1117     1     9     2    17
  2.9447378256841666E-01 a      1118     1     9     2    18
  2.6262746786449986E-01 a      1119     1     9     2    19
  8.5185226476355833E-02 a      1120     1     9     2    20
 -7.5439302883458320E-02 a      1121     1    10     2     1
  1.8751139639821923E-01 a      1122     1    10     2     2
  5.6020606089604730E-01 a      1123     1    10     2     3
  2.5269267091994146E-01 a      1124     1    10     2     4
 -1.7534151861529654E-01 a      1125     1    10     2     5
  5.0477271106714405E-01 a      1126     1    10     2     6
  4.9752457350847629E-01 a      1127     1    10     2     7
 -1.0378731346563681E+00 a      1128     1    10     2     8
 -7.3522929031931494E-01 a      1129     1    10     2     9
 -9.5978701056892213E-02 a      1130     1    10     2    10
 -1.6961048420581687E-01 a      1131     1    10     2    11
  3.9934745759057938E-01 a      1132     1    10     2    12
 -3.7915522677460567E-01 a      1133     1    10     2    13
  2.4237506347670965E-01 a      1134     1    10     2    14
  1.6591653628291297E-01 a      1135     1    10     2    15
  1.5672360611548244E-01 a      1136     1    10     2    16
 -9.4279671266671905E-01 a      1137     1    10     2    17
  4.6304400617912328E-01 a      1138     1    10     2    18
  4.7967548481683678E-02 a      1139     1    10     2    19
  9.5254548768186953E-02 a      1140     1    10     2    20
 -5.5686078747655920E-01 a      1141     1    11     2     1
  6.3381917195581873E-03 a      1142     1    11     2     2
 -1.1865078687641575E-01 a      1143     1    11     2     3
 -4.7347724239792555E-01 a      1144     1    11     2     4
 -7.7478281443661104E-02 a      1145     1    11     2     5
  4.1010748869124386E-01 a      1146     1    11     2     6
  1.0171334193682107E+00 a      1147     1    11     2     7
 -3.8035079440829572E-01 a      1148     1    11     2     8
  2.9377381028848898E-01 a      1149     1    11     2     9
 -7.6565541517866778E-02 a      1150     1    11     2    10
 -2.1179740191053339E-01 a      1151     1    11     2    11
 -7.8478610203515306E-02 a      1152     1    11     2    12
 -5.8175569972034713E-01 a      1153     1    11     2    13
  1.1988279895111792E-01 a      1154     1    11     2    14
 -3.0396614105503811E-01 a      1155     1    11     2    15
 -3.0312679429482670E-01 a      1156     1    11     2    16
 -8.5518891284932985E-01 a      1157     1    11     2    17
 -3.7484859503356288E-01 a      1158     1    11     2    18
  3.5338148493779403E-01 a      1159     1    11     2    19
 -1.0426031860999783E+00 a      1160     1    11     2    20
  5.2056462357324851E-01 a      1161     1    12     2     1
  2.8942845849535260E-02 a      1162     1    12     2     2
 -2.0835062393578538E-01 a      1163     1    12     2     3
  4.7664110110666424E-01 a      1164     1    12     2     4
  8.2169480446126963E-01 a      1165     1    12     2     5
  1.8383930268039533E-01 a      1166     1    12     2     6
  5.2052186688135160E-01 a      1167     1    12     2     7
 -1.5575406745732279E-01 a      1168     1    12     2     8
  4.3001931267380539E-01 a      1169     1    12     2     9
  1.9792595412154573E-01 a      1170     1    12     2    10
 -2.4421667039401320E-02 a      1171     1    12     2    11
  3.4025659322787721E-01 a      1172     1    12     2    12
 -2.9323539558273021E-01 a      1173     1    12     2    13
  5.7673508611265058E-02 a      1174     1    12     2    14
  4.8174355545863551E-01 a      1175     1    12     2    15
 -2.0853822097747235E-02 a      1176     1    12     2    16
  2.3701630352846975E-01 a      1177     1    12     2    17
  4.6872530325524997E-01 a      1178     1    12     2    18
  7.1189364146797318E-01 a      1179     1    12     2    19
  3.5511903477104018E-01 a      1180     1    12     2    20
 -4.2485216094545419E-01 a      1181     1    13     2     1
 -2.2091796626353860E-01 a      1182     1    13     2     2
 -3.7951239733423314E-01 a      1183     1    13     2     3
 -6.6807455426647411E-01 a      1184     1    13     2     4
 -8.8743190873332689E-01 a      1185     1    13     2     5
  8.8773898754091074E-01 a      1186     1    13     2     6
 -4.3519613385893213E-01 a      1187     1    13     2     7
  5.2371134510258224E-02 a      1188     1    13     2     8
  3.9151063112690859E-01 a      1189     1    13     2     9
  4.4110820627202330E-01 a      1190     1    13     2    10
 -2.4829548814490604E-01 a      1191     1    13     2    11
  3.6659503350701436E-02 a      1192     1    13     2    12
  2.9087006346888994E-01 a      1193     1    13     2    13
  4.7803967752716968E-03 a      1194     1    13     2    14
 -1.2365686364065756E-01 a      1195     1    13     2    15
 -9.2699687744243076E-01 a      1196     1    13     2    16
  4.1420084550974123E-01 a      1197     1    13     2    17
  3.6761365807878377E-01 a      1198     1    13     2    18
 -1.3071369514398706E-01 a      1199     1    13     2    19
  3.4947482883508152E-01 a      1200     1    13     2    20
 -3.0290466153318946E-01 a      1201     1    14     2     1
  1.5685683417779034E-01 a      1202     1    14     2     2
  7.3503970581279054E-01 a      1203     1    14     2     3
 -2.8537253105032752E-02 a      1204     1    14     2     4
  7.0045529975976173E-01 a      1205     1    14     2     5
 -3.7146164562068834E-01 a      1206     1    14     2     6
 -9.9722203078134142E-01 a      1207     1    14     2     7
  8.2909364063783897E-01 a      1208     1    14     2     8
  2.0093189848253634E-01 a      1209     1    14     2     9
 -1.3405916490701281E-01 a      1210     1    14     2    10
 -5.4335372561813300E-01 a      1211     1    14     2    11
 -3.6659408862897663E-01 a      1212     1    14     2    12
 -2.5675169492225497E-01 a      1213     1    14     2    13
  6.5710466050636100E-03 a      1214     1    14     2    14
  5.4752168823244407E-01 a      1215     1    14     2    15
 -2.0487230098854720E-01 a      1216     1    14     2    16
  3.0794400945587791E-01 a      1217     1    14     2    17
  4.1311152525172889E-01 a      1218     1    14     2    18
  1.1563093724603984E-02 a      1219     1    14     2    19
  5.8281283139142014E-02 a      1220     1    14     2    20
 -9.2761343730539214E-01 a      1221     1    15     2     1
  5.9435522743851044E-01 a      1222     1    15     2     2
  1.9082584548984269E-01 a      1223     1    15     2     3
  1.4898772057173212E-01 a      1224     1    15     2     4
  3.7814375961480995E-01 a      1225     1    15     2     5
  4.9319782198336676E-01 a      1226     1    15     2     6
 -6.3488775546613840E-01 a      1227     1    15     2     7
 -4.9913651596376435E-01 a      1228     1    15     2     8
  8.0168807810417708E-01 a      1229     1    15     2     9
 -9.9555276619695565E-01 a      1230     1    15     2    10
 -2.1900429256908823E-02 a      1231     1    15     2    11
  1.4850949674619103E+00 a      1232     1    15     2    12
  1.2840343421356251E-02 a      1233     1    15     2    13
  6.0828203519644897E-01 a      1234     1    15     2    14
  5.5937896941915166E-01 a      1235     1    15     2    15
 -7.2263584999544023E-02 a      1236     1    15     2    16
  1.8114161653865188E-01 a      1237     1    15     2    17
 -4.7707835491280765E-01 a      1238     1    15     2    18
  3.4241102403238566E-01 a      1239     1    15     2    19
 -3.7817014706792379E-01 a      1240     1    15     2    20
  7.1805099289935725E-01 a      1241     1    16     2     1
  3.6299133775440701E-01 a      1242     1    16     2     2
 -3.9467647147929130E-01 a      1243     1    16     2     3
  8.6677567956457674E-02 a      1244     1    16     2     4
  2.3394160988116197E-01 a      1245     1    16     2     5
  1.9157814370751730E-01 a      1246     1    16     2     6
 -1.9212230694800822E-01 a      1247     1    16     2     7
  5.0211640239956912E-01 a      1248     1    16     2     8
  9.4189230034178117E-01 a      1249     1    16     2     9
  8.1074412298893550E-01 a      1250     1    16     2    10
  6.0980032110299420E-01 a      1251     1    16     2    11
  2.6618526924848139E-02 a      1252     1    16     2    12
 -3.2730389351650391E-01 a      1253     1    16     2    13
 -9.4335600739521364E-01 a      1254     1    16     2    14
  6.6487282963158045E-01 a      1255     1    16     2    15
  4.8868221421692720E-01 a      1256     1    16     2    16
  2.0259716816333037E-01 a      1257     1    16     2    17
 -1.4169492609233394E-01 a      1258     1    16     2    18
 -5.7270146016043511E-01 a      1259     1    16     2    19
 -5.6208420054787456E-01 a      1260     1    16     2    20
 -8.3550461655683117E-01 a      1261     1    17     2     1
 -4.4046048987554515E-01 a      1262     1    17     2     2
 -7.6198516402881944E-02 a      1263     1    17     2     3
 -2.7245668277433843E-01 a      1264     1    17     2     4
 -1.7970394567731498E-02 a      1265     1    17     2     5
 -2.0906964108424902E-01 a      1266     1    17     2     6
  3.0275209097459976E-01 a      1267     1    17     2     7
 -1.8673077478312056E-01 a      1268     1    17     2     8
 -1.3696302074319604E+00 a      1269     1    17     2     9
 -5.3727113835075346E-01 a      1270     1    17     2    10
 -4.1001161532654234E-01 a      1271     1    17     2    11
 -3.6830735174892271E-01 a      1272     1    17     2    12
 -5.1116716937344198E-01 a      1273     1    17     2    13
  1.2546151874929956E+00 a      1274     1    17     2    14
 -7.9727429674213512E-01 a      1275     1    17     2    15
  3.9890875010734800E-01 a      1276     1    17     2    16
  1.7062037852669912E-01 a      1277     1    17     2    17
  6.5240879702908772E-01 a      1278     1    17     2    18
  4.9442283742524995E-01 a      1279     1    17     2    19
  3.3673633851814773E-02 a      1280     1    17     2    20
  1.6702680068105413E-01 a      1281     1    18     2     1
  2.8979182484726812E-01 a      1282     1    18     2     2
  9.7691528892331880E-01 a      1283     1    18     2     3
  2.3637440558594977E-01 a      1284     1    18     2     4
 -2.6930541263018587E-01 a      1285     1    18     2     5
  8.4225138126909593E-01 a      1286     1    18     2     6
  8.9781944790669754E-01 a      1287     1    18     2     7
  1.6258185297851547E-02 a      1288     1    18     2     8
  6.4177090495761235E-01 a      1289     1    18     2     9
 -3.3098892553031828E-01 a      1290     1    18     2    10
  4.1191266808954835E-01 a      1291     1    18     2    11
  1.1293248668304885E+00 a      1292     1    18     2    12
 -5.8322873831572619E-01 a      1293     1    18     2    13
 -1.2135689314430084E-01 a      1294     1    18     2    14
  7.7866796610455125E-01 a      1295     1    18     2    15
 -2.3121025930978803E-01 a      1296     1    18     2    16
 -6.4203032336844168E-01 a      1297     1    18     2    17
  5.4150080460332484E-01 a      1298     1    18     2    18
  8.7101194325561182E-01 a      1299     1    18     2    19
  5.0368988140013815E-01 a      1300     1    18     2    20
 -1.8352813411216160E-01 a      1301     1    19     2     1
 -3.2664948964688068E-01 a      1302     1    19     2     2
  6.2079344998767694E-01 a      1303     1    19     2     3
  4.4318864590525797E-01 a      1304     1    19     2     4
 -3.4550471280958445E-01 a      1305     1    19     2     5
  2.3451954201329220E-01 a      1306     1    19     2     6
  4.3629660534269099E-01 a      1307     1    19     2     7
 -2.9330719864699584E-01 a      1308     1    19     2     8
  1.6364561831977750E-01 a      1309     1    19     2     9
 -3.5091142045631235E-01 a      1310     1    19     2    10
  1.9900536369683999E-01 a      1311     1    19     2    11
  4.5806071328420245E-01 a      1312     1    19     2    12
  1.0169524162196330E-02 a      1313     1    19     2    13
  8.0092114223078892E-01 a      1314     1    19     2    14
  4.4974435474856483E-01 a      1315     1    19     2    15
 -9.0360651062767847E-02 a      1316     1    19     2    16
 -4.0111965616223305E-01 a      1317     1    19     2    17
  5.9123231262638121E-01 a      1318     1    19     2    18
 -2.7227382192712030E-01 a      1319     1    19     2    19
  7.3431595148652984E-01 a      1320     1    19     2    20
 -3.5790790151786288E-02 a      1321     1    20     2     1
 -2.8232257158363117E-01 a      1322     1    20     2     2
 -5.3975483158207294E-01 a      1323     1    20     2     3
 -6.7229719126392828E-01 a      1324     1    20     2     4
  1.1795882825866524E-01 a      1325     1    20     2     5
  5.7060776013704954E-02 a      1326     1    20     2     6
 -3.2132632686719009E-01 a      1327     1    20     2     7
 -2.2485928354109561E-01 a      1328     1    20     2     8
  7.1623669642707732E-01 a      1329     1    20     2     9
  8.4918115504372749E-01 a      1330     1    20     2    10
  3.9528983070806495E-01 a      1331     1    20     2    11
  2.3647820405997674E-01 a      1332     1    20     2    12
 -3.0905881960888870E-01 a      1333     1    20     2    13
  6.2887246136494035E-01 a      1334     1    20     2    14
 -2.0699534976546941E-01 a      1335     1    20     2    15
 -4.8586834285752906E-01 a      1336     1    20     2    16
 -1.7792433194499158E-01 a      1337     1    20     2    17
  3.8111091851799467E-01 a      1338     1    20     2    18
  2.8791358728585875E-01 a      1339     1    20     2    19
  1.8920523617381746E-01 a      1340     1    20     2    20
  5.1408366970041204E-02 b      1341     2     1
  1.4972526903395418E+00 b      1342     2     2
 -2.3978940673766655E-01 b      1343     2     3
  2.1592246102220619E-01 b      1344     2     4
 -1.7882182208294910E+00 b      1345     2     5
 -5.5032440985639697E-02 b      1346     2     6
 -9.4238126861781435E-01 b      1347     2     7
 -1.1396168115980878E+00 b      1348     2     8
 -5.7828099569642299E-01 b      1349     2     9
  1.5210353805571237E+00 b      1350     2    10
 -1.5012744121085919E+00 b      1351     2    11
  1.6110733558043284E+00 b      1352     2    12
 -1.1366762933566008E-01 b      1353     2    13
 -1.0955443688082568E-01 b      1354     2    14
  5.5679882671976787E-02 b      1355     2    15
 -6.1480382678159873E-01 b      1356     2    16
 -7.7342637572068262E-01 b      1357     2    17
 -4.0430672397495676E-01 b      1358     2    18
 -4.9712583430741530E-01 b      1359     2    19
 -6.6712542881802972E-01 b      1360     2    20
 -6.6333649121781646E-01 a      1361     2     1     3     1
  6.6157319873357320E-03 a      1362     2     2     3     1
 -9.3784836816394668E-01 a      1363     2     3     3     1
  2.7488153436162116E-01 a      1364     2     4     3     1
 -5.9258144680825930E-01 a      1365     2     5     3     1
 -4.7547447859750464E-01 a      1366     2     6     3     1
 -1.2082869341074145E+00 a      1367     2     7     3     1
 -5.1361908003668388E-01 a      1368     2     8     3     1
 -3.2876809443155430E-01 a      1369     2     9     3     1
 -3.6693075637695316E-01 a      1370     2    10     3     1
 -9.9778733665503161E-01 a      1371     2    11     3     1
  1.1023238369634210E+00 a      1372     2    12     3     1
  1.7242166053969983E+00 a      1373     2    13     3     1
  1.8442694257380773E-01 a      1374     2    14     3     1
  1.1972506235651623E+00 a      1375     2    15     3     1
  8.0203891892966828E-01 a      1376     2    16     3     1
 -7.7315992480855023E-02 a      1377     2    17     3     1
 -1.1580989942087383E+00 a      1378     2    18     3     1
 -8.5591125180512151E-01 a      1379     2    19     3     1
 -3.7372768539452966E-01 a      1380     2    20     3     1
  1.7540867464318854E+00 b      1381     3     1
