################################################################################
# Neural network connection values (weights and biases).
################################################################################
# Col  Name       Description
################################################################################
# 1    connection Neural network connection value.
# 2    t          Connection type (a = weight, b = bias).
# 3    index      Index enumerating weights.
# 4    l_s        Starting point layer (end point layer for biases).
# 5    n_s        Starting point neuron in starting layer (end point neuron for biases).
# 6    l_e        End point layer.
# 7    n_e        End point neuron in end layer.
################################################################################
#                      1 2         3     4     5     6     7
#             connection t     index   l_s   n_s   l_e   n_e
############################################################
  3.5367714722434740E-01 a         1     0     1     1     1
 -7.0227495777631641E-02 a         2     0     1     1     2
  5.1088756894662690E-02 a         3     0     1     1     3
  2.8259465135163531E-01 a         4     0     1     1     4
 -5.9067942398050499E-01 a         5     0     1     1     5
  5.7202433319809365E-01 a         6     0     1     1     6
  1.4403466797784345E-01 a         7     0     1     1     7
  3.3458873370243458E-01 a         8     0     1     1     8
  5.3063178525468024E-01 a         9     0     1     1     9
 -1.5741752034972989E-01 a        10     0     1     1    10
  2.7413931667926550E-01 a        11     0     1     1    11
  3.3837172902516366E-01 a        12     0     1     1    12
  5.0077876113284896E-02 a        13     0     1     1    13
 -5.2945522410329238E-01 a        14     0     1     1    14
 -5.0833659140310117E-01 a        15     0     1     1    15
 -2.2668916885896870E-01 a        16     0     1     1    16
  1.3245762582697732E-01 a        17     0     1     1    17
 -2.2367853199453946E-01 a        18     0     1     1    18
  4.8623279720962509E-01 a        19     0     1     1    19
  1.3574841389244996E-01 a        20     0     1     1    20
  3.1779916559965754E-01 a        21     0     2     1     1
 -2.0463981664099073E-01 a        22     0     2     1     2
 -2.1247754873720984E-01 a        23     0     2     1     3
  2.7276453037717443E-02 a        24     0     2     1     4
  1.6177807051692930E-01 a        25     0     2     1     5
 -2.6148499166598244E-01 a        26     0     2     1     6
 -1.3188231765877526E-01 a        27     0     2     1     7
  1.6542253504228083E-01 a        28     0     2     1     8
  2.1271051515821920E-01 a        29     0     2     1     9
  1.5698004122433815E-01 a        30     0     2     1    10
  1.1928162218739201E-01 a        31     0     2     1    11
 -3.9546602982157356E-02 a        32     0     2     1    12
  1.5391336717640272E-01 a        33     0     2     1    13
  1.0977759374858653E-01 a        34     0     2     1    14
 -1.7471755381054652E-01 a        35     0     2     1    15
 -1.4160815658266904E-01 a        36     0     2     1    16
  1.1462643875605262E-01 a        37     0     2     1    17
 -2.3908559851504013E-01 a        38     0     2     1    18
  1.4490604187381981E-01 a        39     0     2     1    19
 -9.1940313316377729E-03 a        40     0     2     1    20
 -8.7917538207687398E-02 a        41     0     3     1     1
  3.7793953871970370E-01 a        42     0     3     1     2
  3.5259136253766740E-02 a        43     0     3     1     3
 -2.4039004784549781E-01 a        44     0     3     1     4
  1.4927251986216805E-01 a        45     0     3     1     5
  4.3372588663338506E-02 a        46     0     3     1     6
  1.2713752569120065E-02 a        47     0     3     1     7
 -1.5812602340429924E-01 a        48     0     3     1     8
 -2.6327142214380361E-01 a        49     0     3     1     9
 -3.3356760943677449E-01 a        50     0     3     1    10
  3.4549419447246231E-02 a        51     0     3     1    11
 -2.3334782576956278E-01 a        52     0     3     1    12
 -3.2990741563891768E-01 a        53     0     3     1    13
 -3.5427220537520931E-01 a        54     0     3     1    14
  4.0627847709789788E-01 a        55     0     3     1    15
  1.3305835218495940E-01 a        56     0     3     1    16
  3.8492893766702108E-01 a        57     0     3     1    17
 -1.6444689348593275E-01 a        58     0     3     1    18
 -4.6211474859342772E-01 a        59     0     3     1    19
  2.0335030142651891E-01 a        60     0     3     1    20
 -6.6479303899533670E-01 a        61     0     4     1     1
  6.0133877711157413E-01 a        62     0     4     1     2
  2.6755947818283121E-01 a        63     0     4     1     3
 -2.2844692177882006E-01 a        64     0     4     1     4
  5.5584710316742714E-01 a        65     0     4     1     5
 -5.2304586836849465E-01 a        66     0     4     1     6
  2.8955605999694561E-01 a        67     0     4     1     7
 -1.7639499920747737E-01 a        68     0     4     1     8
 -7.8244422828770344E-01 a        69     0     4     1     9
  1.3234119079664558E-01 a        70     0     4     1    10
  2.5906496578030869E-01 a        71     0     4     1    11
 -1.2379854938979182E-01 a        72     0     4     1    12
 -2.1546818045293341E-02 a        73     0     4     1    13
  2.4961011258618435E-01 a        74     0     4     1    14
  6.4223688337567575E-01 a        75     0     4     1    15
  2.6679722767248809E-01 a        76     0     4     1    16
  5.3070111955717381E-01 a        77     0     4     1    17
  2.8376436155760876E-01 a        78     0     4     1    18
  9.4042106127154648E-03 a        79     0     4     1    19
 -1.7836318484125049E-02 a        80     0     4     1    20
  5.3097486575456554E-01 a        81     0     5     1     1
 -7.6166075149414636E-01 a        82     0     5     1     2
 -5.1451785557375673E-01 a        83     0     5     1     3
  1.4284326560092759E-03 a        84     0     5     1     4
 -2.3383856265989297E-01 a        85     0     5     1     5
  1.0022549010745607E+00 a        86     0     5     1     6
  3.7560379103526137E-01 a        87     0     5     1     7
 -3.8518961633083093E-01 a        88     0     5     1     8
  2.5337329421550642E-01 a        89     0     5     1     9
 -7.6113889578498614E-02 a        90     0     5     1    10
 -3.7728990169170457E-01 a        91     0     5     1    11
  3.1603162694111681E-01 a        92     0     5     1    12
  4.3029628109270704E-02 a        93     0     5     1    13
  6.5473067846389132E-01 a        94     0     5     1    14
 -5.9857978013649893E-01 a        95     0     5     1    15
 -7.1282449879254750E-02 a        96     0     5     1    16
  1.3900638908101881E-01 a        97     0     5     1    17
  6.8103404089950126E-01 a        98     0     5     1    18
 -2.4926217187193098E-01 a        99     0     5     1    19
 -1.5245217226581273E-01 a       100     0     5     1    20
 -2.3099027513222248E-01 a       101     0     6     1     1
 -3.1004050629309171E-01 a       102     0     6     1     2
  2.5942111462466294E-01 a       103     0     6     1     3
 -1.0263414660858614E-01 a       104     0     6     1     4
  3.3707519430300442E-01 a       105     0     6     1     5
 -2.9561164300921799E-01 a       106     0     6     1     6
  1.3932348572539234E-02 a       107     0     6     1     7
 -5.2311483335812292E-01 a       108     0     6     1     8
 -4.0890536823399315E-01 a       109     0     6     1     9
 -1.0176339290543042E-01 a       110     0     6     1    10
 -2.3850202571563237E-01 a       111     0     6     1    11
  3.6398665119508627E-01 a       112     0     6     1    12
  9.8217281843866577E-02 a       113     0     6     1    13
  1.1755861127898035E+00 a       114     0     6     1    14
 -4.3454566010600319E-02 a       115     0     6     1    15
  7.4206371608172483E-01 a       116     0     6     1    16
 -1.6232711895497229E-01 a       117     0     6     1    17
  4.1128601052461883E-01 a       118     0     6     1    18
 -2.2394226701100348E-01 a       119     0     6     1    19
 -6.2686675923573132E-01 a       120     0     6     1    20
  1.3605786962117869E-01 a       121     0     7     1     1
 -2.4399844116468167E-01 a       122     0     7     1     2
 -5.4464561377338259E-02 a       123     0     7     1     3
 -4.2947500064283367E-01 a       124     0     7     1     4
 -4.9027724985421156E-01 a       125     0     7     1     5
  2.2722283131223597E-01 a       126     0     7     1     6
  2.0365364463377722E-02 a       127     0     7     1     7
  1.0921114307300794E-01 a       128     0     7     1     8
  3.3321818171480799E-01 a       129     0     7     1     9
 -6.0772596428962777E-01 a       130     0     7     1    10
  5.2299661767009364E-01 a       131     0     7     1    11
  6.1189384369256405E-01 a       132     0     7     1    12
  2.2086487237940378E-01 a       133     0     7     1    13
 -6.5804697546621693E-01 a       134     0     7     1    14
  6.9146881947537042E-02 a       135     0     7     1    15
 -5.5468221674742402E-01 a       136     0     7     1    16
 -4.8167867004355780E-01 a       137     0     7     1    17
 -3.6232889820216901E-01 a       138     0     7     1    18
  1.3944574562043824E-01 a       139     0     7     1    19
  8.2663687431241928E-01 a       140     0     7     1    20
 -1.1854396431893417E-01 a       141     0     8     1     1
 -1.3554122693242973E-01 a       142     0     8     1     2
 -1.8326621545728641E-02 a       143     0     8     1     3
  7.4901148765597436E-01 a       144     0     8     1     4
  5.4026041073689035E-01 a       145     0     8     1     5
 -3.0193318186031132E-01 a       146     0     8     1     6
 -2.8060861699290657E-01 a       147     0     8     1     7
  2.6709644654101122E-02 a       148     0     8     1     8
 -2.0781937234188466E-01 a       149     0     8     1     9
  7.3014916217043491E-01 a       150     0     8     1    10
  4.1030702281949755E-01 a       151     0     8     1    11
 -5.4763828933109693E-01 a       152     0     8     1    12
 -5.6002826168419151E-01 a       153     0     8     1    13
  2.1806876855202331E-01 a       154     0     8     1    14
 -8.2515529258401013E-02 a       155     0     8     1    15
  4.6208973199425324E-02 a       156     0     8     1    16
  1.5103124420241162E-01 a       157     0     8     1    17
 -2.3385966928150267E-01 a       158     0     8     1    18
 -3.8628440406264569E-01 a       159     0     8     1    19
 -2.3346610567566559E-01 a       160     0     8     1    20
 -2.6614138056832670E-01 a       161     0     9     1     1
 -8.1205989921842053E-02 a       162     0     9     1     2
 -1.9396289030439082E-01 a       163     0     9     1     3
  2.9716971788621738E-01 a       164     0     9     1     4
 -9.4070518631092448E-01 a       165     0     9     1     5
 -3.9485502913235254E-01 a       166     0     9     1     6
 -2.6729982542476838E-01 a       167     0     9     1     7
 -1.7229416472549958E-01 a       168     0     9     1     8
 -3.8114162719514250E-01 a       169     0     9     1     9
 -3.7300419606839504E-02 a       170     0     9     1    10
 -6.0913485561081859E-01 a       171     0     9     1    11
 -2.4063678754499304E-01 a       172     0     9     1    12
 -3.8962039051539765E-01 a       173     0     9     1    13
  1.6741477075008429E-01 a       174     0     9     1    14
  2.2258175172570888E-01 a       175     0     9     1    15
  2.1219808493083142E-01 a       176     0     9     1    16
  1.8316666237095297E-01 a       177     0     9     1    17
  3.7546879606694150E-01 a       178     0     9     1    18
 -1.1901108320104564E-01 a       179     0     9     1    19
  3.1370729834419558E-01 a       180     0     9     1    20
 -3.2228435408721978E-01 a       181     0    10     1     1
  4.2402334076459958E-01 a       182     0    10     1     2
  4.4546594054058260E-02 a       183     0    10     1     3
 -1.2491075113843873E-01 a       184     0    10     1     4
 -3.9979512550073415E-01 a       185     0    10     1     5
  1.0453547986251015E-01 a       186     0    10     1     6
  1.1122561010454761E-01 a       187     0    10     1     7
 -9.7037647356955373E-02 a       188     0    10     1     8
  6.7999603074144904E-02 a       189     0    10     1     9
  2.2001948877280791E-01 a       190     0    10     1    10
  1.9327876907169694E-02 a       191     0    10     1    11
  1.5931536140183566E-01 a       192     0    10     1    12
 -1.4980709671431905E-01 a       193     0    10     1    13
  4.9751924171603601E-01 a       194     0    10     1    14
 -3.3265090193431301E-01 a       195     0    10     1    15
  2.7525490474568221E-01 a       196     0    10     1    16
  1.1176630916131930E-01 a       197     0    10     1    17
  2.5734572103222852E-01 a       198     0    10     1    18
 -1.2123015463429605E-01 a       199     0    10     1    19
  2.0287827541729700E-01 a       200     0    10     1    20
  1.7545888952953245E-01 a       201     0    11     1     1
  2.7660526795193785E-01 a       202     0    11     1     2
  1.6687519291030510E-02 a       203     0    11     1     3
 -4.9818495369747216E-02 a       204     0    11     1     4
  2.5783356533204066E-01 a       205     0    11     1     5
  2.8083960448053175E-01 a       206     0    11     1     6
 -2.2670485802808107E-01 a       207     0    11     1     7
  3.3304504859016920E-01 a       208     0    11     1     8
  4.7661154243330076E-02 a       209     0    11     1     9
 -9.4595928614306962E-02 a       210     0    11     1    10
  8.2462983285535141E-02 a       211     0    11     1    11
 -1.3291749771446187E-01 a       212     0    11     1    12
  2.2816552859740447E-01 a       213     0    11     1    13
 -8.0415376585383488E-02 a       214     0    11     1    14
  1.5653002465806370E-01 a       215     0    11     1    15
 -5.4337686892925847E-02 a       216     0    11     1    16
 -1.7592317033688415E-01 a       217     0    11     1    17
 -2.8696415285562382E-02 a       218     0    11     1    18
  3.6788104288914858E-01 a       219     0    11     1    19
 -3.8309444600618225E-01 a       220     0    11     1    20
  5.6838176057256530E-02 a       221     0    12     1     1
 -3.8894255748983181E-01 a       222     0    12     1     2
  4.2700407754988637E-02 a       223     0    12     1     3
 -3.3290107077444253E-01 a       224     0    12     1     4
  6.5139486919984602E-01 a       225     0    12     1     5
  4.4111230662381884E-01 a       226     0    12     1     6
 -2.5686871873348224E-02 a       227     0    12     1     7
 -3.0379030380886011E-03 a       228     0    12     1     8
 -1.3673963727612246E-01 a       229     0    12     1     9
 -8.3626088800105747E-02 a       230     0    12     1    10
  5.6303370553127385E-01 a       231     0    12     1    11
  5.4001166628325459E-01 a       232     0    12     1    12
  1.1526042405009727E-01 a       233     0    12     1    13
 -4.5931776550396802E-01 a       234     0    12     1    14
  2.2574623170058414E-01 a       235     0    12     1    15
 -5.4259064461620421E-01 a       236     0    12     1    16
  1.8402869163893831E-02 a       237     0    12     1    17
 -1.1858047903039605E-01 a       238     0    12     1    18
 -2.7259144515930839E-02 a       239     0    12     1    19
 -2.4853753782611696E-01 a       240     0    12     1    20
  6.4739260145666522E-01 a       241     0    13     1     1
  7.1254246316830738E-01 a       242     0    13     1     2
 -2.9019466483848799E-01 a       243     0    13     1     3
  7.8455508524640352E-02 a       244     0    13     1     4
 -6.8673626010932387E-01 a       245     0    13     1     5
  5.9713082464805722E-01 a       246     0    13     1     6
 -4.0574505772529229E-01 a       247     0    13     1     7
 -3.4516852258311248E-01 a       248     0    13     1     8
 -7.8349414896463729E-02 a       249     0    13     1     9
  8.7913644207589473E-02 a       250     0    13     1    10
  3.6602376287758420E-01 a       251     0    13     1    11
 -7.2784609069614353E-03 a       252     0    13     1    12
 -4.0672662435646489E-01 a       253     0    13     1    13
  6.3062203143607676E-01 a       254     0    13     1    14
 -2.5221752784771900E-02 a       255     0    13     1    15
 -2.1824533408728253E-01 a       256     0    13     1    16
 -3.0981055274452157E-01 a       257     0    13     1    17
  3.4263266282161481E-01 a       258     0    13     1    18
 -3.6857811064345825E-02 a       259     0    13     1    19
  2.5427212431182461E-01 a       260     0    13     1    20
 -5.7993337672446588E-01 a       261     0    14     1     1
  3.4487625453636322E-01 a       262     0    14     1     2
 -5.3575459999006515E-02 a       263     0    14     1     3
 -7.5719588954446149E-01 a       264     0    14     1     4
 -3.7762974529612213E-02 a       265     0    14     1     5
 -5.2478627958000401E-01 a       266     0    14     1     6
 -2.6262744745215622E-01 a       267     0    14     1     7
  3.1861528001320139E-01 a       268     0    14     1     8
 -4.2322879935312552E-01 a       269     0    14     1     9
  2.3148996035379221E-01 a       270     0    14     1    10
 -1.4458964499187013E-01 a       271     0    14     1    11
 -2.1539556800939652E-01 a       272     0    14     1    12
  4.4328601723167355E-02 a       273     0    14     1    13
 -1.1113715818762894E-01 a       274     0    14     1    14
  6.4065892051839435E-01 a       275     0    14     1    15
  3.1726683004378298E-01 a       276     0    14     1    16
  5.8617834767207844E-01 a       277     0    14     1    17
 -2.3622779042236608E-01 a       278     0    14     1    18
  1.2121903043973031E-01 a       279     0    14     1    19
  7.0682356155024856E-02 a       280     0    14     1    20
 -5.3093645043173432E-01 a       281     0    15     1     1
 -3.6364684648766310E-01 a       282     0    15     1     2
  3.5659709081529828E-01 a       283     0    15     1     3
 -1.6457457489554916E-01 a       284     0    15     1     4
  4.6111083398778913E-01 a       285     0    15     1     5
 -1.9391786484992563E-01 a       286     0    15     1     6
 -6.7908862597720601E-03 a       287     0    15     1     7
  1.7036701521323656E-02 a       288     0    15     1     8
 -5.9644907161833779E-02 a       289     0    15     1     9
 -3.1303184044098054E-01 a       290     0    15     1    10
  1.6739733392495994E-02 a       291     0    15     1    11
 -1.3211256286001227E-01 a       292     0    15     1    12
  5.7845729827813080E-02 a       293     0    15     1    13
 -4.4032842089275748E-01 a       294     0    15     1    14
 -2.4786407407458605E-01 a       295     0    15     1    15
 -1.3723425946879389E-01 a       296     0    15     1    16
  6.5401483387877846E-01 a       297     0    15     1    17
  1.9374863902567355E-01 a       298     0    15     1    18
 -2.9893784709855358E-02 a       299     0    15     1    19
 -5.7395475855375344E-01 a       300     0    15     1    20
  9.0261668574885501E-01 a       301     0    16     1     1
 -4.2449913541639611E-01 a       302     0    16     1     2
 -1.2829302188122751E-01 a       303     0    16     1     3
  1.4650798543308148E+00 a       304     0    16     1     4
  1.1644853802060100E-01 a       305     0    16     1     5
  1.1856979733890116E+00 a       306     0    16     1     6
  4.5165893624331649E-01 a       307     0    16     1     7
 -5.5391124696352778E-01 a       308     0    16     1     8
 -3.6944182776054729E-01 a       309     0    16     1     9
 -3.6280275647116234E-01 a       310     0    16     1    10
 -1.2690824717278137E-01 a       311     0    16     1    11
 -2.7590368099105544E-01 a       312     0    16     1    12
  4.6814467222622158E-01 a       313     0    16     1    13
 -3.9838893910743395E-01 a       314     0    16     1    14
 -3.0245664921141624E-01 a       315     0    16     1    15
  2.5345456101940311E-01 a       316     0    16     1    16
  4.7826780979722899E-01 a       317     0    16     1    17
 -3.3755151375380144E-01 a       318     0    16     1    18
 -9.1264000948963864E-02 a       319     0    16     1    19
 -5.7250465475402601E-01 a       320     0    16     1    20
 -1.0289426700035857E+00 a       321     0    17     1     1
  4.0725178449597421E-01 a       322     0    17     1     2
  1.0850788943809507E-01 a       323     0    17     1     3
 -1.1779206619458467E+00 a       324     0    17     1     4
  4.4802527795374469E-02 a       325     0    17     1     5
 -1.3434689758856746E+00 a       326     0    17     1     6
 -5.6999898852146597E-02 a       327     0    17     1     7
  1.3964726174188252E-01 a       328     0    17     1     8
  4.0681964293808986E-01 a       329     0    17     1     9
  7.1529113899781893E-01 a       330     0    17     1    10
 -1.6192261207918249E-01 a       331     0    17     1    11
  3.9036767080656559E-01 a       332     0    17     1    12
 -7.6593628523871105E-01 a       333     0    17     1    13
  8.0669941189339722E-01 a       334     0    17     1    14
  1.3096339980556543E-01 a       335     0    17     1    15
  4.8168735452297207E-01 a       336     0    17     1    16
 -9.1525260970502098E-01 a       337     0    17     1    17
  3.6933788648594756E-01 a       338     0    17     1    18
 -4.3405290788421436E-01 a       339     0    17     1    19
  1.2127593590973262E+00 a       340     0    17     1    20
 -4.2218715528294405E-02 a       341     0    18     1     1
  3.3304281301587096E-01 a       342     0    18     1     2
  6.1992984985414534E-01 a       343     0    18     1     3
 -7.3882130752975816E-01 a       344     0    18     1     4
  3.5060963497196196E-01 a       345     0    18     1     5
 -3.8041846880273122E-01 a       346     0    18     1     6
 -2.8518825675102116E-01 a       347     0    18     1     7
  8.8028694376558336E-01 a       348     0    18     1     8
 -6.0241958580774735E-01 a       349     0    18     1     9
  2.6265429775370386E-01 a       350     0    18     1    10
  3.3419948053001591E-01 a       351     0    18     1    11
 -1.2754990718414475E-01 a       352     0    18     1    12
 -4.9269644991094319E-01 a       353     0    18     1    13
 -2.1219654448094039E-01 a       354     0    18     1    14
 -1.0487223563821543E-01 a       355     0    18     1    15
  1.2243068949990449E-01 a       356     0    18     1    16
  2.2354730378613594E-01 a       357     0    18     1    17
  4.6889684257449139E-02 a       358     0    18     1    18
  1.3101385611351130E-01 a       359     0    18     1    19
 -6.7451491726269885E-01 a       360     0    18     1    20
  3.0832216849333566E-01 a       361     0    19     1     1
 -5.1226561774242807E-01 a       362     0    19     1     2
 -5.5942715729439640E-01 a       363     0    19     1     3
  3.0692180113236905E-01 a       364     0    19     1     4
 -7.6935889805008839E-01 a       365     0    19     1     5
  1.1647267155619274E+00 a       366     0    19     1     6
 -2.8692591237051424E-01 a       367     0    19     1     7
 -7.2063651368416648E-01 a       368     0    19     1     8
  4.6647476326705234E-01 a       369     0    19     1     9
 -9.5488457736829713E-01 a       370     0    19     1    10
 -2.1400536564793965E-01 a       371     0    19     1    11
 -4.7113728061982019E-01 a       372     0    19     1    12
  7.3457528331461752E-01 a       373     0    19     1    13
  2.7734135636635817E-02 a       374     0    19     1    14
  2.0894038842521531E-01 a       375     0    19     1    15
 -5.4342361992255883E-01 a       376     0    19     1    16
 -5.4975271798887226E-02 a       377     0    19     1    17
 -5.8465934724338274E-02 a       378     0    19     1    18
 -2.6654333968177912E-01 a       379     0    19     1    19
  2.7185577801774879E-01 a       380     0    19     1    20
 -6.8721921914944806E-01 a       381     0    20     1     1
 -2.5358649882752943E-01 a       382     0    20     1     2
  7.9866437266511103E-02 a       383     0    20     1     3
 -1.0122142785835349E+00 a       384     0    20     1     4
 -3.8548919315608132E-01 a       385     0    20     1     5
 -9.1445196188068212E-01 a       386     0    20     1     6
 -1.3636922160982456E-01 a       387     0    20     1     7
  4.0845601310413476E-01 a       388     0    20     1     8
  1.4586122277572148E-02 a       389     0    20     1     9
  3.4861376735983646E-01 a       390     0    20     1    10
  7.4345164051956514E-01 a       391     0    20     1    11
  1.2343723880023762E-01 a       392     0    20     1    12
 -2.7558494940638062E-01 a       393     0    20     1    13
  2.6397128387682467E-01 a       394     0    20     1    14
 -1.6068679510352188E-01 a       395     0    20     1    15
  4.3369471425893513E-01 a       396     0    20     1    16
 -6.2240191133734935E-01 a       397     0    20     1    17
 -2.0748462190946077E-02 a       398     0    20     1    18
  2.1307377282426679E-01 a       399     0    20     1    19
 -6.1339559588495718E-01 a       400     0    20     1    20
  5.1299993819298662E-01 a       401     0    21     1     1
  1.0241067867501118E-01 a       402     0    21     1     2
 -1.2557634931648062E-01 a       403     0    21     1     3
  9.1632002930119349E-01 a       404     0    21     1     4
 -2.4915013695511365E-01 a       405     0    21     1     5
 -3.4100480347182199E-01 a       406     0    21     1     6
 -2.7038492019660118E-02 a       407     0    21     1     7
  2.4032864982611876E-01 a       408     0    21     1     8
 -2.3115391990161910E-02 a       409     0    21     1     9
  1.3385671863003615E-01 a       410     0    21     1    10
  3.8638837531773856E-02 a       411     0    21     1    11
  5.8796015473904150E-03 a       412     0    21     1    12
  7.9510982528968911E-03 a       413     0    21     1    13
 -7.2830596552887950E-01 a       414     0    21     1    14
  7.3431882732986231E-01 a       415     0    21     1    15
 -8.6078410557134266E-01 a       416     0    21     1    16
  3.6711900304743245E-01 a       417     0    21     1    17
 -4.0399180016511699E-01 a       418     0    21     1    18
  5.7330033983372664E-01 a       419     0    21     1    19
 -7.6766994358574803E-01 a       420     0    21     1    20
 -3.3810477832364105E-01 a       421     0    22     1     1
  1.1009016826453109E-02 a       422     0    22     1     2
 -2.2501948375335623E-01 a       423     0    22     1     3
  7.1013005294125048E-02 a       424     0    22     1     4
  3.6913897076210589E-01 a       425     0    22     1     5
  1.0175470256761678E+00 a       426     0    22     1     6
  9.9096978535970714E-02 a       427     0    22     1     7
 -1.1092837860716034E-01 a       428     0    22     1     8
  3.6345435539997167E-01 a       429     0    22     1     9
 -2.5353664018486688E-01 a       430     0    22     1    10
 -5.6955505000258692E-02 a       431     0    22     1    11
 -7.6398742751311544E-01 a       432     0    22     1    12
  1.0320406245143858E-01 a       433     0    22     1    13
  1.5029410590936970E-01 a       434     0    22     1    14
 -5.7014256125038232E-01 a       435     0    22     1    15
  4.4789533877489018E-01 a       436     0    22     1    16
 -8.5822091356514318E-01 a       437     0    22     1    17
  3.2838862608926073E-01 a       438     0    22     1    18
 -1.2151124740820221E-01 a       439     0    22     1    19
  2.6763975181552688E-02 a       440     0    22     1    20
 -2.1478678846926541E-01 a       441     0    23     1     1
 -1.8116911877788650E-01 a       442     0    23     1     2
 -1.8050306205064212E-01 a       443     0    23     1     3
 -7.7802268639405714E-01 a       444     0    23     1     4
  1.2721293776519602E+00 a       445     0    23     1     5
 -3.8318105062521923E-01 a       446     0    23     1     6
  3.6447711834543645E-01 a       447     0    23     1     7
  4.3170648753664792E-01 a       448     0    23     1     8
 -4.3622993430642398E-01 a       449     0    23     1     9
  7.6793408606743463E-01 a       450     0    23     1    10
 -1.5631196834534372E-01 a       451     0    23     1    11
  9.3571037226908771E-01 a       452     0    23     1    12
  4.3135152917447828E-01 a       453     0    23     1    13
  2.0935152119145733E-01 a       454     0    23     1    14
  5.0885648359439295E-01 a       455     0    23     1    15
 -3.8445421163719312E-01 a       456     0    23     1    16
  2.8052598061446399E-01 a       457     0    23     1    17
 -2.0634672271055369E-02 a       458     0    23     1    18
  3.5120070491203448E-01 a       459     0    23     1    19
  1.0155576242559754E-01 a       460     0    23     1    20
  3.8989432895889636E-01 a       461     0    24     1     1
 -4.6459296586828341E-01 a       462     0    24     1     2
 -3.0313758699571858E-01 a       463     0    24     1     3
  1.7428120843053208E-01 a       464     0    24     1     4
 -2.3872894201361058E-01 a       465     0    24     1     5
 -1.2861318193636373E-02 a       466     0    24     1     6
  2.6401362225607272E-01 a       467     0    24     1     7
  2.5462519654158600E-01 a       468     0    24     1     8
 -4.9231207029845576E-02 a       469     0    24     1     9
  2.6609865214990325E-01 a       470     0    24     1    10
  7.1558774055446125E-02 a       471     0    24     1    11
  1.2921637897858512E-01 a       472     0    24     1    12
  1.9045860705033868E-01 a       473     0    24     1    13
  7.3085149870507930E-03 a       474     0    24     1    14
 -6.0206797249040145E-01 a       475     0    24     1    15
  2.6942883535521051E-01 a       476     0    24     1    16
 -2.0180903646381276E-01 a       477     0    24     1    17
 -4.5960596055542689E-04 a       478     0    24     1    18
  8.1156910463295914E-02 a       479     0    24     1    19
 -2.3414798710254958E-01 a       480     0    24     1    20
  4.9312701863116137E-01 a       481     0    25     1     1
  2.7109485773331493E-01 a       482     0    25     1     2
 -3.0749356334851469E-01 a       483     0    25     1     3
  1.1392122892928010E-01 a       484     0    25     1     4
  1.3249840849284880E-01 a       485     0    25     1     5
 -4.5769882493311331E-01 a       486     0    25     1     6
 -3.4313181269528120E-01 a       487     0    25     1     7
 -2.6563376497906044E-01 a       488     0    25     1     8
  3.9414096840516516E-01 a       489     0    25     1     9
  1.2995072845372866E+00 a       490     0    25     1    10
 -9.5396318641561373E-01 a       491     0    25     1    11
 -6.4998970170787251E-01 a       492     0    25     1    12
 -6.0192630307518125E-01 a       493     0    25     1    13
  3.1219323639416136E-01 a       494     0    25     1    14
 -5.0490282640688633E-01 a       495     0    25     1    15
  9.1226871625003578E-02 a       496     0    25     1    16
 -1.3565636312190316E-01 a       497     0    25     1    17
  3.9474956191638544E-01 a       498     0    25     1    18
  1.3112602977725684E-02 a       499     0    25     1    19
 -9.7671198809223392E-01 a       500     0    25     1    20
 -7.6756879478303702E-02 a       501     0    26     1     1
 -3.2769789099737734E-01 a       502     0    26     1     2
 -3.8495658185081905E-01 a       503     0    26     1     3
  2.7027134994347535E-01 a       504     0    26     1     4
  2.2133228342435066E-01 a       505     0    26     1     5
  9.2083912902786641E-02 a       506     0    26     1     6
 -8.5551378481317608E-02 a       507     0    26     1     7
  5.2546642855971892E-01 a       508     0    26     1     8
  4.2387496967179039E-01 a       509     0    26     1     9
 -2.3122632947145053E-01 a       510     0    26     1    10
 -3.7615503594689120E-01 a       511     0    26     1    11
 -3.5033490477700679E-01 a       512     0    26     1    12
  4.4559409822643409E-01 a       513     0    26     1    13
  3.9938666917716115E-01 a       514     0    26     1    14
 -9.0866846539074497E-01 a       515     0    26     1    15
  4.2179382919700059E-01 a       516     0    26     1    16
 -1.9803110864667814E-01 a       517     0    26     1    17
  5.2934923575803661E-01 a       518     0    26     1    18
 -3.0738907951288332E-02 a       519     0    26     1    19
 -7.9632855620687426E-01 a       520     0    26     1    20
 -6.9881932089380994E-01 a       521     0    27     1     1
 -4.3946731829419355E-01 a       522     0    27     1     2
 -3.8423810411144932E-01 a       523     0    27     1     3
  3.8798863127911842E-01 a       524     0    27     1     4
  8.5812326359201707E-01 a       525     0    27     1     5
 -4.6733853040166806E-01 a       526     0    27     1     6
  9.8528272706883593E-02 a       527     0    27     1     7
 -2.3304205169132042E-01 a       528     0    27     1     8
 -3.6646048348050531E-01 a       529     0    27     1     9
 -9.3135892592814656E-02 a       530     0    27     1    10
 -5.8347801699797841E-01 a       531     0    27     1    11
  8.4859326362526355E-02 a       532     0    27     1    12
  1.1275002528267601E-01 a       533     0    27     1    13
  4.5797089278905684E-01 a       534     0    27     1    14
  1.1861215275010197E+00 a       535     0    27     1    15
 -1.1730350563287144E+00 a       536     0    27     1    16
 -4.6293213326016364E-01 a       537     0    27     1    17
 -7.7981093007188210E-02 a       538     0    27     1    18
 -7.4563872922863450E-01 a       539     0    27     1    19
  1.8688646530896567E+00 a       540     0    27     1    20
  5.7088143563679750E-02 a       541     0    28     1     1
  3.2026865661215614E-01 a       542     0    28     1     2
 -3.0515950294379296E-01 a       543     0    28     1     3
  1.2679667126964433E-01 a       544     0    28     1     4
 -1.0326261086932896E-01 a       545     0    28     1     5
  3.5475188489103499E-01 a       546     0    28     1     6
  1.7210319786610226E-01 a       547     0    28     1     7
  1.2123501598552723E-01 a       548     0    28     1     8
 -1.7937429652685460E-01 a       549     0    28     1     9
  1.2256202359258637E-01 a       550     0    28     1    10
 -3.4108404057375702E-01 a       551     0    28     1    11
  3.5081898501921704E-01 a       552     0    28     1    12
  1.5939400843366908E-01 a       553     0    28     1    13
  2.0304069952346149E-01 a       554     0    28     1    14
 -1.2101776198708150E-01 a       555     0    28     1    15
 -3.1304538035531321E-01 a       556     0    28     1    16
 -1.0714830234349475E-01 a       557     0    28     1    17
  2.4028528447222755E-01 a       558     0    28     1    18
  1.3539393098359123E-01 a       559     0    28     1    19
  3.9293558990527333E-01 a       560     0    28     1    20
  7.1312239970240818E-02 a       561     0    29     1     1
  4.1870277118439819E-01 a       562     0    29     1     2
 -1.3748164417329395E-01 a       563     0    29     1     3
 -9.5055696097793163E-01 a       564     0    29     1     4
 -4.1348771541707419E-01 a       565     0    29     1     5
  8.3251172684398678E-01 a       566     0    29     1     6
 -4.0299499405870381E-01 a       567     0    29     1     7
  8.6913984676193448E-02 a       568     0    29     1     8
  3.2785546085302830E-01 a       569     0    29     1     9
 -4.6964559319363597E-01 a       570     0    29     1    10
 -7.6755719305936265E-01 a       571     0    29     1    11
 -2.7845283507268725E-01 a       572     0    29     1    12
  3.2598391312509462E-01 a       573     0    29     1    13
  1.4604173248810376E-01 a       574     0    29     1    14
 -3.7947623636563160E-01 a       575     0    29     1    15
 -2.1668996799666687E-01 a       576     0    29     1    16
 -2.2082227837337459E-02 a       577     0    29     1    17
 -7.5729842525760500E-03 a       578     0    29     1    18
  3.6173514944526114E-02 a       579     0    29     1    19
 -1.1379110897339598E-01 a       580     0    29     1    20
 -9.3536741506424881E-02 a       581     0    30     1     1
  2.4821594073452180E-01 a       582     0    30     1     2
  5.7884056305240028E-01 a       583     0    30     1     3
  1.0969471077986195E-02 a       584     0    30     1     4
 -3.2836866352448663E-01 a       585     0    30     1     5
 -4.3571470204295681E-01 a       586     0    30     1     6
  1.4612383517251951E-01 a       587     0    30     1     7
  3.3939809706034402E-01 a       588     0    30     1     8
  4.6084732895110538E-02 a       589     0    30     1     9
 -4.3722548396538402E-01 a       590     0    30     1    10
  6.3237418012354474E-01 a       591     0    30     1    11
  2.0568511900658445E-01 a       592     0    30     1    12
  1.9670719785837301E-01 a       593     0    30     1    13
 -6.6024221079564127E-01 a       594     0    30     1    14
  2.3670619064891552E-01 a       595     0    30     1    15
 -5.9052279876780550E-02 a       596     0    30     1    16
 -1.0416680756667969E-01 a       597     0    30     1    17
 -1.5032717670680898E-01 a       598     0    30     1    18
 -2.3432165243155398E-01 a       599     0    30     1    19
  2.4974037465802632E-01 a       600     0    30     1    20
  1.2028399040011190E-01 a       601     0    31     1     1
  5.1869540998891800E-03 a       602     0    31     1     2
 -1.3837310006554787E-01 a       603     0    31     1     3
  8.8055092587261030E-01 a       604     0    31     1     4
 -5.1841783867634295E-01 a       605     0    31     1     5
 -1.6445488496675298E-01 a       606     0    31     1     6
 -2.1525387668783888E-01 a       607     0    31     1     7
  1.9909894127642272E-01 a       608     0    31     1     8
  3.3111524228073069E-01 a       609     0    31     1     9
  3.2243416260073576E-01 a       610     0    31     1    10
  4.8945928937414329E-01 a       611     0    31     1    11
  4.1497386955886639E-01 a       612     0    31     1    12
 -5.7891280730148731E-01 a       613     0    31     1    13
  7.9857095059936312E-01 a       614     0    31     1    14
  3.8313291595541366E-02 a       615     0    31     1    15
 -6.1105276286036514E-01 a       616     0    31     1    16
 -2.8942645194798906E-02 a       617     0    31     1    17
  3.5527304308042407E-01 a       618     0    31     1    18
  1.3035153148970399E-01 a       619     0    31     1    19
 -3.8926624392323100E-01 a       620     0    31     1    20
 -4.8043265269854257E-01 a       621     0    32     1     1
  5.0710586406908376E-01 a       622     0    32     1     2
 -1.0722031086197936E-01 a       623     0    32     1     3
  7.1043828580264168E-01 a       624     0    32     1     4
 -6.4085724186292858E-01 a       625     0    32     1     5
 -8.0960002383297469E-01 a       626     0    32     1     6
 -3.0978287373167374E-01 a       627     0    32     1     7
  1.6476295922384157E-01 a       628     0    32     1     8
 -2.5051864893557690E-01 a       629     0    32     1     9
  2.9390900206631654E-01 a       630     0    32     1    10
 -8.8134893350361776E-01 a       631     0    32     1    11
 -3.6108623768785202E-02 a       632     0    32     1    12
 -1.6845115469576363E-01 a       633     0    32     1    13
 -3.6510610381082698E-01 a       634     0    32     1    14
 -4.0368362696943821E-01 a       635     0    32     1    15
 -1.0030478386561406E+00 a       636     0    32     1    16
  3.4981607979133127E-02 a       637     0    32     1    17
 -1.0658320657899295E-01 a       638     0    32     1    18
 -6.1399432856749758E-01 a       639     0    32     1    19
  3.9301859715699572E-01 a       640     0    32     1    20
 -2.6323015454624299E-01 a       641     0    33     1     1
 -3.7627916859830396E-01 a       642     0    33     1     2
  3.1168924138955212E-01 a       643     0    33     1     3
 -2.2397693705337213E-01 a       644     0    33     1     4
  1.4615912683705001E-01 a       645     0    33     1     5
  8.1756788801389635E-01 a       646     0    33     1     6
  2.4617339139782213E-01 a       647     0    33     1     7
 -8.1360089227139276E-02 a       648     0    33     1     8
 -3.2676131815298248E-01 a       649     0    33     1     9
 -2.5147648314864712E-01 a       650     0    33     1    10
  3.5094081143721242E-02 a       651     0    33     1    11
 -4.5616963299671337E-01 a       652     0    33     1    12
  1.6132170781475952E-01 a       653     0    33     1    13
 -3.7971198176755289E-01 a       654     0    33     1    14
 -2.6330227251190158E-01 a       655     0    33     1    15
  7.5703935982209103E-01 a       656     0    33     1    16
 -1.6510831696843717E-01 a       657     0    33     1    17
 -2.1430266863966699E-01 a       658     0    33     1    18
  2.5376175788353422E-01 a       659     0    33     1    19
  2.1766291292651110E-01 a       660     0    33     1    20
 -4.6174688050496730E-02 a       661     0    34     1     1
 -3.8865677724694833E-02 a       662     0    34     1     2
  1.6956705781709566E-01 a       663     0    34     1     3
 -2.9922851935809419E-01 a       664     0    34     1     4
 -2.5918956390567427E-01 a       665     0    34     1     5
 -1.1405088156942396E-02 a       666     0    34     1     6
 -7.2118867750110838E-02 a       667     0    34     1     7
  6.8543366370791003E-02 a       668     0    34     1     8
 -3.3794687922776490E-01 a       669     0    34     1     9
 -3.1850069461112041E-01 a       670     0    34     1    10
 -8.5224299628150668E-01 a       671     0    34     1    11
 -7.0342463379102715E-01 a       672     0    34     1    12
  2.0710427044381466E-01 a       673     0    34     1    13
 -4.7349889131084510E-01 a       674     0    34     1    14
 -3.8529531837858333E-01 a       675     0    34     1    15
 -2.6708606248928279E-01 a       676     0    34     1    16
  6.3381791548480226E-01 a       677     0    34     1    17
  2.0174596895162589E-01 a       678     0    34     1    18
 -1.7846354217558844E-01 a       679     0    34     1    19
  2.1029547663615325E-01 a       680     0    34     1    20
  3.1070510386167782E-01 a       681     0    35     1     1
 -1.4473551036269044E-02 a       682     0    35     1     2
  4.8443882118638970E-01 a       683     0    35     1     3
  3.4654923770781325E-02 a       684     0    35     1     4
  3.8737131787822371E-02 a       685     0    35     1     5
  5.3954220185131119E-01 a       686     0    35     1     6
  4.8237253903696403E-01 a       687     0    35     1     7
 -8.3039893829281008E-02 a       688     0    35     1     8
  1.0553631425306572E-02 a       689     0    35     1     9
  3.3725264317465026E-01 a       690     0    35     1    10
  9.9483284776940861E-01 a       691     0    35     1    11
  7.7612564299219133E-01 a       692     0    35     1    12
  7.7557331573838137E-02 a       693     0    35     1    13
  8.1974036221671287E-01 a       694     0    35     1    14
  2.1712398825733908E-01 a       695     0    35     1    15
  1.4464283121032568E+00 a       696     0    35     1    16
 -3.7471961681729926E-01 a       697     0    35     1    17
  5.5034742586105456E-01 a       698     0    35     1    18
 -8.6202712527771508E-02 a       699     0    35     1    19
  4.5029697441446365E-01 a       700     0    35     1    20
  7.2150146640122870E-02 a       701     0    36     1     1
 -3.5994204945627453E-02 a       702     0    36     1     2
 -3.3161392947870566E-01 a       703     0    36     1     3
 -1.1171503545696062E+00 a       704     0    36     1     4
  1.2163896123541720E+00 a       705     0    36     1     5
  2.6960976612036880E-01 a       706     0    36     1     6
  1.0661088291128330E-01 a       707     0    36     1     7
 -1.2643973714108001E-01 a       708     0    36     1     8
 -3.3289351250237670E-01 a       709     0    36     1     9
 -4.4260467828473898E-01 a       710     0    36     1    10
  8.4544292900314799E-01 a       711     0    36     1    11
  5.4159019969448496E-01 a       712     0    36     1    12
  7.3559384004754702E-01 a       713     0    36     1    13
  3.4386263183458160E-01 a       714     0    36     1    14
  7.9749926602998303E-02 a       715     0    36     1    15
  2.0093586172432895E-01 a       716     0    36     1    16
  1.1305574062742814E-01 a       717     0    36     1    17
  5.5935365164921669E-01 a       718     0    36     1    18
 -2.9475402289601743E-01 a       719     0    36     1    19
  8.4574333156874359E-01 a       720     0    36     1    20
  2.2884996807476483E-02 a       721     0    37     1     1
 -9.5298224985293403E-02 a       722     0    37     1     2
 -1.1661226045685494E-01 a       723     0    37     1     3
 -1.3850759642236830E+00 a       724     0    37     1     4
  2.0969712310133895E-01 a       725     0    37     1     5
 -2.6201586518351633E-01 a       726     0    37     1     6
  3.8974831387809139E-01 a       727     0    37     1     7
  6.3322012548216133E-01 a       728     0    37     1     8
 -3.6086095925038808E-01 a       729     0    37     1     9
  6.4504526198839729E-01 a       730     0    37     1    10
  1.1613890480203660E-01 a       731     0    37     1    11
  2.0954415723804384E-01 a       732     0    37     1    12
 -9.2028439934001047E-02 a       733     0    37     1    13
 -4.1745641195666355E-01 a       734     0    37     1    14
  9.3392177807021159E-01 a       735     0    37     1    15
  3.5661332399343826E-02 a       736     0    37     1    16
  5.9086315003827761E-01 a       737     0    37     1    17
  2.7835291210730018E-01 a       738     0    37     1    18
  3.4973156254908294E-01 a       739     0    37     1    19
  5.6234433551551755E-01 a       740     0    37     1    20
  1.0415130453058190E+00 a       741     0    38     1     1
 -5.4231336250256046E-01 a       742     0    38     1     2
  5.1743296598677180E-01 a       743     0    38     1     3
  4.3344350349379290E-01 a       744     0    38     1     4
  3.4219674164735697E-01 a       745     0    38     1     5
 -1.5416570530119003E-01 a       746     0    38     1     6
  1.2702250391700082E-01 a       747     0    38     1     7
 -1.2258090815571555E-01 a       748     0    38     1     8
  7.3639316429472212E-01 a       749     0    38     1     9
  5.1909517548608057E-02 a       750     0    38     1    10
  6.6212308762543706E-02 a       751     0    38     1    11
  1.0600023904710489E-01 a       752     0    38     1    12
 -9.6661552187569305E-02 a       753     0    38     1    13
  3.1108796845316346E-02 a       754     0    38     1    14
 -3.3713870100316040E-01 a       755     0    38     1    15
 -2.2403061375435421E-01 a       756     0    38     1    16
 -6.3212673593014101E-01 a       757     0    38     1    17
 -5.2271416168312668E-01 a       758     0    38     1    18
 -7.2529097881212601E-01 a       759     0    38     1    19
 -4.4859639661000661E-01 a       760     0    38     1    20
  6.2006861574022387E-01 a       761     0    39     1     1
  5.6838437658252611E-02 a       762     0    39     1     2
  8.3476368750641861E-01 a       763     0    39     1     3
 -7.3264723834547596E-01 a       764     0    39     1     4
  2.5820953135978275E-01 a       765     0    39     1     5
 -4.3332481394866373E-01 a       766     0    39     1     6
  3.5726318407075575E-01 a       767     0    39     1     7
  7.7378142996830979E-01 a       768     0    39     1     8
  1.7443174285598695E-01 a       769     0    39     1     9
  1.2123985871122027E+00 a       770     0    39     1    10
 -3.7988261401370016E-02 a       771     0    39     1    11
  3.3810465828787911E-02 a       772     0    39     1    12
  5.9041629333372016E-02 a       773     0    39     1    13
 -4.0227031584167944E-01 a       774     0    39     1    14
  7.6730447488388509E-01 a       775     0    39     1    15
 -5.5342604320846323E-01 a       776     0    39     1    16
  2.1905730547851748E-01 a       777     0    39     1    17
  3.9882518994368082E-01 a       778     0    39     1    18
  2.9071254713846229E-01 a       779     0    39     1    19
 -2.7462482260564758E-01 a       780     0    39     1    20
 -5.7113712279024209E-01 a       781     0    40     1     1
  7.1514095587654358E-01 a       782     0    40     1     2
  2.4497656603508711E-01 a       783     0    40     1     3
  6.3269220974198981E-01 a       784     0    40     1     4
 -4.2347503635198536E-01 a       785     0    40     1     5
 -4.6103107409190113E-03 a       786     0    40     1     6
  2.4000009889121743E-01 a       787     0    40     1     7
 -9.8052345330365176E-01 a       788     0    40     1     8
  1.5909368212705485E-01 a       789     0    40     1     9
 -6.2069773289959795E-01 a       790     0    40     1    10
  6.5303987321692580E-01 a       791     0    40     1    11
  3.4440328518686537E-02 a       792     0    40     1    12
  2.1898668633827494E-02 a       793     0    40     1    13
 -2.7273075281838732E-01 a       794     0    40     1    14
 -2.9670914378769320E-01 a       795     0    40     1    15
 -6.5491424676657611E-02 a       796     0    40     1    16
 -3.8804591476780109E-01 a       797     0    40     1    17
 -1.0307080949379981E+00 a       798     0    40     1    18
  6.7454013268641644E-01 a       799     0    40     1    19
 -4.7249214322340027E-01 a       800     0    40     1    20
 -2.0572566892083616E-01 a       801     0    41     1     1
 -1.4738711490290112E-02 a       802     0    41     1     2
 -5.1880386727459504E-01 a       803     0    41     1     3
 -6.9140942851201148E-01 a       804     0    41     1     4
  8.5271855929817536E-02 a       805     0    41     1     5
  9.9653464224834939E-02 a       806     0    41     1     6
  1.0041338403955247E-01 a       807     0    41     1     7
 -1.9141685321029916E-02 a       808     0    41     1     8
 -5.2489659018363899E-01 a       809     0    41     1     9
  3.7519432207101112E-02 a       810     0    41     1    10
  1.1585049304809759E-01 a       811     0    41     1    11
 -1.4310500802992251E-01 a       812     0    41     1    12
 -1.6127498813504282E-01 a       813     0    41     1    13
  4.3843677216976457E-01 a       814     0    41     1    14
  3.4609923160985528E-01 a       815     0    41     1    15
  6.2176492585840626E-01 a       816     0    41     1    16
 -4.7411323755668311E-02 a       817     0    41     1    17
  1.6374098822819536E-01 a       818     0    41     1    18
  7.1546884087693829E-02 a       819     0    41     1    19
 -1.5240371892574317E-01 a       820     0    41     1    20
 -2.4850073880798609E-01 a       821     0    42     1     1
 -2.6188572378450820E-01 a       822     0    42     1     2
 -3.0534661496338472E-01 a       823     0    42     1     3
 -4.1402687816201045E-01 a       824     0    42     1     4
  7.6628102588932234E-01 a       825     0    42     1     5
 -1.0373264830388303E-01 a       826     0    42     1     6
  2.3987988285089148E-01 a       827     0    42     1     7
  5.0466472069356660E-01 a       828     0    42     1     8
  3.5365131969936070E-01 a       829     0    42     1     9
  1.2837318483643320E-01 a       830     0    42     1    10
  3.6294771814862514E-01 a       831     0    42     1    11
  1.4957637542406910E-02 a       832     0    42     1    12
  2.5225615254358152E-01 a       833     0    42     1    13
 -2.1406916058101359E-02 a       834     0    42     1    14
 -1.5849271981978572E-01 a       835     0    42     1    15
 -6.8834511384958130E-01 a       836     0    42     1    16
  1.5573771899986275E-01 a       837     0    42     1    17
  1.5437891376919016E-01 a       838     0    42     1    18
  5.2755376348986283E-01 a       839     0    42     1    19
 -5.0204804827236382E-01 a       840     0    42     1    20
  6.3789100259773315E-02 a       841     0    43     1     1
  1.3390174380296280E-01 a       842     0    43     1     2
  7.0318913918739012E-02 a       843     0    43     1     3
  2.1530405874674682E-01 a       844     0    43     1     4
 -2.9578209197339339E-01 a       845     0    43     1     5
 -1.5514455528562129E-01 a       846     0    43     1     6
  1.6407649422811605E-02 a       847     0    43     1     7
 -9.6056540883475053E-02 a       848     0    43     1     8
  1.9656245962389435E-01 a       849     0    43     1     9
 -9.4091271272623012E-02 a       850     0    43     1    10
  3.6438114251643235E-02 a       851     0    43     1    11
 -3.1450908659614689E-02 a       852     0    43     1    12
  7.5771471964767884E-02 a       853     0    43     1    13
 -1.7543889299166276E-01 a       854     0    43     1    14
 -4.2217957964025256E-02 a       855     0    43     1    15
 -3.8546266922794553E-01 a       856     0    43     1    16
  2.6762276530805051E-01 a       857     0    43     1    17
  9.4492338982738303E-02 a       858     0    43     1    18
  9.1084295345191441E-02 a       859     0    43     1    19
  2.1715930898991967E-01 a       860     0    43     1    20
 -1.7998264065117595E-01 a       861     0    44     1     1
  5.5737735215965978E-01 a       862     0    44     1     2
  1.0457243422158977E+00 a       863     0    44     1     3
  8.5775485355002823E-01 a       864     0    44     1     4
 -4.2379954834183231E-01 a       865     0    44     1     5
  2.6568076849501110E-01 a       866     0    44     1     6
 -3.5593945315283332E-01 a       867     0    44     1     7
 -8.1543221207174788E-01 a       868     0    44     1     8
 -7.3270717392923956E-01 a       869     0    44     1     9
 -4.2427004833070014E-01 a       870     0    44     1    10
 -8.0795692944361130E-01 a       871     0    44     1    11
  5.5436726121460456E-01 a       872     0    44     1    12
 -7.7741162182164647E-01 a       873     0    44     1    13
 -9.1252219676762905E-02 a       874     0    44     1    14
 -2.2497159469312264E-01 a       875     0    44     1    15
  9.8435308671047039E-01 a       876     0    44     1    16
 -3.5367771770549983E-01 a       877     0    44     1    17
 -3.5390634741552429E-01 a       878     0    44     1    18
 -1.1898776236275912E+00 a       879     0    44     1    19
  1.1429583686658151E+00 a       880     0    44     1    20
 -4.2086148682567281E-01 a       881     0    45     1     1
  7.5691192965487109E-01 a       882     0    45     1     2
 -1.4907542266105878E-01 a       883     0    45     1     3
 -4.6361558107312156E-01 a       884     0    45     1     4
  1.8314183990083699E-01 a       885     0    45     1     5
 -1.1474390227699851E+00 a       886     0    45     1     6
  4.3862352697962526E-01 a       887     0    45     1     7
  9.0314530235822477E-02 a       888     0    45     1     8
  6.8379701312668451E-01 a       889     0    45     1     9
  2.4195652066838938E-01 a       890     0    45     1    10
 -7.7969222756835432E-01 a       891     0    45     1    11
  3.9641859977266304E-02 a       892     0    45     1    12
  7.0717216635111116E-02 a       893     0    45     1    13
 -1.1755801490612885E+00 a       894     0    45     1    14
  8.3367217159071449E-01 a       895     0    45     1    15
 -5.5233459217809311E-01 a       896     0    45     1    16
  1.0268595521185135E+00 a       897     0    45     1    17
 -1.4777821128956864E-01 a       898     0    45     1    18
 -5.8264102365880643E-01 a       899     0    45     1    19
 -3.7543545577026916E-01 a       900     0    45     1    20
 -2.6335883516452629E-01 a       901     0    46     1     1
 -2.5261434446579162E-02 a       902     0    46     1     2
  7.8175567184730455E-01 a       903     0    46     1     3
  9.3215503120673782E-01 a       904     0    46     1     4
 -1.3857493446492328E+00 a       905     0    46     1     5
  1.3014865193922722E+00 a       906     0    46     1     6
 -5.9065419131198393E-01 a       907     0    46     1     7
  2.9252616684092930E-01 a       908     0    46     1     8
  4.5656394790032709E-02 a       909     0    46     1     9
 -1.0242948355864436E+00 a       910     0    46     1    10
  1.6528774532141205E-01 a       911     0    46     1    11
 -9.5200107056187255E-01 a       912     0    46     1    12
 -2.1878677801534288E-01 a       913     0    46     1    13
  9.1019090845902906E-01 a       914     0    46     1    14
 -1.6448251318780656E+00 a       915     0    46     1    15
  1.1368512513483466E-01 a       916     0    46     1    16
 -7.5474906669559305E-01 a       917     0    46     1    17
 -1.2234835660340193E-01 a       918     0    46     1    18
  1.0411863290428500E-01 a       919     0    46     1    19
 -5.7972705470641051E-01 a       920     0    46     1    20
  8.0345391657504706E-01 a       921     0    47     1     1
 -5.8815185143725834E-01 a       922     0    47     1     2
  1.2050315345028017E-02 a       923     0    47     1     3
  9.4643933626625831E-01 a       924     0    47     1     4
 -5.5157064493070473E-01 a       925     0    47     1     5
  9.2615323918674008E-01 a       926     0    47     1     6
  2.3072429863262661E-02 a       927     0    47     1     7
  2.5788335277199170E-01 a       928     0    47     1     8
 -2.1401603740120170E-01 a       929     0    47     1     9
  1.4492416782864373E-01 a       930     0    47     1    10
 -5.3530723953428527E-01 a       931     0    47     1    11
  2.3618601790861626E-01 a       932     0    47     1    12
  5.9760573404938422E-01 a       933     0    47     1    13
  1.2421212526249714E+00 a       934     0    47     1    14
 -1.1962235792939937E+00 a       935     0    47     1    15
  1.3551241068665418E-01 a       936     0    47     1    16
  2.4715845398672134E-01 a       937     0    47     1    17
  6.9345318951703250E-01 a       938     0    47     1    18
 -1.0492767303741770E+00 a       939     0    47     1    19
  7.8536930847955266E-01 a       940     0    47     1    20
  3.5592794667226552E-01 a       941     0    48     1     1
  8.3020832040123130E-02 a       942     0    48     1     2
 -4.3246720196581773E-01 a       943     0    48     1     3
  1.0595659821198268E-01 a       944     0    48     1     4
  7.4023857322265230E-01 a       945     0    48     1     5
 -2.3221551791647649E-01 a       946     0    48     1     6
  3.6742254275154773E-01 a       947     0    48     1     7
 -4.3495914962088172E-01 a       948     0    48     1     8
 -5.5495146881558055E-01 a       949     0    48     1     9
  3.5928452461983007E-01 a       950     0    48     1    10
  4.0941506090792001E-01 a       951     0    48     1    11
  7.0194554085121624E-02 a       952     0    48     1    12
 -2.4720532182190399E-01 a       953     0    48     1    13
 -4.9109904915523189E-01 a       954     0    48     1    14
  1.0544802281222515E-01 a       955     0    48     1    15
  9.2193464291879346E-01 a       956     0    48     1    16
  4.5965847126095505E-01 a       957     0    48     1    17
  1.3671244617467543E-01 a       958     0    48     1    18
  4.5830387783479354E-01 a       959     0    48     1    19
  2.6575340251855467E-01 a       960     0    48     1    20
 -1.1402027518513276E+00 a       961     0    49     1     1
  7.9741930050309974E-03 a       962     0    49     1     2
  8.4588122235686103E-01 a       963     0    49     1     3
 -1.0060899790289544E+00 a       964     0    49     1     4
  8.0206224409625348E-01 a       965     0    49     1     5
 -1.0510956480985021E+00 a       966     0    49     1     6
  4.4960425634775242E-01 a       967     0    49     1     7
 -4.8223168601559380E-01 a       968     0    49     1     8
 -3.6518858583902986E-01 a       969     0    49     1     9
 -1.2063024729721795E-01 a       970     0    49     1    10
  9.9005616025653595E-02 a       971     0    49     1    11
  8.1111497557082329E-02 a       972     0    49     1    12
 -1.5231884098276902E-02 a       973     0    49     1    13
 -6.0283626648849087E-01 a       974     0    49     1    14
  1.1070037046746388E+00 a       975     0    49     1    15
 -9.0901228133919731E-01 a       976     0    49     1    16
  1.8044777542941096E-01 a       977     0    49     1    17
 -7.9714699199714945E-01 a       978     0    49     1    18
 -2.6260276924533383E-02 a       979     0    49     1    19
  8.6177898832028188E-01 a       980     0    49     1    20
  2.0881139741943891E-01 a       981     0    50     1     1
 -8.0482950803978037E-01 a       982     0    50     1     2
 -1.0320865681225240E+00 a       983     0    50     1     3
  1.6799201383226354E+00 a       984     0    50     1     4
 -3.7782491486587066E-01 a       985     0    50     1     5
  1.4372316192328376E+00 a       986     0    50     1     6
 -1.2707853371803897E+00 a       987     0    50     1     7
 -6.9815883023951353E-01 a       988     0    50     1     8
  7.8188574579154468E-01 a       989     0    50     1     9
 -1.6898160577471211E+00 a       990     0    50     1    10
  2.7635403344412235E-01 a       991     0    50     1    11
 -6.7537282288059686E-01 a       992     0    50     1    12
 -6.1941196894805817E-01 a       993     0    50     1    13
 -2.6708452706665345E-02 a       994     0    50     1    14
 -7.3348994510570409E-01 a       995     0    50     1    15
  7.7762433305327783E-01 a       996     0    50     1    16
 -8.8412041931841479E-01 a       997     0    50     1    17
 -8.3780681026630421E-01 a       998     0    50     1    18
  1.5380470231919148E+00 a       999     0    50     1    19
 -1.6270636387717936E+00 a      1000     0    50     1    20
 -7.0054603365557841E-02 a      1001     0    51     1     1
 -2.0759350954155861E-01 a      1002     0    51     1     2
  3.8094015715557206E-02 a      1003     0    51     1     3
 -3.5992004678058194E-02 a      1004     0    51     1     4
  5.6121059326348766E-01 a      1005     0    51     1     5
  1.5660481838155882E-02 a      1006     0    51     1     6
  3.8357056949689000E-01 a      1007     0    51     1     7
 -1.5127611267547334E-02 a      1008     0    51     1     8
 -5.7816667186581316E-01 a      1009     0    51     1     9
 -5.4383175088031338E-02 a      1010     0    51     1    10
  2.2675880206618876E-01 a      1011     0    51     1    11
  5.4566872972701644E-02 a      1012     0    51     1    12
 -1.0143317389294369E-01 a      1013     0    51     1    13
 -2.8676736522367474E-01 a      1014     0    51     1    14
  1.9066499586066260E-01 a      1015     0    51     1    15
  8.7006741098372198E-01 a      1016     0    51     1    16
  7.7727053063814500E-02 a      1017     0    51     1    17
 -2.1552692681651658E-01 a      1018     0    51     1    18
 -1.2243882081858316E-01 a      1019     0    51     1    19
 -8.6828117355085638E-02 a      1020     0    51     1    20
 -6.3724699885298586E-01 b      1021     1     1
 -8.3361046929800253E-01 b      1022     1     2
  2.5843227741807950E-01 b      1023     1     3
 -1.2262223642852872E+00 b      1024     1     4
  1.0374551527255911E+00 b      1025     1     5
  4.7553665981202081E-01 b      1026     1     6
  6.3504865793953114E-01 b      1027     1     7
  5.8037004938395353E-01 b      1028     1     8
 -1.2759279570448159E+00 b      1029     1     9
 -2.4706406274329143E-01 b      1030     1    10
 -6.4992113805194585E-01 b      1031     1    11
  1.3256285784624831E+00 b      1032     1    12
 -1.1640387668421048E+00 b      1033     1    13
  9.0862093522998022E-01 b      1034     1    14
  7.6493524646973787E-01 b      1035     1    15
  1.0783867779853080E+00 b      1036     1    16
  9.5188375832250971E-01 b      1037     1    17
 -1.8734822304638400E-02 b      1038     1    18
 -1.1919224631721823E+00 b      1039     1    19
 -9.0312553265170836E-01 b      1040     1    20
  5.7715316376247339E-01 a      1041     1     1     2     1
  1.9778577849110607E-01 a      1042     1     1     2     2
  1.3687580603056543E-01 a      1043     1     1     2     3
 -5.3094464589692603E-01 a      1044     1     1     2     4
  9.7829982788652653E-02 a      1045     1     1     2     5
  3.6347082571122069E-01 a      1046     1     1     2     6
 -7.5084213168223179E-01 a      1047     1     1     2     7
 -9.6718409525977295E-02 a      1048     1     1     2     8
 -7.3628602866328630E-01 a      1049     1     1     2     9
  6.0081687742908418E-01 a      1050     1     1     2    10
  6.4196197012179101E-01 a      1051     1     1     2    11
  1.4630283544264588E-01 a      1052     1     1     2    12
 -2.1938877997887549E-01 a      1053     1     1     2    13
 -1.0956237552144903E+00 a      1054     1     1     2    14
  4.6634862718423065E-01 a      1055     1     1     2    15
  4.7336904306054667E-03 a      1056     1     1     2    16
  2.3974606701755619E-01 a      1057     1     1     2    17
  3.1667136300428422E-01 a      1058     1     1     2    18
 -1.2646250145214759E+00 a      1059     1     1     2    19
  2.4291158838982654E-01 a      1060     1     1     2    20
  2.7533747386716795E-01 a      1061     1     2     2     1
  4.7147459602226804E-01 a      1062     1     2     2     2
  6.1389698349884274E-02 a      1063     1     2     2     3
  2.4160836181568154E-01 a      1064     1     2     2     4
  6.0581660674413174E-01 a      1065     1     2     2     5
 -2.5622324239306027E-01 a      1066     1     2     2     6
  2.1244635914427570E-01 a      1067     1     2     2     7
 -5.9644450195104814E-01 a      1068     1     2     2     8
  3.9992841854104999E-01 a      1069     1     2     2     9
  5.7048209511328274E-01 a      1070     1     2     2    10
  6.1482384153314773E-01 a      1071     1     2     2    11
 -3.7021129704631006E-01 a      1072     1     2     2    12
 -4.9625192353467029E-01 a      1073     1     2     2    13
  3.3098766412148628E-01 a      1074     1     2     2    14
 -2.6148431664681571E-01 a      1075     1     2     2    15
 -6.9366680623718724E-01 a      1076     1     2     2    16
  2.8900241353028050E-01 a      1077     1     2     2    17
  5.1607938702353928E-01 a      1078     1     2     2    18
  1.9045746532667868E-01 a      1079     1     2     2    19
 -1.1024729057172207E-01 a      1080     1     2     2    20
  1.0705257108247389E-01 a      1081     1     3     2     1
 -2.4683457916796776E-02 a      1082     1     3     2     2
 -3.0749599077032791E-01 a      1083     1     3     2     3
 -5.6601045219392454E-01 a      1084     1     3     2     4
  9.3792283794538397E-02 a      1085     1     3     2     5
  2.2059522247490784E-01 a      1086     1     3     2     6
 -1.6311017453849258E-01 a      1087     1     3     2     7
  4.7989607820230989E-01 a      1088     1     3     2     8
  2.2550554134253878E-01 a      1089     1     3     2     9
 -2.4800156751831579E-01 a      1090     1     3     2    10
 -1.5843524129071457E-01 a      1091     1     3     2    11
  9.3204087397329050E-01 a      1092     1     3     2    12
 -1.8550174767687753E-02 a      1093     1     3     2    13
  9.8148252682046755E-01 a      1094     1     3     2    14
  2.4002553487020581E-01 a      1095     1     3     2    15
  5.4800704931337596E-01 a      1096     1     3     2    16
  2.7145300763002944E-01 a      1097     1     3     2    17
 -7.9632431762945266E-01 a      1098     1     3     2    18
 -6.7274341736193177E-01 a      1099     1     3     2    19
  5.3794593939575552E-01 a      1100     1     3     2    20
 -6.0533961702260913E-02 a      1101     1     4     2     1
  8.2862775024740806E-02 a      1102     1     4     2     2
 -7.7889963740542939E-02 a      1103     1     4     2     3
 -4.0343307735836292E-01 a      1104     1     4     2     4
 -3.0633251891986690E-01 a      1105     1     4     2     5
  4.9844979755217450E-01 a      1106     1     4     2     6
  2.2619207373412237E-01 a      1107     1     4     2     7
 -3.9126169354808310E-02 a      1108     1     4     2     8
 -7.7646333374906014E-03 a      1109     1     4     2     9
  4.1928464708088109E-01 a      1110     1     4     2    10
 -3.0313938604372476E-01 a      1111     1     4     2    11
  4.0702254870856554E-02 a      1112     1     4     2    12
 -9.2948964799178491E-01 a      1113     1     4     2    13
 -1.6789230117197083E+00 a      1114     1     4     2    14
 -7.1521358492367251E-02 a      1115     1     4     2    15
  1.4246041647626156E-01 a      1116     1     4     2    16
 -3.2465634421094312E-02 a      1117     1     4     2    17
  2.7004988692029308E-01 a      1118     1     4     2    18
 -1.2333689883426618E-02 a      1119     1     4     2    19
  4.6547528096095908E-01 a      1120     1     4     2    20
 -8.4385882653328359E-01 a      1121     1     5     2     1
  4.1700229803389177E-01 a      1122     1     5     2     2
 -2.4077597853290020E-01 a      1123     1     5     2     3
  3.5637975577008407E-01 a      1124     1     5     2     4
  8.1581137866008624E-01 a      1125     1     5     2     5
 -2.9545884488867730E-01 a      1126     1     5     2     6
  6.3364567395101445E-01 a      1127     1     5     2     7
 -1.6708312000312936E-01 a      1128     1     5     2     8
  6.5663230885660440E-01 a      1129     1     5     2     9
  4.0178810805994664E-01 a      1130     1     5     2    10
 -3.9523781231461996E-01 a      1131     1     5     2    11
  5.0735074646497853E-02 a      1132     1     5     2    12
 -2.0180020849037714E-01 a      1133     1     5     2    13
 -3.6694945638904780E-01 a      1134     1     5     2    14
  6.8596146903247746E-01 a      1135     1     5     2    15
 -1.0202337552935139E+00 a      1136     1     5     2    16
  6.0729123166465304E-01 a      1137     1     5     2    17
 -2.7275546932819705E-01 a      1138     1     5     2    18
  4.6244086094763737E-01 a      1139     1     5     2    19
 -4.5845522998982570E-02 a      1140     1     5     2    20
  2.4086273517311235E-01 a      1141     1     6     2     1
  6.9840214397934886E-01 a      1142     1     6     2     2
 -7.3614622443429067E-01 a      1143     1     6     2     3
  3.7450064599258082E-01 a      1144     1     6     2     4
 -6.6024828385693390E-01 a      1145     1     6     2     5
  2.0468099616836927E-01 a      1146     1     6     2     6
  3.4533760859339785E-01 a      1147     1     6     2     7
  1.5918476895532283E-01 a      1148     1     6     2     8
  2.2006214695386297E-02 a      1149     1     6     2     9
 -4.5478027600075233E-01 a      1150     1     6     2    10
 -3.5783400810692617E-01 a      1151     1     6     2    11
 -5.5940480027184947E-01 a      1152     1     6     2    12
 -5.5236745958322264E-01 a      1153     1     6     2    13
 -9.4361378900459758E-01 a      1154     1     6     2    14
  8.2922178256100765E-01 a      1155     1     6     2    15
  2.2479269611484303E-03 a      1156     1     6     2    16
 -5.9902789502732023E-01 a      1157     1     6     2    17
 -7.7850029607738472E-02 a      1158     1     6     2    18
  5.7735222407070896E-01 a      1159     1     6     2    19
 -5.0019386471277427E-01 a      1160     1     6     2    20
  5.0585667198989503E-01 a      1161     1     7     2     1
 -6.8176530418639214E-01 a      1162     1     7     2     2
 -3.2433732382784125E-01 a      1163     1     7     2     3
  7.0965751787267095E-01 a      1164     1     7     2     4
 -8.4032348031247905E-01 a      1165     1     7     2     5
  4.3205443454388781E-01 a      1166     1     7     2     6
 -7.0378347190714496E-01 a      1167     1     7     2     7
 -1.8622022156002127E-01 a      1168     1     7     2     8
  5.8593945512287549E-01 a      1169     1     7     2     9
 -1.2409574448161553E-01 a      1170     1     7     2    10
  3.3948023038267350E-01 a      1171     1     7     2    11
  3.6743937788233089E-01 a      1172     1     7     2    12
  1.1025921676515636E-01 a      1173     1     7     2    13
  2.5927945757264170E-01 a      1174     1     7     2    14
  7.0762840899453616E-01 a      1175     1     7     2    15
  1.0370733149039977E+00 a      1176     1     7     2    16
  3.6659658255750771E-01 a      1177     1     7     2    17
 -5.2357433179095314E-01 a      1178     1     7     2    18
  4.4079843859874523E-01 a      1179     1     7     2    19
  3.9426777780263217E-01 a      1180     1     7     2    20
 -2.8019023118808351E-01 a      1181     1     8     2     1
  4.6123099882545782E-01 a      1182     1     8     2     2
 -8.5473269050130574E-01 a      1183     1     8     2     3
 -3.6932836285088012E-02 a      1184     1     8     2     4
  3.2429111928305401E-02 a      1185     1     8     2     5
 -4.4884943116388354E-01 a      1186     1     8     2     6
 -9.0540410437966512E-01 a      1187     1     8     2     7
  3.3406491650793890E-01 a      1188     1     8     2     8
 -1.6507944182131343E-01 a      1189     1     8     2     9
  3.1369701190309773E-01 a      1190     1     8     2    10
  4.8244271083705270E-01 a      1191     1     8     2    11
  1.6088433249780573E-01 a      1192     1     8     2    12
 -2.8248834781491035E-03 a      1193     1     8     2    13
  1.8759958282102081E-02 a      1194     1     8     2    14
  5.4544504216656531E-01 a      1195     1     8     2    15
  2.2086521485028718E-01 a      1196     1     8     2    16
  2.4901619076773046E-02 a      1197     1     8     2    17
  3.6634085397014415E-01 a      1198     1     8     2    18
 -2.6287271148245601E-02 a      1199     1     8     2    19
 -3.0543682551608231E-01 a      1200     1     8     2    20
  4.3795361562740623E-02 a      1201     1     9     2     1
  5.3185851673391649E-03 a      1202     1     9     2     2
  7.7458483729825084E-02 a      1203     1     9     2     3
 -2.5142599076945410E-01 a      1204     1     9     2     4
 -2.4205318475466611E-01 a      1205     1     9     2     5
  5.8279305842290330E-01 a      1206     1     9     2     6
 -4.5316364907620477E-01 a      1207     1     9     2     7
  3.0274084375750843E-01 a      1208     1     9     2     8
 -6.0861361956851812E-01 a      1209     1     9     2     9
  2.6454737679053497E-01 a      1210     1     9     2    10
 -7.3126733869854424E-02 a      1211     1     9     2    11
  3.5459595342401073E-01 a      1212     1     9     2    12
 -1.3655317581020784E-01 a      1213     1     9     2    13
 -1.1610921787666458E-02 a      1214     1     9     2    14
  1.6535224668777657E-01 a      1215     1     9     2    15
  7.6777341256715559E-01 a      1216     1     9     2    16
 -3.1839017285531318E-01 a      1217     1     9     2    17
  2.5913937447663515E-01 a      1218     1     9     2    18
  1.2378431361184969E+00 a      1219     1     9     2    19
 -2.3266314273449765E-01 a      1220     1     9     2    20
  5.7812109945238954E-01 a      1221     1    10     2     1
  4.7301498550548349E-01 a      1222     1    10     2     2
  1.3565554690087804E+00 a      1223     1    10     2     3
 -2.8657880962090315E-01 a      1224     1    10     2     4
 -8.9780708573324031E-01 a      1225     1    10     2     5
 -1.9803578772313485E-01 a      1226     1    10     2     6
 -4.4771021105062775E-01 a      1227     1    10     2     7
  3.5672185782528348E-01 a      1228     1    10     2     8
  6.0200838553202773E-01 a      1229     1    10     2     9
 -6.7456581115071312E-01 a      1230     1    10     2    10
 -3.9115375034328281E-01 a      1231     1    10     2    11
 -7.9653223463280881E-02 a      1232     1    10     2    12
 -3.0540724723214951E-01 a      1233     1    10     2    13
  1.3083745627013255E+00 a      1234     1    10     2    14
 -1.2895902727028584E-02 a      1235     1    10     2    15
  6.9449952072739435E-02 a      1236     1    10     2    16
 -6.7713585286285893E-01 a      1237     1    10     2    17
 -1.7300642611452896E-01 a      1238     1    10     2    18
 -1.1275474939020120E-03 a      1239     1    10     2    19
 -4.3700642917646321E-01 a      1240     1    10     2    20
 -5.8165435052734948E-01 a      1241     1    11     2     1
  2.7071642699153214E-01 a      1242     1    11     2     2
  7.9603233177652180E-02 a      1243     1    11     2     3
 -4.0829968717177201E-01 a      1244     1    11     2     4
  4.2612358271674183E-01 a      1245     1    11     2     5
 -1.3608645324333069E-01 a      1246     1    11     2     6
 -3.6066155024585789E-01 a      1247     1    11     2     7
 -9.4597776654570281E-02 a      1248     1    11     2     8
 -2.1422015363924024E-01 a      1249     1    11     2     9
  6.2305689877909320E-01 a      1250     1    11     2    10
 -2.9059472744700626E-01 a      1251     1    11     2    11
  1.6609380761585552E-01 a      1252     1    11     2    12
 -4.2997408441339445E-02 a      1253     1    11     2    13
 -2.5659593868626335E-01 a      1254     1    11     2    14
 -6.8901316282561431E-01 a      1255     1    11     2    15
 -4.2481075412766905E-01 a      1256     1    11     2    16
  7.1089002620130973E-02 a      1257     1    11     2    17
 -1.1191496278498234E-01 a      1258     1    11     2    18
  8.9512446943547974E-01 a      1259     1    11     2    19
  7.8068268008579036E-02 a      1260     1    11     2    20
  1.4327377787732520E-01 a      1261     1    12     2     1
  1.2356151224413023E-01 a      1262     1    12     2     2
  9.1976440046473174E-01 a      1263     1    12     2     3
  3.7419159550868319E-01 a      1264     1    12     2     4
  3.0978390730612460E-01 a      1265     1    12     2     5
 -1.9439397604647426E-01 a      1266     1    12     2     6
 -4.4531776448838278E-01 a      1267     1    12     2     7
  7.2452178730728081E-02 a      1268     1    12     2     8
 -1.1820656462611025E-01 a      1269     1    12     2     9
 -4.2275316881326497E-01 a      1270     1    12     2    10
 -4.3532448285277042E-01 a      1271     1    12     2    11
  3.5979808700306964E-01 a      1272     1    12     2    12
 -7.2147582251276787E-01 a      1273     1    12     2    13
  1.0076593852784734E+00 a      1274     1    12     2    14
 -9.4426084246245989E-01 a      1275     1    12     2    15
 -6.1133493567150965E-01 a      1276     1    12     2    16
 -1.3750228946051239E-02 a      1277     1    12     2    17
 -3.0563579589965328E-01 a      1278     1    12     2    18
 -3.9619872411165924E-01 a      1279     1    12     2    19
  6.6679754000098423E-01 a      1280     1    12     2    20
 -4.1657616466100389E-01 a      1281     1    13     2     1
 -7.4004843939183906E-01 a      1282     1    13     2     2
  8.1917837320619913E-02 a      1283     1    13     2     3
  5.5713089970923368E-01 a      1284     1    13     2     4
 -5.0974048187186727E-01 a      1285     1    13     2     5
  3.3038141244928232E-01 a      1286     1    13     2     6
  1.8217766346480962E-01 a      1287     1    13     2     7
 -1.0220195837589814E+00 a      1288     1    13     2     8
 -6.5637241131053417E-02 a      1289     1    13     2     9
 -3.4947456007540084E-01 a      1290     1    13     2    10
  4.0682049475763443E-01 a      1291     1    13     2    11
 -6.2710503793708294E-01 a      1292     1    13     2    12
 -8.4842766526066293E-01 a      1293     1    13     2    13
 -3.4270198972061267E-01 a      1294     1    13     2    14
 -3.0806297090977297E-01 a      1295     1    13     2    15
  5.6523433185865557E-01 a      1296     1    13     2    16
 -3.6352693747628656E-01 a      1297     1    13     2    17
  1.1109553388475371E-01 a      1298     1    13     2    18
 -4.3506312687850390E-01 a      1299     1    13     2    19
 -7.7606479500757974E-01 a      1300     1    13     2    20
 -7.0884589600004988E-01 a      1301     1    14     2     1
  6.2212467287918061E-01 a      1302     1    14     2     2
 -4.2166072124497261E-01 a      1303     1    14     2     3
 -5.8485339197135930E-02 a      1304     1    14     2     4
  5.4668219720583977E-01 a      1305     1    14     2     5
  5.3305143127831334E-01 a      1306     1    14     2     6
 -6.9343213439646090E-01 a      1307     1    14     2     7
 -6.0071651074975096E-01 a      1308     1    14     2     8
  7.9610093862090514E-01 a      1309     1    14     2     9
  8.3294314622391574E-01 a      1310     1    14     2    10
 -2.3232024512887323E-01 a      1311     1    14     2    11
  3.1577031014247275E-01 a      1312     1    14     2    12
  3.7904927381552621E-03 a      1313     1    14     2    13
 -2.2828407734125028E-01 a      1314     1    14     2    14
  3.1234992554778462E-01 a      1315     1    14     2    15
  5.5111815156524462E-02 a      1316     1    14     2    16
  3.7831664979872603E-01 a      1317     1    14     2    17
  4.7482310249175569E-01 a      1318     1    14     2    18
 -8.6611957837230275E-02 a      1319     1    14     2    19
  4.8097778295693600E-01 a      1320     1    14     2    20
 -3.0311522455421880E-01 a      1321     1    15     2     1
  1.7451713820683340E-01 a      1322     1    15     2     2
 -4.9924297887220348E-01 a      1323     1    15     2     3
 -3.1269358306901890E-01 a      1324     1    15     2     4
 -1.2470216244824407E-01 a      1325     1    15     2     5
 -2.1038814329611513E-01 a      1326     1    15     2     6
  3.2275469807822488E-01 a      1327     1    15     2     7
  5.6907550579470459E-02 a      1328     1    15     2     8
  5.6860716082855023E-01 a      1329     1    15     2     9
  7.4765128859337671E-02 a      1330     1    15     2    10
 -1.1494478288521627E-01 a      1331     1    15     2    11
  5.6853647571071142E-01 a      1332     1    15     2    12
 -3.5181171960813323E-01 a      1333     1    15     2    13
  1.0579479889288294E-01 a      1334     1    15     2    14
  5.5481219552969196E-01 a      1335     1    15     2    15
  3.2726327656570114E-01 a      1336     1    15     2    16
  4.6727311012876344E-01 a      1337     1    15     2    17
  2.0012058143548889E-01 a      1338     1    15     2    18
  3.8771016592162755E-01 a      1339     1    15     2    19
  7.7656924311556330E-01 a      1340     1    15     2    20
 -3.1839802654907795E-01 a      1341     1    16     2     1
  1.2121782221961808E-01 a      1342     1    16     2     2
  4.8828715437620307E-01 a      1343     1    16     2     3
 -3.2731203099158790E-01 a      1344     1    16     2     4
 -6.0938756761841711E-02 a      1345     1    16     2     5
 -1.0476360045714406E-01 a      1346     1    16     2     6
 -1.6445535220497084E-01 a      1347     1    16     2     7
  2.8808502538633179E-01 a      1348     1    16     2     8
 -2.8859736767297389E-01 a      1349     1    16     2     9
  4.7174864398989924E-01 a      1350     1    16     2    10
 -4.2250671624728897E-02 a      1351     1    16     2    11
  6.8059678037116600E-01 a      1352     1    16     2    12
  1.6146303028972966E-01 a      1353     1    16     2    13
  3.5316022384745188E-01 a      1354     1    16     2    14
  9.4757119171845986E-03 a      1355     1    16     2    15
  2.4471322443163854E-01 a      1356     1    16     2    16
  4.1226104776400546E-01 a      1357     1    16     2    17
  8.1895033080937527E-02 a      1358     1    16     2    18
  2.9938960654320634E-01 a      1359     1    16     2    19
 -3.7420185589323401E-01 a      1360     1    16     2    20
  2.3719964641334293E-01 a      1361     1    17     2     1
  3.0600731408104853E-01 a      1362     1    17     2     2
 -4.1982397660402276E-01 a      1363     1    17     2     3
  2.9774104861481060E-01 a      1364     1    17     2     4
  7.4235214279068773E-01 a      1365     1    17     2     5
  4.4534899619305063E-03 a      1366     1    17     2     6
  6.2574089287339971E-02 a      1367     1    17     2     7
  4.2299916027062961E-01 a      1368     1    17     2     8
  1.2609129082725323E-01 a      1369     1    17     2     9
  1.3773600468542946E-01 a      1370     1    17     2    10
  1.1227576698243007E-01 a      1371     1    17     2    11
  6.2015190548952559E-01 a      1372     1    17     2    12
  9.2391546523304710E-02 a      1373     1    17     2    13
  4.4797011469112080E-01 a      1374     1    17     2    14
 -5.8711718920016076E-01 a      1375     1    17     2    15
 -4.3331889985367256E-01 a      1376     1    17     2    16
 -2.3396931621304584E-01 a      1377     1    17     2    17
 -5.2991262864765054E-01 a      1378     1    17     2    18
 -4.9978933900192396E-01 a      1379     1    17     2    19
 -4.7021219062867647E-01 a      1380     1    17     2    20
  3.3551323311044429E-01 a      1381     1    18     2     1
  2.0181675788715883E-01 a      1382     1    18     2     2
  4.1144710948737839E-01 a      1383     1    18     2     3
 -1.0884248717397957E+00 a      1384     1    18     2     4
 -3.2217501705753815E-01 a      1385     1    18     2     5
 -1.9246807371868954E-01 a      1386     1    18     2     6
 -2.3334214549459326E-01 a      1387     1    18     2     7
  1.0025962124369055E-01 a      1388     1    18     2     8
 -6.3947473379007447E-01 a      1389     1    18     2     9
  4.9267047248873630E-01 a      1390     1    18     2    10
  1.5203146843048715E-01 a      1391     1    18     2    11
  2.8029503228987629E-01 a      1392     1    18     2    12
 -8.1356172495010437E-01 a      1393     1    18     2    13
 -8.0415515916158323E-02 a      1394     1    18     2    14
 -7.1886238245951273E-01 a      1395     1    18     2    15
 -4.2631796393868310E-01 a      1396     1    18     2    16
  4.4344039908109922E-02 a      1397     1    18     2    17
 -1.4844806024078977E-01 a      1398     1    18     2    18
 -2.1858622736853309E-01 a      1399     1    18     2    19
  7.5839383107179126E-01 a      1400     1    18     2    20
  4.4811699696737139E-01 a      1401     1    19     2     1
 -6.0255784340052365E-01 a      1402     1    19     2     2
 -2.7052847873050812E-01 a      1403     1    19     2     3
 -1.3784836272862658E-01 a      1404     1    19     2     4
  4.9662244205444322E-01 a      1405     1    19     2     5
 -1.1969483259785123E-01 a      1406     1    19     2     6
  5.2641383665370067E-01 a      1407     1    19     2     7
  7.1376889272467037E-01 a      1408     1    19     2     8
  2.4313600125423257E-01 a      1409     1    19     2     9
  1.3813003746390759E-01 a      1410     1    19     2    10
  3.3009871115578771E-01 a      1411     1    19     2    11
 -2.7143763294738246E-02 a      1412     1    19     2    12
 -6.3256952527997545E-01 a      1413     1    19     2    13
 -5.7509334110757127E-01 a      1414     1    19     2    14
  5.0562909019709855E-03 a      1415     1    19     2    15
 -5.3861419069953387E-01 a      1416     1    19     2    16
  3.0317942175785095E-01 a      1417     1    19     2    17
 -2.8456454859651314E-02 a      1418     1    19     2    18
  3.0462001805885636E-01 a      1419     1    19     2    19
 -1.9184044305398908E-02 a      1420     1    19     2    20
 -9.2615944094147473E-01 a      1421     1    20     2     1
 -5.2113642442633956E-01 a      1422     1    20     2     2
 -6.4323226319614721E-02 a      1423     1    20     2     3
  9.0382452054729290E-01 a      1424     1    20     2     4
 -2.7832800760407966E-01 a      1425     1    20     2     5
 -4.5592765320644058E-01 a      1426     1    20     2     6
 -3.7609102093843766E-01 a      1427     1    20     2     7
  3.6677131200281177E-01 a      1428     1    20     2     8
 -2.9663162880496008E-01 a      1429     1    20     2     9
  7.8653224953252679E-03 a      1430     1    20     2    10
  4.7034483309066405E-01 a      1431     1    20     2    11
 -2.5920551145679227E-01 a      1432     1    20     2    12
 -8.6621370787673313E-01 a      1433     1    20     2    13
  9.7020977520428164E-01 a      1434     1    20     2    14
 -6.6915472508497997E-01 a      1435     1    20     2    15
  5.7891563732880336E-01 a      1436     1    20     2    16
 -6.0595048019325282E-01 a      1437     1    20     2    17
  4.5826434851903858E-01 a      1438     1    20     2    18
 -1.7222251642233510E-01 a      1439     1    20     2    19
 -2.3389615260374289E-01 a      1440     1    20     2    20
 -1.5523728517712203E+00 b      1441     2     1
  8.5980516199936297E-01 b      1442     2     2
  1.1929100680783500E+00 b      1443     2     3
  8.1520754483822755E-01 b      1444     2     4
  6.7447923668879628E-01 b      1445     2     5
 -1.6467949695830923E+00 b      1446     2     6
 -3.0076842480803845E-01 b      1447     2     7
  8.6794367280110407E-01 b      1448     2     8
  1.5312711229234766E+00 b      1449     2     9
 -6.4614157363145561E-02 b      1450     2    10
  9.4669821796754583E-01 b      1451     2    11
  4.2289069804703777E-01 b      1452     2    12
 -3.2745890622276735E-01 b      1453     2    13
 -2.2653540731228095E+00 b      1454     2    14
 -1.3912169529171317E+00 b      1455     2    15
 -1.9089163261504243E+00 b      1456     2    16
  7.9692843804700442E-01 b      1457     2    17
 -1.1439501089167994E+00 b      1458     2    18
  4.3825716353987704E-01 b      1459     2    19
 -1.1588270644766140E-01 b      1460     2    20
 -1.3476317808548393E+00 a      1461     2     1     3     1
  1.6474090297549848E+00 a      1462     2     2     3     1
  3.9502959434760498E-01 a      1463     2     3     3     1
  7.7397606412719977E-01 a      1464     2     4     3     1
  1.0681838575386251E+00 a      1465     2     5     3     1
 -1.0378433701644101E+00 a      1466     2     6     3     1
 -7.0787868652861918E-01 a      1467     2     7     3     1
  1.5601256831923591E+00 a      1468     2     8     3     1
  2.5369486402969907E+00 a      1469     2     9     3     1
 -5.1832300241528617E-01 a      1470     2    10     3     1
 -2.6563438067342704E-01 a      1471     2    11     3     1
  1.8161170015860835E+00 a      1472     2    12     3     1
  1.3788724375369394E+00 a      1473     2    13     3     1
 -5.2688991793033435E-01 a      1474     2    14     3     1
 -2.8071441952513904E-01 a      1475     2    15     3     1
 -1.7336099024880822E+00 a      1476     2    16     3     1
  1.5284361647113178E+00 a      1477     2    17     3     1
 -2.4264452383465542E+00 a      1478     2    18     3     1
  1.3767501628646897E-01 a      1479     2    19     3     1
  9.4344761054230974E-01 a      1480     2    20     3     1
  1.1361568390008041E+00 b      1481     3     1
