################################################################################
# Neural network connection values (weights and biases).
################################################################################
# Col  Name       Description
################################################################################
# 1    connection Neural network connection value.
# 2    t          Connection type (a = weight, b = bias).
# 3    index      Index enumerating weights.
# 4    l_s        Starting point layer (end point layer for biases).
# 5    n_s        Starting point neuron in starting layer (end point neuron for biases).
# 6    l_e        End point layer.
# 7    n_e        End point neuron in end layer.
################################################################################
#                      1 2         3     4     5     6     7
#             connection t     index   l_s   n_s   l_e   n_e
############################################################
 -5.0525333822879881E-01 a         1     0     1     1     1
  1.0996454804947985E-01 a         2     0     1     1     2
  5.3404416513345054E-01 a         3     0     1     1     3
 -2.1701050990191031E-01 a         4     0     1     1     4
 -8.1128488302352995E-03 a         5     0     1     1     5
  3.8209277500432032E-01 a         6     0     1     1     6
  4.4909545179991467E-01 a         7     0     1     1     7
  1.2268068228154998E-02 a         8     0     1     1     8
  1.8051483142338673E-01 a         9     0     1     1     9
  8.9400701364970900E-02 a        10     0     1     1    10
 -3.4337259505310869E-01 a        11     0     1     1    11
 -1.2746122898223550E-01 a        12     0     1     1    12
 -1.4200592033120973E-01 a        13     0     1     1    13
 -2.1122224916969631E-02 a        14     0     1     1    14
 -4.3803272268215626E-01 a        15     0     1     1    15
 -8.1384489213723221E-01 a        16     0     1     1    16
  1.0356547077546832E-01 a        17     0     1     1    17
 -1.2986160317292866E-01 a        18     0     1     1    18
 -1.1084374148240780E-01 a        19     0     1     1    19
  1.7417506685553522E-01 a        20     0     1     1    20
 -1.3265016837723986E-01 a        21     0     2     1     1
  9.2859497343903159E-03 a        22     0     2     1     2
  5.8771047359263562E-01 a        23     0     2     1     3
 -1.7898934128412200E-01 a        24     0     2     1     4
  1.7210073182932628E-01 a        25     0     2     1     5
  7.7760803051322283E-02 a        26     0     2     1     6
  3.7841791096292438E-01 a        27     0     2     1     7
  3.1645703654150448E-01 a        28     0     2     1     8
  6.0284276195108832E-01 a        29     0     2     1     9
  4.9909862475337172E-02 a        30     0     2     1    10
  3.3128911443935267E-02 a        31     0     2     1    11
 -3.4800204237447507E-01 a        32     0     2     1    12
  7.4908518488718961E-02 a        33     0     2     1    13
 -1.1720185953141406E-01 a        34     0     2     1    14
 -1.3082972882654503E-01 a        35     0     2     1    15
 -3.6202148510282472E-01 a        36     0     2     1    16
 -4.5325282032951458E-01 a        37     0     2     1    17
 -3.1506484451123506E-01 a        38     0     2     1    18
 -4.5884718084816611E-01 a        39     0     2     1    19
  2.1754450067239714E-01 a        40     0     2     1    20
  5.6536191116727585E-01 a        41     0     3     1     1
  6.8621767678010259E-02 a        42     0     3     1     2
  3.3728593456548478E-01 a        43     0     3     1     3
  1.8303208679551183E-01 a        44     0     3     1     4
  1.6612542717125528E-01 a        45     0     3     1     5
 -1.7415049164699055E-02 a        46     0     3     1     6
 -5.6994066989920167E-01 a        47     0     3     1     7
 -4.0910053454485057E-01 a        48     0     3     1     8
 -3.2738975572177470E-01 a        49     0     3     1     9
 -3.6656339264163262E-01 a        50     0     3     1    10
 -3.9278012063929224E-01 a        51     0     3     1    11
  6.1870975978849697E-02 a        52     0     3     1    12
 -3.6566032464551070E-02 a        53     0     3     1    13
  2.6554037728783930E-01 a        54     0     3     1    14
 -3.1662753503790952E-01 a        55     0     3     1    15
  2.3739282011722834E-01 a        56     0     3     1    16
 -3.5804411577601125E-01 a        57     0     3     1    17
 -1.2903212420086679E-01 a        58     0     3     1    18
 -2.5955034072984134E-01 a        59     0     3     1    19
 -1.9141575978122272E-01 a        60     0     3     1    20
  3.1037874791430864E-01 a        61     0     4     1     1
 -2.4985169127382825E-01 a        62     0     4     1     2
 -1.0387749722373035E-01 a        63     0     4     1     3
  5.7525437827640569E-01 a        64     0     4     1     4
 -2.1303099471904097E-01 a        65     0     4     1     5
 -2.6415002028273880E-02 a        66     0     4     1     6
 -2.4873158299554440E-01 a        67     0     4     1     7
 -2.6718140742959978E-01 a        68     0     4     1     8
 -3.1887591968951229E-01 a        69     0     4     1     9
 -5.0781242694132145E-01 a        70     0     4     1    10
 -1.1595285847885518E-01 a        71     0     4     1    11
  6.3212376393057379E-01 a        72     0     4     1    12
  1.5665713652186550E-01 a        73     0     4     1    13
  4.8960507092663247E-01 a        74     0     4     1    14
  2.6008482232884894E-01 a        75     0     4     1    15
  8.0924502314715119E-01 a        76     0     4     1    16
  1.8318756218169127E-01 a        77     0     4     1    17
  5.4546658059293329E-01 a        78     0     4     1    18
  5.4330543434642098E-01 a        79     0     4     1    19
 -6.0289214250247447E-01 a        80     0     4     1    20
 -5.6196441399698926E-01 a        81     0     5     1     1
  8.3245071981717336E-02 a        82     0     5     1     2
  1.6446214863424412E-02 a        83     0     5     1     3
  4.0964961797522753E-01 a        84     0     5     1     4
 -7.2529517711094837E-01 a        85     0     5     1     5
 -2.2397413301308001E-02 a        86     0     5     1     6
  4.0474549317298270E-01 a        87     0     5     1     7
  3.2786822098183210E-01 a        88     0     5     1     8
 -5.6651416505959584E-01 a        89     0     5     1     9
 -2.2128906509224222E-01 a        90     0     5     1    10
 -1.8322128489859230E-01 a        91     0     5     1    11
  5.6955167136720364E-01 a        92     0     5     1    12
 -2.9939282916864585E-01 a        93     0     5     1    13
 -8.7951726131652963E-01 a        94     0     5     1    14
  1.5045847821056182E-01 a        95     0     5     1    15
  3.4350496243439360E-01 a        96     0     5     1    16
  9.8014289797322712E-02 a        97     0     5     1    17
 -2.3590368716041910E-01 a        98     0     5     1    18
  2.1388399437145503E-01 a        99     0     5     1    19
  6.5523073727053183E-02 a       100     0     5     1    20
 -3.1533536069055806E-01 a       101     0     6     1     1
 -3.1536650938365454E-02 a       102     0     6     1     2
 -5.3599187003069149E-02 a       103     0     6     1     3
  4.7453976854939706E-01 a       104     0     6     1     4
 -6.1740277587697712E-01 a       105     0     6     1     5
 -2.4530998181196556E-01 a       106     0     6     1     6
  4.4935387918356323E-01 a       107     0     6     1     7
  3.2345294962986777E-02 a       108     0     6     1     8
 -9.1248345103110129E-01 a       109     0     6     1     9
 -3.3343023622694279E-01 a       110     0     6     1    10
 -5.6872654399923961E-01 a       111     0     6     1    11
  6.0737886390351181E-01 a       112     0     6     1    12
  3.5055470892835655E-01 a       113     0     6     1    13
 -2.1311738909502675E-01 a       114     0     6     1    14
  7.5992306331262338E-01 a       115     0     6     1    15
  1.6286469583994079E+00 a       116     0     6     1    16
  1.4511134439910237E-01 a       117     0     6     1    17
  1.0109616458752979E-01 a       118     0     6     1    18
  4.7978284150704825E-01 a       119     0     6     1    19
  2.6556986559284007E-01 a       120     0     6     1    20
  9.4090747686631793E-01 a       121     0     7     1     1
  3.8856822022245124E-01 a       122     0     7     1     2
 -7.7798371652399875E-02 a       123     0     7     1     3
 -6.6435075500968921E-01 a       124     0     7     1     4
 -5.5999907900248620E-02 a       125     0     7     1     5
 -4.7382810364648986E-01 a       126     0     7     1     6
 -1.4813848086159846E+00 a       127     0     7     1     7
  2.1694761317770900E-02 a       128     0     7     1     8
  9.5027254963887220E-01 a       129     0     7     1     9
 -4.7088718515991385E-01 a       130     0     7     1    10
  3.5727179151470806E-01 a       131     0     7     1    11
 -1.0003780505370483E+00 a       132     0     7     1    12
 -2.5003444762158777E-01 a       133     0     7     1    13
  6.0006020521347492E-01 a       134     0     7     1    14
 -2.6508976154084496E-01 a       135     0     7     1    15
 -1.7443988385175566E+00 a       136     0     7     1    16
 -2.2485848021254853E-01 a       137     0     7     1    17
  1.3666962630134927E-01 a       138     0     7     1    18
 -3.5495585053890572E-01 a       139     0     7     1    19
 -3.7974633931072233E-01 a       140     0     7     1    20
 -2.8380136145656071E-01 a       141     0     8     1     1
 -2.0655460818173177E-01 a       142     0     8     1     2
  2.9679678054236248E-02 a       143     0     8     1     3
  2.7146725103610475E-01 a       144     0     8     1     4
  2.1287301617971768E-01 a       145     0     8     1     5
  3.1131096016635956E-01 a       146     0     8     1     6
  3.2401693556856681E-01 a       147     0     8     1     7
 -6.7601670515457207E-02 a       148     0     8     1     8
 -8.6865412288762586E-02 a       149     0     8     1     9
  8.6481642420526583E-02 a       150     0     8     1    10
 -1.4600671507729901E-01 a       151     0     8     1    11
  1.1936392005202355E-01 a       152     0     8     1    12
  9.6428421011945833E-02 a       153     0     8     1    13
  2.2946878770282825E-01 a       154     0     8     1    14
 -7.2709151507783829E-02 a       155     0     8     1    15
  6.6504759254257950E-01 a       156     0     8     1    16
  2.6677222650657920E-02 a       157     0     8     1    17
 -5.5092719128300577E-02 a       158     0     8     1    18
  7.4503399094512895E-02 a       159     0     8     1    19
  8.9187955678671493E-02 a       160     0     8     1    20
  3.4425023065866957E-02 a       161     0     9     1     1
  5.5552553718286504E-02 a       162     0     9     1     2
 -6.5462747380915809E-01 a       163     0     9     1     3
  6.8024650945933823E-02 a       164     0     9     1     4
 -7.7761885382512486E-01 a       165     0     9     1     5
 -5.7596510389345690E-01 a       166     0     9     1     6
 -3.1748424674676506E-01 a       167     0     9     1     7
 -4.4692241330572374E-01 a       168     0     9     1     8
  9.0106871603619165E-01 a       169     0     9     1     9
 -9.5840716176009100E-01 a       170     0     9     1    10
 -3.8886720314277146E-01 a       171     0     9     1    11
 -5.5814207839304664E-01 a       172     0     9     1    12
 -8.0168357456021189E-02 a       173     0     9     1    13
 -7.5456203203247019E-01 a       174     0     9     1    14
  8.0898620871277560E-01 a       175     0     9     1    15
  2.6376486549442903E+00 a       176     0     9     1    16
 -1.0345200537464037E+00 a       177     0     9     1    17
 -5.4631622253768464E-01 a       178     0     9     1    18
 -5.8478650940322718E-01 a       179     0     9     1    19
 -2.5927976852898649E-01 a       180     0     9     1    20
  7.0942492192605705E-02 a       181     0    10     1     1
 -3.4014577472727470E-01 a       182     0    10     1     2
  1.2953938678507890E+00 a       183     0    10     1     3
 -7.8283843399310737E-01 a       184     0    10     1     4
 -3.3927179737431179E-01 a       185     0    10     1     5
  9.3843630274215895E-01 a       186     0    10     1     6
  1.7261398094694866E-01 a       187     0    10     1     7
  8.8690612833517035E-01 a       188     0    10     1     8
 -1.0098015852520896E+00 a       189     0    10     1     9
  3.6548582598809154E-01 a       190     0    10     1    10
  5.0630519332257207E-01 a       191     0    10     1    11
  1.5337849125432168E-01 a       192     0    10     1    12
 -2.2995334146778626E-01 a       193     0    10     1    13
  7.6462368349703169E-01 a       194     0    10     1    14
 -9.0679280904952730E-01 a       195     0    10     1    15
 -2.9978091286587971E+00 a       196     0    10     1    16
  2.4683794319396202E-01 a       197     0    10     1    17
  8.6321076833554633E-01 a       198     0    10     1    18
  3.3984508543778869E-01 a       199     0    10     1    19
  4.2753533361438256E-01 a       200     0    10     1    20
 -8.9991401418564862E-02 a       201     0    11     1     1
 -3.0819893987661245E-03 a       202     0    11     1     2
 -4.7667905019851869E-01 a       203     0    11     1     3
 -1.2254874082626895E-01 a       204     0    11     1     4
  1.3283196709898286E+00 a       205     0    11     1     5
 -1.1257521502471322E+00 a       206     0    11     1     6
 -1.4615014817862518E-01 a       207     0    11     1     7
 -8.3149845304152992E-01 a       208     0    11     1     8
  2.4085448491796543E-01 a       209     0    11     1     9
  5.6630300372954512E-01 a       210     0    11     1    10
  2.3617211777008743E-01 a       211     0    11     1    11
 -2.7212293629964934E-01 a       212     0    11     1    12
 -4.7379491915293385E-02 a       213     0    11     1    13
  3.0112207457526817E-02 a       214     0    11     1    14
  1.1531088183734122E+00 a       215     0    11     1    15
  1.3305294088846914E-01 a       216     0    11     1    16
  1.0923395852893274E+00 a       217     0    11     1    17
 -1.0522716934123429E-01 a       218     0    11     1    18
 -3.4115429065747088E-01 a       219     0    11     1    19
  1.5584898827967184E-01 a       220     0    11     1    20
  3.2479264786261702E-01 a       221     0    12     1     1
 -1.0633181269886673E-01 a       222     0    12     1     2
  9.0087024921383496E-01 a       223     0    12     1     3
  9.6897618072603320E-01 a       224     0    12     1     4
 -3.6385108286603046E-01 a       225     0    12     1     5
  1.1481462057771900E-01 a       226     0    12     1     6
  9.4222682399232272E-01 a       227     0    12     1     7
  1.1118455610847829E-01 a       228     0    12     1     8
  4.2715644924695434E-01 a       229     0    12     1     9
 -7.8974176684481076E-02 a       230     0    12     1    10
  1.5624214812064277E-01 a       231     0    12     1    11
  5.4561513799019568E-01 a       232     0    12     1    12
  1.4928419087238951E-01 a       233     0    12     1    13
 -5.2610311572019697E-01 a       234     0    12     1    14
 -5.2653095683283146E-01 a       235     0    12     1    15
  1.2814025163097189E+00 a       236     0    12     1    16
 -5.5085101581884965E-01 a       237     0    12     1    17
 -4.1419491010909415E-01 a       238     0    12     1    18
  3.0901780460965950E-01 a       239     0    12     1    19
 -3.1157897052850997E-01 a       240     0    12     1    20
  2.7195692683438277E-01 a       241     0    13     1     1
  3.7181687179938189E-01 a       242     0    13     1     2
 -7.3465614958520253E-01 a       243     0    13     1     3
 -2.8200341375557442E-01 a       244     0    13     1     4
  5.9807807781643674E-01 a       245     0    13     1     5
  3.2188492992431406E-01 a       246     0    13     1     6
 -4.8650745440162091E-01 a       247     0    13     1     7
 -5.6446066817007390E-01 a       248     0    13     1     8
  4.9670676307995976E-01 a       249     0    13     1     9
 -7.9371207973436188E-03 a       250     0    13     1    10
  3.1586375646720999E-01 a       251     0    13     1    11
  9.8979617894457306E-02 a       252     0    13     1    12
  1.0597571415427753E-01 a       253     0    13     1    13
  8.2115211170507754E-02 a       254     0    13     1    14
  6.9674389496516875E-01 a       255     0    13     1    15
 -2.7907830836841069E-01 a       256     0    13     1    16
  4.4634345059422048E-01 a       257     0    13     1    17
  2.7203841815978608E-01 a       258     0    13     1    18
  4.2962316620534896E-01 a       259     0    13     1    19
  7.5477544629278970E-01 a       260     0    13     1    20
  3.8545055798286948E-01 a       261     0    14     1     1
 -2.0659024638016604E-01 a       262     0    14     1     2
  4.8830890675328940E-02 a       263     0    14     1     3
 -1.8761417295484364E-01 a       264     0    14     1     4
 -1.8445868658903486E-01 a       265     0    14     1     5
 -1.1725184962838866E+00 a       266     0    14     1     6
 -1.0891511814749456E-01 a       267     0    14     1     7
 -4.1717334397224143E-01 a       268     0    14     1     8
  4.2299277435710469E-01 a       269     0    14     1     9
  5.8251525806614513E-01 a       270     0    14     1    10
 -3.0054379753875321E-01 a       271     0    14     1    11
  6.0136871966558358E-01 a       272     0    14     1    12
  1.2930045211192184E-01 a       273     0    14     1    13
 -3.9239653232114047E-01 a       274     0    14     1    14
  6.9773734946632104E-01 a       275     0    14     1    15
  2.2332978899455722E-01 a       276     0    14     1    16
 -1.6649176014961525E-01 a       277     0    14     1    17
  4.0576404004307487E-01 a       278     0    14     1    18
 -4.8356111559238812E-01 a       279     0    14     1    19
  5.6820054561190533E-02 a       280     0    14     1    20
  1.9399226320004057E-01 a       281     0    15     1     1
 -2.0755251499318261E-01 a       282     0    15     1     2
 -1.2246261463073020E-01 a       283     0    15     1     3
  4.8555257137821661E-01 a       284     0    15     1     4
 -9.4880225362044338E-02 a       285     0    15     1     5
  1.7244576789663482E-01 a       286     0    15     1     6
 -9.5709337247655516E-03 a       287     0    15     1     7
 -6.9422642946244939E-01 a       288     0    15     1     8
 -2.6872816138503219E-01 a       289     0    15     1     9
 -1.7657216197469600E-01 a       290     0    15     1    10
 -8.1711414121643414E-02 a       291     0    15     1    11
  2.5901377635165573E-01 a       292     0    15     1    12
  1.9317679240156493E-01 a       293     0    15     1    13
  6.5777163327893384E-01 a       294     0    15     1    14
  2.5955192148764000E-01 a       295     0    15     1    15
 -2.6043021964450913E-01 a       296     0    15     1    16
  1.3179436705027039E-01 a       297     0    15     1    17
 -3.8479065690337927E-01 a       298     0    15     1    18
  3.9654617178459702E-02 a       299     0    15     1    19
 -1.2802062358675012E-01 a       300     0    15     1    20
 -1.7127963766704932E-01 a       301     0    16     1     1
  8.4848210406249203E-01 a       302     0    16     1     2
 -1.0432455290880120E+00 a       303     0    16     1     3
  1.1048184586633145E-01 a       304     0    16     1     4
 -7.6304048902169930E-01 a       305     0    16     1     5
  7.0050472476711212E-01 a       306     0    16     1     6
  4.5731250569457743E-01 a       307     0    16     1     7
  2.8931544202905568E-01 a       308     0    16     1     8
  2.1910375064654775E-01 a       309     0    16     1     9
 -1.3262841142075490E+00 a       310     0    16     1    10
 -3.1874823601431672E-02 a       311     0    16     1    11
  3.3743181650905604E-02 a       312     0    16     1    12
 -1.9256063606650567E-01 a       313     0    16     1    13
 -8.1138147387009849E-02 a       314     0    16     1    14
 -4.5983525650946616E-01 a       315     0    16     1    15
  8.0633141685581100E-01 a       316     0    16     1    16
 -6.8006321406613635E-01 a       317     0    16     1    17
  2.8363767616495000E-01 a       318     0    16     1    18
  3.4344887981827210E-01 a       319     0    16     1    19
  2.2549621746933736E-02 a       320     0    16     1    20
  2.2888234051526271E-01 a       321     0    17     1     1
  2.1718925588957597E-01 a       322     0    17     1     2
  3.3733365752117150E-01 a       323     0    17     1     3
 -5.9257929554439359E-01 a       324     0    17     1     4
  5.6028672696493786E-01 a       325     0    17     1     5
 -7.4160616625533904E-01 a       326     0    17     1     6
  2.3864279202983535E-01 a       327     0    17     1     7
  8.5018594337037401E-02 a       328     0    17     1     8
 -3.6775179088221677E-01 a       329     0    17     1     9
  8.2095610019277815E-02 a       330     0    17     1    10
 -4.1214744627165671E-02 a       331     0    17     1    11
  4.4036619225620993E-01 a       332     0    17     1    12
  2.0198637477507525E-01 a       333     0    17     1    13
 -5.2036215576904232E-01 a       334     0    17     1    14
  2.2773120442070233E-01 a       335     0    17     1    15
 -4.6728236820745361E-01 a       336     0    17     1    16
  8.3658368452209197E-02 a       337     0    17     1    17
  1.8495177917673261E-01 a       338     0    17     1    18
 -3.4537542264694943E-01 a       339     0    17     1    19
  5.8835880613630398E-01 a       340     0    17     1    20
 -2.3459545722054503E-01 a       341     0    18     1     1
 -9.7004649791579189E-01 a       342     0    18     1     2
 -4.9808580849151679E-01 a       343     0    18     1     3
  5.0266369661818366E-01 a       344     0    18     1     4
  7.1027902417177435E-02 a       345     0    18     1     5
  8.3884709023636395E-01 a       346     0    18     1     6
 -1.1094655766869049E-01 a       347     0    18     1     7
  5.9731943252015285E-01 a       348     0    18     1     8
 -1.3590600844540487E-01 a       349     0    18     1     9
  2.6158315766578905E-01 a       350     0    18     1    10
 -9.7112614007142314E-02 a       351     0    18     1    11
  1.0354510458208637E+00 a       352     0    18     1    12
  2.9397236086586648E-01 a       353     0    18     1    13
  4.8422553119162487E-01 a       354     0    18     1    14
 -1.2171661161684028E-01 a       355     0    18     1    15
  1.1579973841565396E+00 a       356     0    18     1    16
  3.9863465937444870E-01 a       357     0    18     1    17
 -3.8212008606514197E-01 a       358     0    18     1    18
  1.9030819319960124E-01 a       359     0    18     1    19
 -2.6823839427821389E-01 a       360     0    18     1    20
 -1.7690086225816215E+00 a       361     0    19     1     1
 -4.6278966721269625E-02 a       362     0    19     1     2
 -8.9975866381295810E-01 a       363     0    19     1     3
  6.8928099284648803E-01 a       364     0    19     1     4
 -3.5420067042056658E-01 a       365     0    19     1     5
 -4.8817574367250127E-01 a       366     0    19     1     6
 -9.8715212517255635E-01 a       367     0    19     1     7
  1.3655751190918283E-01 a       368     0    19     1     8
 -6.6498214223034058E-01 a       369     0    19     1     9
 -8.0676091457428811E-01 a       370     0    19     1    10
  2.6733632737112889E-01 a       371     0    19     1    11
 -3.3795318687346509E-01 a       372     0    19     1    12
 -3.0431360801193374E-01 a       373     0    19     1    13
 -4.2010802250515417E-01 a       374     0    19     1    14
  5.0270953310134057E-02 a       375     0    19     1    15
  3.3359375718232187E-01 a       376     0    19     1    16
  4.4530456569541133E-01 a       377     0    19     1    17
 -1.5173978326733775E-01 a       378     0    19     1    18
 -6.0085818306464667E-01 a       379     0    19     1    19
 -4.6457748559482831E-01 a       380     0    19     1    20
  1.1827222962869643E-02 a       381     0    20     1     1
  7.4156517209319495E-01 a       382     0    20     1     2
 -4.6948610932819657E-01 a       383     0    20     1     3
 -5.2302992776308477E-01 a       384     0    20     1     4
 -1.8374780526685902E-01 a       385     0    20     1     5
 -3.7442611369807928E-02 a       386     0    20     1     6
  7.4510479057572146E-02 a       387     0    20     1     7
  7.3496765430261499E-02 a       388     0    20     1     8
  1.3999013093438093E+00 a       389     0    20     1     9
  1.5611401342802589E-01 a       390     0    20     1    10
 -1.8577163064468916E-01 a       391     0    20     1    11
 -9.4032480329576540E-01 a       392     0    20     1    12
 -2.4613814007486809E-01 a       393     0    20     1    13
  7.2869555331681779E-01 a       394     0    20     1    14
 -7.2866079290007113E-01 a       395     0    20     1    15
 -7.2889989903685914E-01 a       396     0    20     1    16
 -1.9460765299104549E-01 a       397     0    20     1    17
 -5.3260408817828053E-01 a       398     0    20     1    18
  1.0648308271701017E-01 a       399     0    20     1    19
 -3.0840052676726687E-01 a       400     0    20     1    20
 -2.8007126814652383E-01 a       401     0    21     1     1
 -6.4727770989838196E-01 a       402     0    21     1     2
  1.0236021939921619E-01 a       403     0    21     1     3
 -5.3819859801390912E-01 a       404     0    21     1     4
  9.7287588979644934E-01 a       405     0    21     1     5
 -4.5634895478397053E-01 a       406     0    21     1     6
 -3.2386847034718491E-01 a       407     0    21     1     7
 -6.9470923716234131E-02 a       408     0    21     1     8
  4.4492972287375682E-01 a       409     0    21     1     9
  5.2634586973933417E-01 a       410     0    21     1    10
  2.6624245215960063E-01 a       411     0    21     1    11
  2.8712394870726893E-01 a       412     0    21     1    12
  1.2524182594550486E+00 a       413     0    21     1    13
 -3.5162963213807408E-01 a       414     0    21     1    14
 -1.5524580168689445E-01 a       415     0    21     1    15
 -4.0376423145137269E-01 a       416     0    21     1    16
  6.1883509824033248E-02 a       417     0    21     1    17
  9.1186490093679939E-01 a       418     0    21     1    18
  7.9461554254820810E-01 a       419     0    21     1    19
  3.6326874708732682E-01 a       420     0    21     1    20
 -6.0203633369200893E-01 a       421     0    22     1     1
  1.7312092109172464E-01 a       422     0    22     1     2
 -4.6934595154924891E-01 a       423     0    22     1     3
 -2.3951379700133046E-01 a       424     0    22     1     4
  3.5852792702566666E-01 a       425     0    22     1     5
  1.8315562742687566E-01 a       426     0    22     1     6
  5.1594361367374109E-01 a       427     0    22     1     7
 -1.9853575879433531E-02 a       428     0    22     1     8
 -1.2082893537519818E-01 a       429     0    22     1     9
  6.3260160390665843E-01 a       430     0    22     1    10
  2.7799122417049266E-01 a       431     0    22     1    11
 -3.3037882764408227E-01 a       432     0    22     1    12
 -4.8244763826911485E-01 a       433     0    22     1    13
 -7.8660965546143247E-01 a       434     0    22     1    14
 -5.5189379702491814E-01 a       435     0    22     1    15
 -6.4908898196151321E-01 a       436     0    22     1    16
  3.0091401345550967E-01 a       437     0    22     1    17
 -3.8769406447378485E-01 a       438     0    22     1    18
 -2.9629090933341778E-01 a       439     0    22     1    19
  8.8493526305291614E-02 a       440     0    22     1    20
 -1.3867308780896248E+00 a       441     0    23     1     1
 -3.6268661796783769E-01 a       442     0    23     1     2
  2.0876006784581494E-01 a       443     0    23     1     3
  1.3682168780333323E-01 a       444     0    23     1     4
 -4.4598027689529768E-01 a       445     0    23     1     5
  1.7325066256818053E-01 a       446     0    23     1     6
 -2.1844810233726566E-01 a       447     0    23     1     7
 -2.7165847480127120E-01 a       448     0    23     1     8
  3.2859968541372525E-01 a       449     0    23     1     9
  4.6091498153713478E-01 a       450     0    23     1    10
  3.0569778102543837E-02 a       451     0    23     1    11
 -4.7386770692430324E-01 a       452     0    23     1    12
  5.3992229051801253E-02 a       453     0    23     1    13
  1.6583252507803264E-01 a       454     0    23     1    14
  1.4607643406538615E-01 a       455     0    23     1    15
  4.6041034101498901E-01 a       456     0    23     1    16
 -3.9308809332985994E-01 a       457     0    23     1    17
  1.9990563988766996E-01 a       458     0    23     1    18
 -1.0024806257366757E-01 a       459     0    23     1    19
 -1.8062773775605098E-01 a       460     0    23     1    20
  4.9024534228060607E-01 a       461     0    24     1     1
 -1.4431014773565434E-01 a       462     0    24     1     2
  1.9007886727384912E-01 a       463     0    24     1     3
 -3.7038430047741155E-01 a       464     0    24     1     4
 -4.3745291442032819E-01 a       465     0    24     1     5
  1.0466160572518535E-02 a       466     0    24     1     6
 -8.2001465569836884E-01 a       467     0    24     1     7
 -5.5032054960885690E-01 a       468     0    24     1     8
  3.1541662643513863E-01 a       469     0    24     1     9
  6.4542322383451409E-02 a       470     0    24     1    10
 -1.4502103813844489E-01 a       471     0    24     1    11
  1.9149370180486494E-01 a       472     0    24     1    12
  8.1513235929178612E-02 a       473     0    24     1    13
 -2.6457324522841042E-02 a       474     0    24     1    14
  9.2160256624124651E-02 a       475     0    24     1    15
  8.1097833067850922E-01 a       476     0    24     1    16
 -1.5907579830423665E-02 a       477     0    24     1    17
  2.6257635715048766E-01 a       478     0    24     1    18
  1.4768401530583844E-01 a       479     0    24     1    19
 -5.8800395930643445E-01 a       480     0    24     1    20
 -2.1173647119433125E+00 a       481     0    25     1     1
  4.9053554898179497E-01 a       482     0    25     1     2
 -4.3674664011326837E-02 a       483     0    25     1     3
  1.0425933386109057E-01 a       484     0    25     1     4
  8.7329750585840249E-02 a       485     0    25     1     5
  1.9215688395224703E-01 a       486     0    25     1     6
  1.0049386832172098E+00 a       487     0    25     1     7
  3.7474203521975502E-01 a       488     0    25     1     8
 -4.5108024332272179E-01 a       489     0    25     1     9
  6.7538735620343238E-01 a       490     0    25     1    10
  5.0717868733035065E-01 a       491     0    25     1    11
 -1.9417317739195381E-01 a       492     0    25     1    12
 -3.2441950359724031E-01 a       493     0    25     1    13
  1.3640319140811419E-01 a       494     0    25     1    14
  5.6372416850670348E-01 a       495     0    25     1    15
  6.6777605575223983E-02 a       496     0    25     1    16
 -1.6609076447734630E-01 a       497     0    25     1    17
 -2.1368703234241426E-01 a       498     0    25     1    18
 -8.6324532419928035E-01 a       499     0    25     1    19
  1.0401323423351796E-01 a       500     0    25     1    20
 -3.3330928049693453E-01 a       501     0    26     1     1
  1.0374131894606349E-01 a       502     0    26     1     2
 -5.8613420598052901E-01 a       503     0    26     1     3
 -1.4465263193439806E-01 a       504     0    26     1     4
  1.4738347756329076E-01 a       505     0    26     1     5
 -2.4659839824133867E-01 a       506     0    26     1     6
  6.3455033157630747E-01 a       507     0    26     1     7
  5.0549413620591344E-01 a       508     0    26     1     8
 -1.6830534114609003E-01 a       509     0    26     1     9
 -9.3778949341177573E-02 a       510     0    26     1    10
  4.0945388943818545E-01 a       511     0    26     1    11
 -3.3584655574281225E-02 a       512     0    26     1    12
  1.9688238114290005E-01 a       513     0    26     1    13
 -2.0031046433355812E-01 a       514     0    26     1    14
 -2.6686883304997094E-01 a       515     0    26     1    15
 -5.2789487269024882E-01 a       516     0    26     1    16
  2.4734021817966503E-01 a       517     0    26     1    17
 -9.8989686332590240E-02 a       518     0    26     1    18
 -4.1940546161736036E-01 a       519     0    26     1    19
  4.1714824373953002E-01 a       520     0    26     1    20
  1.1339430641343204E+00 a       521     0    27     1     1
  3.0988715049490362E-01 a       522     0    27     1     2
  8.8226050851103660E-02 a       523     0    27     1     3
  5.6841887004065805E-01 a       524     0    27     1     4
 -1.3862000323820073E-01 a       525     0    27     1     5
 -9.2090319140306090E-02 a       526     0    27     1     6
 -1.7958915007858864E+00 a       527     0    27     1     7
  1.9545437339486132E-01 a       528     0    27     1     8
 -2.8759318068162143E-01 a       529     0    27     1     9
 -6.4284854945006209E-01 a       530     0    27     1    10
 -2.8628357547116182E-02 a       531     0    27     1    11
 -6.4727151645160338E-02 a       532     0    27     1    12
  5.6348548161881362E-01 a       533     0    27     1    13
 -3.7012080763649707E-01 a       534     0    27     1    14
 -7.7710379227438331E-01 a       535     0    27     1    15
 -5.2000412965776358E-02 a       536     0    27     1    16
  6.7961314057232380E-01 a       537     0    27     1    17
  3.5103153433811535E-01 a       538     0    27     1    18
  8.4464323683777698E-01 a       539     0    27     1    19
 -4.8674275743204776E-01 a       540     0    27     1    20
  1.3712668663444169E-01 a       541     0    28     1     1
 -1.8392824935429430E-01 a       542     0    28     1     2
  3.7578443799715833E-01 a       543     0    28     1     3
  6.2259128290460786E-01 a       544     0    28     1     4
 -4.6266069165982232E-01 a       545     0    28     1     5
  1.6161954813883850E-01 a       546     0    28     1     6
  8.1051152366759638E-01 a       547     0    28     1     7
  3.9583767335706226E-02 a       548     0    28     1     8
  4.1422637815826491E-01 a       549     0    28     1     9
 -3.5425115875745639E-01 a       550     0    28     1    10
 -1.0915599783753217E-01 a       551     0    28     1    11
  8.1731670312589433E-02 a       552     0    28     1    12
  1.7711786804371799E-01 a       553     0    28     1    13
  4.7768495801453170E-01 a       554     0    28     1    14
 -5.6833540851642861E-01 a       555     0    28     1    15
  2.4371205761461617E-01 a       556     0    28     1    16
 -1.1602153860209290E-01 a       557     0    28     1    17
 -3.7381401719353680E-01 a       558     0    28     1    18
  3.5995506216787193E-01 a       559     0    28     1    19
  2.7099183003034427E-01 a       560     0    28     1    20
  7.3924515390216661E-02 a       561     0    29     1     1
 -2.0325599930402491E-01 a       562     0    29     1     2
 -3.6214855403347596E-02 a       563     0    29     1     3
  2.4338653215204883E-01 a       564     0    29     1     4
 -1.9205815571150403E-01 a       565     0    29     1     5
  2.0608473251308487E-01 a       566     0    29     1     6
  9.3248845778542144E-02 a       567     0    29     1     7
 -1.4234867953398611E-01 a       568     0    29     1     8
  2.5506498084804380E-01 a       569     0    29     1     9
  7.2721270919704339E-01 a       570     0    29     1    10
  7.1256554489717294E-02 a       571     0    29     1    11
  1.1700077927982619E-01 a       572     0    29     1    12
  1.6319682639915739E-01 a       573     0    29     1    13
  6.0592800652048820E-02 a       574     0    29     1    14
 -6.1464659964651291E-01 a       575     0    29     1    15
 -5.0500308407577854E-01 a       576     0    29     1    16
  2.1203168808025791E-01 a       577     0    29     1    17
 -3.6537878347763647E-01 a       578     0    29     1    18
  7.0625782842018356E-02 a       579     0    29     1    19
  1.4488898670804568E-01 a       580     0    29     1    20
 -6.4058141775635868E-01 a       581     0    30     1     1
  3.6666017180466998E-01 a       582     0    30     1     2
 -4.0933597667668964E-02 a       583     0    30     1     3
 -3.1179147768996390E-01 a       584     0    30     1     4
  2.8863989470259110E-01 a       585     0    30     1     5
  2.1138018221859367E-01 a       586     0    30     1     6
 -2.8476879071210398E-01 a       587     0    30     1     7
 -2.5301833893377168E-01 a       588     0    30     1     8
  2.5383045159453654E-01 a       589     0    30     1     9
  5.1273807548441641E-01 a       590     0    30     1    10
  1.5791255369924682E-02 a       591     0    30     1    11
  2.0852940656299382E-01 a       592     0    30     1    12
  1.1836789610164751E-02 a       593     0    30     1    13
  3.2664320411018166E-01 a       594     0    30     1    14
  5.0278042143501726E-02 a       595     0    30     1    15
 -5.7647536414643297E-01 a       596     0    30     1    16
 -4.9801114560881637E-01 a       597     0    30     1    17
  3.5659113564128153E-01 a       598     0    30     1    18
 -4.5335971938071218E-01 a       599     0    30     1    19
 -5.7820206341033631E-02 a       600     0    30     1    20
 -6.5499376142030052E-01 a       601     0    31     1     1
  3.9755369986777711E-01 a       602     0    31     1     2
  9.2221371282597955E-02 a       603     0    31     1     3
 -5.5258254239061300E-01 a       604     0    31     1     4
  4.3604758869020099E-01 a       605     0    31     1     5
  1.0351908393673501E-01 a       606     0    31     1     6
 -1.5947545254964024E-01 a       607     0    31     1     7
 -4.9472357015504725E-01 a       608     0    31     1     8
  4.3567197538217295E-01 a       609     0    31     1     9
  8.6074373843696939E-01 a       610     0    31     1    10
 -3.7836938971894124E-01 a       611     0    31     1    11
 -2.3477835107442388E-01 a       612     0    31     1    12
 -2.6404500309410667E-01 a       613     0    31     1    13
  4.5842100431209849E-02 a       614     0    31     1    14
 -1.2644370786036938E-01 a       615     0    31     1    15
 -4.6450119336376838E-01 a       616     0    31     1    16
  2.9042133772840056E-01 a       617     0    31     1    17
  6.7180127562862535E-01 a       618     0    31     1    18
 -5.4952168700432158E-01 a       619     0    31     1    19
 -5.7494996799313464E-03 a       620     0    31     1    20
  1.2668348789782364E+00 a       621     0    32     1     1
 -3.7291560385429023E-01 a       622     0    32     1     2
  7.9714596778613783E-02 a       623     0    32     1     3
  3.5291712130360184E-02 a       624     0    32     1     4
 -2.5033053318596449E-01 a       625     0    32     1     5
  1.9635044145706101E-01 a       626     0    32     1     6
  8.2515102607166069E-01 a       627     0    32     1     7
 -8.6477759021695333E-01 a       628     0    32     1     8
  3.1242538420891375E-01 a       629     0    32     1     9
 -3.9956583050915673E-01 a       630     0    32     1    10
 -1.0927924558743944E-01 a       631     0    32     1    11
  1.0051149538280861E+00 a       632     0    32     1    12
 -6.9430424441028837E-01 a       633     0    32     1    13
 -1.3859182254131744E-01 a       634     0    32     1    14
  3.6861167011393414E-01 a       635     0    32     1    15
  5.7703598348901186E-01 a       636     0    32     1    16
 -2.4903851724860712E-01 a       637     0    32     1    17
 -3.1913265668593410E-01 a       638     0    32     1    18
 -4.3347004762622543E-01 a       639     0    32     1    19
  4.5707527987696905E-01 a       640     0    32     1    20
 -1.7095370529724947E+00 a       641     0    33     1     1
  4.8171236485151071E-02 a       642     0    33     1     2
  1.7195744250966042E-02 a       643     0    33     1     3
 -1.6162677866684394E-01 a       644     0    33     1     4
  1.7633759130418131E-01 a       645     0    33     1     5
 -1.1827548578036038E+00 a       646     0    33     1     6
 -7.4794132862781293E-01 a       647     0    33     1     7
  3.1320994694312243E-01 a       648     0    33     1     8
 -3.7681059229396036E-01 a       649     0    33     1     9
 -8.0034716943696538E-01 a       650     0    33     1    10
 -1.2506776663036245E-01 a       651     0    33     1    11
  7.7214950008762251E-01 a       652     0    33     1    12
 -2.0667162363973784E-01 a       653     0    33     1    13
 -1.2676257589833961E+00 a       654     0    33     1    14
 -7.9036046593175224E-01 a       655     0    33     1    15
 -4.4215278594051188E-01 a       656     0    33     1    16
 -2.4445741214720348E-01 a       657     0    33     1    17
  3.0659803167072908E-01 a       658     0    33     1    18
  2.7977210744730469E-01 a       659     0    33     1    19
 -3.5175404874334137E-01 a       660     0    33     1    20
  2.8429096084133038E-01 a       661     0    34     1     1
  9.1978153648206128E-03 a       662     0    34     1     2
  4.1649893516049523E-02 a       663     0    34     1     3
 -2.4445765770397598E-01 a       664     0    34     1     4
 -4.6011948012666593E-01 a       665     0    34     1     5
  1.0534430122961411E+00 a       666     0    34     1     6
  7.5865661747585050E-02 a       667     0    34     1     7
  1.2601717898221154E-01 a       668     0    34     1     8
 -3.2482215889580585E-02 a       669     0    34     1     9
  3.6906119643707402E-01 a       670     0    34     1    10
  6.0329357991856536E-01 a       671     0    34     1    11
 -4.0213000575361924E-01 a       672     0    34     1    12
  2.6520553844471745E-01 a       673     0    34     1    13
  1.0137635316001008E+00 a       674     0    34     1    14
 -1.7133987954910557E-01 a       675     0    34     1    15
  2.3657108723524661E-01 a       676     0    34     1    16
 -8.8653420981585712E-02 a       677     0    34     1    17
 -3.1601673998908862E-02 a       678     0    34     1    18
 -2.5768740260216561E-01 a       679     0    34     1    19
  3.4216530958058815E-02 a       680     0    34     1    20
 -5.8652991265828269E-01 a       681     0    35     1     1
 -2.2842932036262087E-01 a       682     0    35     1     2
  9.9003158196015240E-01 a       683     0    35     1     3
  3.1270814421387794E-01 a       684     0    35     1     4
  1.9045209489662568E-01 a       685     0    35     1     5
  2.2843140688576030E-01 a       686     0    35     1     6
  4.2617602588872455E-02 a       687     0    35     1     7
 -9.0199427470135818E-01 a       688     0    35     1     8
  4.1118977652480049E-01 a       689     0    35     1     9
 -4.5130472049954262E-01 a       690     0    35     1    10
  3.1879653557727716E-01 a       691     0    35     1    11
  9.3944897351616963E-01 a       692     0    35     1    12
 -1.6159642104970334E-01 a       693     0    35     1    13
  1.4283252237133673E-01 a       694     0    35     1    14
  1.6154764901154769E-01 a       695     0    35     1    15
 -1.0530157778168774E+00 a       696     0    35     1    16
 -2.1624335956630214E-01 a       697     0    35     1    17
 -2.9972959867063782E-02 a       698     0    35     1    18
 -4.9678665960325952E-01 a       699     0    35     1    19
  4.6111538283121201E-01 a       700     0    35     1    20
  2.7662145109353664E-01 a       701     0    36     1     1
  2.2818458442597267E-01 a       702     0    36     1     2
 -2.1527962037815410E-01 a       703     0    36     1     3
 -7.9685536506767934E-02 a       704     0    36     1     4
  2.1740244049619276E-01 a       705     0    36     1     5
 -1.4311882604088877E-01 a       706     0    36     1     6
 -1.1732234058551448E-02 a       707     0    36     1     7
  4.1193609805733467E-01 a       708     0    36     1     8
 -5.5392120613240919E-02 a       709     0    36     1     9
  3.8249834139685474E-01 a       710     0    36     1    10
 -7.5002472331790848E-01 a       711     0    36     1    11
 -1.5642813028822170E-01 a       712     0    36     1    12
 -2.1502573894878388E-01 a       713     0    36     1    13
  2.6036986504447540E-01 a       714     0    36     1    14
 -7.0269382634359567E-01 a       715     0    36     1    15
  9.3926258641673352E-02 a       716     0    36     1    16
  1.3743605788522245E-01 a       717     0    36     1    17
  3.0534552606184884E-01 a       718     0    36     1    18
  5.4884241004584611E-02 a       719     0    36     1    19
 -1.7009396724348827E-01 a       720     0    36     1    20
  7.6246049703741603E-01 a       721     0    37     1     1
 -1.2381554155971426E-01 a       722     0    37     1     2
  7.7593992369643802E-02 a       723     0    37     1     3
  1.6105631311335861E-01 a       724     0    37     1     4
 -3.8073293111231588E-02 a       725     0    37     1     5
  7.4950895596724365E-01 a       726     0    37     1     6
  2.5216778743005430E-01 a       727     0    37     1     7
  6.8106258299049427E-02 a       728     0    37     1     8
 -1.7735365813197707E-01 a       729     0    37     1     9
  6.8922815993739639E-01 a       730     0    37     1    10
 -1.3495629851046348E-01 a       731     0    37     1    11
 -4.2819991607831076E-01 a       732     0    37     1    12
  1.4893552501772739E-01 a       733     0    37     1    13
  7.8145513507955844E-01 a       734     0    37     1    14
  5.5448410256959502E-01 a       735     0    37     1    15
  2.8686134125540552E-01 a       736     0    37     1    16
  1.0003970451201520E-01 a       737     0    37     1    17
 -4.1556537080021855E-02 a       738     0    37     1    18
 -1.1657397908717416E-01 a       739     0    37     1    19
  2.6271958315445887E-01 a       740     0    37     1    20
 -3.4544800225204636E-01 a       741     0    38     1     1
  1.5767850713090770E-01 a       742     0    38     1     2
 -2.0463481329483180E-01 a       743     0    38     1     3
 -6.7828717272774827E-02 a       744     0    38     1     4
 -3.8269107921434647E-01 a       745     0    38     1     5
 -6.5780613487501818E-02 a       746     0    38     1     6
 -3.6720236945959067E-01 a       747     0    38     1     7
  7.0579290692514296E-01 a       748     0    38     1     8
 -2.2237614230985106E-01 a       749     0    38     1     9
 -7.9159981978883021E-01 a       750     0    38     1    10
  5.8691776184047129E-01 a       751     0    38     1    11
  2.2421802854451424E-02 a       752     0    38     1    12
  6.7369674161045767E-01 a       753     0    38     1    13
 -3.0052121183512587E-01 a       754     0    38     1    14
  4.2655765888833103E-02 a       755     0    38     1    15
  1.1294473784312831E-01 a       756     0    38     1    16
  7.4153275792845932E-02 a       757     0    38     1    17
 -2.3259119975670706E-01 a       758     0    38     1    18
 -7.7803411681737378E-02 a       759     0    38     1    19
 -4.8287353507723774E-01 a       760     0    38     1    20
  2.9690657064596382E-01 a       761     0    39     1     1
  1.5992722934020448E-01 a       762     0    39     1     2
 -8.2158195319591537E-02 a       763     0    39     1     3
 -2.0242469985507824E-01 a       764     0    39     1     4
  2.2954308998893647E-01 a       765     0    39     1     5
 -2.8966679811977653E-01 a       766     0    39     1     6
 -9.3119262562902771E-01 a       767     0    39     1     7
 -1.3267064599182249E-01 a       768     0    39     1     8
  3.9346731862733458E-01 a       769     0    39     1     9
  1.7478472217800958E+00 a       770     0    39     1    10
 -9.9839215944476853E-02 a       771     0    39     1    11
  4.1788366588107817E-01 a       772     0    39     1    12
  2.6488296906672676E-01 a       773     0    39     1    13
  3.8071373037287326E-01 a       774     0    39     1    14
 -1.1430250714682506E+00 a       775     0    39     1    15
 -1.4637114236828361E-01 a       776     0    39     1    16
  7.7561753473388306E-01 a       777     0    39     1    17
  6.1812646624324341E-01 a       778     0    39     1    18
  4.2774371956310286E-01 a       779     0    39     1    19
 -1.0848530838924870E+00 a       780     0    39     1    20
  8.5366784864593415E-01 a       781     0    40     1     1
  2.2409050320760812E-01 a       782     0    40     1     2
  4.1720267323075333E-01 a       783     0    40     1     3
 -3.3289351961861957E-01 a       784     0    40     1     4
 -1.0367412127603977E-01 a       785     0    40     1     5
 -8.3110054986419191E-01 a       786     0    40     1     6
  8.1103663851209484E-01 a       787     0    40     1     7
 -4.9616475541766791E-01 a       788     0    40     1     8
 -1.3930495619021470E+00 a       789     0    40     1     9
 -4.2167260723603534E-01 a       790     0    40     1    10
 -3.6176991680460235E-01 a       791     0    40     1    11
 -1.1681118753033566E+00 a       792     0    40     1    12
 -3.1282345767010772E-01 a       793     0    40     1    13
 -2.0019020329084025E+00 a       794     0    40     1    14
 -7.3046714250410635E-02 a       795     0    40     1    15
  3.3820052535460482E-01 a       796     0    40     1    16
  4.0414654200982231E-01 a       797     0    40     1    17
  1.3158972637157937E-01 a       798     0    40     1    18
  1.3496301162697197E-01 a       799     0    40     1    19
  1.8503852396611828E+00 a       800     0    40     1    20
  3.7151927868277551E-01 a       801     0    41     1     1
  4.8985989088758633E-02 a       802     0    41     1     2
  1.4975352379966989E-01 a       803     0    41     1     3
  5.3111791727503210E-01 a       804     0    41     1     4
 -2.6900870803886023E-01 a       805     0    41     1     5
 -8.0294346673614103E-01 a       806     0    41     1     6
  6.4462259061278948E-01 a       807     0    41     1     7
 -1.5393873455202997E-01 a       808     0    41     1     8
  2.4191198615264770E-01 a       809     0    41     1     9
 -2.7500216084943202E-01 a       810     0    41     1    10
  5.5753652494103589E-01 a       811     0    41     1    11
  1.2092939178648430E+00 a       812     0    41     1    12
 -3.6410925619102147E-01 a       813     0    41     1    13
 -1.8953536088640202E-01 a       814     0    41     1    14
  7.8842964502702151E-01 a       815     0    41     1    15
 -1.2162113178535604E-01 a       816     0    41     1    16
 -2.1968486719733463E-01 a       817     0    41     1    17
  3.0306343560720678E-01 a       818     0    41     1    18
  3.0523998670700547E-01 a       819     0    41     1    19
 -6.6362924440239257E-01 a       820     0    41     1    20
  3.6738325116073378E-01 a       821     0    42     1     1
  2.1098080921972454E-01 a       822     0    42     1     2
 -3.3011059113388058E-01 a       823     0    42     1     3
  4.4807399186593022E-01 a       824     0    42     1     4
 -6.0242516257550904E-01 a       825     0    42     1     5
  1.1619820188968195E-01 a       826     0    42     1     6
  6.4349143123098451E-01 a       827     0    42     1     7
  3.0967648399179926E-01 a       828     0    42     1     8
 -5.1999344184739826E-01 a       829     0    42     1     9
  3.9560096783648196E-01 a       830     0    42     1    10
 -3.4676939691813569E-01 a       831     0    42     1    11
 -2.4800103383607253E-01 a       832     0    42     1    12
 -2.7974915388205068E-01 a       833     0    42     1    13
  4.4616234843162855E-01 a       834     0    42     1    14
 -3.0196616571287704E-01 a       835     0    42     1    15
  7.8055952657427929E-01 a       836     0    42     1    16
 -6.8171664525401054E-01 a       837     0    42     1    17
 -1.8027014688581131E-01 a       838     0    42     1    18
 -3.5585259551219653E-03 a       839     0    42     1    19
 -5.5356643829351670E-01 a       840     0    42     1    20
 -8.5038644583745673E-03 a       841     0    43     1     1
  3.4258619455177425E-01 a       842     0    43     1     2
  1.5177183849152083E+00 a       843     0    43     1     3
  1.3342077981739281E-01 a       844     0    43     1     4
  5.5495983699403950E-01 a       845     0    43     1     5
  8.2878658512567283E-01 a       846     0    43     1     6
 -1.4055245303710429E-01 a       847     0    43     1     7
  9.9972164537371044E-01 a       848     0    43     1     8
  3.0821533634664522E-01 a       849     0    43     1     9
 -1.8339172170436302E-01 a       850     0    43     1    10
 -2.1071176045357196E-01 a       851     0    43     1    11
 -4.7718152495287558E-01 a       852     0    43     1    12
 -3.5929248388218255E-01 a       853     0    43     1    13
  3.9247573663013596E-02 a       854     0    43     1    14
  7.5844934686112286E-01 a       855     0    43     1    15
 -2.3855098625661473E+00 a       856     0    43     1    16
 -1.2773594272011835E-01 a       857     0    43     1    17
  3.7669071413793935E-02 a       858     0    43     1    18
 -2.1350814294732010E-01 a       859     0    43     1    19
 -1.1376468470180747E+00 a       860     0    43     1    20
 -5.4030498699563656E-01 a       861     0    44     1     1
  2.0068396664113631E-02 a       862     0    44     1     2
 -9.7181261621280202E-01 a       863     0    44     1     3
 -5.7957806603314166E-01 a       864     0    44     1     4
 -1.4360043685931878E-01 a       865     0    44     1     5
  4.6681898318169837E-02 a       866     0    44     1     6
 -5.9192759339819057E-01 a       867     0    44     1     7
 -2.2161763110548638E-01 a       868     0    44     1     8
  3.4956001086876454E-01 a       869     0    44     1     9
 -6.2033516135616051E-01 a       870     0    44     1    10
  4.1983893807245187E-01 a       871     0    44     1    11
 -7.9590609133495235E-02 a       872     0    44     1    12
  4.7335366231141240E-01 a       873     0    44     1    13
 -4.2254002553183061E-02 a       874     0    44     1    14
  2.4975198328924650E-01 a       875     0    44     1    15
  8.6816704919091936E-01 a       876     0    44     1    16
 -1.2546906994927482E-02 a       877     0    44     1    17
 -4.9661692553104636E-01 a       878     0    44     1    18
 -3.9777488778579345E-01 a       879     0    44     1    19
  2.2988258411406623E-01 a       880     0    44     1    20
  5.7104337091380108E-01 a       881     0    45     1     1
 -5.6374173495845414E-01 a       882     0    45     1     2
 -5.4735542029525283E-02 a       883     0    45     1     3
 -1.5457654419256575E+00 a       884     0    45     1     4
  1.0418343315052574E+00 a       885     0    45     1     5
  1.5054349199843292E-01 a       886     0    45     1     6
 -1.8816784103763654E-01 a       887     0    45     1     7
  1.1043395136010010E+00 a       888     0    45     1     8
 -8.8402182465125378E-02 a       889     0    45     1     9
 -3.9792636817985716E-01 a       890     0    45     1    10
  4.1979887163681190E-01 a       891     0    45     1    11
 -6.9669389588797470E-01 a       892     0    45     1    12
  3.8400779818733843E-01 a       893     0    45     1    13
  2.1301307844635750E-01 a       894     0    45     1    14
  3.5408701799923809E-01 a       895     0    45     1    15
 -1.9735970791100463E-01 a       896     0    45     1    16
  4.3430329107906718E-01 a       897     0    45     1    17
  3.3518520411329356E-02 a       898     0    45     1    18
 -8.7960439264232956E-02 a       899     0    45     1    19
  5.2239054194990608E-01 a       900     0    45     1    20
  6.7008745566700245E-01 a       901     0    46     1     1
 -1.6706598550072346E-01 a       902     0    46     1     2
 -1.8007038786372651E-01 a       903     0    46     1     3
  7.7957999887715623E-01 a       904     0    46     1     4
  5.3372932078358015E-01 a       905     0    46     1     5
  1.3439853498326157E-01 a       906     0    46     1     6
 -5.3270964198690496E-01 a       907     0    46     1     7
 -5.3921415272301418E-02 a       908     0    46     1     8
 -5.0795945018456135E-01 a       909     0    46     1     9
 -8.9455741241208453E-01 a       910     0    46     1    10
 -1.3817928351646294E-01 a       911     0    46     1    11
  4.1784899749376719E-01 a       912     0    46     1    12
 -4.3317974936208214E-01 a       913     0    46     1    13
  2.3274364887267984E-01 a       914     0    46     1    14
  3.5453300233179504E-02 a       915     0    46     1    15
  2.7290831254963049E-01 a       916     0    46     1    16
 -5.9909614711232817E-01 a       917     0    46     1    17
 -5.0098677911842948E-01 a       918     0    46     1    18
  8.1710753308989470E-01 a       919     0    46     1    19
  4.2022013992052754E-01 a       920     0    46     1    20
 -1.5923021545748484E+00 b       921     1     1
  5.3197447239529461E-01 b       922     1     2
  1.5145614901935094E+00 b       923     1     3
  1.2520538145500471E-01 b       924     1     4
 -6.3551074613112735E-01 b       925     1     5
  3.6710401653843550E-01 b       926     1     6
 -1.3658902838225948E+00 b       927     1     7
 -2.9345011619494121E-01 b       928     1     8
  1.2827860915594176E+00 b       929     1     9
 -4.1641172589204500E-01 b       930     1    10
 -9.9308344664056014E-01 b       931     1    11
  1.6178492492680470E+00 b       932     1    12
  4.2487720839896914E-01 b       933     1    13
 -7.7851131561307418E-01 b       934     1    14
 -9.5154023160895718E-01 b       935     1    15
  1.0306868672738227E+00 b       936     1    16
 -6.7032185373215325E-01 b       937     1    17
  1.2525638608467566E+00 b       938     1    18
  7.6137900197884401E-01 b       939     1    19
 -9.1445863071024946E-01 b       940     1    20
  2.0035129744401922E-01 a       941     1     1     2     1
  3.0177344391121397E-01 a       942     1     1     2     2
 -1.1510651286852571E+00 a       943     1     1     2     3
  4.1883196036740838E-01 a       944     1     1     2     4
  5.1353543325500395E-01 a       945     1     1     2     5
 -5.2285086148686377E-01 a       946     1     1     2     6
  3.0574836868356164E-01 a       947     1     1     2     7
 -8.1640487482032814E-02 a       948     1     1     2     8
 -1.2056112080683050E-01 a       949     1     1     2     9
 -3.3149890606797100E-01 a       950     1     1     2    10
 -1.0108591237080336E-01 a       951     1     1     2    11
 -3.4370581194518757E-01 a       952     1     1     2    12
  1.8082864045646810E-01 a       953     1     1     2    13
  1.0485385088539723E-01 a       954     1     1     2    14
 -1.8261625364813555E-01 a       955     1     1     2    15
 -4.5363098792586987E-01 a       956     1     1     2    16
  5.5408315771506989E-01 a       957     1     1     2    17
 -2.6808383637510191E-01 a       958     1     1     2    18
 -3.7699936682390356E-01 a       959     1     1     2    19
 -7.0215564709625033E-02 a       960     1     1     2    20
 -4.2253378349732795E-01 a       961     1     2     2     1
  6.8093924524512683E-01 a       962     1     2     2     2
  3.7922861033525773E-01 a       963     1     2     2     3
  5.0553070554152513E-01 a       964     1     2     2     4
  1.7166977934119873E-01 a       965     1     2     2     5
  4.5631356941720952E-01 a       966     1     2     2     6
  1.5716831089913474E-01 a       967     1     2     2     7
  5.3078754131725570E-01 a       968     1     2     2     8
  1.9064338901355204E-01 a       969     1     2     2     9
 -4.4135278970009663E-02 a       970     1     2     2    10
  4.9464184338627183E-02 a       971     1     2     2    11
  2.2509933684726716E-01 a       972     1     2     2    12
  3.5606204007714354E-01 a       973     1     2     2    13
  6.3440201169340227E-01 a       974     1     2     2    14
  2.3732696622090144E-02 a       975     1     2     2    15
  8.1423221858296213E-01 a       976     1     2     2    16
  1.3496965311179684E-02 a       977     1     2     2    17
 -4.0452961670908760E-01 a       978     1     2     2    18
 -2.6583141677716787E-02 a       979     1     2     2    19
 -5.7760782720705095E-01 a       980     1     2     2    20
 -1.5747560826216264E-01 a       981     1     3     2     1
 -6.9541849751251816E-01 a       982     1     3     2     2
  2.1172662726579000E-01 a       983     1     3     2     3
 -2.1367197263977633E-01 a       984     1     3     2     4
  1.0446990765619504E+00 a       985     1     3     2     5
  2.0909634012770537E-01 a       986     1     3     2     6
 -5.3506816111159561E-01 a       987     1     3     2     7
 -1.6359404851481792E-02 a       988     1     3     2     8
  5.7128165660111996E-01 a       989     1     3     2     9
  6.4477179231610071E-01 a       990     1     3     2    10
 -6.7366589646602304E-02 a       991     1     3     2    11
  3.1957279667718919E-01 a       992     1     3     2    12
 -4.6847599004002682E-01 a       993     1     3     2    13
 -2.7984788563376040E-01 a       994     1     3     2    14
 -3.0180519077629839E-02 a       995     1     3     2    15
 -1.4130892513446147E+00 a       996     1     3     2    16
  1.5361433382783740E-01 a       997     1     3     2    17
 -3.3236607191355255E-01 a       998     1     3     2    18
  3.6610462179361147E-01 a       999     1     3     2    19
 -1.0378381747821692E+00 a      1000     1     3     2    20
 -7.6202555410081907E-01 a      1001     1     4     2     1
 -6.3335812668421543E-01 a      1002     1     4     2     2
 -7.0216016908108170E-01 a      1003     1     4     2     3
 -3.0877631885269491E-01 a      1004     1     4     2     4
 -4.5567680373954428E-01 a      1005     1     4     2     5
 -1.8620665284299520E-01 a      1006     1     4     2     6
 -9.1538055722366563E-01 a      1007     1     4     2     7
  1.8200448105737363E-01 a      1008     1     4     2     8
 -2.0261073312813235E-01 a      1009     1     4     2     9
 -3.8517362843320024E-01 a      1010     1     4     2    10
 -1.3989516527971671E-01 a      1011     1     4     2    11
 -1.4482485633556352E-01 a      1012     1     4     2    12
 -2.6176109378650397E-01 a      1013     1     4     2    13
  2.2118395404892044E-01 a      1014     1     4     2    14
 -1.8579681687224639E-02 a      1015     1     4     2    15
  4.7775616111413144E-01 a      1016     1     4     2    16
  2.9166198822746081E-01 a      1017     1     4     2    17
 -3.6760062098837415E-01 a      1018     1     4     2    18
  2.1414178421220700E-01 a      1019     1     4     2    19
  8.8741185457414540E-01 a      1020     1     4     2    20
  6.9619984718494654E-01 a      1021     1     5     2     1
  4.6764982744387701E-02 a      1022     1     5     2     2
  5.0660915264865058E-01 a      1023     1     5     2     3
 -6.5990505552993606E-01 a      1024     1     5     2     4
  6.3272671845612538E-01 a      1025     1     5     2     5
  8.2920604085566174E-01 a      1026     1     5     2     6
  4.9079501754358396E-01 a      1027     1     5     2     7
 -6.2476230844420300E-01 a      1028     1     5     2     8
  1.7963515977116379E-01 a      1029     1     5     2     9
  8.5190069630026422E-01 a      1030     1     5     2    10
  5.7569743032056098E-01 a      1031     1     5     2    11
  3.7688658606170200E-01 a      1032     1     5     2    12
  6.2898180106542279E-01 a      1033     1     5     2    13
 -1.8685163853926731E-01 a      1034     1     5     2    14
  2.3022637229863105E-01 a      1035     1     5     2    15
  1.1068594964364946E+00 a      1036     1     5     2    16
  2.4864108654260367E-02 a      1037     1     5     2    17
 -9.9518658033267460E-01 a      1038     1     5     2    18
 -1.8215949227988684E-01 a      1039     1     5     2    19
 -2.5063136975402245E-01 a      1040     1     5     2    20
 -4.5525238507506793E-01 a      1041     1     6     2     1
  7.5114586339914158E-01 a      1042     1     6     2     2
 -3.4156746465806027E-02 a      1043     1     6     2     3
  3.3175950873265650E-02 a      1044     1     6     2     4
  6.7347471414755694E-02 a      1045     1     6     2     5
 -1.8852799354845476E-01 a      1046     1     6     2     6
 -2.4885727810311226E-01 a      1047     1     6     2     7
 -3.2596356036412510E-01 a      1048     1     6     2     8
 -5.3749134146184885E-01 a      1049     1     6     2     9
 -3.0576068739573470E-01 a      1050     1     6     2    10
 -8.5285989966284254E-02 a      1051     1     6     2    11
  1.5594615125621761E-01 a      1052     1     6     2    12
 -2.9643737244346834E-03 a      1053     1     6     2    13
  5.7356373326739052E-01 a      1054     1     6     2    14
  7.6449590562504743E-01 a      1055     1     6     2    15
  3.8286774881226138E-01 a      1056     1     6     2    16
 -6.2449315469223088E-01 a      1057     1     6     2    17
  7.9958404871973454E-01 a      1058     1     6     2    18
  9.1224592751234501E-01 a      1059     1     6     2    19
 -4.3751466351602336E-01 a      1060     1     6     2    20
 -1.0008562390861062E-01 a      1061     1     7     2     1
  3.4001379062623671E-01 a      1062     1     7     2     2
  2.4687951108710854E-01 a      1063     1     7     2     3
  9.1707954218269183E-01 a      1064     1     7     2     4
 -6.6108515170114857E-01 a      1065     1     7     2     5
  4.4019866210087338E-01 a      1066     1     7     2     6
 -5.6636347289627340E-02 a      1067     1     7     2     7
 -2.1880806026814667E-01 a      1068     1     7     2     8
 -4.9004736312102226E-01 a      1069     1     7     2     9
 -2.2762032340747268E-01 a      1070     1     7     2    10
  1.0792968586852371E-02 a      1071     1     7     2    11
  1.6237589557129988E+00 a      1072     1     7     2    12
  6.7552688073223610E-01 a      1073     1     7     2    13
  1.1636436766940486E-01 a      1074     1     7     2    14
  2.5675431302117985E-01 a      1075     1     7     2    15
 -1.1470209390207939E-01 a      1076     1     7     2    16
 -1.8361248531439739E-01 a      1077     1     7     2    17
 -2.0164074526399463E-02 a      1078     1     7     2    18
  6.6210019146940369E-01 a      1079     1     7     2    19
 -7.2780626540639826E-01 a      1080     1     7     2    20
  3.8415302005834223E-01 a      1081     1     8     2     1
 -5.5067601710940128E-01 a      1082     1     8     2     2
  1.6982496602458030E-01 a      1083     1     8     2     3
 -3.4680210362716524E-01 a      1084     1     8     2     4
 -9.5113221918687441E-01 a      1085     1     8     2     5
  7.4937929060877775E-02 a      1086     1     8     2     6
  5.8173652441090962E-01 a      1087     1     8     2     7
 -5.1532784583477653E-01 a      1088     1     8     2     8
  6.2813829264239540E-01 a      1089     1     8     2     9
 -3.6133319716241141E-01 a      1090     1     8     2    10
  1.6688833488049576E-01 a      1091     1     8     2    11
  4.0411919238662797E-01 a      1092     1     8     2    12
 -6.5510160285216423E-01 a      1093     1     8     2    13
 -8.9518851591818896E-02 a      1094     1     8     2    14
 -4.8505665808404408E-01 a      1095     1     8     2    15
  1.6764398300911351E-01 a      1096     1     8     2    16
 -5.3255150774119486E-01 a      1097     1     8     2    17
  2.5507759918234668E-01 a      1098     1     8     2    18
 -6.5598338507511555E-01 a      1099     1     8     2    19
 -9.0598198060466473E-01 a      1100     1     8     2    20
 -1.1319705693762040E-01 a      1101     1     9     2     1
  1.4738566162344746E-01 a      1102     1     9     2     2
  4.8700499915643530E-01 a      1103     1     9     2     3
 -5.0183634256173726E-01 a      1104     1     9     2     4
 -1.0248350742069228E+00 a      1105     1     9     2     5
  3.5994457631137422E-01 a      1106     1     9     2     6
 -6.4215947438715959E-01 a      1107     1     9     2     7
 -4.1591028985805306E-01 a      1108     1     9     2     8
  3.3590350348416363E-02 a      1109     1     9     2     9
 -6.3708568408013699E-01 a      1110     1     9     2    10
  6.4105583066473570E-01 a      1111     1     9     2    11
  1.4337690954468782E-01 a      1112     1     9     2    12
 -1.8934861327140465E-01 a      1113     1     9     2    13
  1.4462453037771136E-01 a      1114     1     9     2    14
 -7.8877683137935761E-01 a      1115     1     9     2    15
  1.5165151341589106E-01 a      1116     1     9     2    16
  6.5430443206056543E-01 a      1117     1     9     2    17
  9.1148615028743621E-02 a      1118     1     9     2    18
  7.0678124994419639E-02 a      1119     1     9     2    19
  6.3044511832521924E-02 a      1120     1     9     2    20
 -5.6798500696986465E-01 a      1121     1    10     2     1
 -1.0465986276772399E+00 a      1122     1    10     2     2
  5.7750668661305871E-01 a      1123     1    10     2     3
 -7.4873666094032854E-01 a      1124     1    10     2     4
  6.4557789439478014E-02 a      1125     1    10     2     5
  4.7343930014656094E-01 a      1126     1    10     2     6
 -3.5730620382152650E-01 a      1127     1    10     2     7
  3.8618635925509909E-01 a      1128     1    10     2     8
  2.0207221958474256E-01 a      1129     1    10     2     9
  5.6579892439512502E-01 a      1130     1    10     2    10
 -4.9289119238675148E-03 a      1131     1    10     2    11
  5.9386510300121742E-01 a      1132     1    10     2    12
 -9.8531840419202307E-02 a      1133     1    10     2    13
 -6.3622981556528524E-01 a      1134     1    10     2    14
  4.2771995810265295E-01 a      1135     1    10     2    15
  1.8542608375372460E-01 a      1136     1    10     2    16
  4.9797462117290819E-01 a      1137     1    10     2    17
 -6.9562929969351650E-01 a      1138     1    10     2    18
 -8.1800786324027530E-01 a      1139     1    10     2    19
  9.5848520257777514E-01 a      1140     1    10     2    20
 -3.0855519842088497E-01 a      1141     1    11     2     1
 -5.1882624144199829E-01 a      1142     1    11     2     2
 -3.6147220754578124E-01 a      1143     1    11     2     3
  8.3060915075045583E-01 a      1144     1    11     2     4
  2.4129683687129808E-01 a      1145     1    11     2     5
 -2.8175221471901490E-01 a      1146     1    11     2     6
 -1.0987252533416567E+00 a      1147     1    11     2     7
 -4.4354193063566810E-01 a      1148     1    11     2     8
  2.1252059958990510E-01 a      1149     1    11     2     9
  6.1529084325355154E-01 a      1150     1    11     2    10
  6.6216128865147512E-03 a      1151     1    11     2    11
  1.5809141131815971E-01 a      1152     1    11     2    12
  5.4802300989673855E-02 a      1153     1    11     2    13
  2.7378672558110573E-01 a      1154     1    11     2    14
 -3.8787531768524697E-01 a      1155     1    11     2    15
 -1.4919465334385346E-01 a      1156     1    11     2    16
  1.9413418708571395E-01 a      1157     1    11     2    17
 -4.3166281486178659E-01 a      1158     1    11     2    18
 -3.6952812733909507E-01 a      1159     1    11     2    19
  2.1769927004676221E-01 a      1160     1    11     2    20
 -3.9069463651538533E-01 a      1161     1    12     2     1
 -1.4274857716711473E-01 a      1162     1    12     2     2
 -3.6354395771659970E-02 a      1163     1    12     2     3
  3.5204628656359888E-01 a      1164     1    12     2     4
 -5.0537195604890928E-01 a      1165     1    12     2     5
  6.1569697046562077E-01 a      1166     1    12     2     6
  2.5839584860608750E-01 a      1167     1    12     2     7
 -3.3386415903595845E-01 a      1168     1    12     2     8
  9.4593047937659269E-02 a      1169     1    12     2     9
 -5.1108112953720808E-01 a      1170     1    12     2    10
  9.1971211188806534E-01 a      1171     1    12     2    11
  4.5045665436463567E-01 a      1172     1    12     2    12
  1.4282777883806838E-01 a      1173     1    12     2    13
  2.1599579158287677E-01 a      1174     1    12     2    14
 -1.0804344995481308E-01 a      1175     1    12     2    15
 -4.9815880876187191E-01 a      1176     1    12     2    16
 -8.0551522092395866E-01 a      1177     1    12     2    17
 -4.7761853637569816E-02 a      1178     1    12     2    18
 -1.0968111305493673E-01 a      1179     1    12     2    19
 -9.2080515366212090E-01 a      1180     1    12     2    20
  6.2379630689277460E-02 a      1181     1    13     2     1
 -7.4009720180188177E-01 a      1182     1    13     2     2
 -6.8391674935496427E-01 a      1183     1    13     2     3
  8.8221608415585206E-01 a      1184     1    13     2     4
  8.7028183482376364E-01 a      1185     1    13     2     5
  8.4838104919089524E-02 a      1186     1    13     2     6
 -3.1519780374855483E-01 a      1187     1    13     2     7
  4.8696535841583832E-01 a      1188     1    13     2     8
 -3.3565593709572383E-01 a      1189     1    13     2     9
  2.0614786071292532E-01 a      1190     1    13     2    10
 -1.5034195017670651E-01 a      1191     1    13     2    11
 -6.9037770869205733E-02 a      1192     1    13     2    12
  3.8676765331410068E-02 a      1193     1    13     2    13
  2.4076332887092419E-01 a      1194     1    13     2    14
 -1.2030434666874625E+00 a      1195     1    13     2    15
 -2.9967676571512369E-01 a      1196     1    13     2    16
  1.5967739529827549E+00 a      1197     1    13     2    17
  2.7557250031725405E-01 a      1198     1    13     2    18
 -2.2733277097885676E-01 a      1199     1    13     2    19
  4.4781990770562874E-01 a      1200     1    13     2    20
  1.4641329257113034E-01 a      1201     1    14     2     1
  6.4231968572659659E-01 a      1202     1    14     2     2
 -6.3811732095782658E-01 a      1203     1    14     2     3
 -2.1159851598490109E-02 a      1204     1    14     2     4
  6.3659712337600302E-02 a      1205     1    14     2     5
  3.3876198336683661E-01 a      1206     1    14     2     6
  2.6038676701436980E-01 a      1207     1    14     2     7
 -3.0857074808539997E-01 a      1208     1    14     2     8
  2.5721575417908282E-01 a      1209     1    14     2     9
  4.7751432139240646E-01 a      1210     1    14     2    10
  3.8468570072139796E-01 a      1211     1    14     2    11
 -6.7692761979360666E-02 a      1212     1    14     2    12
 -2.6008943928922845E-01 a      1213     1    14     2    13
 -1.0333105481363747E+00 a      1214     1    14     2    14
  3.6875681454895348E-01 a      1215     1    14     2    15
 -9.7396989495523487E-02 a      1216     1    14     2    16
 -4.0362524556635271E-01 a      1217     1    14     2    17
 -6.2084723141402942E-01 a      1218     1    14     2    18
  5.3179578755474055E-01 a      1219     1    14     2    19
 -7.5227606724238483E-01 a      1220     1    14     2    20
  6.1810127308136253E-01 a      1221     1    15     2     1
  2.8660539589553208E-01 a      1222     1    15     2     2
  2.8406924055119148E-01 a      1223     1    15     2     3
  1.5668830379523663E-01 a      1224     1    15     2     4
 -6.9947598249451748E-01 a      1225     1    15     2     5
 -2.9048456857431559E-01 a      1226     1    15     2     6
  9.8035322102158884E-01 a      1227     1    15     2     7
  5.2190244571493205E-01 a      1228     1    15     2     8
  6.3538797923945556E-01 a      1229     1    15     2     9
  5.3132280617469962E-01 a      1230     1    15     2    10
 -1.5142574010165069E-01 a      1231     1    15     2    11
  1.5997243332327153E-02 a      1232     1    15     2    12
 -4.1882583007212293E-01 a      1233     1    15     2    13
 -1.0810713874969318E+00 a      1234     1    15     2    14
  1.9622848763349338E-01 a      1235     1    15     2    15
  2.5785763202505929E-01 a      1236     1    15     2    16
 -1.0315720846070978E-01 a      1237     1    15     2    17
 -4.4748367073563683E-01 a      1238     1    15     2    18
  7.5533277334715532E-01 a      1239     1    15     2    19
 -7.6729313982936798E-01 a      1240     1    15     2    20
  9.9925913094197058E-02 a      1241     1    16     2     1
 -7.4678765767517408E-01 a      1242     1    16     2     2
  4.2610623057586677E-01 a      1243     1    16     2     3
  4.9340276636683986E-02 a      1244     1    16     2     4
 -2.1567680607714874E-02 a      1245     1    16     2     5
  8.3420395539847791E-01 a      1246     1    16     2     6
  3.2613805774513815E-01 a      1247     1    16     2     7
 -1.8760526948795989E-01 a      1248     1    16     2     8
  4.2179032548225504E-01 a      1249     1    16     2     9
  7.9011820060277027E-01 a      1250     1    16     2    10
 -6.9740407472794574E-01 a      1251     1    16     2    11
  3.0901776949220733E-01 a      1252     1    16     2    12
 -5.9342067411411137E-01 a      1253     1    16     2    13
  6.2799767640781745E-01 a      1254     1    16     2    14
  5.5496547382773398E-01 a      1255     1    16     2    15
  2.7871163036754321E-01 a      1256     1    16     2    16
 -6.7864318667239665E-01 a      1257     1    16     2    17
 -8.8894317745947460E-01 a      1258     1    16     2    18
  3.4720290632826256E-01 a      1259     1    16     2    19
 -8.4124773551310106E-01 a      1260     1    16     2    20
  8.0567307092873996E-01 a      1261     1    17     2     1
  1.5886998910690167E-01 a      1262     1    17     2     2
  5.5171298462793472E-01 a      1263     1    17     2     3
 -1.0722319779258371E+00 a      1264     1    17     2     4
 -9.9923560227860819E-01 a      1265     1    17     2     5
  8.5079556403148504E-01 a      1266     1    17     2     6
 -5.3809449944449872E-01 a      1267     1    17     2     7
  2.1053635502995818E-01 a      1268     1    17     2     8
 -3.1386156571882806E-01 a      1269     1    17     2     9
  6.7202996466668385E-01 a      1270     1    17     2    10
 -4.4426875031506785E-01 a      1271     1    17     2    11
  2.1099786098052806E-01 a      1272     1    17     2    12
 -9.2685911560792522E-01 a      1273     1    17     2    13
  1.1772172404524429E-01 a      1274     1    17     2    14
 -5.5966019573603565E-01 a      1275     1    17     2    15
 -6.0131262791794615E-01 a      1276     1    17     2    16
 -4.5765408759181569E-01 a      1277     1    17     2    17
 -9.0927416820183227E-01 a      1278     1    17     2    18
  4.7429398404225431E-01 a      1279     1    17     2    19
 -2.5757010251038037E-01 a      1280     1    17     2    20
  1.1670962820820997E-01 a      1281     1    18     2     1
 -7.9463993070925151E-02 a      1282     1    18     2     2
  9.2593455865218977E-01 a      1283     1    18     2     3
  6.0997094680274005E-02 a      1284     1    18     2     4
  8.3249065176496173E-01 a      1285     1    18     2     5
  1.5901099471054231E-01 a      1286     1    18     2     6
  2.1437693237419195E-01 a      1287     1    18     2     7
  2.1066828535398174E-01 a      1288     1    18     2     8
  3.7804223766041437E-02 a      1289     1    18     2     9
  7.0541604507005651E-01 a      1290     1    18     2    10
  5.6788109880396798E-01 a      1291     1    18     2    11
 -8.0950062542649703E-01 a      1292     1    18     2    12
  2.4859345724635454E-01 a      1293     1    18     2    13
 -7.5043573938067110E-01 a      1294     1    18     2    14
  2.0108481010173124E-01 a      1295     1    18     2    15
  4.1064943244849278E-01 a      1296     1    18     2    16
  1.1966289909900416E+00 a      1297     1    18     2    17
 -1.5314842625774600E-01 a      1298     1    18     2    18
 -9.2123057417384038E-02 a      1299     1    18     2    19
 -4.3847222711979916E-01 a      1300     1    18     2    20
  5.7299737768822290E-01 a      1301     1    19     2     1
 -4.0412806719016525E-01 a      1302     1    19     2     2
 -4.6805848065278161E-01 a      1303     1    19     2     3
 -1.0472824748164025E+00 a      1304     1    19     2     4
  1.9740001012086955E-01 a      1305     1    19     2     5
  3.0848608080078277E-01 a      1306     1    19     2     6
  1.6415788248219668E-01 a      1307     1    19     2     7
 -7.0474238486602470E-01 a      1308     1    19     2     8
  1.5847841656622338E-01 a      1309     1    19     2     9
 -2.3970045238111824E-02 a      1310     1    19     2    10
 -3.0567772562855228E-01 a      1311     1    19     2    11
 -7.8419291935566438E-01 a      1312     1    19     2    12
 -2.4359968780386565E-01 a      1313     1    19     2    13
  5.1435513313426440E-01 a      1314     1    19     2    14
 -7.2004491392521172E-02 a      1315     1    19     2    15
  2.2541974543565418E-01 a      1316     1    19     2    16
  1.2663074370913996E-01 a      1317     1    19     2    17
  5.5922349652548287E-01 a      1318     1    19     2    18
  3.5470157040853073E-01 a      1319     1    19     2    19
  4.2524911452810188E-01 a      1320     1    19     2    20
  6.0892312578421748E-01 a      1321     1    20     2     1
  6.1527744467933465E-01 a      1322     1    20     2     2
 -5.1081385104230081E-01 a      1323     1    20     2     3
  9.5169378132108773E-01 a      1324     1    20     2     4
 -1.0756060664211595E+00 a      1325     1    20     2     5
 -2.6200228018201349E-01 a      1326     1    20     2     6
  5.4565728118087231E-01 a      1327     1    20     2     7
 -2.1169071903767839E-01 a      1328     1    20     2     8
  1.3437177044652965E-01 a      1329     1    20     2     9
 -1.3773659651156880E-01 a      1330     1    20     2    10
 -4.7412557854395410E-02 a      1331     1    20     2    11
 -1.4541933129524701E-01 a      1332     1    20     2    12
 -1.2229561548576706E+00 a      1333     1    20     2    13
  8.1328775069184411E-01 a      1334     1    20     2    14
 -5.9729324491885638E-01 a      1335     1    20     2    15
 -3.2196195073485456E-01 a      1336     1    20     2    16
 -4.8998497614508418E-01 a      1337     1    20     2    17
  8.7337700194190038E-01 a      1338     1    20     2    18
 -4.9853111778490361E-01 a      1339     1    20     2    19
 -2.7982530686206697E-01 a      1340     1    20     2    20
 -3.2579677309183630E-01 b      1341     2     1
 -4.9879739457611100E-01 b      1342     2     2
 -1.7432369481861421E+00 b      1343     2     3
  1.6856517169510141E+00 b      1344     2     4
 -5.5109826635837855E-01 b      1345     2     5
  1.3562446154623005E+00 b      1346     2     6
  5.5740803673847472E-01 b      1347     2     7
  8.7390921067406513E-01 b      1348     2     8
  1.6658588243047745E+00 b      1349     2     9
 -8.7104558759374207E-01 b      1350     2    10
  8.0173926558142916E-01 b      1351     2    11
  7.9066577191104326E-02 b      1352     2    12
  1.4985260309359838E+00 b      1353     2    13
 -1.0343898026002738E+00 b      1354     2    14
  2.2216785630475380E-01 b      1355     2    15
 -6.3051764736341952E-03 b      1356     2    16
  9.4388291888912301E-01 b      1357     2    17
  1.2028886680140807E+00 b      1358     2    18
  1.8535026207655187E+00 b      1359     2    19
 -9.3937659845035926E-01 b      1360     2    20
 -7.3825009283704490E-01 a      1361     2     1     3     1
 -4.7481190304505133E-01 a      1362     2     2     3     1
 -6.0558389645369060E-01 a      1363     2     3     3     1
 -2.0057236302641418E-01 a      1364     2     4     3     1
  1.6524885088109449E+00 a      1365     2     5     3     1
  1.4380392031092890E+00 a      1366     2     6     3     1
 -1.1539237412845678E-01 a      1367     2     7     3     1
  1.1081673829844179E+00 a      1368     2     8     3     1
  4.6720380347029827E-01 a      1369     2     9     3     1
 -1.6812489977026521E+00 a      1370     2    10     3     1
  2.7720877981936493E-01 a      1371     2    11     3     1
 -1.8527844865116341E+00 a      1372     2    12     3     1
  1.1434160029897584E+00 a      1373     2    13     3     1
 -4.1352931701174761E-01 a      1374     2    14     3     1
  1.1592831177303303E-01 a      1375     2    15     3     1
  9.1382861067759766E-02 a      1376     2    16     3     1
  1.6174920502385319E+00 a      1377     2    17     3     1
  1.5808226803349812E+00 a      1378     2    18     3     1
  1.5798786228775117E+00 a      1379     2    19     3     1
 -8.5189731942844882E-01 a      1380     2    20     3     1
  1.6818703046692540E+00 b      1381     3     1
